svm_type c_svc
kernel_type rbf
gamma 0.5
nr_class 2
total_sv 66
rho 5.76047
label 1 -1
nr_sv 39 27
SV
129.6869963648082 1:-0.75179 2:-0.841322 3:-0.811159 4:-0.785356 5:-0.783453 6:-0.83975 7:-0.837126 8:-0.865337 9:-0.924433 10:-0.820604 11:-0.844189 12:-0.776 13:-0.83908 14:-0.744 15:-0.794271 16:-0.829108 17:-0.953299 18:-0.85533 19:-0.810464 20:-0.716511 
101.693901825476 1:-0.758154 2:-0.847934 3:-0.81402 4:-0.819458 5:-0.79571 6:-0.82102 7:-0.801198 8:-0.817955 9:-0.891688 10:-0.847247 11:-0.862069 12:-0.755429 13:-0.818966 14:-0.7728 15:-0.802083 16:-0.844131 17:-0.928934 18:-0.865482 19:-0.804541 20:-0.76947 
1243.240438089094 1:-0.923628 2:-0.983471 3:-0.965665 4:-0.859579 5:-0.920327 6:-0.956296 7:-0.949701 8:-0.967581 9:-0.957179 10:-0.905861 11:-0.831418 12:-0.922286 13:-0.810345 14:-0.9136 15:-0.9375 16:-0.94554 17:-0.928934 18:-0.796954 19:-0.944719 20:-0.878505 
5.986511065308179 1:0.26969 2:1 3:0.922747 4:0.821464 5:0.532176 6:0.440166 7:0.0898204 8:0.209476 9:1 10:0.463588 11:0.530013 12:0.636571 13:0.428161 14:0.9872 15:0.114583 16:0.0892019 17:1 18:1 19:0.613031 20:1 
322.9407288532618 1:-0.69292 2:-0.970248 3:-0.951359 4:-0.751254 5:-0.775281 6:-0.667014 7:-0.758084 8:-0.870324 9:-0.979849 10:-0.777975 11:-0.724138 12:-0.808 13:-0.781609 14:-0.8336 15:-0.846354 16:-0.750235 17:-0.971574 18:-0.895939 19:-0.869694 20:-0.788162 
0.05966505684630969 1:-0.778839 2:0.0347107 3:0.0987124 4:-0.707121 5:-0.601634 6:-0.758585 7:-0.623952 8:-0.0897756 9:-0.186398 10:-0.513321 11:-0.591315 12:-0.437714 13:-0.5 14:-0.3856 15:-0.122396 16:-0.710798 17:-0.504569 18:-0.494924 19:-0.180652 20:-0.17757 
1242.93342114816 1:-0.899761 2:-0.927273 3:-0.925608 4:-0.915747 5:-0.93667 6:-0.92924 7:-0.959281 8:-0.955112 9:-0.952141 10:-0.923623 11:-0.956577 12:-0.924571 13:-0.942529 14:-0.9168 15:-0.947917 16:-0.964319 17:-0.853807 18:-0.903553 19:-0.932873 20:-0.943925 
4.621669983645803 1:0.603819 2:-0.352066 3:-0.287554 4:0.217653 5:0.0745659 6:0.317378 7:0.468263 8:-0.032419 9:-0.667506 10:0.326821 11:0.425287 12:-0.04 13:0.324713 14:-0.0336 15:0.111979 16:0.453521 17:-0.849746 18:-0.662437 19:0.352419 20:-0.0155763 
1144.246403527578 1:-0.972951 2:-0.887603 3:-0.856938 4:-0.97994 5:-0.973442 6:-0.962539 7:-0.985629 8:-0.925187 9:-0.906801 10:-0.964476 11:-1 12:-0.972571 13:-0.954023 14:-0.9488 15:-0.947917 16:-0.988732 17:-0.932995 18:-0.918782 19:-0.932873 20:-0.978193 
2048 1:-0.960223 2:-0.940496 3:-0.959943 4:-0.927783 5:-0.934627 6:-0.94589 7:-0.959281 8:-0.927681 9:-0.884131 10:-0.960924 11:-0.938697 12:-0.913143 13:-0.951149 14:-0.8848 15:-0.960938 16:-0.956808 17:-0.835533 18:-0.832487 19:-0.917078 20:-0.856698 
4.713316203757807 1:0.602228 2:-0.276033 3:0.547926 4:0.410231 5:0.319714 6:0.448491 7:0.214371 8:0.144638 9:0.642317 10:0.591474 11:0.537676 12:0.366857 13:0.491379 14:0.2352 15:0.273438 16:0.43662 17:0.774619 18:0.281726 19:0.70385 20:0.482866 
1.48562656042508 1:-0.217184 2:-0.41157 3:-0.536481 4:0.137412 5:0.00306435 6:-0.200832 7:-0.154491 8:-0.461347 9:-0.753149 10:-0.0994671 11:0.162197 12:-0.124571 13:-0.091954 14:-0.2544 15:-0.330729 16:-0.109859 17:-0.711675 18:-0.482234 19:-0.231984 20:-0.0436137 
292.8425159001733 1:-1 2:-0.900826 3:-0.845494 4:-0.961886 5:-0.957099 6:-0.991675 7:-0.973653 8:-0.950125 9:-0.914358 10:-0.971581 11:-0.948914 12:-0.915429 13:-0.942529 14:-0.9456 15:-0.955729 16:-0.983099 17:-0.892386 18:-0.931472 19:-0.972359 20:-0.934579 
18.34162566887692 1:-0.933174 2:-0.480992 3:-0.424893 4:-0.909729 5:-0.92237 6:-0.864724 7:-0.959281 8:-0.835411 9:-0.428212 10:-0.85968 11:-0.908046 12:-0.826286 13:-0.902299 14:-0.8144 15:-0.802083 16:-0.984977 17:-0.463959 18:-0.63198 19:-0.802567 20:-0.819315 
5.227764536107275 1:0.616547 2:-0.0909091 3:0.284692 4:0.179539 5:1 6:0.608741 7:0.188024 8:0.25187 9:0.355164 10:0.156306 11:-0.0217114 12:0.670857 13:-0.152299 14:0.168 15:0.223958 16:0.575587 17:-0.0598985 18:0.0532995 19:-0.247779 20:-0.0218069 
2048 1:-0.976134 2:-0.950413 3:-0.871245 4:-0.95988 5:-0.981614 6:-0.972945 7:-0.971257 8:-0.972569 9:-0.97733 10:-0.944938 11:-0.961686 12:-0.940571 13:-0.945402 14:-0.952 15:-0.955729 16:-0.983099 17:-0.945178 18:-0.901015 19:-0.95459 20:-0.925234 
505.9999272851731 1:-0.939539 2:-0.778512 3:-0.559371 4:-0.933801 5:-0.934627 6:-0.935484 7:-0.94012 8:-0.880299 9:-0.823678 10:-0.912966 11:-0.936143 12:-0.865143 13:-0.902299 14:-0.9008 15:-0.833333 16:-0.971831 17:-0.884264 18:-0.862944 19:-0.859822 20:-0.919003 
2.449139785175038 1:-0.18218 2:-0.775207 3:-0.550787 4:0.131394 5:-0.0337079 6:-0.0301769 7:-0.219162 8:-0.206983 9:-0.65995 10:0.110124 11:-0.182631 12:0.252571 13:0.0862069 14:0.1968 15:-0.114583 16:-0.506103 17:-0.68731 18:-0.0888325 19:0.119447 
4.076698456410527 1:-0.686555 2:-0.464463 3:-0.416309 4:-0.31996 5:-0.51379 6:-0.567118 7:-0.726946 8:-0.581047 9:-0.672544 10:-0.563055 11:-0.547893 12:-0.504 13:-0.522989 14:-0.5264 15:-0.5625 16:-0.776526 17:-0.610152 18:-0.195431 19:-0.603159 20:-0.557632 
262.4845969373868 1:-0.894988 2:-0.900826 3:-0.894134 4:-0.879639 5:-0.824311 6:-0.879292 7:-0.88982 8:-0.895262 9:-0.823678 10:-0.884547 11:-0.908046 12:-0.803429 13:-0.916667 14:-0.8496 15:-0.911458 16:-0.842254 17:-0.945178 18:-0.969543 19:-0.930898 20:-0.601246 
9.930636823480988 1:-0.398568 2:-0.527273 3:-0.25608 4:-0.273821 5:-0.583248 6:-0.463059 7:-0.537725 8:-0.610973 9:-0.778338 10:-0.53286 11:-0.438059 12:-0.574857 13:-0.270115 14:-0.4368 15:-0.648438 16:-0.631925 17:-0.342132 18:-0.187817 19:-0.330701 20:-0.517134 
89.34458244869442 1:-0.947494 2:-0.553719 3:-0.173104 4:-0.903711 5:-0.914198 6:-0.927159 7:-0.980838 8:-0.880299 9:-0.617128 10:-0.9254 11:-0.943806 12:-0.913143 13:-0.971264 14:-0.8944 15:-0.903646 16:-0.949296 17:-0.721827 18:-0.888325 19:-0.897335 20:-0.809969 
20.55709957980654 1:-0.934765 2:-0.259504 3:-0.490701 4:-0.839519 5:-0.893769 6:-0.918835 7:-0.911377 8:-0.857855 9:-0.602015 10:-0.888099 11:-0.862069 12:-0.885714 13:-0.833333 14:-0.8208 15:-0.846354 16:-0.956808 17:-0.790863 18:-0.763959 19:-0.885489 20:-0.735202 
220.5794723575118 1:-0.739061 2:-0.636364 3:-0.470672 4:-0.855567 5:-0.865169 6:-0.82102 7:-0.875449 8:-0.805486 9:-0.899244 10:-0.790409 11:-0.846743 12:-0.819429 13:-0.844828 14:-0.8272 15:-0.815104 16:-0.885446 17:-0.949239 18:-0.865482 19:-0.733465 20:-0.738318 
1046.902804179389 1:-0.902944 2:-0.973554 3:-0.957082 4:-0.79338 5:-0.824311 6:-0.937565 7:-0.861078 8:-0.875312 9:-0.972292 10:-0.849023 11:-0.805875 12:-0.826286 13:-0.795977 14:-0.8272 15:-0.877604 16:-0.849765 17:-0.841624 18:-0.819797 19:-0.840079 20:-0.794393 
268.8154921051553 1:-0.852029 2:-0.699174 3:-0.708155 4:-0.847543 5:-0.856997 6:-0.841831 7:-0.887425 8:-0.865337 9:-0.816121 10:-0.891652 11:-0.833972 12:-0.844571 13:-0.787356 14:-0.7792 15:-0.848958 16:-0.847887 17:-0.587817 18:-0.685279 19:-0.812438 20:-0.738318 
2.35500093164566 1:-0.718377 2:-0.0942149 3:0.0329041 4:-0.476429 5:-0.536261 6:-0.652445 7:-0.676647 8:-0.331671 9:-0.405542 10:-0.474245 11:-0.491699 12:-0.318857 13:-0.359195 14:0.0816 15:-0.424479 16:-0.714554 17:0.0274112 18:0.34264 19:-0.1846 20:-0.130841 
60.73006006083791 1:-0.944312 2:-0.950413 3:-0.945637 4:-0.97994 5:-0.969356 6:-0.975026 7:-0.94012 8:-0.94015 9:-0.994962 10:-0.971581 11:-0.938697 12:-0.956571 13:-0.939655 14:-0.9488 15:-0.966146 16:-0.960563 17:-0.985787 18:-0.961929 19:-0.956565 20:-0.950156 
1489.959748211573 1:-0.947494 2:-0.950413 3:-0.971388 4:-0.925777 5:-0.930541 6:-0.952133 7:-0.959281 8:-0.9601 9:-0.949622 10:-0.94849 11:-0.9106 12:-0.913143 13:-0.928161 14:-0.936 15:-0.973958 16:-0.939906 17:-0.959391 18:-0.944162 19:-0.962488 20:-0.819315 
179.1310121232075 1:-0.801114 2:-0.91405 3:-0.879828 4:-0.809428 5:-0.838611 6:-0.800208 7:-0.815569 8:-0.900249 9:-0.937028 10:-0.83659 11:-0.787995 12:-0.837714 13:-0.767241 14:-0.808 15:-0.848958 16:-0.77277 17:-0.861929 18:-0.812183 19:-0.828233 20:-0.803738 
69.10075106796717 1:-0.939539 2:-0.527273 3:-0.359084 4:-0.769308 5:-0.846782 6:-0.895942 7:-0.901796 8:-0.845387 9:-0.687657 10:-0.85968 11:-0.818646 12:-0.798857 13:-0.801724 14:-0.7344 15:-0.828125 16:-0.911737 17:-0.459898 18:-0.535533 19:-0.853899 20:-0.551402 
755.3004429302551 1:-0.960223 2:-0.957025 3:-0.957082 4:-0.98997 5:-0.979571 6:-0.96462 7:-0.973653 8:-0.962594 9:-0.987406 10:-0.955595 11:-0.94636 12:-0.952 13:-0.979885 14:-0.9584 15:-0.942708 16:-0.917371 17:-0.961421 18:-0.961929 19:-0.952616 20:-0.912773 
1449.246705744776 1:-0.977725 2:-0.950413 3:-0.95422 4:-0.977934 5:-0.969356 6:-0.98127 7:-0.997605 8:-0.977556 9:-0.984887 10:-0.976909 11:-0.987229 12:-0.977143 13:-0.985632 14:-0.9744 15:-0.986979 16:-0.984977 17:-0.985787 18:-0.956853 19:-0.980257 20:-0.987539 
6.542861050820115 1:0.104216 2:-0.0975207 3:-0.181688 4:0.973922 5:0.636364 6:-0.263267 7:1 8:0.865337 9:-0.234257 10:1 11:1 12:1 13:1 14:1 15:0.921875 16:1 17:-0.55533 18:-0.296954 19:1 20:0.451713 
2048 1:-0.998409 2:-0.97686 3:-0.982833 4:-0.983952 5:-0.973442 6:-1 7:-0.997605 8:-0.98005 9:-0.994962 10:-0.989343 11:-0.994891 12:-0.986286 13:-0.982759 14:-0.9712 15:-0.984375 16:-0.971831 17:-0.985787 18:-0.982234 19:-0.972359 20:-0.962617 
119.5017742477966 1:-0.928401 2:-0.841322 3:-0.725322 4:-0.915747 5:-0.854954 6:-0.931322 7:-0.952096 8:-0.890274 9:-0.874055 10:-0.889876 11:-0.900383 12:-0.794286 13:-0.925287 14:-0.808 15:-0.882812 16:-0.88169 17:-0.872081 18:-0.883249 19:-0.859822 20:-0.607477 
48.70868502094206 1:-0.756563 2:-0.507438 3:-0.553648 4:-0.677031 5:-0.779367 6:-0.868887 7:-0.772455 8:-0.745636 9:-0.654912 10:-0.703375 11:-0.688378 12:-0.734857 13:-0.58908 14:-0.7056 15:-0.763021 16:-0.785915 17:-0.691371 18:-0.560914 19:-0.676209 20:-0.579439 
2.074025057212197 1:0.233095 2:-0.669421 3:-0.636624 4:0.352056 5:0.121553 6:-0.0260146 7:-0.0443114 8:-0.331671 9:-0.619647 10:0.129663 11:0.16986 12:0.213714 13:0.382184 14:0.1648 15:-0.289062 16:-0.109859 17:-0.323858 18:0.101523 19:0.0404738 20:0.105919 
747.2800171612424 1:-0.794749 2:-0.87438 3:-0.934192 4:-0.887663 5:-0.871297 6:-0.818939 7:-0.918563 8:-0.9202 9:-0.957179 10:-0.850799 11:-0.923372 12:-0.835429 13:-0.913793 14:-0.8784 15:-0.877604 16:-0.958685 17:-0.841624 18:-0.72335 19:-0.875617 20:-0.922118 
-171.2812667031808 1:-0.872713 2:-0.97686 3:-0.965665 4:-0.865597 5:-0.940756 6:-0.925078 7:-0.932934 8:-0.927681 9:-0.969773 10:-0.921847 11:-0.882503 12:-0.899429 13:-0.873563 14:-0.8784 15:-0.932292 16:-0.930516 17:-0.884264 18:-0.77665 19:-0.913129 20:-0.866044 
-1592.754386063909 1:-0.899761 2:-0.861157 3:-0.76824 4:-0.903711 5:-0.87334 6:-0.895942 7:-0.928144 8:-0.895262 9:-0.916877 10:-0.893428 11:-0.890166 12:-0.888 13:-0.87069 14:-0.9136 15:-0.867188 16:-0.943662 17:-0.95736 18:-0.918782 19:-0.86772 20:-0.778816 
-609.8368250058102 1:-0.929992 2:-1 3:-0.991416 4:-0.897693 5:-0.899898 6:-0.939646 7:-0.918563 8:-0.927681 9:-0.979849 10:-0.921847 11:-0.890166 12:-0.890286 13:-0.885057 14:-0.9392 15:-0.940104 16:-0.919249 17:-0.906599 18:-0.829949 19:-0.964462 20:-0.922118 
-330.5292893176626 1:-0.73747 2:-0.62314 3:-0.839771 4:-0.769308 5:-0.875383 6:-0.748179 7:-0.877844 8:-0.837905 9:-0.916877 10:-0.753108 11:-0.846743 12:-0.862857 13:-0.795977 14:-0.664 15:-0.802083 16:-0.924883 17:-0.715736 18:-0.654822 19:-0.743337 20:-0.813084 
-165.1240044979035 1:-0.888624 2:-0.877686 3:-0.825465 4:-0.849549 5:-0.854954 6:-0.91051 7:-0.913772 8:-0.880299 9:-0.929471 10:-0.847247 11:-0.775223 12:-0.769143 13:-0.764368 14:-0.8208 15:-0.854167 16:-0.919249 17:-0.849746 18:-0.763959 19:-0.824284 20:-0.666667 
-284.7051151593042 1:-0.960223 2:-0.930579 3:-0.762518 4:-0.935807 5:-0.938713 6:-0.966701 7:-0.956886 8:-0.952618 9:-0.947103 10:-0.953819 11:-0.956577 12:-0.913143 13:-0.968391 14:-0.9296 15:-0.96875 16:-0.975587 17:-0.916751 18:-0.918782 19:-0.974334 20:-0.838006 
-5.507310074962287 1:-0.745426 2:-0.666116 3:-0.327611 4:-0.508526 5:-0.0623085 6:-0.868887 7:-0.748503 8:-0.546135 9:-0.481108 10:-0.676732 11:-0.282248 12:-0.0262857 13:-0.387931 14:-0.52 15:-0.695312 16:-0.740845 17:-0.463959 18:-0.583756 19:-0.636723 20:0.0124611 
-2048 1:-0.992045 2:-0.927273 3:-0.885551 4:-0.993982 5:-0.9857 6:-0.968783 7:-0.99521 8:-0.982544 9:-0.949622 10:-0.984014 11:-0.979566 12:-0.956571 13:-0.982759 14:-0.9552 15:-0.950521 16:-0.986854 17:-0.953299 18:-0.916244 19:-0.942744 20:-0.981308 
-765.0697171678551 1:-0.708831 2:-0.973554 3:-0.934192 4:-0.833501 5:-0.807967 6:-0.837669 7:-0.846707 8:-0.872818 9:-0.957179 10:-0.783304 11:-0.770115 12:-0.785143 13:-0.847701 14:-0.84 15:-0.84375 16:-0.793427 17:-0.904569 18:-0.847716 19:-0.840079 20:-0.753894 
-386.505254614776 1:-0.875895 2:-0.798347 3:-0.822604 4:-0.879639 5:-0.88764 6:-0.902185 7:-0.906587 8:-0.832918 9:-0.896725 10:-0.861456 11:-0.895275 12:-0.876571 13:-0.859195 14:-0.84 15:-0.815104 16:-0.911737 17:-0.880203 18:-0.809645 19:-0.810464 20:-0.70405 
-717.0323511110483 1:-0.945903 2:-0.957025 3:-0.942775 4:-0.849549 5:-0.916241 6:-0.941727 7:-0.932934 8:-0.932668 9:-0.884131 10:-0.905861 11:-0.897829 12:-0.860571 13:-0.867816 14:-0.8208 15:-0.911458 16:-0.956808 17:-0.833503 18:-0.741117 19:-0.847976 20:-0.866044 
-789.7021580546168 1:-0.958632 2:-0.927273 3:-0.942775 4:-0.967904 5:-0.967314 6:-0.920916 7:-0.971257 8:-0.9601 9:-0.838791 10:-0.918295 11:-0.948914 12:-0.961143 13:-0.939655 14:-0.9488 15:-0.955729 16:-0.977465 17:-0.908629 18:-0.906091 19:-0.952616 20:-0.859813 
-386.9808506606682 1:-0.850438 2:-0.970248 3:-0.951359 4:-0.965898 5:-0.777324 6:-0.968783 7:-0.925749 8:-0.922693 9:-0.989924 10:-0.912966 11:-0.987229 12:-0.570286 13:-0.977011 14:-0.6704 15:-0.895833 16:-0.7277 17:-0.855838 18:-0.875635 19:-0.976308 20:-0.965732 
-419.9258143914324 1:-0.899761 2:-0.993388 3:-0.979971 4:-0.857573 5:-0.910112 6:-0.935484 7:-0.925749 8:-0.945137 9:-0.952141 10:-0.937833 11:-0.864623 12:-0.894857 13:-0.882184 14:-0.9456 15:-0.953125 16:-0.877934 17:-0.91269 18:-0.928934 19:-0.930898 20:-0.859813 
-680.2716921277682 1:-0.995227 2:-0.93719 3:-0.885551 4:-0.965898 5:-0.975485 6:-0.979188 7:-0.978443 8:-0.975062 9:-0.934509 10:-0.980462 11:-0.977011 12:-0.977143 13:-0.971264 14:-0.9552 15:-0.981771 16:-0.992488 17:-0.928934 18:-0.928934 19:-0.990128 20:-0.94081 
-1803.558941555351 1:-0.982498 2:-0.973554 3:-0.982833 4:-0.961886 5:-0.946885 6:-0.970864 7:-0.964072 8:-0.935162 9:-0.952141 10:-0.978686 11:-0.96424 12:-0.952 13:-0.951149 14:-0.9328 15:-0.973958 16:-0.960563 17:-0.914721 18:-0.959391 19:-0.966436 20:-0.894081 
-6.274607723918995 1:-0.734288 2:-0.497521 3:-0.293276 4:-0.462387 5:-0.544433 6:-0.710718 7:-0.801198 8:-0.815461 9:-0.201511 10:-0.772647 11:-0.62963 12:-0.657143 13:-0.58046 14:-0.6576 15:-0.773438 16:-0.800939 17:-0.506599 18:-0.408629 19:-0.707799 20:0.0809969 
-1417.811454472839 1:-0.972951 2:-0.963636 3:-0.982833 4:-0.929789 5:-0.959142 6:-0.952133 7:-0.985629 8:-0.970075 9:-0.989924 10:-0.957371 11:-0.936143 12:-0.952 13:-0.931034 14:-0.9488 15:-0.955729 16:-0.973709 17:-0.902538 18:-0.885787 19:-0.952616 20:-0.943925 
-2048 1:-0.982498 2:-0.973554 3:-0.974249 4:-0.973922 5:-0.969356 6:-0.979188 7:-0.976048 8:-0.977556 9:-0.972292 10:-0.968028 11:-0.966794 12:-0.958857 13:-1 14:-0.9712 15:-0.984375 16:-0.973709 17:-0.973604 18:-0.961929 19:-0.976308 20:-0.968847 
-198.9536547074189 1:-0.821798 2:-0.619835 3:-0.702432 4:-0.857573 5:-0.867211 6:-0.737773 7:-0.794012 8:-0.892768 9:-0.851385 10:-0.856128 11:-0.734355 12:-0.803429 13:-0.744253 14:-0.8528 15:-0.848958 16:-0.821596 17:-0.6 18:-0.583756 19:-0.834156 20:-0.806854 
-25.64821808459908 1:-0.549722 2:-0.963636 3:-0.925608 4:-0.504514 5:-0.638407 6:-0.629553 7:-0.628743 8:-0.755611 9:-0.90932 10:-0.65897 11:-0.573436 12:-0.696 13:-0.571839 14:-0.7088 15:-0.768229 16:-0.639437 17:-0.742132 18:-0.690355 19:-0.682132 20:-0.672897 
-252.2913831740171 1:-0.968178 2:-0.900826 3:-0.862661 4:-0.911735 5:-0.955056 6:-0.92924 7:-0.980838 8:-0.965087 9:-0.949622 10:-0.9254 11:-0.948914 12:-0.942857 13:-0.91954 14:-0.8976 15:-0.976562 16:-0.988732 17:-0.711675 18:-0.807107 19:-0.930898 20:-0.816199 
-1977.266057548744 1:-0.94113 2:-0.963636 3:-0.939914 4:-0.907723 5:-0.969356 6:-0.970864 7:-0.959281 8:-0.957606 9:-0.974811 10:-0.966252 11:-0.974457 12:-0.958857 13:-0.925287 14:-0.9616 15:-0.984375 16:-0.983099 17:-0.945178 18:-0.898477 19:-0.952616 20:-0.953271 
-203.6524430144595 1:-0.88385 2:-0.950413 3:-0.917024 4:-0.911735 5:-0.938713 6:-0.927159 7:-0.956886 8:-0.880299 9:-0.967254 10:-0.879218 11:-0.895275 12:-0.926857 13:-0.91954 14:-0.8016 15:-0.890625 16:-0.95493 17:-0.906599 18:-0.799492 19:-0.800592 20:-0.856698 
-34.01545358182784 1:-0.848846 2:-0.553719 3:-0.547926 4:-0.759278 5:-0.903984 6:-0.881374 7:-0.88982 8:-0.760599 9:-0.745592 10:-0.831261 11:-0.808429 12:-0.904 13:-0.758621 14:-0.7344 15:-0.763021 16:-0.979343 17:-0.250761 18:-0.700508 19:-0.765054 20:-0.809969 
-360.465398017061 1:-0.910899 2:-0.986777 3:-0.965665 4:-0.713139 5:-0.787538 6:-0.941727 7:-0.839521 8:-0.957606 9:-0.937028 10:-0.900533 11:-0.724138 12:-0.876571 13:-0.741379 14:-0.8464 15:-0.929688 16:-0.738967 17:-0.833503 18:-0.774112 19:-0.928924 20:-0.616822 
-341.9284715188462 1:-0.92681 2:-0.487603 3:-0.284692 4:-0.943831 5:-0.942799 6:-0.914672 7:-0.985629 8:-0.892768 9:-0.662469 10:-0.872114 11:-0.948914 12:-0.936 13:-0.916667 14:-0.8784 15:-0.882812 16:-0.992488 17:-0.762437 18:-0.791878 19:-0.832182 20:-0.869159 
