svm_type c_svc
kernel_type rbf
gamma 8
nr_class 2
total_sv 197
rho 0.608394
label 1 -1
nr_sv 72 125
SV
0.7639337850982455 1:-0.898389 2:-0.95082 3:-0.970894 4:-0.808917 5:-0.988821 6:-0.988506 7:-0.984791 8:-0.962678 9:-0.968715 10:-0.997765 11:-0.983911 12:-0.93662 13:-0.964802 14:-0.971556 15:-0.990126 16:-0.974684 17:-0.988462 18:-0.991176 19:-0.913208 20:-0.985991 
2.118331769690766 1:-0.910781 2:-0.872951 3:-0.954262 4:-0.707006 5:-0.955282 6:-0.936782 7:-0.980989 8:-0.936334 9:-0.962011 10:-0.979888 11:-0.940594 12:-0.869718 13:-0.890635 14:-0.982222 15:-0.952424 16:-0.890295 17:-0.95 18:-0.960294 19:-0.901887 20:-0.96444 
8 1:-0.975217 2:-0.909836 3:-0.935551 4:-0.840764 5:-0.988821 6:-0.981801 7:-0.969582 8:-0.967069 9:-0.968715 10:-0.964246 11:-0.982673 12:-0.971831 13:-0.984915 14:-0.971556 15:-0.979354 16:-0.974684 17:-0.983333 18:-0.979412 19:-0.837736 20:-0.971983 
8 1:-0.987608 2:-0.938525 3:-0.972973 4:-0.878981 5:-0.988821 6:-0.982759 7:-0.952471 8:-0.964874 9:-0.926257 10:-0.973184 11:-0.986386 12:-0.933099 13:-0.981144 14:-0.946667 15:-0.986535 16:-0.963432 17:-0.982051 18:-0.988235 19:-0.966038 20:-0.982759 
2.206406913445963 1:-0.980173 2:-0.889344 3:-0.950104 4:-0.866242 5:-0.985467 6:-0.978927 7:-0.969582 8:-0.975851 9:-0.982123 10:-0.984358 11:-0.986386 12:-0.957746 13:-0.984915 14:-0.952 15:-0.986535 16:-0.954993 17:-0.992308 18:-0.991176 19:-0.932075 20:-0.987069 
2.748791606219359 1:-0.952912 2:-0.918033 3:-0.927235 4:-0.630573 5:-0.890442 6:-0.888889 7:-0.925856 8:-0.63337 9:-0.886034 10:-0.673743 11:-0.940594 12:-0.852113 13:-0.919547 14:-0.911111 15:-0.86535 16:-0.842475 17:-0.808974 18:-0.730882 19:-0.781132 20:-0.844828 
1.68171675712687 1:-0.97026 2:-0.913934 3:-0.943867 4:-0.789809 5:-0.987703 6:-0.98659 7:-0.965779 8:-0.984632 9:-0.901676 10:-0.894972 11:-0.987624 12:-0.915493 13:-0.959774 14:-0.962667 15:-0.989228 16:-0.940928 17:-0.989744 18:-0.988235 19:-0.932075 20:-0.977371 
0.5492858173858001 1:-0.960347 2:-0.836066 3:-0.952183 4:-0.936306 5:-0.988821 6:-0.977011 7:-0.975285 8:-0.940724 9:-0.955307 10:-0.97095 11:-0.987624 12:-0.915493 13:-0.961031 14:-0.964444 15:-0.978456 16:-0.95218 17:-0.985897 18:-0.991176 19:-0.901887 20:-0.977371 
5.658228721713858 1:-0.950434 2:-0.819672 3:-0.941788 4:-0.808917 5:-0.985467 6:-0.954981 7:-0.965779 8:-0.912184 9:-0.935196 10:-0.930726 11:-0.972772 12:-0.887324 13:-0.920805 14:-0.955556 15:-0.954219 16:-0.895921 17:-0.983333 18:-0.970588 19:-0.74717 20:-0.925647 
2.26710283328066 1:-0.975217 2:-0.922131 3:-0.95842 4:-0.713376 5:-0.980995 6:-0.972222 7:-0.990494 8:-0.962678 9:-0.962011 10:-0.894972 11:-0.975248 12:-0.90493 13:-0.971087 14:-0.985778 15:-0.966786 16:-0.895921 17:-0.975641 18:-0.945588 19:-0.867925 20:-0.904095 
8 1:-1 2:-0.963115 3:-0.975052 4:-0.917197 5:-0.986585 6:-0.982759 7:-0.992395 8:-0.94292 9:-0.97095 10:-0.959777 11:-0.986386 12:-0.964789 13:-0.991201 14:-0.971556 15:-0.97307 16:-0.963432 17:-0.984615 18:-0.970588 19:-0.943396 20:-0.978448 
8 1:-0.995043 2:-0.909836 3:-0.939709 4:-0.910828 5:-0.983231 6:-0.979885 7:-0.977186 8:-0.958288 9:-0.973184 10:-0.962011 11:-0.990099 12:-0.93662 13:-0.982401 14:-0.984 15:-0.978456 16:-0.946554 17:-0.983333 18:-0.983824 19:-0.950943 20:-0.974138 
8 1:-0.950434 2:-0.963115 3:-0.981289 4:-0.929936 5:-0.984349 6:-0.972222 7:-0.946768 8:-0.975851 9:-0.894972 10:-0.915084 11:-0.956683 12:-0.929577 13:-0.950974 14:-0.948444 15:-0.977558 16:-0.949367 17:-0.982051 18:-0.972059 19:-0.984906 20:-0.984914 
5.869055851064856 1:-0.938042 2:-0.959016 3:-0.993763 4:-0.961783 5:-0.986585 6:-0.977011 7:-0.872624 8:-0.993414 9:-0.953073 10:-0.993296 11:-0.986386 12:-0.869718 13:-0.950974 14:-0.893333 15:-0.98474 16:-0.901547 17:-0.987179 18:-0.998529 19:-0.890566 20:-0.99569 
8 1:-0.977695 2:-0.954918 3:-0.945946 4:-0.929936 5:-0.983231 6:-0.985632 7:-0.975285 8:-0.964874 9:-0.975419 10:-0.959777 11:-0.991337 12:-0.943662 13:-0.979887 14:-0.980444 15:-0.982047 16:-0.977496 17:-0.988462 18:-0.982353 19:-0.943396 20:-0.983836 
8 1:-0.965304 2:-0.897541 3:-0.964657 4:-0.834395 5:-0.992174 6:-0.985632 7:-0.963878 8:-0.951701 9:-0.957542 10:-0.953073 11:-0.988861 12:-0.911972 13:-0.979887 14:-0.976889 15:-0.982047 16:-0.954993 17:-0.989744 18:-0.985294 19:-0.788679 20:-0.97306 
8 1:-0.97026 2:-0.881148 3:-0.962578 4:-0.942675 5:-0.986585 6:-0.967433 7:-0.979087 8:-0.940724 9:-0.973184 10:-0.97095 11:-0.985149 12:-0.922535 13:-0.963545 14:-0.975111 15:-0.982047 16:-0.943741 17:-0.967949 18:-0.961765 19:-0.841509 20:-0.984914 
7.786538028730988 1:-0.997522 2:-0.840164 3:-0.950104 4:-0.815287 5:-0.988821 6:-0.980843 7:-0.992395 8:-0.905598 9:-0.988827 10:-0.959777 11:-0.982673 12:-0.897887 13:-0.96983 14:-0.964444 15:-0.976661 16:-0.909986 17:-0.980769 18:-0.982353 19:-0.916981 20:-0.959052 
8 1:-0.980173 2:-0.934426 3:-0.889813 4:-0.898089 5:-0.959754 6:-0.955939 7:-0.975285 8:-0.899012 9:-0.930726 10:-0.926257 11:-0.956683 12:-0.950704 13:-0.959774 14:-0.975111 15:-0.950628 16:-0.932489 17:-0.944872 18:-0.936765 19:-0.883019 20:-0.940733 
8 1:-0.878563 2:-0.82377 3:-0.821206 4:-0.382166 5:-0.958636 6:-0.934866 7:-0.910646 8:-0.863886 9:-0.924022 10:-0.899441 11:-0.949257 12:-0.855634 13:-0.925833 14:-0.861333 15:-0.925494 16:-0.907173 17:-0.920513 18:-0.923529 19:-0.554717 20:-0.858836 
1.774303853392289 1:-0.962825 2:-0.889344 3:-0.929314 4:-0.751592 5:-0.957518 6:-0.943487 7:-0.944867 8:-0.874863 9:-0.792179 10:-0.72514 11:-0.975248 12:-0.922535 13:-0.956003 14:-0.959111 15:-0.937163 16:-0.873418 17:-0.938462 18:-0.944118 19:-0.818868 20:-0.882543 
8 1:-0.997522 2:-0.991803 3:-0.97921 4:-0.904459 5:-0.996646 6:-0.979885 7:-0.967681 8:-0.982437 9:-0.957542 10:-0.973184 11:-0.99505 12:-0.978873 13:-0.996229 14:-0.987556 15:-0.981149 16:-0.980309 17:-0.996154 18:-0.995588 19:-0.928302 20:-0.990302 
5.485861334063633 1:-0.945477 2:-0.77459 3:-0.85447 4:-0.414013 5:-0.947457 6:-0.907088 7:-0.847909 8:-0.826564 9:-0.778771 10:-0.856983 11:-0.965347 12:-0.81338 13:-0.932118 14:-0.84 15:-0.916517 16:-0.853727 17:-0.938462 18:-0.926471 19:-0.739623 20:-0.892241 
2.760682959981071 1:-0.910781 2:-0.92623 3:-0.81289 4:-0.681529 5:-0.960872 6:-0.94636 7:-0.84981 8:-0.934138 9:-0.883799 10:-0.917318 11:-0.981436 12:-0.929577 13:-0.968573 14:-0.800889 15:-0.955117 16:-0.929677 17:-0.973077 18:-0.982353 19:-0.324528 20:-0.924569 
8 1:-0.97026 2:-0.959016 3:-0.97921 4:-0.910828 5:-0.993292 6:-0.98659 7:-0.941065 8:-0.982437 9:-0.946369 10:-0.944134 11:-0.991337 12:-0.950704 13:-0.97863 14:-0.960889 15:-0.990126 16:-0.940928 17:-0.996154 18:-0.994118 19:-0.969811 20:-0.989224 
2.417490305025695 1:-0.95539 2:-0.95082 3:-0.960499 4:-0.636943 5:-0.948575 6:-0.976054 7:-0.931559 8:-0.91438 9:-0.991061 10:-0.995531 11:-0.964109 12:-0.954225 13:-0.942175 14:-0.930667 15:-0.974865 16:-0.969058 17:-0.952564 18:-0.992647 19:-0.864151 20:-0.985991 
8 1:-0.950434 2:-0.901639 3:-0.975052 4:-0.942675 5:-0.972051 6:-0.963602 7:-0.937262 8:-0.964874 9:-0.935196 10:-0.96648 11:-0.97401 12:-0.929577 13:-0.956003 14:-0.943111 15:-0.968582 16:-0.940928 17:-0.983333 18:-0.983824 19:-0.94717 20:-0.985991 
8 1:-0.935564 2:-0.889344 3:-0.858628 4:-0.681529 5:-0.972051 6:-0.95977 7:-0.93346 8:-0.91438 9:-0.910615 10:-0.758659 11:-0.95297 12:-0.897887 13:-0.963545 14:-0.955556 15:-0.947935 16:-0.915612 17:-0.951282 18:-0.935294 19:-0.830189 20:-0.918103 
8 1:-0.992565 2:-0.959016 3:-0.970894 4:-0.942675 5:-0.989939 6:-0.980843 7:-0.992395 8:-0.969265 9:-0.993296 10:-0.995531 11:-0.996287 12:-0.957746 13:-0.989943 14:-0.987556 15:-0.986535 16:-0.966245 17:-0.984615 18:-0.985294 19:-0.981132 20:-0.992457 
8 1:-0.995043 2:-0.979508 3:-0.952183 4:-0.89172 5:-0.996646 6:-0.989464 7:-0.992395 8:-0.973655 9:-0.975419 10:-0.968715 11:-0.996287 12:-0.978873 13:-0.994972 14:-0.966222 15:-0.983842 16:-0.985935 17:-0.99359 18:-0.988235 19:-0.833962 20:-0.962284 
5.456472379676489 1:-1 2:-0.967213 3:-0.929314 4:-0.917197 5:-0.996646 6:-0.992337 7:-0.994297 8:-0.978046 9:-0.977654 10:-0.910615 11:-1 12:-0.978873 13:-0.989943 14:-0.994667 15:-0.98474 16:-0.969058 17:-0.976923 18:-0.952941 19:-0.796226 20:-0.955819 
1.612214250041027 1:-0.548947 2:-0.561475 3:-0.746362 4:-0.203822 5:-0.663499 6:-0.641762 7:-0.644487 8:-0.780461 9:-0.13743 10:-0.521788 11:-0.596535 12:-0.380282 13:-0.263356 14:-0.751111 15:-0.685817 16:-0.443038 17:-0.692308 18:-0.576471 19:-0.501887 20:-0.443966 
3.394210984840142 1:-0.650558 2:-0.918033 3:-0.89605 4:-0.719745 5:-0.865847 6:-0.891762 7:-0.878327 8:-0.883644 9:-0.671508 10:-0.756425 11:-0.856436 12:-0.792254 13:-0.826524 14:-0.939556 15:-0.886894 16:-0.825598 17:-0.887179 18:-0.860294 19:-0.867925 20:-0.84806 
8 1:-0.933086 2:-0.745902 3:-0.846154 4:-0.66879 5:-0.96199 6:-0.926245 7:-0.920152 8:-0.846323 9:-0.921788 10:-0.868156 11:-0.966584 12:-0.792254 13:-0.929604 14:-0.960889 15:-0.926391 16:-0.848101 17:-0.928205 18:-0.951471 19:-0.667925 20:-0.932112 
6.978173559713488 1:-0.754647 2:-0.782787 3:-0.95842 4:-0.802548 5:-0.881498 6:-0.8841 7:-0.922053 8:-0.846323 9:-0.910615 10:-0.863687 11:-0.857673 12:-0.728873 13:-0.85418 14:-0.941333 15:-0.871634 16:-0.749648 17:-0.874359 18:-0.795588 19:-0.939623 20:-0.788793 
8 1:-0.962825 2:-0.959016 3:-0.956341 4:-0.910828 5:-0.993292 6:-0.985632 7:-0.844106 8:-0.993414 9:-0.946369 10:-0.986592 11:-0.992574 12:-0.957746 13:-0.982401 14:-0.870222 15:-0.98833 16:-0.954993 17:-0.99359 18:-0.998529 19:-0.845283 20:-0.993534 
8 1:-0.960347 2:-0.930328 3:-0.933472 4:-0.898089 5:-0.979877 6:-0.945402 7:-0.960076 8:-0.934138 9:-0.796648 10:-0.939665 11:-0.971535 12:-0.929577 13:-0.87555 14:-0.973333 15:-0.944345 16:-0.932489 17:-0.974359 18:-0.967647 19:-0.875472 20:-0.900862 
3.798182740416795 1:-0.967782 2:-0.877049 3:-0.964657 4:-0.88535 5:-0.9564 6:-0.975096 7:-0.98289 8:-0.958288 9:-0.977654 10:-0.984358 11:-0.966584 12:-0.90493 13:-0.958517 14:-0.955556 15:-0.974865 16:-0.929677 17:-0.976923 18:-0.989706 19:-0.898113 20:-0.977371 
8 1:-0.977695 2:-0.848361 3:-0.95842 4:-0.949045 5:-0.987703 6:-0.981801 7:-0.977186 8:-0.960483 9:-0.93743 10:-0.957542 11:-0.97896 12:-0.90493 13:-0.97863 14:-0.973333 15:-0.981149 16:-0.918425 17:-0.99359 18:-0.980882 19:-0.935849 20:-0.979526 
8 1:-0.977695 2:-0.885246 3:-0.952183 4:-0.866242 5:-0.975405 6:-0.976054 7:-0.979087 8:-0.938529 9:-0.986592 10:-0.977654 11:-0.982673 12:-0.919014 13:-0.976116 14:-0.966222 15:-0.985637 16:-0.938115 17:-0.983333 18:-0.989706 19:-0.928302 20:-0.990302 
3.273431081071314 1:-0.853779 2:-0.581967 3:-0.887734 4:-0.751592 5:-0.980995 6:-0.944444 7:-0.941065 8:-0.949506 9:-0.868156 10:-0.955307 11:-0.949257 12:-0.922535 13:-0.889378 14:-0.905778 15:-0.944345 16:-0.940928 17:-0.987179 18:-0.979412 19:-0.754717 20:-0.967672 
8 1:-0.947955 2:-0.881148 3:-0.962578 4:-0.840764 5:-0.958636 6:-0.926245 7:-0.931559 8:-0.88584 9:-0.924022 10:-0.850279 11:-0.972772 12:-0.890845 13:-0.919547 14:-0.900444 15:-0.938959 16:-0.915612 17:-0.919231 18:-0.939706 19:-0.890566 20:-0.970905 
8 1:-0.918216 2:-0.963115 3:-0.977131 4:-0.980892 5:-0.997764 6:-0.999042 7:-0.996198 8:-0.993414 9:-0.991061 10:-0.995531 11:-0.993812 12:-0.985915 13:-0.996229 14:-1 15:-0.997307 16:-0.994374 17:-0.996154 18:-0.991176 19:-0.939623 20:-0.984914 
8 1:-0.95539 2:-0.897541 3:-0.948025 4:-0.898089 5:-0.96758 6:-0.952107 7:-0.992395 8:-0.868277 9:-0.946369 10:-0.93743 11:-0.957921 12:-0.911972 13:-0.938404 14:-0.992889 15:-0.926391 16:-0.909986 17:-0.937179 18:-0.933824 19:-0.935849 20:-0.892241 
3.425910939082841 1:-0.94052 2:-0.897541 3:-0.93763 4:-0.757962 5:-0.979877 6:-0.97318 7:-0.912548 8:-0.969265 9:-0.912849 10:-0.939665 11:-0.991337 12:-0.90493 13:-0.973602 14:-0.918222 15:-0.976661 16:-0.90436 17:-0.982051 18:-0.977941 19:-0.758491 20:-0.948276 
8 1:-0.977695 2:-0.938525 3:-0.952183 4:-0.847134 5:-0.996646 6:-0.989464 7:-0.984791 8:-0.97146 9:-0.993296 10:-0.959777 11:-0.99505 12:-0.964789 13:-0.992458 14:-0.975111 15:-0.989228 16:-0.985935 17:-0.992308 18:-0.994118 19:-0.837736 20:-0.987069 
7.933101556091418 1:-0.972739 2:-0.709016 3:-0.831601 4:-0.694268 5:-0.985467 6:-0.934866 7:-0.908745 8:-0.903403 9:-0.939665 10:-0.870391 11:-0.980198 12:-0.848592 13:-0.917033 14:-0.857778 15:-0.947038 16:-0.780591 17:-0.978205 18:-0.964706 19:-0.758491 20:-0.943966 
1.608412902939975 1:0.638166 2:-0.766393 3:-0.898129 4:-0.617834 5:-0.938513 6:-0.89272 7:-0.880228 8:-0.936334 9:-0.456983 10:-0.807821 11:-0.920792 12:-0.732394 13:-0.186675 14:-0.925333 15:-0.916517 16:-0.884669 17:-0.948718 18:-0.920588 19:-0.754717 20:-0.883621 
8 1:-0.863693 2:-0.95082 3:-0.960499 4:-0.726115 5:-0.950811 6:-0.975096 7:-0.929658 8:-0.982437 9:-0.939665 10:-0.977654 11:-0.929455 12:-0.897887 13:-0.928347 14:-0.950222 15:-0.972172 16:-0.935302 17:-0.971795 18:-0.970588 19:-0.928302 20:-0.957974 
3.397959116543626 1:-0.992565 2:-0.991803 3:-0.993763 4:-0.980892 5:-1 6:-0.998084 7:-0.980989 8:-0.986828 9:-0.995531 10:-0.997765 11:-0.998762 12:-0.996479 13:-1 14:-1 15:-0.994614 16:-0.994374 17:-0.998718 18:-0.998529 19:-0.973585 20:-0.989224 
0.1966584154184868 1:-0.977695 2:-1 3:-0.997921 4:-1 5:-0.99441 6:-0.998084 7:-0.952471 8:-1 9:-0.982123 10:-0.993296 11:-0.99505 12:-0.989437 13:-0.998743 14:-0.964444 15:-0.997307 16:-0.997187 17:-1 18:-1 19:-1 20:-0.99569 
5.670215614592244 1:-0.938042 2:-0.82377 3:-0.835759 4:-0.496815 5:-0.972051 6:-0.936782 7:-0.891635 8:-0.927552 9:-0.87486 10:-0.856983 11:-0.966584 12:-0.78169 13:-0.943432 14:-0.936 15:-0.940754 16:-0.85654 17:-0.961538 18:-0.964706 19:-0.422642 20:-0.94181 
8 1:-0.992565 2:-0.905738 3:-0.925156 4:-0.732484 5:-0.986585 6:-0.981801 7:-0.939163 8:-0.927552 9:-0.975419 10:-0.90838 11:-0.99505 12:-0.950704 13:-0.992458 14:-0.962667 15:-0.973968 16:-0.960619 17:-0.983333 18:-0.980882 19:-0.667925 20:-0.969828 
8 1:-0.975217 2:-0.918033 3:-0.943867 4:-0.89172 5:-0.965344 6:-0.941571 7:-0.977186 8:-0.877058 9:-0.921788 10:-0.897207 11:-0.972772 12:-0.93662 13:-0.950974 14:-0.982222 15:-0.932675 16:-0.915612 17:-0.955128 18:-0.911765 19:-0.807547 20:-0.919181 
1.611989979406208 1:-0.94052 2:-0.844262 3:-0.821206 4:-0.738854 5:-0.937395 6:-0.923372 7:-0.760456 8:-0.962678 9:-0.798883 10:-0.883799 11:-0.965347 12:-0.827465 13:-0.929604 14:-0.552 15:-0.940754 16:-0.831224 17:-0.946154 18:-0.95 19:-0.615094 20:-0.926724 
4.060493615764758 1:-0.933086 2:-0.934426 3:-0.975052 4:-0.955414 5:-0.992174 6:-0.993295 7:-0.893536 8:-0.993414 9:-0.915084 10:-0.96648 11:-0.982673 12:-0.922535 13:-0.979887 14:-0.884444 15:-0.996409 16:-0.966245 17:-0.997436 18:-0.994118 19:-0.958491 20:-0.993534 
1.91541776620078 1:-0.933086 2:-0.877049 3:-0.956341 4:-0.764331 5:-0.978759 6:-0.97318 7:-0.908745 8:-0.975851 9:-0.912849 10:-0.930726 11:-0.964109 12:-0.866197 13:-0.938404 14:-0.944889 15:-0.979354 16:-0.879044 17:-0.988462 18:-0.983824 19:-0.879245 20:-0.97306 
0.9778161859646398 1:-0.477076 2:0.0778689 3:-0.636175 4:-0.496815 5:-0.707099 6:-0.569923 7:-0.741445 8:-0.54775 9:-0.738547 10:-0.767598 11:-0.709158 12:-0.0950704 13:-0.332495 14:-0.660444 15:-0.637343 16:-0.201125 17:-0.6 18:-0.535294 19:-0.762264 20:-0.577586 
0.9594804666512086 1:-0.501859 2:0.0368852 3:-0.580042 4:-0.566879 5:-0.714925 6:-0.574713 7:-0.747148 8:-0.549945 9:-0.747486 10:-0.740782 11:-0.709158 12:-0.123239 13:-0.353865 14:-0.685333 15:-0.649013 16:-0.172996 17:-0.578205 18:-0.557353 19:-0.581132 20:-0.592672 
2.225755476699146 1:-0.930607 2:-0.733607 3:-0.848233 4:-0.681529 5:-0.947457 6:-0.899425 7:-0.901141 8:-0.767289 9:-0.915084 10:-0.758659 11:-0.94802 12:-0.806338 13:-0.834067 14:-0.864889 15:-0.900359 16:-0.651195 17:-0.916667 18:-0.695588 19:-0.316981 20:-0.740302 
0.71586319664706 1:-0.898389 2:-0.836066 3:-0.966736 4:-0.878981 5:-0.972051 6:-0.965517 7:-0.88403 8:-0.980241 9:-0.975419 10:-0.955307 11:-0.975248 12:-0.834507 13:-0.874293 14:-0.758222 15:-0.972172 16:-0.862166 17:-0.971795 18:-0.967647 19:-0.973585 20:-0.985991 
8 1:-0.893432 2:-0.889344 3:-0.871102 4:-0.694268 5:-0.968698 6:-0.928161 7:-0.925856 8:-0.896817 9:-0.935196 10:-0.930726 11:-0.971535 12:-0.883803 13:-0.925833 14:-0.928889 15:-0.93447 16:-0.867792 17:-0.938462 18:-0.948529 19:-0.679245 20:-0.918103 
1.877592007159032 1:-0.920694 2:-0.745902 3:-0.692308 4:-0.261146 5:-0.966462 6:-0.912835 7:-0.65019 8:-0.83315 9:-0.859218 10:-0.861453 11:-0.95297 12:-0.778169 13:-0.937146 14:-0.834667 15:-0.899461 16:-0.859353 17:-0.939744 18:-0.930882 19:-0.116981 20:-0.858836 
8 1:-0.98513 2:-0.881148 3:-0.950104 4:-0.700637 5:-0.988821 6:-0.971264 7:-0.979087 8:-0.901207 9:-0.988827 10:-0.962011 11:-0.987624 12:-0.950704 13:-0.963545 14:-0.976889 15:-0.972172 16:-0.95218 17:-0.984615 18:-0.982353 19:-0.815094 20:-0.953664 
8 1:-0.977695 2:-0.942623 3:-0.989605 4:-0.923567 5:-0.978759 6:-0.941571 7:-0.971483 8:-0.91438 9:-0.982123 10:-0.982123 11:-0.980198 12:-0.922535 13:-0.908234 14:-0.966222 15:-0.942549 16:-0.915612 17:-0.953846 18:-0.952941 19:-0.969811 20:-0.934267 
2.865195501523451 1:-0.980173 2:-0.901639 3:-0.883576 4:-0.375796 5:-0.965344 6:-0.962644 7:-0.954373 8:-0.912184 9:-0.785475 10:-0.763128 11:-0.983911 12:-0.894366 13:-0.966059 14:-0.941333 15:-0.947935 16:-0.907173 17:-0.978205 18:-0.972059 19:-0.709434 20:-0.960129 
1.68443418375495 1:-0.348203 2:-0.446721 3:-0.929314 4:-0.503185 5:-0.9128 6:-0.873563 7:-0.51711 8:-0.855104 9:-0.756425 10:-0.877095 11:-0.798267 12:-0.56338 13:-0.815211 14:-0.690667 15:-0.910233 16:-0.684951 17:-0.957692 18:-0.957353 19:-0.754717 20:-0.922414 
8 1:-0.982652 2:-0.938525 3:-0.902287 4:-0.77707 5:-0.979877 6:-0.977969 7:-0.89924 8:-0.947311 9:-0.870391 10:-0.84581 11:-0.97896 12:-0.933099 13:-0.982401 14:-0.868444 15:-0.969479 16:-0.932489 17:-0.955128 18:-0.958824 19:-0.815094 20:-0.886853 
8 1:-0.898389 2:-0.881148 3:-0.918919 4:-0.681529 5:-0.960872 6:-0.944444 7:-0.897338 8:-0.947311 9:-0.814525 10:-0.812291 11:-0.940594 12:-0.855634 13:-0.920805 14:-0.930667 15:-0.948833 16:-0.862166 17:-0.95641 18:-0.939706 19:-0.89434 20:-0.878233 
8 1:-0.960347 2:-0.889344 3:-0.927235 4:-0.732484 5:-0.982113 6:-0.966475 7:-0.908745 8:-0.934138 9:-0.950838 10:-0.948603 11:-0.982673 12:-0.897887 13:-0.938404 14:-0.952 15:-0.969479 16:-0.935302 17:-0.982051 18:-0.975 19:-0.864151 20:-0.97306 
6.584843917865317 1:-0.98513 2:-0.987705 3:-0.991684 4:-0.904459 5:-0.996646 6:-0.978927 7:-0.994297 8:-0.993414 9:-0.993296 10:-0.991061 11:-0.993812 12:-1 13:-0.979887 14:-0.996444 15:-0.976661 16:-0.988748 17:-0.996154 18:-0.989706 19:-0.973585 20:-0.90194 
8 1:-0.957869 2:-0.913934 3:-0.925156 4:-0.796178 5:-0.972051 6:-0.962644 7:-0.960076 8:-0.91438 9:-0.861453 10:-0.928492 11:-0.987624 12:-0.978873 13:-0.991201 14:-0.966222 15:-0.954219 16:-0.960619 17:-0.971795 18:-0.973529 19:-0.735849 20:-0.923491 
-8 1:-0.995043 2:-0.983607 3:-0.997921 4:-0.987261 5:-1 6:-0.993295 7:-0.998099 8:-0.982437 9:-0.997765 10:-0.993296 11:-0.997525 12:-0.992958 13:-0.998743 14:-0.998222 15:-0.991921 16:-0.983122 17:-0.996154 18:-0.985294 19:-1 20:-0.984914 
-8 1:-0.977695 2:-0.92623 3:-0.948025 4:-0.789809 5:-0.979877 6:-0.956897 7:-0.979087 8:-0.91438 9:-0.968715 10:-0.915084 11:-0.975248 12:-0.926056 13:-0.966059 14:-0.989333 15:-0.9614 16:-0.926864 17:-0.980769 18:-0.976471 19:-0.871698 20:-0.948276 
-0.6227612793130689 1:-0.868649 2:-0.901639 3:-0.956341 4:-0.152866 5:-0.989939 6:-0.972222 7:-0.977186 8:-0.951701 9:-0.995531 10:-1 11:-0.977723 12:-0.897887 13:-0.925833 14:-0.987556 15:-0.980251 16:-0.929677 17:-0.988462 18:-0.989706 19:-0.188679 20:-0.966595 
-8 1:-0.975217 2:-0.942623 3:-0.956341 4:-0.878981 5:-0.96758 6:-0.947318 7:-0.946768 8:-0.94292 9:-0.892737 10:-0.877095 11:-0.971535 12:-0.876761 13:-0.920805 14:-0.964444 15:-0.952424 16:-0.890295 17:-0.965385 18:-0.920588 19:-0.886792 20:-0.922414 
-1.41472325241214 1:-0.903346 2:-0.741803 3:-0.731809 4:-0.56051 5:-0.972051 6:-0.91954 7:-0.969582 8:-0.855104 9:-0.941899 10:-0.821229 11:-0.936881 12:-0.862676 13:-0.899434 14:-0.962667 15:-0.90754 16:-0.901547 17:-0.930769 18:-0.885294 19:-0.649057 20:-0.8125 
-0.7236650594430833 1:-0.672862 2:-0.827869 3:-0.954262 4:-0.949045 5:-0.926216 6:-0.885057 7:-0.931559 8:-0.938529 9:-0.772067 10:-0.872626 11:-0.852723 12:-0.746479 13:-0.849151 14:-0.952 15:-0.873429 16:-0.803094 17:-0.891026 18:-0.864706 19:-0.996226 20:-0.838362 
-3.004567391666748 1:-0.935564 2:-0.786885 3:-0.698545 4:-0.509554 5:-0.936277 6:-0.887931 7:-0.853612 8:-0.899012 9:-0.767598 10:-0.821229 11:-0.950495 12:-0.887324 13:-0.881835 14:-0.847111 15:-0.901257 16:-0.890295 17:-0.944872 18:-0.948529 19:-0.441509 20:-0.895474 
-0.3300541966606081 1:-0.531599 2:-0.622951 3:-0.841996 4:-0.573248 5:-0.61431 6:-0.598659 7:-0.863118 8:-0.446762 9:-0.700559 10:-0.72514 11:-0.622525 12:-0.383803 13:-0.510999 14:-0.882667 15:-0.584381 16:-0.386779 17:-0.548718 18:-0.464706 19:-0.709434 20:-0.462284 
-0.4114928654162519 1:-0.811648 2:-0.635246 3:-0.802495 4:-0.605096 5:-0.83678 6:-0.807471 7:-0.914449 8:-0.699232 9:-0.778771 10:-0.769832 11:-0.825495 12:-0.612676 13:-0.78127 14:-0.882667 15:-0.801616 16:-0.578059 17:-0.791026 18:-0.736765 19:-0.871698 20:-0.71875 
-8 1:-0.972739 2:-0.967213 3:-0.95842 4:-0.707006 5:-0.975405 6:-0.949234 7:-0.948669 8:-0.901207 9:-0.917318 10:-0.915084 11:-0.964109 12:-0.901408 13:-0.954745 14:-0.982222 15:-0.929982 16:-0.940928 17:-0.948718 18:-0.960294 19:-0.811321 20:-0.841595 
-1.35683076146626 1:-0.895911 2:-0.754098 3:-0.773389 4:-0.656051 5:-0.911683 6:-0.908046 7:-0.585551 8:-0.91438 9:-0.751955 10:-0.859218 11:-0.943069 12:-0.809859 13:-0.940918 14:-0.452444 15:-0.912029 16:-0.864979 17:-0.928205 18:-0.957353 19:-0.735849 20:-0.938578 
-0.2286193082207508 1:-0.960347 2:-0.864754 3:-0.806653 4:-0.592357 5:-0.937395 6:-0.8841 7:-0.903042 8:-0.769484 9:-0.830168 10:-0.707263 11:-0.950495 12:-0.820423 13:-0.942175 14:-0.836444 15:-0.847397 16:-0.831224 17:-0.90641 18:-0.847059 19:-0.426415 20:-0.762931 
-8 1:-0.962825 2:-0.893443 3:-0.933472 4:-0.872611 5:-0.977641 6:-0.975096 7:-0.920152 8:-0.949506 9:-0.939665 10:-0.975419 11:-0.977723 12:-0.908451 13:-0.96983 14:-0.939556 15:-0.975763 16:-0.943741 17:-0.969231 18:-0.973529 19:-0.841509 20:-0.961207 
-0.3323749986011923 1:-0.615861 2:-0.737705 3:-0.594595 4:-0.216561 5:-0.855785 6:-0.831418 7:-0.703422 8:-0.725576 9:-0.501676 10:-0.492737 11:-0.789604 12:-0.757042 13:-0.79384 14:-0.703111 15:-0.817774 16:-0.783404 17:-0.826923 18:-0.575 19:-0.173585 20:-0.65194 
-8 1:-0.893432 2:-0.79918 3:-0.866944 4:-0.490446 5:-0.92957 6:-0.918582 7:-0.906844 8:-0.848518 9:-0.897207 10:-0.843575 11:-0.951733 12:-0.852113 13:-0.914519 14:-0.941333 15:-0.931777 16:-0.803094 17:-0.951282 18:-0.935294 19:-0.573585 20:-0.896552 
-1.706373210441337 1:-0.925651 2:-0.803279 3:-0.762994 4:-0.280255 5:-0.96199 6:-0.925287 7:-0.903042 8:-0.86169 9:-0.87933 10:-0.787709 11:-0.956683 12:-0.788732 13:-0.947203 14:-0.937778 15:-0.923698 16:-0.805907 17:-0.941026 18:-0.929412 19:-0.479245 20:-0.865302 
-0.5610427878369554 1:-0.739777 2:-0.889344 3:-0.889813 4:-0.490446 5:-0.978759 6:-0.926245 7:-0.547529 8:-0.894621 9:-0.834637 10:-0.859218 11:-0.936881 12:-0.728873 13:-0.808925 14:-0.818667 15:-0.945242 16:-0.746835 17:-0.966667 18:-0.942647 19:-0.667925 20:-0.918103 
-0.2861861999043782 1:-0.712515 2:-0.270492 3:-0.540541 4:-0.210191 5:-0.790945 6:-0.643678 7:-0.762357 8:-0.543359 9:-0.660335 10:-0.75419 11:-0.803218 12:-0.397887 13:-0.622879 14:-0.720889 15:-0.635548 16:-0.499297 17:-0.712821 18:-0.748529 19:-0.573585 20:-0.623922 
-1.498717867031121 1:-0.910781 2:-0.922131 3:-0.837838 4:-0.770701 5:-0.989939 6:-0.974138 7:-0.948669 8:-0.969265 9:-0.968715 10:-0.964246 11:-0.987624 12:-0.93662 13:-0.949717 14:-0.891556 15:-0.969479 16:-0.957806 17:-0.988462 18:-0.976471 19:-0.486792 20:-0.966595 
-0.7069304992491109 1:-0.836431 2:-0.881148 3:-0.852391 4:-0.643312 5:-0.925098 6:-0.899425 7:-0.920152 8:-0.83315 9:-0.877095 10:-0.932961 11:-0.904703 12:-0.81338 13:-0.910748 14:-0.962667 15:-0.884201 16:-0.819972 17:-0.858974 18:-0.841176 19:-0.683019 20:-0.78556 
-8 1:-0.97026 2:-0.930328 3:-0.966736 4:-0.866242 5:-0.987703 6:-0.98659 7:-0.969582 8:-0.980241 9:-0.959777 10:-0.964246 11:-0.983911 12:-0.954225 13:-0.983658 14:-0.987556 15:-0.982944 16:-0.960619 17:-0.992308 18:-0.986765 19:-0.928302 20:-0.969828 
-0.3788461530362153 1:-0.836431 2:-0.442623 3:-0.800416 4:-0.267516 5:-0.859139 6:-0.818008 7:-0.711027 8:-0.714599 9:-0.0703911 10:-0.0189944 11:-0.856436 12:-0.471831 13:-0.7423 14:-0.808 15:-0.790844 16:-0.488045 17:-0.810256 18:-0.802941 19:-0.550943 20:-0.715517 
-0.2550315273811101 1:-0.987608 2:-0.913934 3:-0.796258 4:0.0509554 5:-0.989939 6:-0.970307 7:-0.973384 8:-0.863886 9:-0.888268 10:-0.890503 11:-0.992574 12:-0.961268 13:-0.996229 14:-0.944889 15:-0.950628 16:-0.929677 17:-0.979487 18:-0.967647 19:0.0603774 20:-0.876078 
-1.545274266106632 1:-0.98513 2:-0.946721 3:-0.877339 4:-0.66879 5:-0.965344 6:-0.91954 7:-0.969582 8:-0.751921 9:-0.926257 10:-0.892737 11:-0.990099 12:-0.919014 13:-0.964802 14:-0.975111 15:-0.912926 16:-0.907173 17:-0.962821 18:-0.932353 19:-0.543396 20:-0.90194 
-0.3914715980869469 1:-0.712515 2:-0.67623 3:-0.62578 4:-0.152866 5:-0.64114 6:-0.622605 7:-0.735741 8:-0.442371 9:0.141899 10:0.682682 11:-0.649752 12:-0.383803 13:-0.634192 14:-0.825778 15:-0.557451 16:-0.116737 17:-0.594872 18:-0.261765 19:-0.69434 20:0.461207 
-0.3340195990414744 1:-0.826518 2:-0.766393 3:-0.829522 4:-0.56051 5:-0.951928 6:-0.912835 7:-0.790875 8:-0.901207 9:-0.358659 10:-0.890503 11:-0.930693 12:-0.725352 13:-0.826524 14:-0.822222 15:-0.929084 16:-0.805907 17:-0.955128 18:-0.958824 19:-0.686792 20:-0.899784 
-0.1208650907226739 1:-0.933086 2:-0.885246 3:-0.869023 4:-0.687898 5:-0.91839 6:-0.921456 7:-0.836502 8:-0.86169 9:-0.841341 10:-0.856983 11:-0.951733 12:-0.84507 13:-0.929604 14:-0.884444 15:-0.924596 16:-0.867792 17:-0.947436 18:-0.945588 19:-0.845283 20:-0.903017 
-4.07876574065455 1:-0.918216 2:-0.897541 3:-0.925156 4:-0.757962 5:-0.972051 6:-0.931034 7:-0.901141 8:-0.874863 9:-0.825698 10:-0.716201 11:-0.961634 12:-0.788732 13:-0.942175 14:-0.927111 15:-0.927289 16:-0.819972 17:-0.957692 18:-0.922059 19:-0.766038 20:-0.868534 
-0.3900632646174415 1:-0.866171 2:-0.864754 3:-0.715177 4:-0.318471 5:-0.856903 6:-0.896552 7:-0.665399 8:-0.839737 9:-0.278212 10:0.738547 11:-0.894802 12:-0.820423 13:-0.932118 14:-0.758222 15:-0.893178 16:-0.721519 17:-0.882051 18:-0.758824 19:-0.690566 20:-0.810345 
-8 1:-0.965304 2:-0.963115 3:-0.975052 4:-0.815287 5:-0.966462 6:-0.980843 7:-0.956274 8:-0.980241 9:-0.921788 10:-0.93743 11:-0.975248 12:-0.919014 13:-0.956003 14:-0.978667 15:-0.974865 16:-0.938115 17:-0.967949 18:-0.958824 19:-0.943396 20:-0.939655 
-0.2013748140306995 1:-0.670384 2:-0.647541 3:-0.841996 4:-0.22293 5:-0.846842 6:-0.778736 7:-0.840304 8:-0.635565 9:-0.709497 10:-0.470391 11:-0.836634 12:-0.485915 13:-0.604023 14:-0.880889 15:-0.800718 16:-0.552743 17:-0.757692 18:-0.683824 19:-0.550943 20:-0.676724 
-0.4525877403453928 1:-0.372986 2:-0.168033 3:-0.661123 4:-0.458599 5:-0.665735 6:-0.388889 7:-0.870722 8:-0.264544 9:-0.709497 10:-0.696089 11:-0.618812 12:-0.133803 13:-0.340038 14:-0.754667 15:-0.38061 16:-0.254571 17:-0.496154 18:-0.485294 19:-0.792453 20:-0.284483 
-8 1:-0.992565 2:-0.877049 3:-0.920998 4:-0.872611 5:-0.986585 6:-0.984674 7:-0.990494 8:-0.94292 9:-0.988827 10:-0.977654 11:-0.99505 12:-0.961268 13:-0.993715 14:-0.996444 15:-0.973968 16:-0.957806 17:-0.991026 18:-0.985294 19:-0.879245 20:-0.961207 
-8 1:-0.967782 2:-0.979508 3:-0.977131 4:-0.898089 5:-0.969816 6:-0.963602 7:-0.901141 8:-0.958288 9:-0.769832 10:-0.930726 11:-0.97401 12:-0.93662 13:-0.935889 14:-0.936 15:-0.962298 16:-0.943741 17:-0.978205 18:-0.977941 19:-0.89434 20:-0.977371 
-1.412611724645068 1:-0.868649 2:-0.803279 3:-0.89605 4:-0.66879 5:-0.953046 6:-0.89272 7:-0.93346 8:-0.890231 9:-0.903911 10:-0.953073 11:-0.943069 12:-0.806338 13:-0.904463 14:-0.943111 15:-0.900359 16:-0.853727 17:-0.948718 18:-0.945588 19:-0.856604 20:-0.895474 
-8 1:-0.97026 2:-0.959016 3:-0.943867 4:-0.872611 5:-0.977641 6:-0.981801 7:-0.965779 8:-0.973655 9:-0.955307 10:-0.964246 11:-0.97896 12:-0.947183 13:-0.981144 14:-0.964444 15:-0.981149 16:-0.95218 17:-0.991026 18:-0.989706 19:-0.932075 20:-0.981681 
-8 1:-0.977695 2:-0.840164 3:-0.846154 4:-0.694268 5:-0.977641 6:-0.963602 7:-0.948669 8:-0.888035 9:-0.917318 10:-0.903911 11:-0.981436 12:-0.873239 13:-0.963545 14:-0.902222 15:-0.970377 16:-0.898734 17:-0.967949 18:-0.951471 19:-0.833962 20:-0.951509 
-0.3925630419059237 1:-0.442379 2:-0.192623 3:-0.733888 4:-0.0700637 5:-0.915036 6:-0.845785 7:-0.471483 8:-0.909989 9:-0.0569832 10:-0.573184 11:-0.740099 12:0.0140845 13:-0.32621 14:-0.489778 15:-0.848294 16:-0.153305 17:-0.905128 18:-0.877941 19:-0.366038 20:-0.71875 
-0.3319531919359021 1:-0.76456 2:-0.668033 3:-0.835759 4:-0.541401 5:-0.746227 6:-0.657088 7:-0.960076 8:-0.433589 9:-0.823464 10:-0.707263 11:-0.689356 12:-0.397887 13:-0.627907 14:-0.953778 15:-0.59605 16:-0.403657 17:-0.402564 18:-0.155882 19:-0.781132 20:-0.394397 
-0.5491517167890386 1:-0.858736 2:-0.877049 3:-0.850312 4:-0.477707 5:-0.904975 6:-0.875479 7:-0.674905 8:-0.863886 9:-0.658101 10:-0.841341 11:-0.905941 12:-0.707746 13:-0.785041 14:-0.719111 15:-0.881508 16:-0.811533 17:-0.917949 18:-0.929412 19:-0.607547 20:-0.884698 
-7.129856663286928 1:-0.947955 2:-0.922131 3:-0.927235 4:-0.88535 5:-0.965344 6:-0.930077 7:-0.948669 8:-0.909989 9:-0.906145 10:-0.818994 11:-0.955446 12:-0.908451 13:-0.90572 14:-0.925333 15:-0.939856 16:-0.870605 17:-0.953846 18:-0.929412 19:-0.879245 20:-0.932112 
-0.3997967387055994 1:-0.313507 2:-0.213115 3:-0.575884 4:-0.382166 5:-0.726104 6:-0.583333 7:-0.250951 8:-0.585071 9:-0.463687 10:-0.443575 11:-0.643564 12:-0.158451 13:-0.495915 14:-0.493333 15:-0.587074 16:-0.296765 17:-0.70641 18:-0.658824 19:-0.766038 20:-0.397629 
-2.15020742960366 1:-0.739777 2:-0.889344 3:-0.931393 4:-0.783439 5:-0.902739 6:-0.863985 7:-0.912548 8:-0.947311 9:-0.897207 10:-0.894972 11:-0.866337 12:-0.820423 13:-0.763671 14:-0.946667 15:-0.893178 16:-0.842475 17:-0.907692 18:-0.879412 19:-0.909434 20:-0.818966 
-1.822965224684488 1:-0.908302 2:-0.782787 3:-0.796258 4:-0.687898 5:-0.960872 6:-0.939655 7:-0.944867 8:-0.883644 9:-0.881564 10:-0.865922 11:-0.951733 12:-0.859155 13:-0.924576 14:-0.957333 15:-0.951526 16:-0.870605 17:-0.967949 18:-0.951471 19:-0.833962 20:-0.918103 
-0.3165273564543442 1:-0.851301 2:-0.864754 3:-0.731809 4:-0.0191083 5:-0.954164 6:-0.931034 7:-0.939163 8:-0.872667 9:-0.917318 10:-0.917318 11:-0.936881 12:-0.855634 13:-0.904463 14:-0.950222 15:-0.924596 16:-0.881857 17:-0.948718 18:-0.904412 19:-0.215094 20:-0.867457 
-8 1:-0.947955 2:-0.92623 3:-0.968815 4:-0.898089 5:-0.980995 6:-0.960728 7:-0.895437 8:-0.953897 9:-0.93743 10:-0.890503 11:-0.990099 12:-0.908451 13:-0.968573 14:-0.912889 15:-0.963196 16:-0.926864 17:-0.967949 18:-0.969118 19:-0.879245 20:-0.959052 
-0.2326506268258657 1:-0.947955 2:-0.786885 3:-0.814969 4:-0.477707 5:-0.925098 6:-0.867816 7:-0.870722 8:-0.593853 9:-0.671508 10:-0.275978 11:-0.956683 12:-0.78169 13:-0.864236 14:-0.813333 15:-0.817774 16:-0.746835 17:-0.865385 18:-0.842647 19:-0.649057 20:-0.596983 
-0.2604951603771306 1:-0.571252 2:-0.586066 3:-0.609148 4:-0.414013 5:-0.910565 6:-0.850575 7:-0.794677 8:-0.809001 9:-0.367598 10:-0.436872 11:-0.844059 12:-0.630282 13:-0.712131 14:-0.754667 15:-0.844704 16:-0.715893 17:-0.920513 18:-0.898529 19:-0.528302 20:-0.728448 
-0.3549126394162027 1:-0.799257 2:-0.82377 3:-0.856549 4:-0.636943 5:-0.812186 6:-0.82567 7:-0.768061 8:-0.721186 9:-0.392179 10:-0.027933 11:-0.818069 12:-0.602113 13:-0.815211 14:-0.854222 15:-0.827648 16:-0.538678 17:-0.820513 18:-0.658824 19:-0.615094 20:-0.591595 
-6.220443974458901 1:-0.841388 2:-0.942623 3:-0.91684 4:-0.802548 5:-0.951928 6:-0.967433 7:-0.956274 8:-0.936334 9:-0.93743 10:-0.962011 11:-0.930693 12:-0.93662 13:-0.900691 14:-0.923556 15:-0.953321 16:-0.938115 17:-0.953846 18:-0.929412 19:-0.909434 20:-0.922414 
-1.239394242858927 1:-0.908302 2:-0.758197 3:-0.841996 4:-0.477707 5:-0.937395 6:-0.886973 7:-0.878327 8:-0.83315 9:-0.856983 10:-0.81676 11:-0.923267 12:-0.785211 13:-0.860465 14:-0.902222 15:-0.874327 16:-0.780591 17:-0.908974 18:-0.877941 19:-0.732075 20:-0.856681 
-0.5938195270132992 1:-0.410161 2:-0.963115 3:-0.981289 4:-0.77707 5:-0.980995 6:-0.966475 7:-0.988593 8:-0.969265 9:-0.740782 10:-0.953073 11:-0.919554 12:-0.989437 13:-0.641735 14:-0.989333 15:-0.975763 16:-0.988748 17:-0.985897 18:-0.933824 19:-0.750943 20:-0.959052 
-0.05400261686776801 1:-0.938042 2:-0.92623 3:-0.939709 4:-0.89172 5:-0.96199 6:-0.968391 7:-0.929658 8:-0.938529 9:-0.698324 10:-0.655866 11:-0.960396 12:-0.908451 13:-0.961031 14:-0.955556 15:-0.958707 16:-0.932489 17:-0.979487 18:-0.966176 19:-0.85283 20:-0.942888 
-8 1:-0.947955 2:-0.885246 3:-0.927235 4:-0.821656 5:-0.969816 6:-0.952107 7:-0.861217 8:-0.903403 9:-0.939665 10:-0.906145 11:-0.962871 12:-0.880282 13:-0.928347 14:-0.909333 15:-0.955117 16:-0.926864 17:-0.967949 18:-0.945588 19:-0.860377 20:-0.961207 
-8 1:-0.98513 2:-0.913934 3:-0.962578 4:-0.917197 5:-0.984349 6:-0.989464 7:-0.990494 8:-0.969265 9:-0.975419 10:-0.993296 11:-0.988861 12:-0.940141 13:-0.988686 14:-0.980444 15:-0.979354 16:-0.949367 17:-0.983333 18:-0.985294 19:-0.973585 20:-0.977371 
-0.07826066379715682 1:-0.863693 2:-0.67623 3:-0.81289 4:-0.184713 5:-0.902739 6:-0.859195 7:-0.794677 8:-0.835346 9:-0.669274 10:-0.649162 11:-0.893564 12:-0.56338 13:-0.748586 14:-0.745778 15:-0.871634 16:-0.648383 17:-0.853846 18:-0.872059 19:-0.339623 20:-0.883621 
-8 1:-0.995043 2:-0.897541 3:-0.908524 4:-0.853503 5:-0.992174 6:-0.980843 7:-0.990494 8:-0.953897 9:-0.984358 10:-0.955307 11:-0.99505 12:-0.950704 13:-0.984915 14:-0.987556 15:-0.979354 16:-0.938115 17:-0.989744 18:-0.983824 19:-0.65283 20:-0.970905 
-0.07947633187479525 1:-0.935564 2:-0.831967 3:-0.798337 4:-0.815287 5:-0.960872 6:-0.93295 7:-0.893536 8:-0.892426 9:-0.687151 10:-0.75419 11:-0.936881 12:-0.862676 13:-0.944689 14:-0.815111 15:-0.948833 16:-0.893108 17:-0.947436 18:-0.941176 19:-0.773585 20:-0.932112 
-8 1:-0.962825 2:-0.901639 3:-0.977131 4:-0.834395 5:-0.995528 6:-0.993295 7:-0.952471 8:-0.953897 9:-0.977654 10:-0.959777 11:-0.99505 12:-0.954225 13:-0.981144 14:-0.948444 15:-0.989228 16:-0.95218 17:-0.998718 18:-0.995588 19:-0.690566 20:-0.988147 
-8 1:-0.990087 2:-0.934426 3:-0.977131 4:-0.898089 5:-0.986585 6:-0.984674 7:-0.948669 8:-0.967069 9:-0.906145 10:-0.928492 11:-0.988861 12:-0.943662 13:-0.984915 14:-0.948444 15:-0.98474 16:-0.963432 17:-0.991026 18:-0.989706 19:-0.886792 20:-0.990302 
-8 1:-0.945477 2:-0.909836 3:-0.923077 4:-0.757962 5:-0.982113 6:-0.966475 7:-0.931559 8:-0.931943 9:-0.868156 10:-0.843575 11:-0.975248 12:-0.915493 13:-0.959774 14:-0.936 15:-0.947038 16:-0.918425 17:-0.973077 18:-0.955882 19:-0.886792 20:-0.926724 
-8 1:-0.947955 2:-0.905738 3:-0.904366 4:-0.917197 5:-0.976523 6:-0.95977 7:-0.994297 8:-0.907794 9:-0.979888 10:-0.993296 11:-0.966584 12:-0.93662 13:-0.958517 14:-0.991111 15:-0.947935 16:-0.938115 17:-0.971795 18:-0.966176 19:-0.879245 20:-0.96444 
-8 1:-0.965304 2:-0.983607 3:-0.97921 4:-0.88535 5:-0.995528 6:-0.979885 7:-0.963878 8:-0.964874 9:-0.96648 10:-0.97095 11:-0.997525 12:-0.96831 13:-0.989943 14:-0.978667 15:-0.973968 16:-0.974684 17:-0.996154 18:-0.983824 19:-0.875472 20:-0.981681 
-1.006029525492933 1:-0.965304 2:-0.967213 3:-0.817048 4:-0.738854 5:-0.966462 6:-0.917625 7:-0.920152 8:-0.883644 9:-0.758659 10:-0.87933 11:-0.967822 12:-0.919014 13:-0.96983 14:-0.957333 15:-0.90395 16:-0.935302 17:-0.957692 18:-0.972059 19:-0.135849 20:-0.792026 
-1.609907775188141 1:-0.980173 2:-0.92623 3:-0.858628 4:-0.592357 5:-0.970933 6:-0.972222 7:-0.908745 8:-0.907794 9:-0.787709 10:-0.622346 11:-0.993812 12:-0.950704 13:-0.973602 14:-0.758222 15:-0.964093 16:-0.954993 17:-0.980769 18:-0.973529 19:-0.388679 20:-0.97306 
-8 1:-0.995043 2:-0.971311 3:-0.991684 4:-0.968153 5:-0.997764 6:-0.997126 7:-0.98289 8:-0.991218 9:-0.997765 10:-1 11:-0.99505 12:-0.96831 13:-0.998743 14:-0.985778 15:-0.996409 16:-0.994374 17:-1 18:-1 19:-0.973585 20:-1 
-8 1:-0.98513 2:-0.963115 3:-0.960499 4:-0.859873 5:-0.988821 6:-0.980843 7:-0.958175 8:-0.969265 9:-0.984358 10:-0.96648 11:-0.977723 12:-0.971831 13:-0.988686 14:-0.976889 15:-0.985637 16:-0.966245 17:-0.985897 18:-0.994118 19:-0.90566 20:-0.985991 
-4.155541378840926 1:-0.938042 2:-0.918033 3:-0.900208 4:-0.866242 5:-0.972051 6:-0.935824 7:-0.965779 8:-0.899012 9:-0.946369 10:-0.944134 11:-0.977723 12:-0.93662 13:-0.963545 14:-0.934222 15:-0.938959 16:-0.943741 17:-0.967949 18:-0.967647 19:-0.788679 20:-0.938578 
-0.1921915742079103 1:-0.913259 2:-0.717213 3:-0.804574 4:-0.694268 5:-0.919508 6:-0.831418 7:-0.948669 8:-0.683864 9:-0.868156 10:-0.810056 11:-0.938119 12:-0.757042 13:-0.870522 14:-0.943111 15:-0.827648 16:-0.752461 17:-0.846154 18:-0.832353 19:-0.758491 20:-0.725216 
-0.9914913929052533 1:-0.935564 2:-0.819672 3:-0.81289 4:-0.089172 5:-0.954164 6:-0.87069 7:-0.86692 8:-0.82876 9:-0.897207 10:-0.830168 11:-0.955446 12:-0.859155 13:-0.90572 14:-0.875556 15:-0.830341 16:-0.822785 17:-0.937179 18:-0.925 19:-0.516981 20:-0.726293 
-0.391609927325472 1:0.0483271 2:0.602459 3:-0.280665 4:1 5:-0.188373 6:0.225096 7:-0.330798 8:0.262349 9:0.595531 10:0.546369 11:-0.164604 12:0.880282 13:0.470773 14:-0.251556 15:0.104129 16:0.825598 17:0.0230769 18:0.333824 19:-0.00377358 20:0.449353 
-4.140232812205876 1:-0.913259 2:-0.967213 3:-0.95842 4:-0.929936 5:-0.977641 6:-0.97318 7:-0.967681 8:-0.984632 9:-0.823464 10:-0.888268 11:-0.954208 12:-0.922535 13:-0.943432 14:-0.900444 15:-0.972172 16:-0.940928 17:-0.979487 18:-0.970588 19:-0.981132 20:-0.97306 
-8 1:-0.960347 2:-0.942623 3:-0.989605 4:-0.974522 5:-0.988821 6:-0.985632 7:-0.980989 8:-0.962678 9:-0.982123 10:-0.955307 11:-0.991337 12:-0.978873 13:-0.973602 14:-0.953778 15:-0.982047 16:-0.969058 17:-0.983333 18:-0.991176 19:-0.969811 20:-0.96875 
-0.6414803087236869 1:-0.94052 2:-0.840164 3:-0.852391 4:-0.789809 5:-0.954164 6:-0.915709 7:-0.960076 8:-0.855104 9:-0.921788 10:-0.917318 11:-0.960396 12:-0.84507 13:-0.898177 14:-0.950222 15:-0.91921 16:-0.839662 17:-0.901282 18:-0.877941 19:-0.807547 20:-0.892241 
-0.9782085358937417 1:-0.97026 2:-0.770492 3:-0.856549 4:-0.77707 5:-0.954164 6:-0.927203 7:-0.971483 8:-0.705818 9:-0.903911 10:-0.917318 11:-0.967822 12:-0.838028 13:-0.944689 14:-0.973333 15:-0.913824 16:-0.845288 17:-0.901282 18:-0.904412 19:-0.788679 20:-0.863147 
-8 1:-0.990087 2:-0.938525 3:-0.950104 4:-0.936306 5:-0.995528 6:-0.987548 7:-0.980989 8:-0.975851 9:-0.997765 10:-0.993296 11:-0.99505 12:-0.96831 13:-0.992458 14:-0.941333 15:-0.986535 16:-0.983122 17:-0.996154 18:-1 19:-0.720755 20:-0.994612 
-0.2996011663728024 1:-0.484511 2:-0.438525 3:-0.727651 4:-0.598726 5:-0.813304 6:-0.653257 7:-0.853612 8:-0.688255 9:-0.747486 10:-0.859218 11:-0.733911 12:-0.521127 13:-0.587681 14:-0.767111 15:-0.709156 16:-0.583685 17:-0.75 18:-0.801471 19:-0.773585 20:-0.704741 
-0.1884439211613325 1:-0.482032 2:-0.52459 3:-0.613306 4:-0.178344 5:-0.851314 6:-0.802682 7:-0.78327 8:-0.77607 9:-0.637989 10:-0.664804 11:-0.788366 12:-0.478873 13:-0.719673 14:-0.866667 15:-0.748654 16:-0.639944 17:-0.801282 18:-0.804412 19:-0.45283 20:-0.62069 
-0.3935346526409742 1:-0.412639 2:-0.422131 3:-0.837838 4:-0.675159 5:-0.67915 6:-0.592912 7:-0.834601 8:-0.560922 9:-0.103911 10:-0.0659218 11:-0.595297 12:-0.366197 13:-0.533627 14:-0.720889 15:-0.58079 16:-0.313643 17:-0.553846 18:-0.357353 19:-0.750943 20:-0.337284 
-8 1:-0.972739 2:-0.913934 3:-0.918919 4:-0.605096 5:-0.975405 6:-0.964559 7:-0.948669 8:-0.868277 9:-0.919553 10:-0.861453 11:-0.985149 12:-0.947183 13:-0.971087 14:-0.943111 15:-0.9614 16:-0.924051 17:-0.974359 18:-0.964706 19:-0.788679 20:-0.928879 
-0.9132559236974073 1:-0.776952 2:-0.668033 3:-0.862786 4:-0.853503 5:-0.906093 6:-0.8841 7:-0.942966 8:-0.890231 9:-0.872626 10:-0.890503 11:-0.893564 12:-0.739437 13:-0.84538 14:-0.914667 15:-0.894973 16:-0.769339 17:-0.880769 18:-0.880882 19:-0.883019 20:-0.845905 
-8 1:-0.94052 2:-0.782787 3:-0.925156 4:-0.821656 5:-0.970933 6:-0.95977 7:-0.956274 8:-0.912184 9:-0.96648 10:-0.953073 11:-0.965347 12:-0.855634 13:-0.952231 14:-0.948444 15:-0.958707 16:-0.864979 17:-0.961538 18:-0.95 19:-0.822642 20:-0.946121 
-8 1:-0.992565 2:-0.893443 3:-0.985447 4:-0.942675 5:-0.992174 6:-0.983716 7:-0.963878 8:-0.951701 9:-0.997765 10:-1 11:-0.992574 12:-0.964789 13:-0.988686 14:-0.975111 15:-0.982047 16:-0.935302 17:-0.99359 18:-0.994118 19:-0.928302 20:-0.991379 
-8 1:-0.920694 2:-0.864754 3:-0.835759 4:-0.496815 5:-0.984349 6:-0.963602 7:-0.967681 8:-0.925357 9:-0.953073 10:-0.921788 11:-0.980198 12:-0.90493 13:-0.950974 14:-0.92 15:-0.972172 16:-0.943741 17:-0.982051 18:-0.980882 19:-0.618868 20:-0.963362 
-0.05710735724305861 1:-0.885998 2:-0.70082 3:-0.621622 4:-0.528662 5:-0.877026 6:-0.82567 7:-0.775665 8:-0.585071 9:-0.731844 10:-0.673743 11:-0.888614 12:-0.823944 13:-0.879321 14:-0.745778 15:-0.81149 16:-0.766526 17:-0.847436 18:-0.802941 19:-0.339623 20:-0.734914 
-3.961277187585754 1:-0.995043 2:-0.885246 3:-0.83368 4:-0.796178 5:-0.970933 6:-0.953065 7:-0.865019 8:-0.91438 9:-0.863687 10:-0.919553 11:-0.97896 12:-0.887324 13:-0.981144 14:-0.953778 15:-0.948833 16:-0.943741 17:-0.969231 18:-0.985294 19:-0.637736 20:-0.962284 
-8 1:-0.987608 2:-0.893443 3:-0.950104 4:-0.89172 5:-0.985467 6:-0.95977 7:-0.963878 8:-0.938529 9:-0.921788 10:-0.962011 11:-0.983911 12:-0.933099 13:-0.96983 14:-0.976889 15:-0.967684 16:-0.938115 17:-0.982051 18:-0.973529 19:-0.950943 20:-0.959052 
-0.391131427621331 1:0.539033 3:-0.721414 4:-0.292994 5:-0.430967 6:-0.332375 7:-0.745247 8:-0.580681 9:-0.381006 10:0.164246 11:-0.184406 12:0.538732 13:0.351351 14:-0.767111 15:-0.378815 16:0.83685 17:-0.251282 18:0.348529 19:-0.758491 20:0.431034 
-0.05704452241911812 1:-0.695167 2:-0.696721 3:-0.856549 4:-0.624204 5:-0.803242 6:-0.818008 7:-0.735741 8:-0.762898 9:-0.78324 10:-0.713966 11:-0.758663 12:-0.616197 13:-0.783784 14:-0.836444 15:-0.794434 16:-0.592124 17:-0.747436 18:-0.727941 19:-0.750943 20:-0.729526 
-0.1058383006403194 1:-0.737299 2:-0.401639 3:-0.60499 4:-0.197452 5:-0.866965 6:-0.804598 7:-0.596958 8:-0.679473 9:-0.722905 10:-0.687151 11:-0.850248 12:-0.521127 13:-0.790069 14:-0.699556 15:-0.777379 16:-0.566807 17:-0.864103 18:-0.830882 19:-0.516981 20:-0.711207 
-0.1284850918092497 1:-0.918216 2:-0.532787 3:-0.856549 4:-0.210191 5:-0.953046 6:-0.901341 7:-0.956274 8:-0.754116 9:-0.941899 10:-0.97095 11:-0.938119 12:-0.68662 13:-0.899434 14:-0.968 15:-0.900359 16:-0.701828 17:-0.932051 18:-0.929412 19:-0.483019 20:-0.892241 
-0.3310313633800285 1:-0.831475 2:-0.569672 3:-0.746362 4:-0.356688 5:-0.811068 6:-0.701149 7:-0.904943 8:-0.525796 9:-0.81676 10:-0.582123 11:-0.841584 12:-0.683099 13:-0.64802 14:-0.914667 15:-0.679533 16:-0.575246 17:-0.605128 18:-0.392647 19:-0.569811 20:-0.501078 
-8 1:-0.987608 2:-0.942623 3:-0.95842 4:-0.853503 5:-0.989939 6:-0.977969 7:-0.977186 8:-0.960483 9:-0.97095 10:-0.979888 11:-0.987624 12:-0.978873 13:-0.988686 14:-0.982222 15:-0.982047 16:-0.988748 17:-0.991026 18:-0.983824 19:-0.932075 20:-0.988147 
-0.3914509104028935 1:0.583643 2:1 3:1 4:0.929936 5:-0.41867 6:-0.143678 7:0.081749 8:0.135016 9:1 10:1 11:-0.261139 12:0.53169 13:0.247014 14:0.578667 15:-0.260323 16:0.431786 17:-0.157692 18:-0.0617647 19:1 20:0.0193966 
-2.963817583737464 1:-0.804213 2:-0.860656 3:-0.906445 4:-0.66242 5:-0.903857 6:-0.925287 7:-0.86692 8:-0.879254 9:-0.852514 10:-0.675978 11:-0.873762 12:-0.823944 13:-0.871779 14:-0.873778 15:-0.906643 16:-0.701828 17:-0.889744 18:-0.795588 19:-0.803774 20:-0.828664 
-8 1:-0.972739 2:-0.967213 3:-0.970894 4:-0.980892 5:-0.992174 6:-0.977969 7:-0.971483 8:-0.969265 9:-0.957542 10:-0.964246 11:-0.986386 12:-0.950704 13:-0.977373 14:-0.962667 15:-0.985637 16:-0.966245 17:-0.99359 18:-0.980882 19:-0.94717 20:-0.979526 
-0.3914178212490037 1:0.893432 2:-0.52459 3:-0.50104 4:-0.420382 5:-0.631079 6:-0.670498 7:-0.545627 8:-0.778266 9:0.101676 10:-0.421229 11:-0.389851 12:-0.549296 13:0.182904 14:-0.616 15:-0.708259 16:-0.59775 17:-0.723077 18:-0.538235 19:-0.622642 20:-0.179957 
-0.4657158479094198 1:-0.615861 2:-0.495902 3:-0.864865 4:-0.713376 5:-0.936277 6:-0.916667 7:-0.823194 8:-0.927552 9:-0.944134 10:-0.950838 11:-0.904703 12:-0.683099 13:-0.834067 14:-0.904 15:-0.933573 16:-0.755274 17:-0.960256 18:-0.969118 19:-0.890566 20:-0.946121 
-0.2605806093694035 1:-0.898389 2:-0.696721 3:-0.87526 4:-0.509554 5:-0.939631 6:-0.929119 7:-0.846008 8:-0.837541 9:-0.84581 10:-0.868156 11:-0.938119 12:-0.739437 13:-0.83281 14:-0.879111 15:-0.942549 16:-0.718706 17:-0.944872 18:-0.939706 19:-0.592453 20:-0.925647 
-1.073216303204514 1:-0.898389 2:-0.881148 3:-0.858628 4:-0.33758 5:-0.920626 6:-0.929119 7:-0.893536 8:-0.848518 9:-0.848045 10:-0.718436 11:-0.941832 12:-0.714789 13:-0.944689 14:-0.900444 15:-0.901257 16:-0.732771 17:-0.914103 18:-0.836765 19:-0.818868 20:-0.831897 
-0.780973602504178 1:-0.915737 2:-0.778689 3:-0.802495 4:-0.624204 5:-0.945221 6:-0.871648 7:-0.89924 8:-0.751921 9:-0.830168 10:-0.823464 11:-0.95297 12:-0.71831 13:-0.90572 14:-0.831111 15:-0.870736 16:-0.819972 17:-0.892308 18:-0.897059 19:-0.596226 20:-0.878233 
-1.111018359039681 1:-0.814126 2:-0.72541 3:-0.85447 4:-0.700637 5:-0.945221 6:-0.928161 7:-0.889734 8:-0.863886 9:-0.687151 10:-0.698324 11:-0.935644 12:-0.788732 13:-0.839095 14:-0.880889 15:-0.909336 16:-0.828411 17:-0.925641 18:-0.907353 19:-0.754717 20:-0.904095 
-0.7881281652766573 1:-0.97026 2:-0.836066 3:-0.760915 4:-0.764331 5:-0.922862 6:-0.89751 7:-0.876426 8:-0.758507 9:-0.863687 10:-0.787709 11:-0.94802 12:-0.830986 13:-0.888121 14:-0.882667 15:-0.876122 16:-0.848101 17:-0.860256 18:-0.855882 19:-0.675472 20:-0.853448 
-0.5654312738663227 1:-0.967782 2:-0.92623 3:-0.871102 4:-0.611465 5:-0.968698 6:-0.947318 7:-0.91635 8:-0.918771 9:-0.414525 10:-0.44581 11:-0.980198 12:-0.919014 13:-0.967316 14:-0.889778 15:-0.932675 16:-0.926864 17:-0.94359 18:-0.927941 19:-0.675472 20:-0.892241 
-8 1:-0.982652 2:-0.827869 3:-0.898129 4:-0.738854 5:-0.979877 6:-0.961686 7:-0.973384 8:-0.91438 9:-0.982123 10:-0.962011 11:-0.991337 12:-0.93662 13:-0.973602 14:-0.957333 15:-0.970377 16:-0.971871 17:-0.980769 18:-0.976471 19:-0.818868 20:-0.954741 
-0.225237158685699 1:-0.744734 2:-0.754098 3:-0.713098 4:-0.694268 5:-0.863611 6:-0.832375 7:-0.861217 8:-0.83315 9:-0.839106 10:-0.859218 11:-0.844059 12:-0.707746 13:-0.844123 14:-0.907556 15:-0.836625 16:-0.749648 17:-0.811538 18:-0.832353 19:-0.849057 20:-0.731681 
-2.91277686387834 1:-0.853779 2:-0.803279 3:-0.819127 4:-0.579618 5:-0.930688 6:-0.939655 7:-0.874525 8:-0.837541 9:-0.87486 10:-0.87933 11:-0.92698 12:-0.753521 13:-0.933375 14:-0.918222 15:-0.925494 16:-0.870605 17:-0.903846 18:-0.911765 19:-0.735849 20:-0.894397 
-0.5242403578024365 1:-0.945477 2:-0.831967 3:-0.864865 4:-0.235669 5:-0.96199 6:-0.903257 7:-0.882129 8:-0.8573 9:-0.897207 10:-0.651397 11:-0.960396 12:-0.816901 13:-0.90572 14:-0.904 15:-0.90395 16:-0.842475 17:-0.952564 18:-0.951471 19:-0.513208 20:-0.920259 
-0.3900174191540276 1:-0.796778 2:-0.647541 3:-0.681913 4:-0.356688 5:-0.839016 6:-0.775862 7:-0.779468 8:-0.613611 9:-0.593296 10:0.781006 11:-0.832921 12:-0.612676 13:-0.728473 14:-0.84 15:-0.734291 16:-0.614627 17:-0.794872 18:-0.667647 19:-0.679245 20:-0.237069 
-2.045804965828326 1:-0.786865 2:-0.831967 3:-0.962578 4:-0.942675 5:-0.856903 6:-0.837165 7:-0.960076 8:-0.874863 9:-0.90838 10:-0.946369 11:-0.80198 12:-0.795775 13:-0.807668 14:-0.943111 15:-0.841113 16:-0.774965 17:-0.820513 18:-0.852941 19:-0.977358 20:-0.84806 
-8 1:-0.938042 2:-0.92623 3:-0.93763 4:-0.866242 5:-0.976523 6:-0.94636 7:-0.980989 8:-0.949506 9:-0.962011 10:-0.944134 11:-0.964109 12:-0.890845 13:-0.935889 14:-0.968 15:-0.94614 16:-0.938115 17:-0.962821 18:-0.966176 19:-0.958491 20:-0.919181 
-0.1115406059453318 1:-0.833953 2:-0.709016 3:-0.810811 4:-0.299363 5:-0.884852 6:-0.876437 7:-0.885932 8:-0.758507 9:-0.772067 10:-0.206704 11:-0.860149 12:-0.71831 13:-0.829038 14:-0.927111 15:-0.863555 16:-0.676512 17:-0.876923 18:-0.792647 19:-0.698113 20:-0.811422 
-8 1:-0.962825 2:-0.934426 3:-0.923077 4:-0.89172 5:-0.968698 6:-0.960728 7:-0.952471 8:-0.929748 9:-0.991061 10:-0.957542 11:-0.980198 12:-0.922535 13:-0.96983 14:-0.932444 15:-0.95781 16:-0.929677 17:-0.970513 18:-0.955882 19:-0.939623 20:-0.942888 
-8 1:-0.965304 2:-0.672131 3:-0.93763 4:-0.636943 5:-0.978759 6:-0.954981 7:-0.908745 8:-0.918771 9:-0.856983 10:-0.93743 11:-0.966584 12:-0.81338 13:-0.95726 14:-0.914667 15:-0.967684 16:-0.814346 17:-0.975641 18:-0.982353 19:-0.743396 20:-0.96875 
-0.3884871107448486 1:-0.903346 2:-0.594262 3:-0.677755 4:0.541401 5:-0.920626 6:-0.845785 7:-0.614068 8:-0.751921 9:-0.667039 10:-0.427933 11:-0.940594 12:-0.658451 13:-0.912005 14:-0.676444 15:-0.859964 16:-0.676512 17:-0.928205 18:-0.891176 19:-0.4 20:-0.665948 
-0.2360723920136517 1:-0.682776 2:-0.245902 3:-0.740125 4:-0.350318 5:-0.830073 6:-0.745211 7:-0.711027 8:-0.686059 9:-0.785475 10:-0.763128 11:-0.84901 12:-0.429577 13:-0.697046 14:-0.706667 15:-0.777379 16:-0.47398 17:-0.797436 18:-0.836765 19:-0.679245 20:-0.784483 
-3.083743492480583 1:-0.836431 2:-0.745902 3:-0.902287 4:-0.789809 5:-0.951928 6:-0.926245 7:-0.925856 8:-0.903403 9:-0.886034 10:-0.888268 11:-0.92698 12:-0.830986 13:-0.904463 14:-0.902222 15:-0.93088 16:-0.890295 17:-0.930769 18:-0.955882 19:-0.913208 20:-0.94181 
-0.3914624214687215 1:1 2:0.971311 3:-0.189189 4:0.299363 5:1 6:1 7:1 8:1 9:0.653631 10:0.121788 11:1 12:1 13:1 14:1 15:1 16:1 17:1 18:1 19:0.14717 20:1 
-8 1:-0.95539 2:-0.95082 3:-0.975052 4:-0.961783 5:-0.974287 6:-0.969349 7:-0.984791 8:-0.962678 9:-0.991061 10:-0.988827 11:-0.97401 12:-0.919014 13:-0.954745 14:-0.984 15:-0.979354 16:-0.946554 17:-0.976923 18:-0.969118 19:-0.966038 20:-0.970905 
-0.2551982391648666 1:-0.744734 2:-0.577869 3:-0.663202 4:-0.11465 5:-0.822247 6:-0.820881 7:-0.756654 8:-0.648738 9:-0.740782 10:-0.653631 11:-0.818069 12:-0.566901 13:-0.806411 14:-0.726222 15:-0.815081 16:-0.676512 17:-0.832051 18:-0.835294 19:-0.218868 20:-0.762931 
-8 1:-0.980173 2:-0.938525 3:-0.95842 4:-0.789809 5:-0.99441 6:-0.992337 7:-0.942966 8:-0.989023 9:-0.968715 10:-1 11:-0.990099 12:-0.954225 13:-0.981144 14:-0.952 15:-0.991921 16:-0.971871 17:-0.996154 18:-0.995588 19:-0.898113 20:-1 
-0.1171070654664488 1:-0.811648 2:-0.643443 3:-0.783784 4:-0.43949 5:-0.870319 6:-0.820881 7:-0.598859 8:-0.798024 9:-0.559777 10:-0.591061 11:-0.852723 12:-0.450704 13:-0.82401 14:-0.710222 15:-0.803411 16:-0.518987 17:-0.870513 18:-0.872059 19:-0.667925 20:-0.814655 
-1.181991234196412 1:-0.868649 2:-0.77459 3:-0.602911 4:-0.503185 5:-0.942985 6:-0.911877 7:-0.91635 8:-0.819978 9:-0.881564 10:-0.877095 11:-0.95297 12:-0.802817 13:-0.945946 14:-0.948444 15:-0.908438 16:-0.853727 17:-0.90641 18:-0.939706 19:-0.245283 20:-0.877155 
-0.3280258632195439 1:-0.769517 2:-0.729508 3:-0.804574 4:-0.757962 5:-0.84237 6:-0.808429 7:-0.838403 8:-0.811196 9:-0.486034 10:-0.649162 11:-0.821782 12:-0.658451 13:-0.7511 14:-0.68 15:-0.809695 16:-0.729958 17:-0.829487 18:-0.791176 19:-0.864151 20:-0.739224 
-5.44292821913322 1:-0.947955 2:-0.881148 3:-0.939709 4:-0.974522 5:-0.970933 6:-0.963602 7:-0.929658 8:-0.916575 9:-0.87486 10:-0.935196 11:-0.977723 12:-0.894366 13:-0.986172 14:-0.934222 15:-0.965889 16:-0.921238 17:-0.978205 18:-0.982353 19:-0.875472 20:-0.956897 
