svm_type c_svc
kernel_type rbf
gamma 2
nr_class 2
total_sv 150
rho 0.867229
label 1 -1
nr_sv 77 73
SV
40.62884283149472 1:-0.996564 2:-0.986733 3:-0.974895 4:-0.976959 5:-1 6:-0.982022 7:-1 8:-0.968317 9:-0.981735 10:-1 11:-0.986755 12:-1 13:-0.983099 14:-0.996581 15:-0.973832 16:-0.997475 17:-1 18:-0.99763 19:-0.985612 20:-0.996997 
293.7941450406956 1:-0.876289 2:-0.880597 3:-0.853556 4:-0.847926 5:-0.861702 6:-0.833708 7:-0.872861 8:-0.825743 9:-0.853881 10:-0.888502 11:-0.897824 12:-0.865031 13:-0.83662 14:-0.866667 15:-0.876636 16:-0.876263 17:-0.867769 18:-0.890995 19:-0.913669 20:-0.906907 
0.7337626692784248 1:-0.43299 2:-0.111111 3:-0.690377 4:-0.645161 5:-0.702128 6:-0.770787 7:-0.731051 8:-0.821782 9:-0.744292 10:-0.857143 11:-0.801325 12:-0.588957 13:-0.453521 14:-0.835897 15:-0.708411 16:-0.765152 17:-0.772727 18:-0.71564 19:-0.798561 20:-0.111111 
26.00016925851414 1:-0.95189 2:-0.817579 3:-0.870293 4:-0.880184 5:-0.882979 6:-0.892135 7:-0.882641 8:-0.90495 9:-0.803653 10:-0.912892 11:-0.94702 12:-0.877301 13:-0.71831 14:-0.907692 15:-0.813084 16:-0.909091 17:-0.909091 18:-0.933649 19:-0.884892 20:-0.705706 
1.868196610415219 1:-0.587629 2:-0.648425 3:1 4:0.714286 5:0.606383 6:0.438202 7:-0.100244 8:0.342574 9:1 10:0.543554 11:-0.570482 12:0.374233 13:0.769014 14:0.34359 15:1 16:-0.598485 17:0.0330579 18:-0.559242 19:0.535971 20:-0.678679 
1.165970594564129 1:-0.508591 2:-0.588723 3:-0.209205 4:-0.364055 5:-0.478723 6:-0.393258 7:-0.369193 8:-0.00990099 9:-0.575342 10:-0.268293 11:-0.789972 12:-0.539877 13:-0.667606 14:-0.128205 15:-0.442991 16:-0.828283 17:0.0909091 18:-0.744076 19:-0.417266 20:-0.678679 
47.36514747248311 1:-0.642612 2:-0.864013 3:-0.786611 4:-0.774194 5:-0.81383 6:-0.752809 7:-0.687042 8:-0.750495 9:-0.799087 10:-0.773519 11:-0.82403 12:-0.815951 13:-0.695775 14:-0.801709 15:-0.745794 16:-0.671717 17:-0.702479 18:-0.812796 19:-0.834532 20:-0.861862 
50.66036170516029 1:-0.721649 2:-0.721393 3:-0.799163 4:-0.774194 5:-0.760638 6:-0.851685 7:-0.740831 8:-0.790099 9:-0.817352 10:-0.839721 11:-0.956481 12:-0.693252 13:-0.723944 14:-0.842735 15:-0.764486 16:-0.926768 17:-0.760331 18:-0.741706 19:-0.823741 20:-0.714715 
4.57462420989602 1:-0.525773 2:-0.286899 3:-0.523013 4:-0.539171 5:-0.680851 6:-0.613483 7:-0.540342 8:-0.762376 9:-0.488584 10:-0.780488 11:-0.750237 12:-0.558282 13:-0.273239 14:-0.784615 15:-0.566355 16:-0.712121 17:-0.702479 18:-0.651659 19:-0.719424 20:-0.477477 
147.1185880841551 1:-0.927835 2:-0.827529 3:-0.832636 4:-0.894009 5:-0.909574 6:-0.941573 7:-0.863081 8:-0.885149 9:-0.835616 10:-0.902439 11:-0.952696 12:-0.865031 13:-0.780282 14:-0.945299 15:-0.779439 16:-0.926768 17:-0.863636 18:-0.912322 19:-0.874101 20:-0.798799 
15.24877208267683 1:-0.869416 2:-0.800995 3:-0.887029 4:-0.751152 5:-0.840426 6:-0.833708 7:-0.93154 8:-0.885149 9:-0.899543 10:-0.891986 11:-0.945128 12:-0.815951 13:-0.830986 14:-0.863248 15:-0.876636 16:-0.954545 17:-0.859504 18:-0.912322 19:-0.863309 20:-0.855856 
1.146238159451614 1:-0.0996564 2:-0.393035 3:-0.372385 4:-0.24424 5:-0.324468 6:-0.339326 7:-0.310513 8:-0.512871 9:-0.283105 10:-0.473868 11:-0.704825 12:-0.153374 13:-0.205634 14:-0.415385 15:-0.48785 16:-0.669192 17:-0.442149 18:-0.523697 19:-0.615108 20:-0.45045 
0.09859206544763827 1:-0.769759 2:-0.681592 3:-0.451883 4:-0.516129 5:-0.712766 6:-0.550562 7:-0.711491 8:-0.239604 9:-0.634703 10:-0.463415 11:-0.859981 12:-0.834356 13:-0.667606 14:-0.244444 15:-0.457944 16:-0.825758 17:-0.301653 18:-0.888626 19:-0.352518 20:-0.720721 
8.130056112281784 1:-0.797251 2:-0.754561 3:-0.598326 4:-0.483871 5:-0.595745 6:-0.586517 7:-0.814181 8:-0.659406 9:-0.579909 10:-0.696864 11:-0.878903 12:-0.607362 13:-0.55493 14:-0.569231 15:-0.656075 16:-0.878788 17:-0.590909 18:-0.893365 19:-0.625899 20:-0.735736 
8.999729801160019 1:-0.749141 2:-0.615257 3:-0.531381 4:-0.520737 5:-0.601064 6:-0.644944 7:-0.540342 8:-0.429703 9:-0.684932 10:-0.585366 11:-0.754021 12:-0.552147 13:-0.64507 14:-0.651282 15:-0.614953 16:-0.772727 17:-0.570248 18:-0.862559 19:-0.683453 20:-0.63964 
1.743669178623948 1:-0.56701 2:-0.542289 3:-0.439331 4:-0.313364 5:0.111702 6:-0.258427 7:-0.574572 8:-0.572277 9:-0.634703 10:-0.236934 11:-0.941343 12:0.0184049 13:-0.64507 14:0.0119658 15:-0.558879 16:-0.931818 17:0.743802 18:-0.526066 19:-0.658273 20:-0.435435 
0.7026265469478929 1:-0.0446735 2:-0.708126 3:-0.527197 4:-0.43318 5:-0.31383 6:-0.393258 7:-0.545232 8:-0.568317 9:-0.452055 10:-0.473868 11:-0.84106 12:-0.257669 13:-0.622535 14:-0.394872 15:-0.536449 16:-0.843434 17:-0.11157 18:-0.438389 19:-0.755396 20:-0.750751 
28.00989627152691 1:-0.838488 2:-0.718076 3:-0.707113 4:-0.672811 5:-0.776596 6:-0.703371 7:-0.789731 8:-0.778218 9:-0.776256 10:-0.818815 11:-0.848628 12:-0.717791 13:-0.678873 14:-0.774359 15:-0.682243 16:-0.85101 17:-0.834711 18:-0.817536 19:-0.802158 20:-0.648649 
4.670276451345151 1:-0.718213 2:-0.542289 3:-0.832636 4:-0.847926 5:-0.867021 6:-0.851685 7:-0.814181 8:-0.877228 9:-0.899543 10:-0.930314 11:-0.839167 12:-0.742331 13:-0.774648 14:-0.852991 15:-0.850467 16:-0.866162 17:-0.842975 18:-0.834123 19:-0.895683 20:-0.468468 
8.193315136028406 1:-0.621993 2:-0.774461 3:-0.631799 4:-0.741935 5:-0.696809 6:-0.734831 7:-0.623472 8:-0.651485 9:-0.648402 10:-0.637631 11:-0.791864 12:-0.809816 13:-0.650704 14:-0.77094 15:-0.626168 16:-0.732323 17:-0.743802 18:-0.670616 19:-0.769784 20:-0.777778 
1.803795730022309 1:-0.477663 2:-0.840796 3:-0.610879 4:-0.788018 5:-0.675532 6:-0.703371 7:-0.462103 8:-0.69505 9:-0.680365 10:-0.696864 11:-0.818354 12:-0.779141 13:-0.571831 14:-0.671795 15:-0.641121 16:-0.782828 17:-0.566116 18:-0.672986 19:-0.794964 20:-0.738739 
1.731063356657826 1:-0.250859 2:-0.217247 3:-0.276151 4:0.0599078 5:0.308511 6:-0.222472 7:-0.398533 8:-0.508911 9:-0.118721 10:-0.390244 11:-0.795648 12:0.490798 13:-0.0253521 14:-0.121368 15:-0.214953 16:-0.765152 17:0.0619835 18:-0.109005 19:-0.381295 20:0.102102 
1.867368807062368 1:1 2:1 3:0.682008 4:0.751152 5:0.760638 6:0.496629 7:1 8:1 9:0.392694 10:0.634146 11:-0.0236518 12:1 13:1 14:0.329915 15:0.379439 16:0.848485 17:0.96281 18:1 19:0.492806 20:1 
1.978195122067484 1:-0.697595 2:-0.638474 3:-0.167364 4:-0.470046 5:-0.505319 6:-0.514607 7:-0.603912 8:-0.374257 9:-0.488584 10:-0.442509 11:-0.324503 12:-0.306748 13:-0.492958 14:-0.603419 15:-0.345794 16:-0.535354 17:-0.545455 18:-0.893365 19:-0.514388 20:-0.510511 
24.77638256403207 1:-0.769759 2:-0.864013 3:-0.861925 4:-0.884793 5:-0.867021 6:-0.851685 7:-0.858191 8:-0.857426 9:-0.899543 10:-0.888502 11:-0.905393 12:-0.877301 13:-0.943662 14:-0.907692 15:-0.899065 16:-0.906566 17:-0.793388 18:-0.879147 19:-0.942446 20:-0.858859 
6.779726460645115 1:-0.865979 2:-0.757877 3:-0.832636 4:-0.81106 5:-0.808511 6:-0.869663 7:-0.838631 8:-0.829703 9:-0.753425 10:-0.87108 11:-0.909177 12:-0.815951 13:-0.71831 14:-0.897436 15:-0.809346 16:-0.858586 17:-0.867769 18:-0.921801 19:-0.827338 20:-0.837838 
1.237039959304949 1:-0.75945 2:-0.230514 3:-0.506276 4:-0.640553 5:-0.739362 6:-0.689888 7:-0.701711 8:-0.493069 9:-0.438356 10:-0.783972 11:-0.765374 12:-0.613497 13:-0.0478873 14:-0.729915 15:-0.386916 16:-0.578283 17:-0.72314 18:-0.781991 19:-0.52518 20:-0.408408 
13.10874008173707 1:-0.683849 2:-0.552239 3:-0.878661 4:-0.83871 5:-0.781915 6:-0.833708 7:-0.858191 8:-0.877228 9:-0.853881 10:-0.905923 11:-0.931883 12:-0.699387 13:-0.735211 14:-0.791453 15:-0.850467 16:-0.924242 17:-0.64876 18:-0.808057 19:-0.906475 20:-0.465465 
6.590103833098357 1:-0.962199 2:-0.99005 3:-0.970711 4:-0.986175 5:-0.957447 6:-0.995506 7:-0.96577 8:-0.988119 9:-0.981735 10:-0.989547 11:-0.990539 12:-0.96319 13:-0.988732 14:-0.965812 15:-0.981308 16:-0.992424 17:-0.946281 18:-0.921801 19:-0.996403 20:-0.972973 
4.944034649840152 1:-0.67354 2:-0.61194 3:-0.460251 4:-0.502304 5:-0.606383 6:-0.555056 7:-0.540342 8:-0.663366 9:-0.611872 10:-0.592334 11:-0.740776 12:-0.668712 13:-0.515493 14:-0.521368 15:-0.442991 16:-0.79798 17:-0.392562 18:-0.879147 19:-0.73741 20:-0.624625 
5.121077303561091 1:-0.752577 2:-0.621891 3:-0.841004 4:-0.778802 5:-0.776596 6:-0.721348 7:-0.0562347 8:-0.89703 9:-0.785388 10:-0.916376 11:-0.901608 12:-0.717791 13:-0.830986 14:-0.82906 15:-0.820561 16:-0.89899 17:-0.739669 18:-0.824645 19:-0.931655 20:-0.675676 
9.594062001011318 1:-0.865979 2:-0.588723 3:-0.849372 4:-0.815668 5:-0.87234 6:-0.725843 7:-0.779951 8:-0.90099 9:-0.808219 10:-0.902439 11:-0.825922 12:-0.803681 13:-0.71831 14:-0.873504 15:-0.813084 16:-0.714646 17:-0.842975 18:-0.914692 19:-0.899281 20:-0.768769 
6.485607921213273 1:-0.463918 2:-0.674959 3:-0.728033 4:-0.506912 5:-0.56383 6:-0.582022 7:-0.677262 8:-0.770297 9:-0.634703 10:-0.763066 11:-0.788079 12:-0.582822 13:-0.785915 14:-0.531624 15:-0.71215 16:-0.853535 17:-0.438017 18:-0.845972 19:-0.838129 20:-0.780781 
153.5636539715981 1:-0.783505 2:-0.681592 3:-0.857741 4:-0.751152 5:-0.845745 6:-0.829213 7:-0.760391 8:-0.89703 9:-0.853881 10:-0.919861 11:-0.922422 12:-0.797546 13:-0.757746 14:-0.887179 15:-0.854206 16:-0.901515 17:-0.884298 18:-0.909953 19:-0.910072 20:-0.801802 
28.66563330342829 1:-0.893471 2:-0.605307 3:-0.887029 4:-0.861751 5:-0.744681 6:-0.901124 7:-0.867971 8:-0.960396 9:-0.83105 10:-0.961672 11:-0.931883 12:-0.760736 13:-0.673239 14:-0.935043 15:-0.846729 16:-0.830808 17:-0.942149 18:-0.862559 19:-0.920863 20:-0.768769 
27.82319573360506 1:-0.841924 2:-0.84743 3:-0.648536 4:-0.658986 5:-0.696809 6:-0.707865 7:-0.765281 8:-0.714851 9:-0.703196 10:-0.641115 11:-0.859981 12:-0.674847 13:-0.729577 14:-0.705983 15:-0.704673 16:-0.843434 17:-0.661157 18:-0.893365 19:-0.776978 20:-0.864865 
4.775928863836974 1:-0.697595 2:-0.678275 3:-0.60251 4:-0.43318 5:-0.335106 6:-0.478652 7:-0.647922 8:-0.663366 9:-0.543379 10:-0.637631 11:-0.899716 12:-0.233129 13:-0.380282 14:-0.634188 15:-0.543925 16:-0.823232 17:-0.53719 18:-0.817536 19:-0.651079 20:-0.732733 
1.937922545748943 1:-0.721649 2:-0.671642 3:0.0920502 4:0.506912 5:-0.170213 6:0.447191 7:-0.569682 8:0.207921 9:-0.0776256 10:-0.247387 11:-0.619678 12:-0.202454 13:0.385915 14:-0.0358974 15:-0.0953271 16:-0.60101 17:-0.214876 18:-0.890995 19:0.151079 20:-0.744745 
1.881792416662188 1:-0.690722 2:-0.472637 3:-0.405858 4:-0.138249 5:-0.223404 6:-0.253933 7:-0.647922 8:-0.516832 9:-0.305936 10:-0.529617 11:-0.793756 12:-0.0306748 13:-0.0422535 14:-0.507692 15:-0.405607 16:-0.694444 17:-0.570248 18:-0.661137 19:-0.507194 20:-0.504505 
0.6424893161114316 1:-0.281787 2:-0.45937 3:-0.460251 4:-0.396313 5:-0.5 6:-0.420225 7:-0.442543 8:-0.40198 9:-0.598174 10:-0.45993 11:-0.659413 12:-0.435583 13:-0.391549 14:-0.353846 15:-0.536449 16:-0.560606 17:-0.14876 18:-0.618483 19:-0.582734 20:-0.429429 
134.9541132087851 1:-0.890034 2:-0.927032 3:-0.874477 4:-0.847926 5:-0.893617 6:-0.838202 7:-0.9022 8:-0.873267 9:-0.876712 10:-0.919861 11:-0.928098 12:-0.871166 13:-0.864789 14:-0.880342 15:-0.850467 16:-0.939394 17:-0.896694 18:-0.945498 19:-0.884892 20:-0.984985 
4.207408013958671 1:-0.835052 2:-0.313433 3:-0.782427 4:-0.668203 5:-0.739362 6:-0.67191 7:-0.765281 8:-0.790099 9:-0.739726 10:-0.8223 11:-0.833491 12:-0.662577 13:-0.780282 14:-0.808547 15:-0.798131 16:-0.80303 17:-0.801653 18:-0.836493 19:-0.823741 20:-0.318318 
1.818639849215239 1:-0.814433 2:-0.800995 3:-0.154812 4:-0.276498 5:-0.547872 6:-0.420225 7:-0.638142 8:-0.176238 9:-0.3379 10:-0.254355 11:-0.837275 12:-0.619632 13:-0.459155 14:-0.25812 15:-0.364486 16:-0.79798 17:-0.417355 18:-0.864929 19:-0.334532 20:-0.888889 
169.8749545833866 1:-0.893471 2:-0.890547 3:-0.8159 4:-0.774194 5:-0.781915 6:-0.833708 7:-0.877751 8:-0.833663 9:-0.771689 10:-0.832753 11:-0.945128 12:-0.815951 13:-0.723944 14:-0.822222 15:-0.809346 16:-0.936869 17:-0.85124 18:-0.898104 19:-0.830935 20:-0.867868 
512 1:-0.917526 2:-0.887231 3:-0.912134 4:-0.884793 5:-0.882979 6:-0.919101 7:-0.9022 8:-0.928713 9:-0.940639 10:-0.916376 11:-0.971618 12:-0.92638 13:-0.938028 14:-0.880342 15:-0.947664 16:-0.992424 17:-0.863636 18:-0.947867 19:-0.942446 20:-0.915916 
1.139231705919127 1:-0.687285 2:-0.462687 3:-0.230126 4:-0.207373 5:-0.234043 6:-0.213483 7:-0.496333 8:-0.425743 9:-0.278539 10:-0.296167 11:-0.805109 12:-0.233129 13:-0.143662 14:-0.326496 15:-0.353271 16:-0.777778 17:-0.318182 18:-0.781991 19:-0.492806 20:-0.483483 
183.1210333083857 1:-0.896907 2:-0.804312 3:-0.891213 4:-0.834101 5:-0.882979 6:-0.829213 7:-0.9511 8:-0.908911 9:-0.885845 10:-0.933798 11:-0.931883 12:-0.846626 13:-0.876056 14:-0.900855 15:-0.91028 16:-0.931818 17:-0.933884 18:-0.947867 19:-0.866906 20:-0.870871 
8.301039792060957 1:-0.886598 2:-0.499171 3:-0.707113 4:-0.741935 5:-0.787234 6:-0.851685 7:-0.804401 8:-0.80198 9:-0.757991 10:-0.864111 11:-0.644276 12:-0.754601 13:-0.622535 14:-0.873504 15:-0.71215 16:-0.70202 17:-0.867769 18:-0.914692 19:-0.877698 20:-0.666667 
9.115072105477537 1:-0.611684 2:-0.698176 3:-0.669456 4:-0.737327 5:-0.81383 6:-0.734831 7:-0.530562 8:-0.588119 9:-0.671233 10:-0.71777 11:-0.706717 12:-0.760736 13:-0.628169 14:-0.736752 15:-0.659813 16:-0.64899 17:-0.657025 18:-0.758294 19:-0.748201 20:-0.672673 
3.270479875510687 1:-0.762887 2:-0.552239 3:-0.598326 4:-0.529954 5:-0.707447 6:-0.568539 7:-0.574572 8:-0.453465 9:-0.634703 10:-0.728223 11:-0.861873 12:-0.631902 13:-0.36338 14:-0.634188 15:-0.626168 16:-0.757576 17:-0.623967 18:-0.772512 19:-0.485612 20:-0.582583 
5.604405155394367 1:-0.632302 2:-0.913765 3:-0.669456 4:-0.428571 5:-0.643617 6:-0.505618 7:-0.555012 8:-0.687129 9:-0.712329 10:-0.536585 11:-0.873226 12:-0.717791 13:-0.701408 14:-0.538462 15:-0.697196 16:-0.830808 17:-0.549587 18:-0.845972 19:-0.809353 20:-0.915916 
1.14034421663883 1:-0.718213 2:-0.708126 3:-0.820084 4:-0.718894 5:-0.659574 6:-0.716854 7:-0.853301 8:-0.837624 9:-0.794521 10:-0.745645 11:-0.890255 12:-0.680982 13:-0.825352 14:-0.729915 15:-0.771963 16:-0.901515 17:-0.677686 18:-0.815166 19:-0.884892 20:-0.702703 
6.00677846725833 1:-0.862543 2:-0.708126 3:-0.753138 4:-0.672811 5:-0.888298 6:-0.761798 7:-0.804401 8:-0.829703 9:-0.808219 10:-0.857143 11:-0.888363 12:-0.852761 13:-0.808451 14:-0.852991 15:-0.71215 16:-0.772727 17:-0.921488 18:-0.92891 19:-0.830935 20:-0.765766 
1.452641916082199 1:-0.80756 2:-0.85738 3:-0.238494 4:-0.21659 5:-0.5 6:-0.0921348 7:-0.643032 8:-0.271287 9:-0.315068 10:-0.292683 11:-0.793756 12:-0.472393 13:-0.504225 14:-0.282051 15:-0.327103 16:-0.835859 17:-0.322314 18:-0.848341 19:-0.453237 20:-0.822823 
34.67656796215631 1:-0.821306 2:-0.671642 3:-0.694561 4:-0.778802 5:-0.81383 6:-0.761798 7:-0.716381 8:-0.730693 9:-0.703196 10:-0.766551 11:-0.761589 12:-0.723926 13:-0.566197 14:-0.805128 15:-0.719626 16:-0.676768 17:-0.789256 18:-0.824645 19:-0.798561 20:-0.771772 
25.21861956868518 1:-0.85567 2:-0.777778 3:-0.707113 4:-0.847926 5:-0.861702 6:-0.761798 7:-0.804401 8:-0.738614 9:-0.753425 10:-0.700348 11:-0.950804 12:-0.834356 13:-0.746479 14:-0.692308 15:-0.757009 16:-0.934343 17:-0.673554 18:-0.869668 19:-0.708633 20:-0.711712 
1.112458093532345 1:-0.580756 2:-0.525705 3:-0.573222 4:-0.506912 5:-0.356383 6:-0.559551 7:-0.242054 8:-0.556436 9:-0.593607 10:-0.66899 11:-0.816462 12:-0.306748 13:-0.2 14:-0.596581 15:-0.551402 16:-0.606061 17:-0.446281 18:-0.582938 19:-0.643885 20:-0.183183 
34.26580404006173 1:-0.986254 2:-1 3:-0.962343 4:-0.990783 5:-0.973404 6:-0.968539 7:-1 8:-0.976238 9:-1 10:-0.965157 11:-0.992431 12:-0.981595 13:-0.988732 14:-0.979487 15:-0.970093 16:-0.989899 17:-0.958678 18:-0.99763 19:-0.97482 20:-0.996997 
7.240823811044823 1:-0.793814 2:-0.59204 3:-0.774059 4:-0.81106 5:-0.760638 6:-0.85618 7:-0.804401 8:-0.809901 9:-0.726027 10:-0.731707 11:-0.937559 12:-0.809816 13:-0.853521 14:-0.747009 15:-0.745794 16:-0.949495 17:-0.698347 18:-0.917062 19:-0.845324 20:-0.750751 
29.11344661883895 1:-0.879725 2:-0.489221 3:-0.92887 4:-0.834101 5:-0.87234 6:-0.851685 7:-0.877751 8:-0.865347 9:-0.913242 10:-0.940767 11:-0.772942 12:-0.773006 13:-0.870423 14:-0.928205 15:-0.891589 16:-0.719697 17:-0.909091 18:-0.92654 19:-0.917266 20:-0.660661 
100.1873611277372 1:-0.955326 2:-0.986733 3:-0.962343 4:-1 5:-1 6:-0.986517 7:-0.99511 8:-0.976238 9:-0.981735 10:-0.989547 11:-0.979186 12:-0.97546 13:-0.960563 14:-0.989744 15:-0.951402 16:-0.979798 17:-0.991736 18:-0.959716 19:-0.971223 20:-1 
158.0239166262642 1:-1 2:-0.973466 3:-0.970711 4:-0.990783 5:-0.989362 6:-0.982022 7:-0.99511 8:-0.980198 9:-0.990868 10:-0.982578 11:-0.979186 12:-0.98773 13:-0.977465 14:-0.989744 15:-0.981308 16:-0.982323 17:-0.971074 18:-1 19:-0.971223 20:-0.984985 
0.5830019890181366 1:-0.838488 2:-0.787728 3:-0.389121 4:-0.502304 5:-0.744681 6:-0.41573 7:-0.731051 8:-0.532673 9:-0.493151 10:-0.526132 11:-0.848628 12:-0.723926 13:-0.504225 14:-0.528205 15:-0.211215 16:-0.828283 17:-0.640496 18:-0.919431 19:-0.42446 20:-0.900901 
6.700169737106012 1:-0.776632 2:-0.797678 3:-0.648536 4:-0.668203 5:-0.680851 6:-0.703371 7:-0.657702 8:-0.667327 9:-0.785388 10:-0.574913 11:-0.854305 12:-0.601227 13:-0.830986 14:-0.623932 15:-0.839252 16:-0.861111 17:-0.644628 18:-0.827014 19:-0.841727 20:-0.798799 
50.14657520092764 1:-0.71134 2:-0.887231 3:-0.702929 4:-0.870968 5:-0.840426 6:-0.878652 7:-0.794621 8:-0.821782 9:-0.826484 10:-0.738676 11:-0.926206 12:-0.883436 13:-0.864789 14:-0.716239 15:-0.768224 16:-0.929293 17:-0.710744 18:-0.817536 19:-0.884892 20:-0.867868 
160.6445566892789 1:-0.876289 2:-0.930348 3:-0.790795 4:-0.83871 5:-0.776596 6:-0.802247 7:-0.799511 8:-0.70297 9:-0.803653 10:-0.759582 11:-0.907285 12:-0.785276 13:-0.847887 14:-0.760684 15:-0.757009 16:-0.911616 17:-0.731405 18:-0.938389 19:-0.81295 20:-0.891892 
477.7589234103747 1:-0.996564 2:-0.963516 3:-0.991632 4:-0.958525 5:-0.984043 6:-0.968539 7:-0.97066 8:-0.968317 9:-0.977169 10:-0.993031 11:-0.982971 12:-0.98773 13:-0.938028 14:-0.986325 15:-0.992523 16:-0.984848 17:-0.991736 18:-0.99763 19:-0.992806 20:-0.963964 
14.21679105317332 1:-0.876289 2:-0.817579 3:-0.711297 4:-0.718894 5:-0.829787 6:-0.761798 7:-0.833741 8:-0.746535 9:-0.716895 10:-0.749129 11:-0.888363 12:-0.748466 13:-0.611268 14:-0.777778 15:-0.745794 16:-0.823232 17:-0.735537 18:-0.924171 19:-0.766187 20:-0.858859 
29.08054349384429 1:-0.869416 2:-0.820896 3:-0.51046 4:-0.682028 5:-0.739362 6:-0.698876 7:-0.804401 8:-0.639604 9:-0.593607 10:-0.735192 11:-0.895932 12:-0.766871 13:-0.667606 14:-0.705983 15:-0.472897 16:-0.863636 17:-0.797521 18:-0.950237 19:-0.618705 20:-0.822823 
100.780790631977 1:-0.896907 2:-0.837479 3:-0.845188 4:-0.935484 5:-0.968085 6:-0.901124 7:-0.95599 8:-0.746535 9:-0.936073 10:-0.860627 11:-0.937559 12:-0.944785 13:-0.926761 14:-0.791453 15:-0.914019 16:-0.818182 17:-0.855372 18:-0.888626 19:-0.913669 20:-0.930931 
8.774629385987524 1:-0.780069 2:-0.791045 3:-0.774059 4:-0.760369 5:-0.765957 6:-0.78427 7:-0.858191 8:-0.90495 9:-0.826484 10:-0.857143 11:-0.941343 12:-0.687117 13:-0.735211 14:-0.85641 15:-0.786916 16:-0.878788 17:-0.855372 18:-0.893365 19:-0.902878 20:-0.780781 
512 1:-0.900344 2:-0.930348 3:-0.962343 4:-0.9447 5:-0.925532 6:-0.946067 7:-0.95599 8:-0.964356 9:-0.995434 10:-0.986063 11:-0.977294 12:-0.907975 13:-0.977465 14:-0.962393 15:-0.966355 16:-0.957071 17:-0.938017 18:-0.952607 19:-0.971223 20:-0.912913 
247.909599126712 1:-0.931271 2:-0.903814 3:-0.878661 4:-0.930876 5:-0.914894 6:-0.896629 7:-0.882641 8:-0.936634 9:-0.881279 10:-0.933798 11:-0.931883 12:-0.920245 13:-0.853521 14:-0.91453 15:-0.854206 16:-0.896465 17:-0.913223 18:-0.964455 19:-0.899281 20:-0.921922 
126.1485215874213 1:-0.914089 2:-0.940299 3:-0.970711 4:-0.976959 5:-0.989362 6:-0.982022 7:-0.9511 8:-0.976238 9:-0.986301 10:-0.979094 11:-0.971618 12:-0.969325 13:-0.949296 14:-0.969231 15:-0.966355 16:-0.982323 17:-0.942149 18:-0.921801 19:-0.985612 20:-0.906907 
0.705995519570928 1:-0.773196 2:-0.320066 3:-0.376569 4:-0.451613 5:-0.430851 6:-0.501124 7:-0.711491 8:-0.584158 9:-0.452055 10:-0.644599 11:-0.854305 12:-0.496933 13:-0.385915 14:-0.548718 15:-0.424299 16:-0.856061 17:-0.61157 18:-0.834123 19:-0.600719 20:-0.408408 
55.09953149191424 1:-0.838488 2:-0.86733 3:-0.849372 4:-0.829493 5:-0.819149 6:-0.806742 7:-0.872861 8:-0.885149 9:-0.803653 10:-0.864111 11:-0.956481 12:-0.846626 13:-0.735211 14:-0.788034 15:-0.846729 16:-0.949495 17:-0.805785 18:-0.850711 19:-0.834532 20:-0.888889 
1.536905371529557 1:-0.189003 2:-0.3466 3:-0.0711297 4:-0.184332 5:-0.175532 6:-0.307865 7:-0.119804 8:-0.255446 9:-0.0913242 10:-0.379791 11:-0.666982 12:-0.233129 13:-0.0535211 14:-0.340171 15:-0.0542056 16:-0.661616 17:-0.252066 18:-0.545024 19:-0.248201 20:-0.177177 
-1.809278030882366 1:-0.924399 2:-0.575456 3:-0.74477 4:-0.709677 5:-0.760638 6:-0.806742 7:-0.745721 8:-0.738614 9:-0.684932 10:-0.763066 11:-0.793756 12:-0.625767 13:-0.71831 14:-0.82906 15:-0.734579 16:-0.70202 17:-0.809917 18:-0.947867 19:-0.823741 20:-0.663664 
-2.325875486098374 1:-0.745704 2:-0.986733 3:-0.569038 4:-0.539171 5:-0.702128 6:-0.523596 7:-0.599022 8:-0.615842 9:-0.634703 10:-0.644599 11:-0.865658 12:-0.766871 13:-0.864789 14:-0.51453 15:-0.566355 16:-0.909091 17:-0.557851 18:-0.893365 19:-0.723022 20:-0.96997 
-10.64218915057341 1:-0.676976 2:-0.548922 3:-0.711297 4:-0.847926 5:-0.712766 6:-0.833708 7:-0.540342 8:-0.865347 9:-0.625571 10:-0.8223 11:-0.858089 12:-0.699387 13:-0.740845 14:-0.822222 15:-0.674766 16:-0.818182 17:-0.805785 18:-0.722749 19:-0.784173 20:-0.411411 
-0.2140192823335563 1:-0.508591 2:-0.628524 3:0.539749 4:0.0552995 5:-0.196809 6:0.240449 7:-0.183374 8:0.473267 9:0.159817 10:0.181185 11:-0.663198 12:-0.288344 13:0.583099 14:0.0905983 15:0.446729 16:-0.608586 17:-0.0330579 18:-0.753555 19:0.395683 20:-0.747748 
-2.653459162650413 1:-0.690722 2:-0.777778 3:-0.305439 4:-0.225806 5:-0.542553 6:-0.182022 7:-0.530562 8:-0.350495 9:-0.365297 10:-0.473868 11:-0.759697 12:-0.503067 13:-0.290141 14:-0.405128 15:-0.364486 16:-0.714646 17:-0.570248 18:-0.791469 19:-0.435252 20:-0.750751 
-73.20962947589021 1:-0.886598 2:-0.718076 3:-0.74477 4:-0.912442 5:-0.930851 6:-0.896629 7:-0.863081 8:-0.90099 9:-0.83105 10:-0.87108 11:-0.833491 12:-0.92638 13:-0.752113 14:-0.887179 15:-0.730841 16:-0.891414 17:-0.900826 18:-0.966825 19:-0.856115 20:-0.933934 
-151.9943862610938 1:-0.869416 2:-0.87728 3:-0.828452 4:-0.78341 5:-0.744681 6:-0.775281 7:-0.823961 8:-0.853465 9:-0.744292 10:-0.857143 11:-0.952696 12:-0.785276 13:-0.684507 14:-0.82906 15:-0.801869 16:-0.911616 17:-0.859504 18:-0.943128 19:-0.838129 20:-0.864865 
-0.05333988599320947 1:-0.106529 2:-0.668325 3:-0.560669 4:-0.585253 5:-0.510638 6:-0.568539 7:0.276284 8:-0.485149 9:-0.707763 10:-0.609756 11:-0.835383 12:-0.521472 13:-0.639437 14:-0.37094 15:-0.66729 16:-0.464646 17:0.235537 18:-0.07109 19:-0.741007 20:-0.435435 
-93.65478117523452 1:-0.831615 2:-0.844113 3:-0.903766 4:-0.880184 5:-0.93617 6:-0.92809 7:-0.9022 8:-0.936634 9:-0.913242 10:-0.947735 11:-0.954588 12:-0.93865 13:-0.847887 14:-0.911111 15:-0.925234 16:-0.974747 17:-0.921488 18:-0.898104 19:-0.928058 20:-0.852853 
-0.2477977212552875 1:-0.171821 2:-0.18408 3:-0.661088 4:-0.327189 5:-0.425532 6:-0.523596 7:0.242054 8:-0.821782 9:-0.424658 10:-0.801394 11:-0.774834 12:-0.331288 13:-0.549296 14:-0.661538 15:-0.517757 16:-0.641414 17:-0.541322 18:0.00236967 19:-0.715827 20:0.0660661 
-24.48590672351349 1:-0.780069 2:-0.522388 3:-0.803347 4:-0.760369 5:-0.739362 6:-0.716854 7:-0.784841 8:-0.794059 9:-0.73516 10:-0.836237 11:-0.884579 12:-0.773006 13:-0.707042 14:-0.811966 15:-0.786916 16:-0.805556 17:-0.826446 18:-0.902844 19:-0.76259 20:-0.672673 
-13.14189087092124 1:-0.701031 2:-0.943615 3:-0.790795 4:-0.829493 5:-0.861702 6:-0.842697 7:-0.608802 8:-0.805941 9:-0.840183 10:-0.832753 11:-0.865658 12:-0.846626 13:-0.847887 14:-0.791453 15:-0.768224 16:-0.833333 17:-0.842975 18:-0.815166 19:-0.791367 20:-0.942943 
-40.43459868447469 1:-0.879725 2:-0.658375 3:-0.631799 4:-0.663594 5:-0.75 6:-0.707865 7:-0.721271 8:-0.675248 9:-0.707763 10:-0.735192 11:-0.706717 12:-0.693252 13:-0.566197 14:-0.736752 15:-0.697196 16:-0.737374 17:-0.77686 18:-0.895735 19:-0.715827 20:-0.711712 
-3.428369372178789 1:-0.773196 2:-0.366501 3:-0.824268 4:-0.691244 5:-0.765957 6:-0.694382 7:-0.760391 8:-0.841584 9:-0.762557 10:-0.843206 11:-0.839167 12:-0.766871 13:-0.633803 14:-0.832479 15:-0.749533 16:-0.747475 17:-0.809917 18:-0.909953 19:-0.820144 20:-0.576577 
-172.6605530161646 1:-0.934708 2:-0.920398 3:-0.949791 4:-0.921659 5:-0.898936 6:-0.914607 7:-0.92176 8:-0.952475 9:-0.954338 10:-0.954704 11:-0.962157 12:-0.969325 13:-0.949296 14:-0.952137 15:-0.947664 16:-0.967172 17:-0.96281 18:-0.966825 19:-0.967626 20:-0.927928 
-45.0572787767771 1:-0.941581 2:-0.532338 3:-0.803347 4:-0.815668 5:-0.867021 6:-0.833708 7:-0.843521 8:-0.817822 9:-0.86758 10:-0.839721 11:-0.89404 12:-0.834356 13:-0.819718 14:-0.842735 15:-0.786916 16:-0.901515 17:-0.809917 18:-0.962085 19:-0.827338 20:-0.777778 
-3.820609386590346 1:-0.718213 2:-0.668325 3:-0.677824 4:-0.56682 5:-0.595745 6:-0.6 7:-0.696822 8:-0.710891 9:-0.593607 10:-0.787456 11:-0.901608 12:-0.552147 13:-0.55493 14:-0.654701 15:-0.678505 16:-0.878788 17:-0.628099 18:-0.781991 19:-0.751799 20:-0.654655 
-47.86559935346823 1:-0.948454 2:-0.834163 3:-0.832636 4:-0.820276 5:-0.808511 6:-0.793258 7:-0.853301 8:-0.809901 9:-0.881279 10:-0.808362 11:-0.982971 12:-0.785276 13:-0.842254 14:-0.794872 15:-0.854206 16:-0.977273 17:-0.838843 18:-0.971564 19:-0.866906 20:-0.903904 
-8.327728900782578 1:-0.886598 2:-0.721393 3:-0.916318 4:-0.958525 5:-0.994681 6:-0.941573 7:-0.94132 8:-0.908911 9:-0.863014 10:-0.902439 11:-0.971618 12:-0.920245 13:-0.932394 14:-0.91453 15:-0.884112 16:-0.957071 17:-0.904959 18:-0.86019 19:-0.946043 20:-0.510511 
-44.52763798782739 1:-0.835052 2:-0.913765 3:-0.786611 4:-0.769585 5:-0.781915 6:-0.757303 7:-0.784841 8:-0.782178 9:-0.817352 10:-0.881533 11:-0.929991 12:-0.748466 13:-0.695775 14:-0.82906 15:-0.820561 16:-0.835859 17:-0.838843 18:-0.881517 19:-0.81295 20:-0.912913 
-0.727436387382143 1:0.109966 2:-0.402985 3:0.0711297 4:-0.479263 5:-0.382979 6:-0.510112 7:-0.154034 8:-0.318812 9:-0.0319635 10:-0.477352 11:-0.685904 12:-0.417178 13:-0.329577 14:-0.377778 15:0.00560748 16:-0.611111 17:-0.0371901 18:-0.227488 19:-0.276978 20:-0.45045 
-8.246747271248339 1:-0.745704 2:-0.830846 3:-0.757322 4:-0.705069 5:-0.691489 6:-0.739326 7:-0.286064 8:-0.564356 9:-0.899543 10:-0.766551 11:-0.916746 12:-0.699387 13:-0.859155 14:-0.610256 15:-0.831776 16:-0.792929 17:-0.309917 18:-0.824645 19:-0.766187 20:-0.87988 
-11.06645692907887 1:-0.797251 2:-0.681592 3:-0.589958 4:-0.668203 5:-0.835106 6:-0.658427 7:-0.779951 8:-0.639604 9:-0.6621 10:-0.738676 11:-0.829707 12:-0.797546 13:-0.6 14:-0.699145 15:-0.491589 16:-0.866162 17:-0.673554 18:-0.93128 19:-0.593525 20:-0.747748 
-0.151872410967741 1:0.0309278 2:-0.393035 3:-0.276151 4:-0.290323 5:-0.441489 6:-0.325843 7:0.770171 8:-0.334653 9:-0.465753 10:-0.480836 11:-0.66509 12:-0.226994 13:-0.233803 14:-0.452991 15:-0.398131 16:-0.247475 17:-0.31405 18:-0.613744 19:-0.489209 20:-0.654655 
-2.507229415558398 1:-0.487973 2:-0.777778 3:-0.535565 4:-0.520737 5:-0.638298 6:-0.698876 7:-0.462103 8:-0.524752 9:-0.552511 10:-0.637631 11:-0.697256 12:-0.717791 13:-0.188732 14:-0.531624 15:-0.472897 16:-0.616162 17:-0.57438 18:-0.701422 19:-0.582734 20:-0.756757 
-4.559850158647516 1:-0.910653 2:-0.645108 3:-0.769874 4:-0.861751 5:-0.882979 6:-0.865169 7:-0.853301 8:-0.881188 9:-0.726027 10:-0.947735 11:-0.861873 12:-0.932515 13:-0.498592 14:-0.928205 15:-0.723364 16:-0.828283 17:-0.954545 18:-0.943128 19:-0.863309 20:-0.666667 
-0.08438143905731943 1:-0.676976 2:-0.472637 3:-0.615063 4:-0.62212 5:-0.675532 6:-0.71236 7:-0.584352 8:-0.671287 9:-0.589041 10:-0.825784 11:-0.502365 12:-0.656442 13:-0.476056 14:-0.825641 15:-0.671028 16:-0.426768 17:-0.77686 18:-0.699052 19:-0.661871 20:-0.423423 
-0.1329020886284928 1:-0.171821 2:-0.489221 3:0.623431 4:0.198157 5:-0.218085 6:0.240449 7:0.794621 8:0.873267 9:0.210046 10:0.285714 11:1 12:-0.300613 13:0.509859 14:0.237607 15:0.465421 16:1 17:-0.0867769 18:-0.64218 19:0.226619 20:-0.606607 
-1.545851722960574 1:-0.608247 2:-0.684909 3:-0.686192 4:-0.658986 5:-0.68617 6:-0.730337 7:0.173594 8:-0.833663 9:-0.803653 10:-0.752613 11:-0.859981 12:-0.674847 13:-0.695775 14:-0.68547 15:-0.734579 16:-0.893939 17:-0.677686 18:-0.618483 19:-0.863309 20:-0.681682 
-31.33187415836227 1:-0.914089 2:-0.820896 3:-0.924686 4:-0.930876 5:-0.957447 6:-0.959551 7:-0.91198 8:-0.936634 9:-0.936073 10:-0.919861 11:-0.965941 12:-0.95092 13:-0.949296 14:-0.931624 15:-0.93271 16:-0.969697 17:-0.904959 18:-0.957346 19:-0.97482 20:-0.81982 
-4.284195889771897 1:-0.725086 2:-0.721393 3:-0.414226 4:-0.589862 5:-0.601064 6:-0.519101 7:-0.466993 8:-0.409901 9:-0.584475 10:-0.303136 11:-0.810785 12:-0.638037 13:-0.594366 14:-0.593162 15:-0.562617 16:-0.765152 17:-0.541322 18:-0.722749 19:-0.539568 20:-0.708709 
-72.60522182387942 1:-0.814433 2:-0.86733 3:-0.853556 4:-0.880184 5:-0.946809 6:-0.923596 7:-0.809291 8:-0.845545 9:-0.90411 10:-0.909408 11:-0.886471 12:-0.91411 13:-0.870423 14:-0.897436 15:-0.880374 16:-0.934343 17:-0.871901 18:-0.93128 19:-0.946043 20:-0.894895 
-7.197452529522042 1:-0.56701 2:-0.605307 3:-0.598326 4:-0.663594 5:-0.664894 6:-0.667416 7:-0.515892 8:-0.560396 9:-0.557078 10:-0.641115 11:-0.733207 12:-0.693252 13:-0.661972 14:-0.661538 15:-0.581308 16:-0.755051 17:-0.595041 18:-0.720379 19:-0.751799 20:-0.705706 
-0.1298707895060543 1:0.333333 2:-0.472637 3:-0.76569 4:-0.769585 5:-0.867021 6:-0.721348 7:0.0806846 8:0.0376238 9:-0.584475 10:-0.801394 11:-0.610218 12:-0.766871 13:-0.628169 14:-0.630769 15:-0.629907 16:0.143939 17:-0.268595 18:-0.594787 19:-0.507194 20:-0.612613 
-198.7667405515162 1:-0.896907 2:-0.900498 3:-0.870293 4:-0.884793 5:-0.925532 6:-0.88764 7:-0.863081 8:-0.89703 9:-0.936073 10:-0.898955 11:-0.937559 12:-0.944785 13:-0.966197 14:-0.91453 15:-0.943925 16:-0.924242 17:-0.880165 18:-0.964455 19:-0.92446 20:-0.945946 
-0.7020255578277039 1:-0.797251 2:-0.638474 3:0.108787 4:-0.0875576 5:-0.356383 6:-0.0426966 7:-0.574572 8:0.0772277 9:-0.232877 10:-0.0278746 11:-0.784295 12:-0.527607 13:-0.0760563 14:0.025641 15:0.035514 16:-0.79798 17:-0.194215 18:-0.914692 19:-0.0215827 20:-0.78979 
-0.4770150693860999 1:-0.594502 2:-0.419569 3:-0.263598 4:-0.124424 5:-0.446809 6:-0.325843 7:-0.374083 8:-0.0930693 9:-0.429224 10:-0.0801394 11:-0.684011 12:-0.368098 13:-0.0197183 14:-0.357265 15:-0.256075 16:-0.378788 17:-0.438017 18:-0.791469 19:-0.31295 20:-0.714715 
-88.49024956492265 1:-0.969072 2:-0.870647 3:-0.924686 4:-0.921659 5:-0.962766 6:-0.914607 7:-0.97555 8:-0.972277 9:-0.931507 10:-0.958188 11:-0.967833 12:-0.834356 13:-0.904225 14:-0.976068 15:-0.947664 16:-0.979798 17:-0.96281 18:-0.995261 19:-0.97482 20:-0.87988 
-109.4270368660573 1:-0.975945 2:-0.956882 3:-0.945607 4:-0.921659 5:-0.845745 6:-0.914607 7:-0.96088 8:-0.960396 9:-0.972603 10:-0.965157 11:-0.977294 12:-0.791411 13:-0.966197 14:-0.928205 15:-0.970093 16:-0.984848 17:-0.929752 18:-0.969194 19:-0.964029 20:-0.942943 
-0.1343065526839882 1:-0.305842 2:-0.339967 3:0.995816 4:1 5:1 6:1 7:0.222494 8:0.706931 9:0.465753 10:1 11:-0.706717 12:0.932515 13:0.887324 14:1 15:0.611215 16:-0.676768 17:1 18:-0.509479 19:1 20:-0.651652 
-54.24952432791238 1:-0.611684 2:-0.731343 3:-0.757322 4:-0.788018 5:-0.781915 6:-0.824719 7:-0.784841 8:-0.790099 9:-0.767123 10:-0.825784 11:-0.85052 12:-0.748466 13:-0.774648 14:-0.747009 15:-0.734579 16:-0.782828 17:-0.768595 18:-0.760664 19:-0.848921 20:-0.681682 
-162.7424857153821 1:-0.876289 2:-0.728027 3:-0.912134 4:-0.824885 5:-0.861702 6:-0.878652 7:-0.828851 8:-0.90099 9:-0.926941 10:-0.961672 11:-0.922422 12:-0.773006 13:-0.797183 14:-0.904274 15:-0.906542 16:-0.876263 17:-0.884298 18:-0.85545 19:-0.895683 20:-0.801802 
-1.964754521171067 1:-0.281787 2:-0.489221 3:-0.644351 4:-0.714286 5:-0.702128 6:-0.716854 7:-0.398533 8:-0.734653 9:-0.625571 10:-0.571429 11:-0.856197 12:-0.754601 13:-0.723944 14:-0.695726 15:-0.614953 16:-0.886364 17:-0.491736 18:-0.518957 19:-0.73741 20:-0.765766 
-66.86184105497783 1:-0.845361 2:-0.678275 3:-0.895397 4:-0.774194 5:-0.893617 6:-0.869663 7:-0.863081 8:-0.932673 9:-0.872146 10:-0.961672 11:-0.958373 12:-0.834356 13:-0.690141 14:-0.94188 15:-0.828037 16:-0.944444 17:-0.917355 18:-0.92654 19:-0.906475 20:-0.663664 
-131.697711594371 1:-0.879725 2:-0.87728 3:-0.841004 4:-0.884793 5:-0.867021 6:-0.869663 7:-0.872861 8:-0.758416 9:-0.812785 10:-0.8223 11:-0.897824 12:-0.852761 13:-0.791549 14:-0.85641 15:-0.771963 16:-0.75 17:-0.88843 18:-0.886256 19:-0.866906 20:-0.873874 
-0.1335708222906366 1:0.628866 2:-0.555556 3:0.414226 4:0.267281 5:0.154255 6:0.110112 7:0.178484 8:0.0811881 9:0.136986 10:0.15331 11:-0.402081 12:0.312883 13:-0.149296 14:0.230769 15:0.28972 16:-0.434343 17:0.607438 18:-0.14218 19:-0.244604 20:-0.528529 
-7.556802702519865 1:-0.697595 2:-0.893864 3:-0.497908 4:-0.718894 5:-0.718085 6:-0.752809 7:-0.476773 8:-0.425743 9:-0.643836 10:-0.609756 11:-0.865658 12:-0.822086 13:-0.797183 14:-0.617094 15:-0.641121 16:-0.868687 17:-0.570248 18:-0.803318 19:-0.68705 20:-0.87988 
-7.687242317377553 1:-0.783505 2:-0.860697 3:-0.556485 4:-0.741935 5:-0.760638 6:-0.703371 7:-0.794621 8:-0.568317 9:-0.684932 10:-0.348432 11:-0.87701 12:-0.785276 13:-0.830986 14:-0.558974 15:-0.558879 16:-0.90404 17:-0.578512 18:-0.883886 19:-0.71223 20:-0.885886 
-1.31794149652745 1:-0.573883 2:-0.462687 3:-0.401674 4:-0.525346 5:-0.680851 6:-0.582022 7:-0.481663 8:-0.576238 9:-0.621005 10:-0.721254 11:-0.66509 12:-0.742331 13:-0.402817 14:-0.565812 15:-0.495327 16:-0.482323 17:-0.570248 18:-0.793839 19:-0.586331 20:-0.594595 
-135.1699188257998 1:-0.780069 2:-0.834163 3:-0.845188 4:-0.857143 5:-0.840426 6:-0.838202 7:-0.877751 8:-0.778218 9:-0.858447 10:-0.874564 11:-0.950804 12:-0.834356 13:-0.76338 14:-0.805128 15:-0.813084 16:-0.94697 17:-0.747934 18:-0.86019 19:-0.820144 20:-0.876877 
-9.244230116856428 1:-0.783505 2:-0.542289 3:-0.845188 4:-0.682028 5:-0.803191 6:-0.67191 7:-0.828851 8:-0.853465 9:-0.876712 10:-0.860627 11:-0.886471 12:-0.699387 13:-0.791549 14:-0.798291 15:-0.869159 16:-0.464646 17:-0.826446 18:-0.912322 19:-0.892086 20:-0.756757 
-51.11995924333331 1:-0.886598 2:-0.777778 3:-0.853556 4:-0.792627 5:-0.707447 6:-0.770787 7:-0.735941 8:-0.857426 9:-0.835616 10:-0.8223 11:-0.9035 12:-0.730061 13:-0.797183 14:-0.822222 15:-0.884112 16:-0.823232 17:-0.772727 18:-0.895735 19:-0.899281 20:-0.768769 
-294.0891350013636 1:-0.955326 2:-0.900498 3:-0.916318 4:-0.949309 5:-0.920213 6:-0.959551 7:-0.92665 8:-0.924752 9:-0.940639 10:-0.95122 11:-0.954588 12:-0.96319 13:-0.915493 14:-0.945299 15:-0.925234 16:-0.914141 17:-0.933884 18:-0.966825 19:-0.94964 20:-0.951952 
-1.02185079957432 1:-0.687285 2:-0.519071 3:-0.493724 4:-0.732719 5:-0.718085 6:-0.703371 7:-0.535452 8:-0.623762 9:-0.456621 10:-0.682927 11:-0.494797 12:-0.576687 13:-0.0591549 14:-0.77094 15:-0.229907 16:-0.128788 17:-0.772727 18:-0.71564 19:-0.597122 20:-0.720721 
-0.1230358175478688 1:-0.584192 2:-0.814262 3:-0.322176 4:-0.387097 5:-0.569149 6:-0.523596 7:-0.237164 8:-0.469307 9:-0.447489 10:-0.623693 11:-0.66509 12:-0.644172 13:-0.408451 14:-0.45641 15:-0.375701 16:-0.712121 17:-0.38843 18:-0.853081 19:-0.658273 20:-0.717718 
-0.3975809204916323 1:-0.360825 2:-0.452736 3:-0.364017 4:-0.40553 5:-0.37234 6:-0.532584 7:0.271394 8:-0.536634 9:-0.525114 10:-0.355401 11:-0.742668 12:-0.423313 13:-0.639437 14:-0.466667 15:-0.562617 16:-0.611111 17:-0.161157 18:-0.556872 19:-0.805755 20:-0.414414 
-6.232095326287737 1:-0.628866 2:-0.631841 3:-0.732218 4:-0.59447 5:-0.558511 6:-0.685393 7:-0.525672 8:-0.774257 9:-0.730594 10:-0.770035 11:-0.763482 12:-0.460123 13:-0.64507 14:-0.688889 15:-0.757009 16:-0.767677 17:-0.657025 18:-0.727488 19:-0.780576 20:-0.678679 
-112.0146787683345 1:-0.872852 2:-0.870647 3:-0.794979 4:-0.83871 5:-0.898936 6:-0.860674 7:-0.877751 8:-0.770297 9:-0.899543 10:-0.738676 11:-0.937559 12:-0.90184 13:-0.859155 14:-0.839316 15:-0.865421 16:-0.969697 17:-0.772727 18:-0.890995 19:-0.830935 20:-0.861862 
-3.453410531834852 1:-0.539519 2:-0.47927 3:-0.389121 4:-0.267281 5:-0.414894 6:-0.213483 7:-0.515892 8:-0.548515 9:-0.406393 10:-0.536585 11:-0.687796 12:-0.460123 13:-0.267606 14:-0.452991 15:-0.476636 16:-0.60101 17:-0.471074 18:-0.810427 19:-0.586331 20:-0.615616 
-317.001573120775 1:-0.962199 2:-0.927032 3:-0.962343 4:-0.930876 5:-0.909574 6:-0.910112 7:-0.9511 8:-0.932673 9:-0.972603 10:-0.947735 11:-0.990539 12:-0.932515 13:-0.938028 14:-0.928205 15:-0.947664 16:-0.979798 17:-0.954545 18:-0.966825 19:-0.931655 20:-0.945946 
-85.74327795567444 1:-0.780069 2:-0.85738 3:-0.615063 4:-0.695853 5:-0.744681 6:-0.739326 7:-0.765281 8:-0.726733 9:-0.680365 10:-0.651568 11:-0.875118 12:-0.748466 13:-0.746479 14:-0.764103 15:-0.637383 16:-0.873737 17:-0.739669 18:-0.912322 19:-0.773381 20:-0.846847 
-8.258629892447148 1:-0.783505 2:-0.638474 3:-0.606695 4:-0.345622 5:-0.329787 6:-0.519101 7:-0.662592 8:-0.667327 9:-0.502283 10:-0.66899 11:-0.854305 12:-0.429448 13:-0.346479 14:-0.637607 15:-0.596262 16:-0.818182 17:-0.586777 18:-0.850711 19:-0.661871 20:-0.630631 
-164.878600219314 1:-0.969072 2:-0.956882 3:-0.933054 4:-0.894009 5:-0.946809 6:-0.914607 7:-0.96088 8:-0.992079 9:-0.945205 10:-0.979094 11:-0.977294 12:-0.932515 13:-0.938028 14:-0.958974 15:-0.962617 16:-0.972222 17:-0.975207 18:-0.971564 19:-0.935252 20:-0.960961 
-287.9065334529173 1:-0.883162 2:-0.950249 3:-0.841004 4:-0.801843 5:-0.824468 6:-0.833708 7:-0.858191 8:-0.833663 9:-0.789954 10:-0.857143 11:-0.945128 12:-0.822086 13:-0.859155 14:-0.760684 15:-0.813084 16:-0.967172 17:-0.785124 18:-0.890995 19:-0.913669 20:-0.873874 
-20.99059900552444 1:-0.687285 2:-0.741294 3:-0.878661 4:-0.815668 5:-0.81383 6:-0.820225 7:-0.838631 8:-0.885149 9:-0.840183 10:-0.912892 11:-0.842952 12:-0.773006 13:-0.707042 14:-0.911111 15:-0.91028 16:-0.755051 17:-0.884298 18:-0.888626 19:-0.859712 20:-0.768769 
-0.519799327259285 1:-0.295533 2:-0.562189 3:-0.556485 4:-0.465438 5:-0.632979 6:-0.640449 7:-0.344743 8:-0.69901 9:-0.616438 10:-0.752613 11:-0.657521 12:-0.638037 13:-0.667606 14:-0.470085 15:-0.573832 16:-0.775253 17:-0.421488 18:-0.791469 19:-0.784173 20:-0.267267 
-66.00243125339956 1:-0.838488 2:-0.84743 3:-0.824268 4:-0.898618 5:-0.930851 6:-0.892135 7:-0.794621 8:-0.881188 9:-0.913242 10:-0.912892 11:-0.873226 12:-0.883436 13:-0.780282 14:-0.887179 15:-0.850467 16:-0.84596 17:-0.896694 18:-0.902844 19:-0.92446 20:-0.882883 
-4.639707882923152 1:-0.515464 2:-0.655058 3:-0.623431 4:-0.599078 5:-0.760638 6:-0.716854 7:-0.555012 8:-0.750495 9:-0.611872 10:-0.790941 11:-0.84106 12:-0.791411 13:-0.492958 14:-0.709402 15:-0.618692 16:-0.792929 17:-0.644628 18:-0.767773 19:-0.784173 20:-0.684685 
-0.1175052887648449 1:-0.429553 2:-0.820896 3:0.866109 4:0.078341 5:-0.0319149 6:0.177528 7:-0.207824 8:0.326733 9:0.150685 10:0.491289 11:-0.642384 13:0.132394 14:0.210256 15:0.809346 16:-0.573232 17:0.305785 18:-0.635071 19:0.676259 20:-0.771772 
-252.6259487759868 1:-0.886598 2:-0.917081 3:-0.92887 4:-0.907834 5:-0.93617 6:-0.914607 7:-0.96577 8:-0.920792 9:-0.931507 10:-0.961672 11:-0.960265 12:-0.932515 13:-0.932394 14:-0.94188 15:-0.940187 16:-0.941919 17:-0.859504 18:-0.909953 19:-0.946043 20:-0.924925 
-512 1:-0.958763 2:-0.9801 3:-1 4:-0.986175 5:-0.989362 6:-1 7:-0.99022 8:-1 9:-0.995434 10:-1 11:-1 12:-0.98773 13:-1 14:-1 15:-1 16:-1 17:-0.975207 18:-0.978673 19:-1 20:-0.972973 
-40.84301838840378 1:-0.883162 2:-0.897181 3:-0.958159 4:-0.97235 5:-0.973404 6:-0.919101 7:-0.98044 8:-0.988119 9:-0.977169 10:-0.989547 11:-0.971618 12:-0.93865 13:-0.909859 14:-0.979487 15:-0.962617 16:-0.967172 17:-0.946281 18:-0.957346 19:-0.964029 20:-0.930931 
-128.3634286096078 1:-0.982818 2:-0.873964 3:-0.958159 4:-0.949309 5:-0.962766 6:-0.946067 7:-1 8:-0.940594 9:-0.936073 10:-0.986063 11:-0.950804 12:-0.96319 13:-0.887324 14:-0.952137 15:-0.940187 16:-0.924242 17:-0.975207 18:-0.992891 19:-0.935252 20:-0.930931 
