svm_type c_svc
kernel_type rbf
gamma 8
nr_class 12
total_sv 1073
rho -0.859687 -0.478762 -0.439485 -0.948369 -0.0404181 -0.697883 -0.552736 -0.246409 -0.204793 -0.555669 -0.559852 0.324603 0.787076 -0.23412 0.722107 -0.0871237 0.22738 0.497189 0.537667 0.161644 -0.0260697 -0.00168891 -0.604436 0.323266 -0.430121 -0.043374 0.223916 0.270244 -0.26238 -0.435004 -0.954287 0.496134 -0.939506 0.0125609 0.0733174 0.290962 -0.552289 -0.502782 1.27018 0.0360288 0.440992 0.678435 0.866985 0.657736 -0.0426323 -1.18676 -0.515309 0.21962 0.0940298 -0.633039 -1.09543 0.387265 0.444777 0.621066 0.372323 0.101564 0.112037 0.0995894 -0.537452 -0.314637 0.0459621 -0.237955 -0.360755 -0.332579 -0.576682 -0.269931
label 1 2 3 4 5 6 7 8 9 10 11 12
nr_sv 108 60 80 119 30 135 68 96 85 85 140 67
SV
0.1406493713569729 0.5212775929356921 0.5606994534360926 0.05118771321748789 0.9593967563221616 0.3019332501785663 0.4474620008075489 0.7536423054235262 0.7948491524125593 0.4448984749849619 0.4400490488797668 1:-0.53514 2:-0.176865 3:-0.370728 4:-0.517594 5:-0.683077 6:-0.762495 7:-0.470127 8:-0.641161 9:-0.224335 10:-0.556724 11:-0.64545 12:-0.716948 13:-0.605304 14:-0.614035 15:-0.475151 16:-0.549045 17:0.0701382 18:-0.100506 19:-0.621253 20:-0.489014 
0 0 0.2657790554770317 0.0832971527706917 0.2100970069595157 0.2029418530614622 0 0.1150910873488191 0.2555823086463413 0.02222741032176299 0.1323471012737049 1:-0.857602 2:-0.921207 3:-0.960344 4:-0.614843 5:-0.824615 6:-0.934216 7:-0.547375 8:-0.713281 9:-0.876806 10:-0.955322 11:-0.743293 12:-0.840419 13:-0.550702 14:-0.788264 15:-0.82536 16:-0.926926 17:-0.901169 18:-0.898771 19:-0.794278 20:-0.902072 
0 2.350850834295184 0 0 0 0 2.930022559558835 0 0 0 0 1:-0.93661 2:-0.914501 3:-0.977041 4:-0.831094 5:-0.928205 6:-0.984622 7:-0.866023 8:-0.901495 9:-0.873764 10:-0.95795 11:-0.948448 12:-0.942924 13:-0.911076 14:-0.956443 15:-0.772411 16:-0.959184 17:-0.876727 18:-0.975416 19:-0.884196 20:-0.874451 
0.4144315915878397 0 0 0 0.06326620773016348 0.2517078443458649 0 0.07607695354482319 1.402822726751424 0.02471199343100197 0.1102518641240883 1:-0.80983 2:-0.836547 3:-0.905557 4:-0.805502 5:-0.862564 6:-0.823152 7:-0.841883 8:-0.718558 9:-0.806844 10:-0.874726 11:-0.648606 12:-0.834595 13:-0.75039 14:-0.594676 15:-0.86902 16:-0.881501 17:-0.798087 18:-0.852495 19:-0.783379 20:-0.814187 
0 0.3183103352712079 0 0.4259077999119842 0 0 0.1007909430718525 0.9674047568253513 0.5703390117337668 1.098892581277989 1.742828468640126 1:-0.780432 2:-0.801341 3:-0.86851 4:-0.801663 5:-0.877949 6:-0.777018 7:-0.929994 8:-0.69569 9:-0.764259 10:-0.875602 11:-0.931615 12:-0.850903 13:-0.826833 14:-0.895947 15:-0.927543 16:-0.888084 17:-0.712009 18:-0.796095 19:-0.731608 20:-0.709981 
0.1531282893380169 0.842171006751891 0.4194920437609578 0.003533799976393687 0.8484351357911064 0.2338234847403569 0.5039705020961577 0.6134594564160264 0.7240486945716333 0.3884031544174828 0.4610834528226855 1:-0.857602 2:-0.711651 3:-0.909731 4:-0.741523 5:-0.824615 6:-0.945323 7:-0.675317 8:-0.808267 9:-0.414449 10:-0.937801 11:-0.700158 12:-0.906814 13:-0.689548 14:-0.816092 15:-0.745471 16:-0.902567 17:-0.572795 18:-0.858279 19:-0.63079 20:-0.506591 
0 0 0 0 28.053621599439 0 15.69106389832156 0 6.003192241716884 0 0 1:-0.951309 2:-0.956412 3:-0.981738 4:-0.854127 5:-0.906667 6:-0.973516 7:-0.972239 8:-0.845207 9:-0.942205 10:-0.854577 11:-0.972646 12:-0.958066 13:-0.873635 14:-0.956443 15:-0.960056 16:-0.953917 17:-0.931987 18:-0.927693 19:-0.896458 20:-0.939736 
0 0 0 0.01313991111751298 0 0.6241489751190066 0 0 0 0 1.257655119234142 1:-0.821773 2:-0.850796 3:-0.901905 4:-0.841331 5:-0.849231 6:-0.88381 7:-0.922752 8:-0.664028 9:-0.863118 10:-0.936925 11:-0.933719 12:-0.822947 13:-0.75039 14:-0.941924 15:-0.893172 16:-0.908492 17:-0.766206 18:-0.84671 19:-0.782016 20:-0.843063 
0 6.51722154468307 1.330168564817642 1.012896432374817 0.2832487661168187 0 2.102863607563586 0 0 1.819999291024744 1.394144822028576 1:-0.875057 2:-0.880972 3:-0.952518 4:-0.731286 5:-0.890256 6:-0.873558 7:-0.827399 8:-0.801231 9:-0.797719 10:-0.928165 11:-0.89374 12:-0.877694 13:-0.815913 14:-0.887477 15:-0.89503 16:-0.943384 17:-0.85441 18:-0.91034 19:-0.811989 20:-0.844319 
0 0 0 0 1.255739440911767 0 0 0 0 0 0 1:-0.896187 2:-0.917016 3:-0.935821 4:-0.896353 5:-0.947692 6:-0.935925 7:-0.911889 8:-0.774846 9:-0.892015 10:-0.958826 11:-0.928459 12:-0.90332 13:-0.803432 14:-0.924985 15:-0.892243 16:-0.957209 17:-0.890542 18:-0.921909 19:-0.878747 20:-0.93597 
0.5607466018453611 1.262217676758381 0 0.3853743837919997 0.2398635890556863 0.015673776534044 0.2969078653653602 1.013190031840544 0.6355537648089368 0.2169912854311741 0.05020429217404609 1:-0.792375 2:-0.891031 3:-0.933733 4:-0.799104 5:-0.842051 6:-0.872704 7:-0.569101 8:-0.671064 9:-0.744487 10:-0.863338 11:-0.775907 12:-0.786838 13:-0.717629 14:-0.801573 15:-0.68602 16:-0.906517 17:-0.83847 18:-0.887202 19:-0.782016 20:-0.833019 
0 2.306582416730479 0 0 0 0 0 1.2496054061932 0 0 0 1:-0.831879 2:-0.92456 3:-0.94156 4:-0.859245 5:-0.899487 6:-0.875267 7:-0.846711 8:-0.806508 9:-0.869202 10:-0.901007 11:-0.905313 12:-0.855562 13:-0.826833 14:-0.935874 15:-0.826289 16:-0.873601 17:-0.887354 18:-0.864064 19:-0.858311 20:-0.856874 
0 0.9342487406249879 0 0.1927863965180386 0 0.5623854763789655 0 0 1.932438917441534 0 0 1:-0.875057 2:-0.870075 3:-0.932168 4:-0.863084 5:-0.895385 6:-0.861598 7:-0.942064 8:-0.744943 9:-0.898099 10:-0.758213 11:-0.935823 12:-0.90099 13:-0.814353 14:-0.901996 15:-0.942406 16:-0.928242 17:-0.844846 18:-0.830803 19:-0.858311 20:-0.851852 
0 3.541697581836766 0 0 0 0 0 0.8702682758745788 16.29501366080427 0 0 1:-0.875976 2:-0.895222 3:-0.959301 4:-0.888676 5:-0.924103 6:-0.906023 7:-0.910682 8:-0.806508 9:-0.835741 10:-0.870346 11:-0.86323 12:-0.899825 13:-0.862715 14:-0.8536 15:-0.913609 16:-0.936801 17:-0.873539 18:-0.916124 19:-0.856948 20:-0.875706 
0.08533674242132633 0.4547445247011191 0.4048589099669809 0.02012455995501202 0.6836601028724616 0.2087708752801286 0.3167178896060791 0.6171434791995095 0.5678201433945047 0.2936573283761376 0.3123318473285529 1:-0.677538 2:-0.65549 3:-0.8946 4:-0.837492 5:-0.857436 6:-0.856472 7:-0.544961 8:-0.711522 9:-0.446388 10:-0.857205 11:-0.545502 12:-0.751893 13:-0.75039 14:-0.674531 15:-0.527171 16:-0.834101 17:-0.520723 18:-0.86551 19:-0.682561 20:-0.65725 
0.01546665139644462 0.5395237524918159 0 0 0.1814593479592792 0 0.1294662893281107 0 0.1882392928562491 0.5074543731853446 0 1:-0.86587 2:-0.801341 3:-0.862249 4:-0.912988 5:-0.890256 6:-0.896625 7:-0.832227 8:-0.755497 9:-0.680608 10:-0.844065 11:-0.604419 12:-0.882353 13:-0.828393 14:-0.663642 15:-0.816071 16:-0.852535 17:-0.739639 18:-0.842372 19:-0.788828 20:-0.605775 
20.62550683294825 9.088074671853144 4.100409554351127 0 0 0 0 0 0 1.369417084756307 0 1:-0.983463 2:-0.97653 3:-0.995826 4:-0.982086 5:-0.991795 6:-0.998291 7:-0.929994 8:-0.968338 9:-0.980228 10:-0.990364 11:-0.902157 12:-0.994176 13:-0.946958 14:-0.941924 15:-0.881096 16:-0.963134 17:-0.977683 18:-0.975416 19:-0.987738 20:-0.989956 
0.0918733360614217 0.5078000812564349 0.1275076131201588 0 0.3389140418394213 0.4360105146136136 0 0 0 0 0.1918648125075798 1:-0.80248 2:-0.833194 3:-0.955648 4:-0.882278 5:-0.796923 6:-0.8522 7:-0.805673 8:-0.720317 9:-0.758175 10:-0.96671 11:-0.928459 12:-0.764706 13:-0.694228 14:-0.922565 15:-0.850441 16:-0.967742 17:-0.763018 18:-0.885756 19:-0.681199 20:-0.752668 
0.1406730504158242 0.5210623285846934 0.5607359955997933 0.05167799985616194 0.959862845234694 0.3021025161616606 0.4472157324816533 0.7532290470184514 0.7948932440814741 0.4444722630048885 0.4399681201744567 1:-0.835554 2:-0.830679 3:-0.872685 4:-0.921945 5:-0.939487 6:-0.929944 7:-0.811708 8:-0.869833 9:-0.575665 10:-0.931669 11:1 12:-0.90099 13:-0.854914 14:-0.333333 15:-0.909893 16:-0.885451 17:-0.683316 18:-0.932032 19:-0.852861 20:-0.883239 
0.07095910081939427 0.3706958911687253 0.471877750178032 0.01328778931368085 0.7900713588778536 0.2448742550459904 0.3564196468826991 0.5775891439534048 0.6338251660059399 0.35246072117894 0.3653782664700908 1:-0.856684 2:-0.90109 3:-0.943125 4:-0.851567 5:-0.923077 6:-0.943614 7:-0.353048 8:-0.876869 9:-0.794677 10:-0.928165 11:-0.322462 12:-0.910309 13:-0.647426 14:-0.808832 15:-0.728751 16:-0.917709 17:-0.868225 18:-0.919017 19:-0.900545 20:-0.873195 
0.1403749460153545 0.5203942467781699 0.5597167533777143 0.05181704583570144 0.9583614535934608 0.3018249726234696 0.4470459792396121 0.7528467519706664 0.7941133977003642 0.4437509755988612 0.4395405783727988 1:-0.151125 2:-0.416597 3:-0.464649 4:-0.358925 5:-0.411282 6:-0.24135 7:-0.618588 8:-0.0888303 9:-0.180228 10:-0.664477 11:-0.608627 12:-0.281305 13:-0.154446 14:-0.69631 15:-0.756619 16:-0.610928 17:-0.269926 18:-0.240781 19:-0.0940054 20:-0.388575 
32 32 32 32 32 32 32 26.09519788949676 32 32 32 1:-0.977033 2:-0.984912 3:-0.988521 4:-0.987204 5:-0.990769 6:-0.987185 7:-0.993965 8:-0.98241 9:-0.993916 10:-0.996496 11:-0.995792 12:-0.972044 13:-0.926677 14:-0.99637 15:-0.97399 16:-0.978934 17:-0.976621 18:-0.966739 19:-0.986376 20:-0.991212 
4.203567943622042 8.710516200006801 0.6121375338487434 0 0 0.07776558771548246 2.476673489744607 0 4.509711010188212 0 0 1:-0.883326 2:-0.920369 3:-0.966606 4:-0.84261 5:-0.883077 6:-0.93507 7:-0.776705 8:-0.817062 9:-0.834221 10:-0.879982 11:-0.902157 12:-0.883518 13:-0.708268 14:-0.824561 15:-0.798421 16:-0.932192 17:-0.862912 18:-0.89154 19:-0.810627 20:-0.795355 
0 0 0 0 8.099908950240728 0 0 0 0 0 0 1:-0.886082 2:-0.942163 3:-0.970258 4:-0.788868 5:-0.916923 6:-0.938488 7:-0.901026 8:-0.82058 9:-0.917871 10:-0.879106 11:-0.954761 12:-0.870705 13:-0.790952 14:-0.910466 15:-0.881096 16:-0.928242 17:-0.870351 18:-0.921909 19:-0.844687 20:-0.946014 
0 0 0 0 0 0 6.366938198794736 0 0 0 0 1:-0.883326 2:-0.926236 3:-0.930603 4:-0.800384 5:-0.909744 6:-0.908586 7:-0.885335 8:-0.781882 9:-0.884411 10:-0.948314 11:-0.946344 12:-0.870705 13:-0.815913 14:-0.938294 15:-0.905248 16:-0.961159 17:-0.875664 18:-0.92914 19:-0.851499 20:-0.888261 
0 8.105305069462784 0 8.76134196624411 4.820785763654188 1.067579456386972 11.27718450030093 0 3.740935918468048 5.697678004644532 1.221127175169982 1:-0.963252 2:-0.965633 3:-0.99113 4:-0.962892 5:-0.978462 6:-0.988894 7:-0.922752 8:-0.959543 9:-0.968061 10:-0.947438 11:-0.772751 12:-0.960396 13:-0.970359 14:-0.975802 15:-0.945193 16:-0.995392 17:-0.958555 18:-0.982646 19:-0.950954 20:-0.940992 
0 0 0 1.142812495223197 5.242404477799619 0 1.137512636434617 0 0 0 0 1:-0.878732 2:-0.952221 3:-0.934255 4:-0.783749 5:-0.949744 6:-0.949594 7:-0.800845 8:-0.850484 9:-0.878327 10:-0.87385 11:-0.857969 12:-0.914968 13:-0.843994 14:-0.914096 15:-0.931259 16:-0.9605 17:-0.918172 18:-0.930586 19:-0.945504 20:-0.919648 
0 0 0 0 0 0 0 6.579983622128894 9.478742805719069 0 0 1:-0.909049 2:-0.908634 3:-0.952518 4:-0.850288 5:-0.948718 6:-0.921401 7:-0.91551 8:-0.861038 9:-0.890494 10:-0.815155 11:-0.932667 12:-0.892836 13:-0.873635 14:-0.874168 15:-0.934974 16:-0.861751 17:-0.880978 18:-0.907448 19:-0.908719 20:-0.932203 
0 0 0 0 2.921266625091999 0 0 0 0 0 0 1:-0.845659 2:-0.937133 3:-0.944691 4:-0.911708 5:-0.932308 6:-0.906023 7:-0.820157 8:-0.852243 9:-0.869202 10:-0.943057 11:-0.892688 12:-0.873034 13:-0.800312 14:-0.927405 15:-0.905248 16:-0.925609 17:-0.924548 18:-0.933478 19:-0.891008 20:-0.940992 
0.1481579995878084 2.767851244683889 0 5.973158445856082 32 0 14.89114481331517 1.117305615676929 17.99923628249771 25.28808305868286 4.694658092945597 1:-0.932935 2:-0.946354 3:-0.959823 4:-0.925784 5:-0.977436 6:-0.947886 7:-0.913096 8:-0.922603 9:-0.914829 10:-0.945686 11:-0.915834 12:-0.960396 13:-0.946958 14:-0.911676 15:-0.94798 16:-0.967084 17:-0.938363 18:-0.952278 19:-0.948229 20:-0.938481 
0 0 0 0 0 0 0 0 0 0 0.1851696629200971 1:-0.879651 2:-0.903604 3:-0.933212 4:-0.912988 5:-0.914872 6:-0.87185 7:-0.944478 8:-0.795954 9:-0.914829 10:-0.95357 11:-0.958969 12:-0.905649 13:-0.895476 14:-0.904416 15:-0.922898 16:-0.94865 17:-0.870351 18:-0.881417 19:-0.878747 20:-0.914626 
0 0.1026417297481194 0.2762674047404252 0 0.5648391939715943 0.1766159298796518 0.1492397767995004 0.4414192460211351 0.4549350808753016 0.1996597069820749 0.2415307879768234 1:-0.76757 2:-0.815591 3:-0.907644 4:-0.850288 5:-0.908718 6:-0.850491 7:-0.363911 8:-0.759015 9:-0.677567 10:-0.766973 11:-0.608627 12:-0.788002 13:-0.856474 14:-0.621295 15:-0.766837 16:-0.829493 17:-0.776833 18:-0.84671 19:-0.846049 20:-0.815443 
0 0 0 0 0 0 0 0 2.040624546575743 0 0 1:-0.89435 2:-0.926236 3:-0.936864 4:-0.904031 5:-0.947692 6:-0.946177 7:-0.92758 8:-0.890941 9:-0.893536 10:-0.930793 11:-0.965281 12:-0.938264 13:-0.858034 14:-0.952813 15:-0.878309 16:-0.914417 17:-0.907545 18:-0.937816 19:-0.914169 20:-0.933459 
1.366359870995488 1.846664837722283 0.4967141437954711 0.2853477421365286 0.4456310977021083 0.758616500521645 0.7865846761193944 1.182806247549151 1.748070572939588 0.1169250540501216 1.441583510502846 1:-0.775838 2:-0.812238 3:-0.852857 4:-0.791427 5:-0.833846 6:-0.780436 7:-0.925166 8:-0.681618 9:-0.806844 10:-0.90714 11:-0.856917 12:-0.782178 13:-0.613105 14:-0.626134 15:-0.858802 16:-0.859776 17:-0.763018 18:-0.765727 19:-0.741144 20:-0.713748 
0 0 0 0 27.64163789306846 0 0 0 0 0 4.394483681423596 1:-0.942122 2:-0.946354 3:-0.943125 4:-0.850288 5:-0.946667 6:-0.962409 7:-0.968618 8:-0.912049 9:-0.91635 10:-0.934297 11:-0.982115 12:-0.942924 13:-0.879875 14:-0.957653 15:-0.961914 16:-0.917051 17:-0.909671 18:-0.927693 19:-0.93188 20:-0.954802 
0 0 0 0 0 0 0 0.25190270994208 2.432740681581858 0 0 1:-0.983463 2:-0.968986 3:-0.995826 4:-0.90659 5:-0.990769 6:-0.988039 7:-0.952927 8:-0.924362 9:-0.980228 10:-0.844941 11:-0.890584 12:-0.980198 13:-0.956318 14:-0.835451 15:-0.965629 16:-0.957209 17:-0.953241 18:-0.986985 19:-0.987738 20:-0.993723 
0 0.7457381210810745 0 0 0 0.3856348692785885 0 0 0 0 0.1832708619911212 1:-0.779513 2:-0.793797 3:-0.8946 4:-0.825976 5:-0.850256 6:-0.825716 7:-0.810501 8:-0.729112 9:-0.808365 10:-0.95357 11:-0.935823 12:-0.796156 13:-0.597504 14:-0.932244 15:-0.821644 16:-0.910467 17:-0.754516 18:-0.822126 19:-0.726158 20:-0.826742 
0.1094642462847212 0.3844759155771698 0.4245831853458824 0.03420990216041002 0.7298039799543274 0.2323204726445008 0.3378946970719044 0.5244409589945463 0.5642407602741237 0.3269624324459617 0.3256454755512374 1:-0.762977 2:-0.766136 3:-0.903992 4:-0.896353 5:-0.927179 6:-0.872704 7:-0.528063 8:-0.764292 9:-0.673004 10:-0.797635 11:-0.203577 12:-0.842749 13:-0.720749 14:-0.352692 15:-0.665583 16:-0.822251 17:-0.670563 18:-0.774403 19:-0.782016 20:-0.86064 
0 0 0 0 3.350559859647179 0 0 0 0 0 0 1:-0.874139 2:-0.898575 3:-0.937386 4:-0.928343 5:-0.933333 6:-0.919692 7:-0.931201 8:-0.85752 9:-0.803802 10:-0.968463 11:-0.971594 12:-0.918462 13:-0.853354 14:-0.974592 15:-0.933117 16:-0.961817 17:-0.859724 18:-0.953724 19:-0.866485 20:-0.880728 
0 0.009135259374857123 0.1657649176218219 0 0.5387597079499374 0.09842779653116332 0 0 0.6698882533203475 0.2617157175173866 0.1673575144534655 1:-0.943041 2:-0.545683 3:-0.661884 4:-0.930902 5:-0.969231 6:-0.733447 7:-0.971032 8:-0.945471 9:-0.940684 10:-0.978975 11:-0.950552 12:-0.945253 13:-0.911076 14:-0.891107 15:-0.978634 16:-0.946017 17:-0.679065 18:-0.874187 19:-0.956403 20:-0.946014 
0 7.910199400443092 0 0 16.66622173216395 7.7572115558324 0 12.1779209412103 10.05931534734468 0 0 1:-0.935691 2:-0.958089 3:-0.974954 4:-0.925784 5:-0.910769 6:-0.964118 7:-0.96379 8:-0.926121 9:-0.960456 10:-0.968463 11:-0.941084 12:-0.918462 13:-0.893916 14:-0.939504 15:-0.959127 16:-0.957867 17:-0.927736 18:-0.959508 19:-0.873297 20:-0.944758 
0.06687675382120749 0.05009222238417734 0 0 0.3433611115729409 0 0 0 0 0 0.1133770961979172 1:-0.738172 2:-0.816429 3:-0.896165 4:-0.915547 5:-0.88 6:-0.847074 7:-0.668075 8:-0.762533 9:-0.631939 10:-0.92028 11:-0.846397 12:-0.785673 13:-0.783151 14:-0.8415 15:-0.680446 16:-0.902567 17:-0.75983 18:-0.868402 19:-0.826975 20:-0.809165 
1.507337107557857 0 0 0 5.446512470041217 0 0 0 0 0 0 1:-0.883326 2:-0.914501 3:-0.955127 4:-0.893794 5:-0.88 6:-0.947031 7:-0.816536 8:-0.781882 9:-0.863118 10:-0.945686 11:-0.91899 12:-0.904485 13:-0.783151 14:-0.886267 15:-0.830005 16:-0.931534 17:-0.873539 18:-0.91757 19:-0.811989 20:-0.883239 
0 0 0 0 0 0 0 0.3417440609833439 0.06413345046071217 0 0 1:-0.770326 2:-0.870075 3:-0.886773 4:-0.957774 5:-0.949744 6:-0.698419 7:-0.789982 8:-0.861038 9:-0.723194 10:-0.889619 11:-0.889532 12:-0.853232 13:-0.923557 14:-0.879008 15:-0.778913 16:-0.778802 17:-0.876727 18:-0.787419 19:-0.911444 20:-0.967357 
0 0.4864141340536985 0 0 8.355107951405861 0 0 0 14.65778029192689 9.111481712507281 0 1:-0.93661 2:-0.911987 3:-0.972867 4:-0.934741 5:-0.925128 6:-0.966681 7:-0.968618 8:-0.908531 9:-0.934601 10:-0.942181 11:-0.975802 12:-0.958066 13:-0.914197 14:-0.941924 15:-0.940548 16:-0.954575 17:-0.895855 18:-0.942155 19:-0.874659 20:-0.932203 
0 0 0 0 14.24384875833235 0 24.16154460284303 0 0 0 3.7953054348698 1:-0.909049 2:-0.937133 3:-0.960344 4:-0.90659 5:-0.904615 6:-0.951303 7:-0.914303 8:-0.905013 9:-0.951331 10:-0.898379 11:-0.91373 12:-0.942924 13:-0.890796 14:-0.905626 15:-0.934046 16:-0.902567 17:-0.887354 18:-0.842372 19:-0.907357 20:-0.887006 
0 0 0 0.8282273184061392 0 0 0.0323216741921817 0 1.967087462434562 0.560863498350493 0 1:-0.83831 2:-0.821459 3:-0.918602 4:-0.877159 5:-0.898462 6:-0.882102 7:-0.797224 8:-0.759015 9:-0.727757 10:-0.915024 11:-0.750658 12:-0.875364 13:-0.770671 14:-0.709619 15:-0.841152 16:-0.903884 17:-0.750266 18:-0.858279 19:-0.839237 20:-0.662272 
20.35340743074923 22.42879409238973 15.77949847536093 0 32 1.864110896655063 0 0 21.84641796316391 4.5839975745928 0 1:-0.979789 2:-0.980721 3:-0.987999 4:-0.915547 5:-0.938462 6:-0.986331 7:-0.921545 8:-0.961302 9:-0.972624 10:-0.942181 11:-0.973698 12:-0.974374 13:-0.923557 14:-0.964912 15:-0.9647 16:-0.980908 17:-0.978746 18:-0.968185 19:-0.941417 20:-0.969868 
0 0 6.399123961510139 0 0 3.442067029374643 0 4.074004678557624 0 4.233150271751786 0 1:-0.905374 2:-0.911148 3:-0.957214 4:-0.927063 5:-0.867692 6:-0.922255 7:-0.942064 8:-0.813544 9:-0.934601 10:-0.978099 11:-0.978958 12:-0.878858 13:-0.900156 14:-0.945554 15:-0.945193 16:-0.970375 17:-0.860786 18:-0.924801 19:-0.802452 20:-0.92467 
0 0 0 0 0 0 0 0 2.017473519546271 0 0 1:-0.961415 2:-0.974853 3:-0.965562 4:-0.868202 5:-0.970256 6:-0.961555 7:-0.983102 8:-0.885664 9:-0.974144 10:-0.935173 11:-0.982115 12:-0.952242 13:-0.900156 14:-0.962492 15:-0.957269 16:-0.947992 17:-0.967056 18:-0.950832 19:-0.96594 20:-0.968613 
0 0 0 0 0.2720939172863027 0 0.1666584638953723 1.184863993844947 0.3703740582922559 0.008373569187137136 0.8888832668693964 1:-0.686725 2:-0.704107 3:-0.799113 4:-0.778631 5:-0.835897 6:-0.706109 7:-0.81895 8:-0.683377 9:-0.721673 10:-0.850197 11:-0.833772 12:-0.785673 13:-0.770671 14:-0.715668 15:-0.842081 16:-0.885451 17:-0.62593 18:-0.784526 19:-0.708447 20:-0.826742 
0 0 0 0 17.26756160682978 0 24.07596434841126 0 0 0 0 1:-0.939366 2:-0.948868 3:-0.971302 4:-0.911708 5:-0.944615 6:-0.956429 7:-0.885335 8:-0.862797 9:-0.930038 10:-0.95795 11:-0.914782 12:-0.931275 13:-0.867395 14:-0.939504 15:-0.913609 16:-0.955234 17:-0.92136 18:-0.950832 19:-0.908719 20:-0.944758 
0.1404168020440316 0.5213577785212739 0.5607899095927589 0.05174285717815208 0.9593327005687918 0.3018971762302841 0.447132211483082 0.7537651065281826 0.7950725966665728 0.4443003754734243 0.4401554918906795 1:-0.215434 2:0.58005 3:0.113488 4:-0.630198 5:-0.758974 6:-0.476292 7:-0.5172 8:-0.623571 9:0.548289 10:-0.646956 11:-0.400316 12:-0.713454 13:-0.561622 14:-0.286146 15:-0.382257 16:-0.395655 17:1 18:-0.0195228 19:-0.543597 20:-0.256748 
0.06459220248111118 2.156157311527938 0 0 0 0 7.361046344016118 0 0 2.227815018918469 0 1:-0.888838 2:-0.884325 3:-0.949909 4:-0.90531 5:-0.916923 6:-0.907732 7:-0.95172 8:-0.720317 9:-0.869202 10:-0.886115 11:-0.908469 12:-0.883518 13:-0.890796 14:-0.908046 15:-0.870878 16:-0.885451 17:-0.836344 18:-0.862617 19:-0.861035 20:-0.875706 
0 0 2.637275541025299 0 0 0 0 0 0 0 0 1:-0.897106 2:-0.922045 3:-0.949387 4:-0.857965 5:-0.907692 6:-0.930799 7:-0.805673 8:-0.85752 9:-0.914829 10:-0.961454 11:-0.954761 12:-0.883518 13:-0.822153 14:-0.974592 15:-0.900604 16:-0.942067 17:-0.890542 18:-0.927693 19:-0.859673 20:-0.912116 
0 0 0.001402755175719531 0 0.735107246650211 0 0 0 0 0 0 1:-0.907212 2:-0.927913 3:-0.982259 4:-0.607166 5:-0.913846 6:-0.979496 7:-0.771877 8:-0.854002 9:-0.857034 10:-0.908892 11:-0.799053 12:-0.902155 13:-0.775351 14:-0.822142 15:-0.863446 16:-0.895984 17:-0.889479 18:-0.956616 19:-0.854223 20:-0.904583 
32 32 32 32 32 32 32 32 32 32 20.66897813428336 1:-0.983463 2:-0.984074 3:-0.992695 4:-0.978247 5:-0.973333 6:-0.99402 7:-0.992758 8:-0.954266 9:-0.989354 10:-0.981603 11:-0.985271 12:-0.981363 13:-0.973479 14:-0.977011 15:-0.969345 16:-0.985517 17:-0.985122 18:-0.988431 19:-0.964578 20:-0.984934 
0.05767661259253806 0.4372071221753419 0.3330744681859354 0 0.4732123817037911 0.1128672519213841 0.1648432401655155 0.8530478169713597 0.6190604369268981 0.1817441864178009 0.3186571760333743 1:-0.721635 2:-0.817267 3:-0.902948 4:-0.770953 5:-0.885128 6:-0.794959 7:-0.64997 8:-0.644679 9:-0.715589 10:-0.737188 11:-0.586533 12:-0.788002 13:-0.711388 14:-0.448276 15:-0.792847 16:-0.628045 17:-0.688629 18:-0.726681 19:-0.773842 20:-0.776522 
0 0 0.4117434789534241 0 0 0 0 0 0 0 0 1:-0.869545 2:-0.891031 3:-0.927472 4:-0.944978 5:-0.925128 6:-0.876976 7:-0.814122 8:-0.855761 9:-0.884411 10:-0.964958 11:-0.956865 12:-0.90332 13:-0.875195 14:-0.957653 15:-0.925685 16:-0.97235 17:-0.805526 18:-0.913232 19:-0.83515 20:-0.905838 
15.38827733443435 10.24667216534752 9.297204924485319 5.658589546031695 11.60240691772656 0 0 3.91907908869234 0 0 15.40373721026847 1:-0.9017 2:-0.937972 3:-0.938429 4:-0.900192 5:-0.931282 6:-0.867578 7:-0.914303 8:-0.866315 9:-0.922433 10:-0.942181 11:-0.962125 12:-0.912638 13:-0.887676 14:-0.927405 15:-0.952624 16:-0.933509 17:-0.929862 18:-0.86551 19:-0.910082 20:-0.942247 
0.01746906576493396 0.396418864062785 0.186208491866657 0 0.4836493556709937 0.3451319973726257 0.254416527395744 0.2155361072201022 0.1040050708445155 0.1229292671695825 0.3022920384676738 1:-0.782269 2:-0.65549 3:-0.823637 4:-0.828535 5:-0.851282 6:-0.665955 7:-0.796017 8:-0.711522 9:-0.720152 10:-0.906264 11:-0.849553 12:-0.822947 13:-0.726989 14:-0.823351 15:-0.79006 16:-0.899934 17:-0.554729 18:-0.758496 19:-0.754768 20:-0.839297 
0 0 0.8471204637000933 0.7432131805766915 0.2666157949338521 0.7979715836701764 0 1.305368168043683 2.366160418310439 0 0.4758094064517609 1:-0.713367 2:-0.88684 3:-0.913384 4:-0.857965 5:-0.851282 6:-0.85818 7:-0.783947 8:-0.751979 9:-0.831179 10:-0.87385 11:-0.796949 12:-0.746069 13:-0.653666 14:-0.833031 15:-0.889457 16:-0.869651 17:-0.858661 18:-0.814895 19:-0.783379 20:-0.849341 
0.1403449712581283 0.5242139483428395 0.5601788635791161 0.05198387182541946 0.9586932444278503 0.3016004143493043 0.462986782865268 0.7614014125083097 0.7946575157835758 0.4440899520478147 0.456673956089209 1:-0.459807 2:-0.553227 3:-0.635273 4:-0.245042 5:-0.567179 6:-0.439556 7:-0.0995775 8:-0.210202 9:-0.327757 10:-0.593517 11:-0.715939 12:-0.580664 13:-0.25897 14:-0.743497 15:-0.448212 16:-0.703094 17:-0.405951 18:-0.421547 19:-0.365123 20:-0.49027 
0.881664988530845 7.657302035605938 0 0 0 0 0 0 0 0 0 1:-0.902618 2:-0.946354 3:-0.969736 4:-0.840051 5:-0.901538 6:-0.932507 7:-0.862402 8:-0.822339 9:-0.904183 10:-0.955322 11:-0.935823 12:-0.877694 13:-0.784711 14:-0.917725 15:-0.865304 16:-0.967742 17:-0.920298 18:-0.956616 19:-0.854223 20:-0.900816 
0 0 0 2.417481837601604 2.056974221155362 0 0.9014179816031019 0.7659556712894667 0 0 0 1:-0.92283 2:-0.906119 3:-0.971302 4:-0.955214 5:-0.928205 6:-0.951303 7:-0.771877 8:-0.924362 9:-0.884411 10:-0.895751 11:-0.94424 12:-0.90332 13:-0.920437 14:-0.947973 15:-0.891314 16:-0.9526 17:-0.856536 18:-0.895879 19:-0.870572 20:-0.900816 
3.663290221118575 0 0 0 0 0 0 0.7861520446037791 0 0 0 1:-0.909049 2:-0.949707 3:-0.972867 4:-0.886116 5:-0.90359 6:-0.960701 7:-0.85516 8:-0.901495 9:-0.905703 10:-0.971967 11:-0.94424 12:-0.926616 13:-0.907956 14:-0.947973 15:-0.911751 16:-0.946675 17:-0.94474 18:-0.960954 19:-0.878747 20:-0.923415 
0 0 0.2425148923126841 0 9.12872829985319 5.914951965942192 0 0 0 0.1486024217808228 1.295632917313394 1:-0.92283 2:-0.90109 3:-0.915993 4:-0.941139 5:-0.94359 6:-0.937633 7:-0.972239 8:-0.897977 9:-0.920913 10:-0.971091 11:-0.962125 12:-0.938264 13:-0.906396 14:-0.947973 15:-0.983279 16:-0.963134 17:-0.843783 18:-0.934924 19:-0.893733 20:-0.942247 
0 0 0 0.5383714189764938 10.94777512613747 0 0 19.75034861679963 0 0 1.500106931411874 1:-0.914561 2:-0.917016 3:-0.967649 4:-0.932182 5:-0.952821 6:-0.92909 7:-0.876886 8:-0.897977 9:-0.893536 10:-0.96671 11:-0.940032 12:-0.918462 13:-0.920437 14:-0.922565 15:-0.915467 16:-0.950625 17:-0.897981 18:-0.932032 19:-0.914169 20:-0.937225 
0 0 0 0 22.98786336163623 0 0 0 0 0 0 1:-0.961415 2:-0.989103 3:-0.994782 4:-0.912988 5:-0.964103 6:-0.989748 7:-0.933615 8:-0.943712 9:-0.980228 10:-0.989488 11:-0.972646 12:-0.960396 13:-0.898596 14:-0.990321 15:-0.953553 16:-0.994733 17:-0.973433 18:-0.992769 19:-0.945504 20:-0.982423 
0 0 0 0.2390007492791777 0 0 0 0 0 1.001253317500661 0.2191783029878859 1:-0.811667 2:-0.799665 3:-0.891991 4:-0.892514 5:-0.906667 6:-0.900897 7:-0.849125 8:-0.808267 9:-0.739924 10:-0.912396 11:-0.83272 12:-0.859056 13:-0.842434 14:-0.805203 15:-0.867162 16:-0.926926 17:-0.742827 18:-0.853941 19:-0.846049 20:-0.735091 
1.110994402545121 0.04607075009168038 0 0.6442563389254589 0.3304907817228308 0.6443181078140845 0 0 0 0.4890313432890577 0.7208553412228539 1:-0.927423 2:-0.87259 3:-0.959823 4:-0.883557 5:-0.916923 6:-0.933362 7:-0.90344 8:-0.85752 9:-0.84943 10:-0.929917 11:-0.793793 12:-0.945253 13:-0.876755 14:-0.69147 15:-0.902462 16:-0.906517 17:-0.860786 18:-0.879971 19:-0.891008 20:-0.876962 
0.1176866336119559 0.4032186158155501 0.5254704365077603 0.01350148680294834 0.8830966371911295 0.2806994005916945 0.3569695957819 0.6748018846377792 0.6544928273558491 0.3971116756336916 0.4057689100338962 1:-0.918236 2:-0.813076 3:-0.926428 4:-0.942418 5:-0.8 6:-0.951303 7:-0.973446 8:-0.889182 9:-0.496578 10:-0.939553 11:-0.459232 12:-0.930111 13:-0.929797 14:-0.520871 15:-0.952624 16:-0.961159 17:-0.798087 18:-0.920463 19:-0.791553 20:-0.422473 
10.23789842485029 14.20405971245498 10.11897439510846 7.975462556866867 8.88929725356248 0 29.7668234544854 4.486781934062297 14.82452189794498 15.14883255020541 1.083358782064752 1:-0.977951 2:-0.979044 3:-0.97652 4:-0.884837 5:-0.980513 6:-0.988039 7:-0.973446 8:-0.931398 9:-0.872243 10:-0.950066 11:-0.958969 12:-0.976704 13:-0.934477 14:-0.952813 15:-0.966558 16:-0.930876 17:-0.947928 18:-0.963847 19:-0.964578 20:-0.789077 
0 0 0 0 0 0 0 3.251198997313843 0.03376142045079565 0 0 1:-0.84474 2:-0.920369 3:-0.895643 4:-0.918106 5:-0.956923 6:-0.806066 7:-0.981895 8:-0.748461 9:-0.913308 10:-0.955322 11:-0.976854 12:-0.859056 13:-0.925117 14:-0.962492 15:-0.968416 16:-0.921659 17:-0.902232 18:-0.903109 19:-0.927793 20:-0.94978 
0.1329467806658445 0.5028268546783657 0.5366952887027391 0.04675328522581716 0.9282956659769376 0.2893529354017111 0.4408373412089939 0.7150934147647912 0.7470431255752745 0.4222594861919483 0.4109276602448284 1:-0.797887 2:-0.797988 3:-0.670754 4:-0.956494 5:-0.957949 6:-0.707817 7:-0.614967 8:-0.940193 9:-0.513308 10:-0.996496 11:-0.931615 12:-0.86721 13:-0.951638 14:-0.664852 15:-0.364608 16:-0.9921 17:-0.5983 18:-0.966739 19:-0.878747 20:-0.810421 
0.183642335029468 0.8390006018574735 0.6373207603874399 0.0588365331433094 0.9455827885165363 0.2940132453544421 0.4548242429476039 0.9834629341665012 0.7972106283594297 0.4115170537116269 0.5313380327948499 1:-0.6904 2:-0.734283 3:-0.83929 4:-0.622521 5:-0.843077 6:-0.771892 7:-0.489439 8:-0.363237 9:-0.622814 10:-0.851073 11:-0.674908 12:-0.756552 13:-0.410296 14:-0.703569 15:-0.559684 16:-0.774852 17:-0.65356 18:-0.729573 19:-0.711172 20:-0.805399 
14.2873981409874 1.008207438352548 32 0 32 32 32 1.577280887384211 0.1468355576735617 0 17.89277720587916 1:-0.937529 2:-0.958089 3:-0.977041 4:-0.93602 5:-0.931282 6:-0.953012 7:-0.940857 8:-0.894459 9:-0.954373 10:-0.965834 11:-0.958969 12:-0.938264 13:-0.901716 14:-0.958863 15:-0.958198 16:-0.95655 17:-0.93305 18:-0.932032 19:-0.911444 20:-0.933459 
0 2.405110671246892 0 0 0 3.608494957562109 0 6.513015539890826 0.2269407204490365 6.490533240219717 0 1:-0.890675 2:-0.915339 3:-0.929037 4:-0.960333 5:-0.895385 6:-0.906877 7:-0.893784 8:-0.91029 9:-0.888973 10:-0.871222 11:-0.963177 12:-0.919627 13:-0.917317 14:-0.947973 15:-0.942406 16:-0.887426 17:-0.8661 18:-0.804772 19:-0.837875 20:-0.844319 
0 0 3.763767375963821 0 13.66448822992145 0 1.190325840060359 0 0 0 0 1:-0.964171 2:-0.965633 3:-0.973911 4:-0.895074 5:-0.975385 6:-0.958138 7:-0.967411 8:-0.899736 9:-0.975665 10:-0.956198 11:-0.973698 12:-0.963891 13:-0.912637 14:-0.978221 15:-0.945193 16:-0.957209 17:-0.954304 18:-0.947939 19:-0.949591 20:-0.982423 
0 2.742616067982279 0 3.197632301934362 0 0 0 0 8.30840933937119 0 5.141611029641494 1:-0.897106 2:-0.91031 3:-0.955648 4:-0.889955 5:-0.890256 6:-0.912003 7:-0.884128 8:-0.854002 9:-0.873764 10:-0.915024 11:-0.94424 12:-0.883518 13:-0.822153 14:-0.910466 15:-0.915467 16:-0.945359 17:-0.876727 18:-0.89154 19:-0.854223 20:-0.889517 
0 0 0 0 0 3.718727372936169 0 1.033907567403216 0 0 0 1:-0.972439 2:-0.981559 3:-0.989564 4:-0.979527 5:-0.975385 6:-0.992311 7:-0.98793 8:-0.971856 9:-0.98327 10:-0.979851 11:-0.83798 12:-0.983692 13:-0.976599 14:-0.801573 15:-0.980492 16:-0.9763 17:-0.977683 18:-0.986985 19:-0.970027 20:-0.954802 
32 31.66667222126892 32 25.68261894057784 32 0 32 32 32 23.34350272780959 11.06434778261811 1:-0.960496 2:-0.980721 3:-0.990608 4:-0.943698 5:-0.982564 6:-0.960701 7:-0.952927 8:-0.934916 9:-0.980228 10:-0.971091 11:-0.963177 12:-0.969715 13:-0.953198 14:-0.929825 15:-0.968416 16:-0.983542 17:-0.968119 18:-0.975416 19:-0.968665 20:-0.971124 
0 0 0 0 8.989047426003291 0 0 0 0 0 0 1:-0.896187 2:-0.906957 3:-0.962953 4:-0.889955 5:-0.93641 6:-0.924818 7:-0.849125 8:-0.841689 9:-0.861597 10:-0.956198 11:-0.955813 12:-0.928946 13:-0.920437 14:-0.977011 15:-0.914538 16:-0.97235 17:-0.876727 18:-0.95517 19:-0.886921 20:-0.889517 
0 0 0 0 4.802281637095414 0 0 0 0 0 0 1:-0.861277 2:-0.927075 3:-0.935299 4:-0.93858 5:-0.939487 6:-0.881247 7:-0.973446 8:-0.702726 9:-0.940684 10:-0.965834 11:-0.966334 12:-0.90099 13:-0.893916 14:-0.958863 15:-0.968416 16:-0.959842 17:-0.904357 18:-0.930586 19:-0.886921 20:-0.954802 
0.139812238202726 0.5213084738316337 0.5603586662448418 0.0517311894547573 0.9600295548046512 0.3023914270785474 0.4472162250200578 0.7538325670426665 0.7951426893502402 0.444465563716424 0.4399965845074357 1:0.195223 2:-0.0494552 3:-0.201148 4:0.461292 5:-0.257436 6:-0.0252029 7:1 8:0.841689 9:0.615209 10:-0.400788 11:0.372962 12:-0.11357 13:0.964119 14:0.777374 15:0.259638 16:-0.363397 17:0.409139 18:0.193059 19:0.149864 20:0.265537 
0 0 0 0 0 0.6021767487291176 0 1.89031340909588 0 0 0 1:-0.951309 2:-0.934619 3:-0.946778 4:-0.959053 5:-0.958974 6:-0.940196 7:-0.980688 8:-0.934916 9:-0.946768 10:-0.970215 11:-0.936875 12:-0.963891 13:-0.967239 14:-0.611615 15:-0.949837 16:-0.969717 17:-0.918172 18:-0.926247 19:-0.941417 20:-0.94978 
0 5.600857934459082 14.22420642217989 5.316956302715229 9.750069389386665 0 32 3.034026088653562 12.03632211807616 32 24.17057184538432 1:-0.926504 2:-0.922883 3:-0.969215 4:-0.948816 5:-0.948718 6:-0.951303 7:-0.952927 8:-0.8927 9:-0.88289 10:-0.973719 11:-0.942136 12:-0.938264 13:-0.915757 14:-0.950393 15:-0.961914 16:-0.953917 17:-0.885228 18:-0.939262 19:-0.904632 20:-0.844319 
11.78856653663657 0 0 0 0.04250720550438682 8.00569612364623 12.46715550141746 12.11326323811594 0 3.992076000337419 8.961181249950107 1:-0.966008 2:-0.930427 3:-0.973911 4:-0.952655 5:-0.975385 6:-0.987185 7:-0.932408 8:-0.948989 9:-0.937643 10:-0.959702 11:-0.971594 12:-0.969715 13:-0.962559 14:-0.859649 15:-0.949837 16:-0.967084 17:-0.903294 18:-0.945047 19:-0.944142 20:-0.898305 
0.1403392800425706 0.5210157709813689 0.5602141506103402 0.05175224388661828 0.9591696145641089 0.3018273562553167 0.4467940411589009 0.7534939282871194 0.794910390677625 0.4440288359122296 0.4399740011697681 1:-0.21819 2:-0.590109 3:-0.564832 4:-0.788868 5:-0.641026 6:-0.0858607 7:-0.845504 8:-0.187335 9:-0.248669 10:-0.887867 11:-0.908469 12:-0.306931 13:-0.542902 14:-0.879008 15:-0.894101 16:-0.860434 17:-0.442083 18:-0.388286 19:-0.448229 20:-0.322034 
12.11014110585333 0 0 0 0 0 0 5.784555133042525 11.88780360534965 0 0 1:-0.940285 2:-0.928751 3:-0.959823 4:-0.955214 5:-0.949744 6:-0.955575 7:-0.958962 8:-0.8927 9:-0.926996 10:-0.968463 11:-0.946344 12:-0.941759 13:-0.900156 14:-0.770115 15:-0.95634 16:-0.95655 17:-0.90542 18:-0.947939 19:-0.927793 20:-0.918393 
0.1399564525191634 0.520976737570188 0.5605186478311326 0.0515386859145868 0.9591177108207313 0.3018945823361484 0.4471772323423774 0.7535231402181851 0.7954358250696916 0.4441045953988024 0.4397481466610215 1:-0.406523 2:-0.523051 3:-0.72502 4:-0.772233 5:-0.878974 6:-0.482273 7:-0.398914 8:-0.264732 9:-0.428137 10:-0.657468 11:-0.0867964 12:-0.581829 13:-0.691108 14:-0.116757 15:-0.543892 16:-0.518762 17:-0.506908 18:-0.60376 19:-0.73297 20:-0.858129 
0 0 0 0 0 0 0 5.382421148742051 0 0 0 1:-0.834635 2:-0.864208 3:-0.943647 4:-0.893794 5:-0.888205 6:-0.891499 7:-0.800845 8:-0.811785 9:-0.770342 10:-0.938677 11:-0.876907 12:-0.834595 13:-0.795632 14:-0.829401 15:-0.868091 16:-0.901251 17:-0.809777 18:-0.900217 19:-0.790191 20:-0.801632 
0 0 32 17.22295767396637 32 0 0 0 3.935947977238349 0 0 1:-0.968764 2:-0.974015 3:-0.986434 4:-0.939859 5:-0.987692 6:-0.982059 7:-0.977067 8:-0.980651 9:-0.992395 10:-0.977223 11:-0.973698 12:-0.977868 13:-0.960998 14:-0.946763 15:-0.986066 16:-0.97235 17:-0.962806 18:-0.979754 19:-0.983651 20:-0.983679 
0.3022386856371808 0.663525548294121 0.5380149268850116 0.109079120219159 0.9889452575864299 0.4466120389111409 0.6092544355891006 0.7486517393438993 0.8699659844712118 0.4553357799415918 0.6916585061164351 1:-0.872301 2:-0.874267 3:-0.87999 4:-0.307742 5:-0.615385 6:-0.925673 7:-0.914303 8:-0.665787 9:-0.881369 10:-0.839685 11:-0.948448 12:-0.902155 13:-0.716069 14:-0.915306 15:-0.812355 16:-0.915734 17:-0.766206 18:-0.609544 19:-0.622616 20:-0.733836 
0 0 18.542241756184 0 0 0 0 0 0 0 0 1:-0.959577 2:-0.964795 3:-0.987999 4:-0.896353 5:-0.948718 6:-0.975224 7:-0.962583 8:-0.934916 9:-0.958935 10:-0.982479 11:-0.976854 12:-0.961561 13:-0.881435 14:-0.952813 15:-0.958198 16:-0.971692 17:-0.94474 18:-0.969631 19:-0.930518 20:-0.953547 
0 0 0 0 0 0 0 0 0 0.02460909273512427 0 1:-0.934773 2:-0.836547 3:-0.911818 4:-0.971849 5:-0.979487 6:-0.973516 7:-0.981895 8:-0.94723 9:-0.685171 10:-0.992992 11:-0.892688 12:-0.969715 13:-0.957878 14:-0.765275 15:-0.975848 16:-0.953917 17:-0.763018 18:-0.945047 19:-0.934605 20:-0.452605 
0 0 0 1.234287389130888 0 0 0 9.541368741657314 1.797381362206429 0 0 1:-0.85209 2:-0.945516 3:-0.972867 4:-0.90659 5:-0.956923 6:-0.844511 7:-0.847918 8:-0.91029 9:-0.928517 10:-0.960578 11:-0.950552 12:-0.847408 13:-0.843994 14:-0.961283 15:-0.918254 16:-0.965767 17:-0.946865 18:-0.937816 19:-0.920981 20:-0.962335 
25.48798680002323 17.20727339336809 32 32 32 32 32 21.17835448320768 0 32 32 1:-0.97887 2:-0.984912 3:-0.983303 4:-0.941139 5:-0.980513 6:-0.993165 7:-0.983102 8:-0.975374 9:-0.992395 10:-0.985983 11:-0.996844 12:-0.984857 13:-0.968799 14:-0.986691 15:-0.992569 16:-0.986175 17:-0.971307 18:-0.965293 19:-0.964578 20:-0.989956 
1.381216161026322 0 0 0 0 0 0 0 0 0 0 1:-0.952228 2:-0.979883 3:-0.987999 4:-0.873321 5:-0.968205 6:-0.995728 7:-0.931201 8:-0.8927 9:-0.930038 10:-0.86947 11:-0.877959 12:-0.96855 13:-0.923557 14:-0.795523 15:-0.921969 16:-0.915076 17:-0.978746 18:-0.9812 19:-0.967302 20:-0.964846 
1.079772816516866 15.01790772903675 1.169706342120932 0 0 0 0 0.1421840582758404 0 3.651199889828167 0 1:-0.939366 2:-0.92456 3:-0.97965 4:-0.957774 5:-0.933333 6:-0.958992 7:-0.823778 8:-0.906772 9:-0.875285 10:-0.964958 11:-0.892688 12:-0.935935 13:-0.904836 14:-0.862069 15:-0.874594 16:-0.9526 17:-0.888417 18:-0.916124 19:-0.855586 20:-0.868173 
0.1681092484181214 0.5428792566093289 0.3779015010744431 0.002417448309877365 0.7053266914640245 0.2362397598862799 0.2773505432761864 0.6874374990310197 0.752657648291331 0.3102773928253232 0.4175137252460013 1:-0.885163 2:-0.92456 3:-0.965562 4:-0.378119 5:-0.884103 6:-0.931653 7:-0.66204 8:-0.813544 9:-0.843346 10:-0.864214 11:-0.867438 12:-0.859056 13:-0.466459 14:-0.662432 15:-0.829076 16:-0.899934 17:-0.883103 18:-0.904555 19:-0.836512 20:-0.864407 
2.280900007928354 0 10.5316881862194 0 11.04410850802326 0 0 0 0 0 0 1:-0.97152 2:-0.983236 3:-0.997913 4:-0.928343 5:-0.954872 6:-0.993165 7:-0.859988 8:-0.941953 9:-0.971103 10:-0.977223 11:-0.968438 12:-0.974374 13:-0.923557 14:-0.945554 15:-0.94798 16:-0.993417 17:-0.967056 18:-0.992769 19:-0.930518 20:-0.967357 
3.929695793233447 0 0 0 0 0 0 0 0 0 0 1:-0.935691 2:-0.942163 3:-0.962432 4:-0.895074 5:-0.939487 6:-0.950449 7:-0.93965 8:-0.938434 9:-0.955894 10:-0.963206 11:-0.932667 12:-0.953407 13:-0.911076 14:-0.837871 15:-0.95634 16:-0.9605 17:-0.952179 18:-0.95517 19:-0.934605 20:-0.943503 
0 0.3661415059857069 0.3537330605872161 0 0.6453300528162284 0.2066354830463865 0.1419886352983041 0.5182575859830627 0.7341055521198809 0.5961748760538438 0.209206200972451 1:-0.925586 2:-0.763621 3:-0.924863 4:-0.942418 5:-0.951795 6:-0.984622 7:-0.812915 8:-0.926121 9:-0.657795 10:-0.9159 11:-0.963177 12:-0.962726 13:-0.865835 14:-0.967332 15:-0.890386 16:-0.907176 17:-0.643996 18:-0.826464 19:-0.878747 20:-0.299435 
0 4.954573692534043 0 0 0 0 10.23350106977033 0 0 0 0 1:-0.909049 2:-0.937972 3:-0.942082 4:-0.8746 5:-0.951795 6:-0.910295 7:-0.940857 8:-0.889182 9:-0.911787 10:-0.974595 11:-0.958969 12:-0.913803 13:-0.895476 14:-0.952813 15:-0.931259 16:-0.961159 17:-0.926674 18:-0.934924 19:-0.907357 20:-0.930948 
0.140353456220314 0.5215965244582088 0.560734120337044 0.05167785657146645 0.9596192444351658 0.3018642649404121 0.4474629331462265 0.7535596731580727 0.7950915986768409 0.4442650704909508 0.4403603622445125 1:-0.428571 2:-0.22632 3:-0.545004 4:-0.763276 5:-0.651282 6:-0.484836 7:-0.750151 8:-0.109938 9:-0.193916 10:-0.533947 11:-0.482378 12:-0.612114 13:-0.4883 14:-0.294616 15:-0.750116 16:-0.337064 17:0.157279 18:0.022415 19:-0.299728 20:0.324545 
0 0.3428224271644699 0.2213982552246067 0.2287961909774152 0.2184021972474608 0.01227158404783836 0.941631655441184 0.7075190648016616 0.8601903159294162 0.5061119512818844 0.1304360292181742 1:-0.884244 2:-0.884325 3:-0.934255 4:-0.78247 5:-0.915897 6:-0.92909 7:-0.826192 8:-0.80299 9:-0.808365 10:-0.791502 11:-0.562336 12:-0.914968 13:-0.850234 14:-0.647913 15:-0.866233 16:-0.803818 17:-0.756642 18:-0.853941 19:-0.813351 20:-0.708726 
0.06968893536310342 0.3970036687675805 0.4573299204384228 0.03644748735238773 0.7619929404645969 0.2177143782402151 0.3369853258676691 0.55599871189767 0.494847799812787 0.3420728955298971 0.3328280022944527 1:-0.6904 2:-0.844929 3:-0.843986 4:-0.722329 5:-0.890256 6:-0.71038 7:-0.814122 8:-0.574318 9:-0.780989 10:-0.825668 11:-0.251973 12:-0.735585 13:-0.75819 14:-0.448276 15:-0.864375 16:-0.801843 17:-0.833156 18:-0.752711 19:-0.821526 20:-0.873195 
-32 0 32 32 32 27.51474002396412 0 32 32 32 0 1:-0.998163 2:-0.992456 3:-0.998435 4:-0.993602 5:-0.995897 6:-0.998291 7:-0.995172 8:-0.991205 9:-0.992395 10:-0.997372 11:-0.996844 12:-0.998835 13:-0.99064 14:-0.987901 15:-0.999071 16:-0.995392 17:-0.994687 18:-0.998554 19:-0.997275 20:-0.997489 
-0 26.46630914294776 0 0 0 31.32918351819711 28.43182065776404 0 11.9420072059035 15.35264525407973 17.31260158727142 1:-0.960496 2:-0.961442 3:-0.988521 4:-0.961612 5:-0.957949 6:-0.981205 7:-0.969825 8:-0.934916 9:-0.954373 10:-0.981603 11:-0.960021 12:-0.969715 13:-0.921997 14:-0.966122 15:-0.948908 16:-0.988808 17:-0.965994 18:-0.91757 19:-0.907357 20:-0.938481 
-28.77549699821575 0 2.117719919718876 0 0 0 18.12470653827507 11.2681656518685 0 11.76277778262912 0 1:-0.966927 2:-0.977368 3:-0.988521 4:-0.944978 5:-0.950769 6:-0.966681 7:-0.943271 8:-0.926121 9:-0.968061 10:-0.983355 11:-0.977906 12:-0.961561 13:-0.956318 14:-0.950393 15:-0.909893 16:-0.983542 17:-0.968119 18:-0.965293 19:-0.957766 20:-0.964846 
-1.842789050035182 1.312950571699627 1.775737834170795 0.7586010577873671 1.705299897919495 0.9043705761404128 1.213948209721808 1.482481488559034 1.527217332478988 1.15056945029782 0.9719601955159025 1:-0.706936 2:-0.725063 3:-0.905557 4:-0.426743 5:-0.542564 6:-0.810337 7:-0.898612 8:-0.284081 9:-0.688213 10:-0.838809 11:-0.739085 12:-0.870705 13:-0.293292 14:-0.136116 15:-0.871807 16:-0.706386 17:-0.773645 18:-0.709328 19:-0.697548 20:-0.526679 
-0.8990765567660399 0.4889981716660372 0.05284129005919882 0 1.309228627965305 0 0 0.7991784804340848 0.9432592211912165 0.01448826102755602 0 1:-0.899862 2:-0.890193 3:-0.935299 4:-0.78119 5:-0.868718 6:-0.952157 7:-0.853953 8:-0.843448 9:-0.831179 10:-0.78537 11:-0.821147 12:-0.944089 13:-0.698908 14:-0.728978 15:-0.887599 16:-0.826201 17:-0.92136 18:-0.694866 19:-0.828338 20:-0.781544 
-0 3.770305001901742 0 0 0 0 0 0 0 0 0 1:-0.956821 2:-0.979883 3:-0.973911 4:-0.955214 5:-0.932308 6:-0.959846 7:-0.913096 8:-0.897977 9:-0.961977 10:-0.95357 11:-0.953709 12:-0.977868 13:-0.917317 14:-0.941924 15:-0.901533 16:-0.965767 17:-0.964931 18:-0.851048 19:-0.828338 20:-0.918393 
-0 0 32 0 0 0 0 0 1.86908948016706 22.78928084446069 0 1:-0.983463 2:-0.97653 3:-0.992173 4:-0.971849 5:-0.966154 6:-0.971807 7:-0.973446 8:-0.929639 9:-0.987833 10:-0.989488 11:-0.977906 12:-0.998835 13:-0.945398 14:-0.939504 15:-0.945193 16:-0.977617 17:-0.981934 18:-0.984093 19:-0.979564 20:-0.968613 
-22.46515509251267 32 0 2.306128064536976 15.48397040271491 0 0 0 0.2263754406508267 0 0 1:-0.966927 2:-0.958089 3:-0.990086 4:-0.955214 5:-0.962051 6:-0.971807 7:-0.936029 8:-0.941953 9:-0.963498 10:-0.974595 11:-0.962125 12:-0.984857 13:-0.920437 14:-0.969752 15:-0.951695 16:-0.987492 17:-0.971307 18:-0.939262 19:-0.944142 20:-0.940992 
-0 0 0.4731681813232797 0 0 0 0.307060715290337 0 0 0.32129106846379 0.5759730101370287 1:-0.893431 2:-0.869237 3:-0.924863 4:-0.804223 5:-0.844103 6:-0.888936 7:-0.809294 8:-0.685136 9:-0.774905 10:-0.871222 11:-0.855865 12:-0.890507 13:-0.703588 14:-0.805203 15:-0.808639 16:-0.935484 17:-0.913921 18:-0.582068 19:-0.712534 20:-0.776522 
-0 0 0 0 0 0.298142106894388 0 0 0 0 0 1:-0.920073 2:-0.894384 3:-0.956692 4:-0.796545 5:-0.88 6:-0.945323 7:-0.931201 8:-0.82058 9:-0.858555 10:-0.908892 11:-0.877959 12:-0.961561 13:-0.809672 14:-0.770115 15:-0.889457 16:-0.901251 17:-0.899044 18:-0.798988 19:-0.885559 20:-0.875706 
-0 0 32 10.46299965392257 32 32 32 27.64245637788245 0 32 29.37363249681714 1:-0.969683 2:-0.982397 3:-0.993739 4:-0.966731 5:-0.965128 6:-0.977787 7:-0.972239 8:-0.94723 9:-0.958935 10:-0.985983 11:-0.983167 12:-0.976704 13:-0.951638 14:-0.964912 15:-0.968416 16:-0.986175 17:-0.975558 18:-0.942155 19:-0.940054 20:-0.968613 
-32 32 32 32 32 32 30.56672903171076 1.983566076323515 32 32 12.20538280363127 1:-0.982545 2:-0.98575 3:-0.995826 4:-0.979527 5:-0.97641 6:-0.983768 7:-0.990344 8:-0.973615 9:-0.986312 10:-0.986859 11:-0.976854 12:-0.99767 13:-0.959438 14:-0.968542 15:-0.983279 16:-0.9842 17:-0.985122 18:-0.963847 19:-0.979564 20:-0.968613 
-0 0 0 0 0 0 0 0 0 0 0.3769193983867262 1:-0.910887 2:-0.906957 3:-0.97652 4:-0.869482 5:-0.904615 6:-0.94874 7:-0.92758 8:-0.846966 9:-0.914829 10:-0.961454 11:-0.901105 12:-0.962726 13:-0.786271 14:-0.854809 15:-0.908035 16:-0.937459 17:-0.928799 18:-0.858279 19:-0.923706 20:-0.88575 
-0 1.726595268074455 0 0 0 0 1.909935549840658 0 0 0 0 1:-0.935691 2:-0.943839 3:-0.95043 4:-0.84261 5:-0.909744 6:-0.953866 7:-0.876886 8:-0.861038 9:-0.81597 10:-0.893999 11:-0.902157 12:-0.927781 13:-0.822153 14:-0.822142 15:-0.870878 16:-0.921659 17:-0.927736 18:-0.851048 19:-0.90327 20:-0.870684 
-0.9530379515294588 4.070545424419371 0.6639879034988252 2.791941528941575 0.5402376600147593 2.064243114628859 1.508574557535717 2.644562038373909 5.323573993076828 1.65764254328293 7.640455534728809 1:-0.874139 2:-0.885163 3:-0.903992 4:-0.765835 5:-0.785641 6:-0.875267 7:-0.878093 8:-0.693931 9:-0.742966 10:-0.770477 11:-0.901105 12:-0.821782 13:-0.765991 14:-0.776165 15:-0.894101 16:-0.916392 17:-0.841658 18:-0.800434 19:-0.807902 20:-0.792844 
-0 0 0 0 2.716033223105794 0 0 1.690769836626517 0 3.85068593568927 0 1:-0.946716 2:-0.954736 3:-0.964519 4:-0.882278 5:-0.910769 6:-0.94874 7:-0.929994 8:-0.869833 9:-0.829658 10:-0.90276 11:-0.94424 12:-0.911474 13:-0.914197 14:-0.85118 15:-0.927543 16:-0.942067 17:-0.94474 18:-0.866956 19:-0.797003 20:-0.89705 
-0 4.009214952595035 0 0 4.647049903759243 1.795888994577685 5.339569168886447 0 1.028896062895042 0 0 1:-0.948553 2:-0.949707 3:-0.944691 4:-0.882278 5:-0.902564 6:-0.944468 7:-0.95172 8:-0.862797 9:-0.850951 10:-0.863338 11:-0.920042 12:-0.941759 13:-0.889236 14:-0.869328 15:-0.918254 16:-0.951942 17:-0.957492 18:-0.806218 19:-0.790191 20:-0.917137 
-1.189555308027699 0.9318674749169535 1.144211516338768 0.5164951543591677 1.170378113894394 0.6800589228964747 0.8932987382011814 1.030688412464783 0.8698652871824343 0.8010313170166887 0.4329178988315611 1:-0.85209 2:-0.82062 3:-0.939995 4:-0.778631 5:-0.77641 6:-0.833405 7:-0.764635 8:-0.600704 9:-0.855513 10:-0.905388 11:-0.831668 12:-0.911474 13:-0.574103 14:-0.702359 15:-0.614491 16:-0.901909 17:-0.906482 18:-0.480839 19:-0.476839 20:-0.599498 
-0.9819647948674701 0.4718840782696389 1.081547345227803 0.7311351492783694 0.9028429457772168 0.9353398090925179 1.101040676314314 0.6284876401908834 2.472626963294562 0.6735142277825124 0.5235899139152077 1:-0.918236 2:-0.908634 3:-0.955127 4:-0.747921 5:-0.870769 6:-0.918838 7:-0.886542 8:-0.760774 9:-0.481369 10:-0.879982 11:-0.91899 12:-0.845079 13:-0.75351 14:-0.68905 15:-0.828147 16:-0.904542 17:-0.891605 18:-0.853941 19:-0.925068 20:-0.86064 
-0 32 5.415757985977986 0 0 0 32 0 0 0 15.00993227247453 1:-0.966927 2:-0.9715 3:-0.982259 4:-0.934741 5:-0.948718 6:-0.938488 7:-0.93965 8:-0.903254 9:-0.934601 10:-0.958826 11:-0.976854 12:-0.955737 13:-0.931357 14:-0.933454 15:-0.942406 16:-0.986175 17:-0.954304 18:-0.933478 19:-0.945504 20:-0.953547 
-3.215484466120781 7.793390053702113 0 0.7656661852834608 1.076743955620091 2.530546348946892 1.66303859094382 3.150667676530442 0 0.3834438261129566 0 1:-0.911805 2:-0.931266 3:-0.968171 4:-0.854127 5:-0.869744 6:-0.867578 7:-0.754979 8:-0.780123 9:-0.820532 10:-0.936049 11:-0.940032 12:-0.815958 13:-0.872075 14:-0.818512 15:-0.823502 16:-0.916392 17:-0.886291 18:-0.884309 19:-0.871935 20:-0.914626 
-0 30.53338497240547 32 0 32 32 0 0 0 32 0 1:-0.993569 2:-0.994132 3:-0.996348 4:-0.997441 5:-0.988718 6:-0.998291 7:-0.995172 8:-0.984169 9:-0.987833 10:-0.994744 11:-0.99474 12:-1 13:-0.98908 14:-0.99516 15:-0.990711 16:-0.999342 17:-0.998937 18:-0.968185 19:-0.953678 20:-0.983679 
-0 0 0 20.72654359954066 14.96682696399197 0 32 0 0 9.582556193048886 0 1:-0.975195 2:-0.954736 3:-0.977563 4:-0.948816 5:-0.946667 6:-0.963264 7:-0.85516 8:-0.913808 9:-0.860076 10:-0.95795 11:-0.954761 12:-0.899825 13:-0.943838 14:-0.954023 15:-0.926614 16:-0.986175 17:-0.96068 18:-0.930586 19:-0.942779 20:-0.947269 
-0 11.79689848403615 0 0 0 0 0 11.62345991524399 0 0 0 1:-0.977951 2:-0.978206 3:-0.983303 4:-0.96929 5:-0.946667 6:-0.94874 7:-0.866023 8:-0.915567 9:-0.951331 10:-0.985983 11:-0.987375 12:-0.935935 13:-0.954758 14:-0.968542 15:-0.917325 16:-0.986833 17:-0.976621 18:-0.95517 19:-0.915531 20:-0.943503 
-0 0 32 32 32 0 21.78556750045255 8.799375975864908 32 32 0 1:-0.998163 2:-0.989941 3:-0.995826 4:-0.978247 5:-0.990769 6:-0.997437 7:-0.997586 8:-0.985928 9:-0.978707 10:-0.994744 11:-0.993688 12:-0.995341 13:-0.98752 14:-0.974592 15:-0.99164 16:-0.993417 17:-0.993624 18:-0.991323 19:-0.990463 20:-0.987445 
-0 5.42200931758685 1.930614950487168 0 1.851052309398747 0 5.953212571655866 0 0 0 0 1:-0.896187 2:-0.906119 3:-0.957214 4:-0.864363 5:-0.859487 6:-0.911149 7:-0.914303 8:-0.736148 9:-0.930038 10:-0.944809 11:-0.899001 12:-0.939429 13:-0.770671 14:-0.885057 15:-0.901533 16:-0.949309 17:-0.935175 18:-0.829356 19:-0.886921 20:-0.785311 
-1.522109764743669 1.485130452003561 1.604729167733297 0.6064091022584737 1.346068538303706 0.7497843234520413 1.176078287966238 1.268713062568404 1.432145220065417 0.9114383084956721 0.9480862578908752 1:-0.798806 2:-0.781224 3:-0.870597 4:-0.634037 5:-0.685128 6:-0.841948 7:-0.742909 8:-0.567282 9:-0.688213 10:-0.804643 11:-0.758022 12:-0.829936 13:-0.519501 14:-0.628554 15:-0.698096 16:-0.773535 17:-0.823592 18:-0.586406 19:-0.53406 20:-0.470182 
-2.999785533170933 1.537248861537671 0 0.4842149391172878 0.1597730696807384 0 0 0.07839803613309293 2.818965326506758 0 0 1:-0.86587 2:-0.84912 3:-0.960866 4:-0.836212 5:-0.827692 6:-0.875267 7:-0.832227 8:-0.697449 9:-0.858555 10:-0.916776 11:-0.889532 12:-0.89866 13:-0.711388 14:-0.797943 15:-0.800279 16:-0.915734 17:-0.894793 18:-0.82791 19:-0.794278 20:-0.741368 
-0 0.908568703900919 0 1.368924292333547 0.176807453750414 3.180163177297365 0.7291782685438821 0 2.993496446767952 0 2.016265699889274 1:-0.892513 2:-0.889355 3:-0.943647 4:-0.795266 5:-0.898462 6:-0.920547 7:-0.812915 8:-0.827617 9:-0.738403 10:-0.830048 11:-0.865334 12:-0.857892 13:-0.75195 14:-0.803993 15:-0.816071 16:-0.917051 17:-0.886291 18:-0.609544 19:-0.756131 20:-0.815443 
-0 6.197857934754545 0 0 0 0 0 0 0 0 0 1:-0.955903 2:-0.949707 3:-0.97652 4:-0.929623 5:-0.951795 6:-0.953866 7:-0.757393 8:-0.883905 9:-0.878327 10:-0.95795 11:-0.941084 12:-0.921957 13:-0.892356 14:-0.934664 15:-0.768695 16:-0.973667 17:-0.958555 18:-0.906001 19:-0.889646 20:-0.909605 
-1.316253290015359 0 1.042729440612546 0.3229127417297949 1.951808204226827 1.302951830495397 0.5519794042972662 1.223309141737547 0 0 0 1:-0.921911 2:-0.919531 3:-0.946778 4:-0.8746 5:-0.870769 6:-0.917984 7:-0.759807 8:-0.811785 9:-0.829658 10:-0.908016 11:-0.903209 12:-0.86954 13:-0.825273 14:-0.857229 15:-0.798421 16:-0.949967 17:-0.922423 18:-0.704989 19:-0.619891 20:-0.84683 
-31.51219843481459 0 5.72101733674754 0 0 0 0 0 0 0 0 1:-0.956821 2:-0.964795 3:-0.986434 4:-0.927063 5:-0.948718 6:-0.964972 7:-0.967411 8:-0.917326 9:-0.960456 10:-0.967587 11:-0.972646 12:-0.983692 13:-0.918877 14:-0.928615 15:-0.951695 16:-0.967742 17:-0.961743 18:-0.937816 19:-0.933243 20:-0.938481 
-0 0 0 0 2.980764984855323 0 3.535998351339299 0 0 0 0 1:-0.930179 2:-0.964795 3:-0.973389 4:-0.911708 5:-0.913846 6:-0.929944 7:-0.888956 8:-0.859279 9:-0.887452 10:-0.938677 11:-0.967386 12:-0.918462 13:-0.903276 14:-0.916515 15:-0.902462 16:-0.973667 17:-0.940489 18:-0.926247 19:-0.892371 20:-0.951036 
-0 0 0 0 0 0 0.7212416593374643 0 0 0 0 1:-0.88057 2:-0.856664 3:-0.943125 4:-0.745361 5:-0.815385 6:-0.884665 7:-0.829813 8:-0.722076 9:-0.86616 10:-0.917652 11:-0.850605 12:-0.925451 13:-0.692668 14:-0.719298 15:-0.817928 16:-0.874259 17:-0.906482 18:-0.787419 19:-0.852861 20:-0.752668 
-0 7.630045836612563 32 15.58542372857467 32 0 32 0 18.49713432073582 11.21682321896714 7.711841094414785 1:-0.97152 2:-0.975692 3:-0.993217 4:-0.971849 5:-0.969231 6:-0.975224 7:-0.936029 8:-0.943712 9:-0.951331 10:-0.983355 11:-0.97475 12:-0.975539 13:-0.934477 14:-0.972172 15:-0.955411 16:-0.984858 17:-0.97237 18:-0.947939 19:-0.963215 20:-0.959824 
-7.941565807920529 0 32 18.95746001380897 32 14.86215647468763 0 0 0 32 20.94448077635819 1:-0.998163 2:-0.997485 3:-0.999478 4:-0.994882 5:-0.996923 6:-0.997437 7:-0.991551 8:-0.994723 9:-0.996958 10:-1 11:-0.996844 12:-0.998835 13:-0.98752 14:-0.99516 15:-0.992569 16:-0.998683 17:-0.997875 18:-0.988431 19:-0.99455 20:-0.996234 
-0.8772699253386705 0.4323865630756231 0.1547206018231124 6.695604229867071 1.814983989975697 0 1.37214823255025 0 13.66817497490385 1.115876681463302 5.125889854531253 1:-0.940285 2:-0.901928 3:-0.950952 4:-0.907869 5:-0.916923 6:-0.976933 7:-0.974653 8:-0.87511 9:-0.907224 10:-0.915024 11:-0.864282 12:-0.952242 13:-0.792512 14:-0.905626 15:-0.965629 16:-0.958525 17:-0.957492 18:-0.810557 19:-0.893733 20:-0.786566 
-10.40171686915872 0 0 0 0 4.706834533976292 0 0 0 0 0 1:-0.948553 2:-0.949707 3:-0.97965 4:-0.897633 5:-0.939487 6:-0.956429 7:-0.923959 8:-0.901495 9:-0.925475 10:-0.950942 11:-0.948448 12:-0.912638 13:-0.906396 14:-0.865699 15:-0.93869 16:-0.953917 17:-0.952179 18:-0.919017 19:-0.93188 20:-0.954802 
-0 0 0 4.868464964718728 0 0 0 0 21.52306355045439 0 14.09764093977453 1:-0.97887 2:-0.949707 3:-0.978607 4:-0.946257 5:-0.934359 6:-0.970953 7:-0.894991 8:-0.913808 9:-0.913308 10:-0.964082 11:-0.963177 12:-0.899825 13:-0.879875 14:-0.941924 15:-0.928472 16:-0.977617 17:-0.967056 18:-0.943601 19:-0.950954 20:-0.923415 
-0 0 0 0 0 0 0 0 0 0 0.8228465680711243 1:-0.947634 2:-0.951383 3:-0.975476 4:-0.87588 5:-0.939487 6:-0.965827 7:-0.931201 8:-0.915567 9:-0.898099 10:-0.954446 11:-0.927407 12:-0.940594 13:-0.856474 14:-0.860859 15:-0.941477 16:-0.947992 17:-0.958555 18:-0.894432 19:-0.950954 20:-0.890772 
-0 1.006539325812827 0.6391404366586058 0 0.1781887324213756 0.5759795541546009 0 0 2.225228805297304 0.5555799091645763 1.126007975149769 1:-0.890675 2:-0.852473 3:-0.960344 4:-0.753039 5:-0.837949 6:-0.949594 7:-0.952927 8:-0.774846 9:-0.843346 10:-0.916776 11:-0.81273 12:-0.946418 13:-0.681747 14:-0.69752 15:-0.942406 16:-0.860434 17:-0.890542 18:-0.825018 19:-0.901907 20:-0.795355 
-0 6.810749435029462 0 7.839377873463922 0 3.031997797343935 0.3312786886075092 0 6.082772460670029 12.59038124200778 10.93788879439424 1:-0.95774 2:-0.957251 3:-0.966084 4:-0.883557 5:-0.945641 6:-0.937633 7:-0.902233 8:-0.894459 9:-0.828137 10:-0.930793 11:-0.958969 12:-0.875364 13:-0.892356 14:-0.887477 15:-0.921969 16:-0.973009 17:-0.930925 18:-0.914678 19:-0.893733 20:-0.925926 
-0 3.214723140559204 0 0 0 0 0 0 0 0 0 1:-0.951309 2:-0.961442 3:-0.978085 4:-0.93602 5:-0.961026 6:-0.961555 7:-0.921545 8:-0.906772 9:-0.965019 10:-0.964958 11:-0.931615 12:-0.980198 13:-0.917317 14:-0.869328 15:-0.898746 16:-0.923634 17:-0.975558 18:-0.897325 19:-0.915531 20:-0.91086 
-0 20.59393935999248 32 0 26.18056943039132 5.905851229705703 0 0 0 32 0 1:-0.987138 2:-0.983236 3:-0.989564 4:-0.979527 5:-0.984615 6:-0.987185 7:-0.949306 8:-0.980651 9:-0.977186 10:-0.992992 11:-0.989479 12:-0.993011 13:-0.975039 14:-0.980641 15:-0.963771 16:-0.99605 17:-0.987248 18:-0.962401 19:-0.968665 20:-0.984934 
-31.29666645309501 32 19.97133441433787 0 32 0 6.553884498664684 1.618896207239124 0 2.72505480163363 0 1:-0.974277 2:-0.972339 3:-0.981216 4:-0.964171 5:-0.970256 6:-0.982059 7:-0.919131 8:-0.952507 9:-0.943726 10:-0.975471 11:-0.965281 12:-0.965055 13:-0.945398 14:-0.944344 15:-0.953553 16:-0.965109 17:-0.976621 18:-0.950832 19:-0.96049 20:-0.972379 
-1.489564069675164 5.581420751690453 0 0 0.3611084092767158 0 2.364633028100769 0.6089126582474568 0.1362730584687765 0 0 1:-0.927423 2:-0.91031 3:-0.923819 4:-0.887396 5:-0.85641 6:-0.901751 7:-0.840676 8:-0.795954 9:-0.853992 10:-0.850197 11:-0.923198 12:-0.846243 13:-0.789392 14:-0.870538 15:-0.728751 16:-0.939434 17:-0.920298 18:-0.791757 19:-0.731608 20:-0.802888 
-2.783739529784337 0 32 32 32 0 0 0 6.953475475722145 32 32 1:-0.996325 2:-0.991618 3:-0.999478 4:-0.987204 5:-0.990769 6:-0.999146 7:-1 8:-0.994723 9:-0.996958 10:-0.99562 11:-0.991583 12:-0.996506 13:-0.985959 14:-0.989111 15:-0.999071 16:-0.994733 17:-0.998937 18:-0.985539 19:-0.995913 20:-0.981168 
-0 0 0 0 0 0 8.996668956931275 0 0 0 0 1:-0.968764 2:-0.963956 3:-0.990608 4:-0.921945 5:-0.947692 6:-0.962409 7:-0.937236 8:-0.890941 9:-0.96654 10:-0.978975 11:-0.954761 12:-0.993011 13:-0.907956 14:-0.940714 15:-0.913609 16:-0.978275 17:-0.978746 18:-0.924801 19:-0.949591 20:-0.932203 
-1.858478197485501 1.324211581282358 1.78668258079633 0.7657999281332302 1.72133882483096 0.9127228207110781 1.226999995967377 1.496533294093041 1.5373099168464 1.161530123414122 0.9734524158141342 1:-0.627928 2:-0.575859 3:-0.791286 4:-0.195138 5:-0.61641 6:-0.848783 7:-0.7586 8:-0.451187 9:-0.330798 10:-0.510293 11:-0.40768 12:-0.742574 13:0.0296412 14:0.000604961 15:-0.796563 16:-0.56287 17:-0.634431 18:-0.193059 19:-0.640327 20:-0.421218 
-0 32 32 32 32 0 32 32 32 32 0 1:-0.995407 2:-0.994971 3:-0.998435 4:-0.993602 5:-0.990769 6:-0.995728 7:-0.993965 8:-0.991205 9:-0.98327 10:-0.996496 11:-0.990531 12:-0.996506 13:-0.99064 14:-0.990321 15:-0.995355 16:-0.995392 17:-0.993624 18:-0.998554 19:-0.997275 20:-0.992467 
-2.853644512957491 0 0 0 0 0 0 0 0 0 0 1:-0.893431 2:-0.899413 3:-0.972867 4:-0.810621 5:-0.874872 6:-0.941051 7:-0.936029 8:-0.846966 9:-0.89962 10:-0.944809 11:-0.88848 12:-0.939429 13:-0.803432 14:-0.69631 15:-0.966558 16:-0.880843 17:-0.927736 18:-0.904555 19:-0.934605 20:-0.874451 
-0 0 18.14593546304943 8.369983768700115 3.37545588012321 0 32 0 10.23560936993761 10.88147001789111 0 1:-0.96509 2:-0.965633 3:-0.977041 4:-0.912988 5:-0.964103 6:-0.982913 7:-0.97586 8:-0.931398 9:-0.934601 10:-0.948314 11:-0.943188 12:-0.972044 13:-0.921997 14:-0.893527 15:-0.960985 16:-0.943384 17:-0.971307 18:-0.924801 19:-0.957766 20:-0.902072 
-1.859993350749777 1.324887589582339 1.787061885456128 0.7657509983306332 1.722078722728427 0.912565062445389 1.227398978584183 1.497398401184939 1.537795170733801 1.161624610523736 0.9739336800268632 1:-0.603124 2:-0.637049 3:-0.722411 4:-0.334613 5:-0.406154 6:-0.702691 7:-0.610139 8:0.0360598 9:-0.387072 10:-0.494525 11:-0.495003 12:-0.614444 13:-0.0920437 14:-0.357532 15:-0.329308 16:-0.646478 17:-0.590861 18:0.515546 19:0.472752 20:-0.0822348 
-28.56123124604319 3.827825268654252 5.724038949282222 10.40022362978036 14.21855655769392 0 0 26.30579357514587 16.83389774475432 0.4098234956862262 5.428991805302291 1:-0.93661 2:-0.957251 3:-0.97965 4:-0.911708 5:-0.946667 6:-0.949594 7:-0.944478 8:-0.8927 9:-0.913308 10:-0.955322 11:-0.950552 12:-0.938264 13:-0.898596 14:-0.875378 15:-0.94798 16:-0.957867 17:-0.935175 18:-0.933478 19:-0.952316 20:-0.928437 
-0 0 0 0 0 0 10.43475410213321 0 0 0 0 1:-0.977951 2:-0.974015 3:-0.984868 4:-0.941139 5:-0.938462 6:-0.988039 7:-0.97586 8:-0.938434 9:-0.913308 10:-0.963206 11:-0.964229 12:-0.980198 13:-0.936037 14:-0.932244 15:-0.960056 16:-0.979592 17:-0.976621 18:-0.895879 19:-0.914169 20:-0.933459 
-0 26.65003515081681 32 32 32 28.32805420769598 32 32 32 32 32 1:-0.968764 2:-0.980721 3:-0.986434 4:-0.962892 5:-0.970256 6:-0.976079 7:-0.972239 8:-0.950748 9:-0.942205 10:-0.982479 11:-0.986323 12:-0.96622 13:-0.968799 14:-0.956443 15:-0.977706 16:-0.986175 17:-0.968119 18:-0.969631 19:-0.976839 20:-0.973635 
-0 32 29.24628411289838 0 0 0 0 0 0 32 0 1:-0.988976 2:-0.993294 3:-0.99426 4:-0.991043 5:-0.992821 6:-0.995728 7:-0.979481 8:-0.987687 9:-0.978707 10:-0.989488 11:-0.993688 12:-0.991846 13:-0.981279 14:-0.989111 15:-0.971203 16:-0.996708 17:-0.995749 18:-0.968185 19:-0.953678 20:-0.981168 
-0 0 32 32 32 32 32 32 0 32 32 1:-0.987138 2:-0.994971 3:-0.99426 4:-0.984645 5:-0.988718 6:-0.995728 7:-0.996379 8:-0.978892 9:-0.986312 10:-0.990364 11:-0.995792 12:-0.991846 13:-0.98908 14:-0.987901 15:-0.998142 16:-0.994075 17:-0.987248 18:-0.958062 19:-0.989101 20:-0.984934 
-0 0 0 0 32 0 0 0 0 0 0 1:-0.947634 2:-0.965633 3:-0.985912 4:-0.950096 5:-0.957949 6:-0.971807 7:-0.955341 8:-0.924362 9:-0.963498 10:-0.983355 11:-0.955813 12:-0.980198 13:-0.917317 14:-0.946763 15:-0.965629 16:-0.974325 17:-0.969182 18:-0.906001 19:-0.905995 20:-0.934714 
-0.1806170973324671 0.361403134034989 0.3086383529233801 0 0.005865880208478655 0 0.7298959962360804 0 0 0.1569638989124177 0.9360355472267088 1:-0.808911 2:-0.853311 3:-0.906079 4:-0.751759 5:-0.747692 6:-0.881247 7:-0.791189 8:-0.693931 9:-0.744487 10:-0.848445 11:-0.856917 12:-0.881188 13:-0.645866 14:-0.69752 15:-0.728751 16:-0.877551 17:-0.87779 18:-0.639913 19:-0.673025 20:-0.765223 
-0 -0 0 0 0 0 0 0 7.702059473395486 0 0 1:-0.896187 2:-0.896899 3:-0.919645 4:-0.774792 5:-0.891282 6:-0.90346 7:-0.901026 8:-0.822339 9:-0.714068 10:-0.86509 11:-0.879011 12:-0.890507 13:-0.74415 14:-0.870538 15:-0.902462 16:-0.882818 17:-0.857598 18:-0.907448 19:-0.836512 20:-0.794099 
-0 -0 0 0 0 0.6405931395136214 0 0 0 0 0 1:-0.903537 2:-0.941324 3:-0.968693 4:-0.834933 5:-0.940513 6:-0.882956 7:-0.968618 8:-0.908531 9:-0.787072 10:-0.928165 11:-0.848501 12:-0.952242 13:-0.820593 14:-0.920145 15:-0.939619 16:-0.959184 17:-0.93305 18:-0.707881 19:-0.797003 20:-0.913371 
-10.01843033433662 -0 0 0 0 0 6.27718163902829 0 0 0 0 1:-0.919155 2:-0.944677 3:-0.966084 4:-0.919386 5:-0.928205 6:-0.956429 7:-0.894991 8:-0.922603 9:-0.895057 10:-0.954446 11:-0.879011 12:-0.909144 13:-0.848674 14:-0.912886 15:-0.90432 16:-0.935484 17:-0.902232 18:-0.884309 19:-0.817439 20:-0.865662 
-8.796316576963116 -0 0 0 0 0 0 0 0 0 0.7799493241012346 1:-0.892513 2:-0.930427 3:-0.948865 4:-0.872041 5:-0.884103 6:-0.862452 7:-0.859988 8:-0.815303 9:-0.785551 10:-0.883487 11:-0.894792 12:-0.927781 13:-0.817473 14:-0.889897 15:-0.848583 16:-0.949309 17:-0.859724 18:-0.879971 19:-0.867847 20:-0.826742 
-0 -32 0 0 0 0 0 0 0 32 32 1:-0.969683 2:-0.97653 3:-0.990608 4:-0.982086 5:-0.955897 6:-0.949594 7:-0.957755 8:-0.94723 9:-0.975665 10:-0.980727 11:-0.963177 12:-0.977868 13:-0.948518 14:-0.968542 15:-0.950766 16:-0.986175 17:-0.971307 18:-0.939262 19:-0.949591 20:-0.957313 
-0 -0 0 0 1.119497512355893 19.25899411281258 0 0 0 0 0 1:-0.985301 2:-0.989103 3:-0.997391 4:-0.987204 5:-0.993846 6:-0.988039 7:-0.997586 8:-0.98241 9:-0.977186 10:-0.990364 11:-0.964229 12:-0.990681 13:-0.953198 14:-0.986691 15:-0.990711 16:-0.986833 17:-0.990436 18:-0.953724 19:-0.93733 20:-0.978657 
-0 -0 0 0 4.08810765107996 0 0 0 0 0 0 1:-0.953147 2:-0.964795 3:-0.983825 4:-0.975688 5:-0.944615 6:-0.958992 7:-0.950513 8:-0.92788 9:-0.946768 10:-0.959702 11:-0.922146 12:-0.948748 13:-0.928237 14:-0.940714 15:-0.960985 16:-0.971692 17:-0.955367 18:-0.907448 19:-0.846049 20:-0.938481 
-0 -9.964974276110588 0 15.55555711660631 5.986768237916979 1.39016895465198 18.14876802094969 0 8.386243256172426 0 3.330305560530943 1:-0.930179 2:-0.948868 3:-0.971824 4:-0.919386 5:-0.927179 6:-0.93507 7:-0.92758 8:-0.864556 9:-0.86616 10:-0.923784 11:-0.900053 12:-0.917298 13:-0.839314 14:-0.909256 15:-0.920111 16:-0.951942 17:-0.917109 18:-0.845264 19:-0.867847 20:-0.894539 
-1.103942192282497 -0.5044098325610119 0.7360458710419714 0.282743183953182 1.00362070434292 0.4121540347740471 0.7213703710420359 0.8943722864287217 1.24932355777096 0.5604641685354615 0.5068177656855363 1:-0.813505 2:-0.766974 3:-0.826768 4:-0.268074 5:-0.842051 6:-0.850491 7:-0.817743 8:-0.667546 9:-0.335361 10:-0.752957 11:-0.902157 12:-0.616773 13:-0.483619 14:-0.766485 15:-0.765908 16:-0.821593 17:-0.645058 18:-0.859725 19:-0.836512 20:-0.594476 
-0 -0 0 0 0 2.737151727555073 0 0 3.786963269861043 0 14.56245591582863 1:-0.948553 2:-0.947192 3:-0.980172 4:-0.944978 5:-0.948718 6:-0.92909 7:-0.957755 8:-0.948989 9:-0.875285 10:-0.941305 11:-0.935823 12:-0.942924 13:-0.882995 14:-0.961283 15:-0.971203 16:-0.963792 17:-0.939426 18:-0.898771 19:-0.895095 20:-0.939736 
-0 -0 0 0 0 0 3.708935685136918 1.855739137805133 0 0 0 1:-0.862196 2:-0.874267 3:-0.894078 4:-0.75048 5:-0.898462 6:-0.938488 7:-0.896198 8:-0.834653 9:-0.790114 10:-0.893999 11:-0.88848 12:-0.798486 13:-0.711388 14:-0.857229 15:-0.883883 16:-0.884134 17:-0.801275 18:-0.920463 19:-0.77248 20:-0.768989 
-19.15357942492871 -0 18.21636512657604 0 3.362578437361229 0 0 0 15.71031205866508 0 11.4119797488162 1:-0.958659 2:-0.978206 3:-0.98539 4:-0.929623 5:-0.918974 6:-0.947886 7:-0.977067 8:-0.940193 9:-0.951331 10:-0.964082 11:-0.932667 12:-0.977868 13:-0.895476 14:-0.923775 15:-0.946122 16:-0.976959 17:-0.945802 18:-0.945047 19:-0.915531 20:-0.947269 
-0 -0 2.065788738190819 0 0 0 21.20783604499278 0 4.781063925414143 12.86422361470312 0 1:-0.963252 2:-0.970662 3:-0.987477 4:-0.942418 5:-0.963077 6:-0.944468 7:-0.969825 8:-0.906772 9:-0.943726 10:-0.971091 11:-0.935823 12:-0.963891 13:-0.914197 14:-0.951603 15:-0.953553 16:-0.976959 17:-0.953241 18:-0.968185 19:-0.904632 20:-0.927181 
-19.77821349287667 -5.33191070316848 0 0 0 0 32 0 0 7.124609237982328 0 1:-0.954065 2:-0.95306 3:-0.969215 4:-0.873321 5:-0.968205 6:-0.935925 7:-0.932408 8:-0.885664 9:-0.925475 10:-0.964082 11:-0.938979 12:-0.944089 13:-0.907956 14:-0.932244 15:-0.892243 16:-0.962475 17:-0.94474 18:-0.932032 19:-0.89782 20:-0.93597 
-0 -0 0 0 0 0 0 0 0 28.88731837577749 0 1:-0.966008 2:-0.968986 3:-0.984868 4:-0.953935 5:-0.971282 6:-0.964972 7:-0.943271 8:-0.950748 9:-0.934601 10:-0.969339 11:-0.945292 12:-0.961561 13:-0.926677 14:-0.960073 15:-0.952624 16:-0.971692 17:-0.955367 18:-0.960954 19:-0.919619 20:-0.944758 
-0 -32 32 14.92536439608261 32 32 3.809043552836884 5.234843755776152 0 32 0 1:-0.977033 2:-0.987427 3:-0.995826 4:-0.992322 5:-0.988718 6:-0.989748 7:-0.969825 8:-0.987687 9:-0.974144 10:-0.992116 11:-0.97475 12:-0.990681 13:-0.968799 14:-0.974592 15:-0.981421 16:-0.991442 17:-0.977683 18:-0.971077 19:-0.953678 20:-0.97489 
-0 -29.17286018682424 32 0 32 0 2.184392190687298 0 3.289434889173678 32 5.768695509175967 1:-0.983463 2:-0.986588 3:-0.997391 4:-0.984645 5:-0.989744 6:-0.989748 7:-0.993965 8:-0.978892 9:-0.969582 10:-0.993868 11:-0.963177 12:-0.984857 13:-0.962559 14:-0.991531 15:-0.99164 16:-0.989467 17:-0.98831 18:-0.966739 19:-0.945504 20:-0.981168 
-4.598277535368021 -0 0.8895264636635178 0 0 0 0 0 4.556997303405701 0 0 1:-0.91548 2:-0.935457 3:-0.971824 4:-0.901472 5:-0.885128 6:-0.90944 7:-0.917924 8:-0.848725 9:-0.914829 10:-0.932545 11:-0.884271 12:-0.928946 13:-0.836193 14:-0.876588 15:-0.866233 16:-0.938117 17:-0.890542 18:-0.949385 19:-0.837875 20:-0.826742 
-0 -0 0.2730046969520475 0 0 0 0 0 0.8115239645366925 0 0 1:-0.980707 2:-0.981559 3:-0.996869 4:-0.989763 5:-0.992821 6:-0.988894 7:-0.981895 8:-0.985928 9:-0.960456 10:-0.993868 11:-0.957917 12:-0.981363 13:-0.936037 14:-0.981851 15:-0.974919 16:-0.988808 17:-0.979809 18:-0.972523 19:-0.945504 20:-0.97489 
-0 -0.2093073245477133 0 0 0 0 0 0.2269302228829404 0 0 0.8530441837672437 1:-0.879651 2:-0.892707 3:-0.914427 4:-0.724888 5:-0.857436 6:-0.756514 7:-0.931201 8:-0.787159 9:-0.630418 10:-0.807271 11:-0.867438 12:-0.913803 13:-0.720749 14:-0.885057 15:-0.899675 16:-0.905201 17:-0.825717 18:-0.715112 19:-0.791553 20:-0.765223 
-1.96856565846087 -0 0 0 1.292179911635774 0 0 0 0 0 0 1:-0.92283 2:-0.894384 3:-0.909209 4:-0.692898 5:-0.926154 6:-0.915421 7:-0.978274 8:-0.859279 9:-0.822053 10:-0.887867 11:-0.917938 12:-0.904485 13:-0.75195 14:-0.910466 15:-0.942406 16:-0.907176 17:-0.836344 18:-0.969631 19:-0.942779 20:-0.827997 
-0 -0 0 0.7398411640570105 0 0 14.29687341674591 0 6.628863132374882 6.136605692312274 0 1:-0.940285 2:-0.954736 3:-0.956692 4:-0.872041 5:-0.925128 6:-0.90944 7:-0.917924 8:-0.878628 9:-0.841825 10:-0.881735 11:-0.935823 12:-0.962726 13:-0.892356 14:-0.932244 15:-0.898746 16:-0.949309 17:-0.903294 18:-0.916124 19:-0.923706 20:-0.880728 
-8.143545722693789 -5.338808497188309 0.9297511390624354 22.42392812929496 0 0.3575292996616731 4.24485389410233 4.771042126297439 27.74774768627773 4.186645131514566 9.868873686488012 1:-0.943041 2:-0.911987 3:-0.942082 4:-0.805502 5:-0.94359 6:-0.937633 7:-0.969825 8:-0.917326 9:-0.785551 10:-0.928165 11:-0.929511 12:-0.888177 13:-0.840874 14:-0.894737 15:-0.967487 16:-0.926926 17:-0.896918 18:-0.914678 19:-0.935967 20:-0.880728 
-0.025448303696545 -0.06154465760911275 0 0 0 0 0 0 0 0 0 1:-0.860358 2:-0.891031 3:-0.931646 4:-0.810621 5:-0.792821 6:-0.609569 7:-0.711527 8:-0.613017 9:-0.752091 10:-0.736312 11:-0.774855 12:-0.878858 13:-0.708268 14:-0.811252 15:-0.759405 16:-0.902567 17:-0.867163 18:-0.599422 19:-0.701635 20:-0.792844 
-0.5954193260401002 -0.388958134612682 0.3134909903090754 0.1480388972017154 0.452571531752781 0.3523525901606344 0.8215263633761475 0.4854912484587123 0.4226261807944588 0.171394261314137 0.1800174237964566 1:-0.860358 2:-0.891031 3:-0.931646 4:-0.810621 5:-0.792821 6:-0.609569 7:-0.711527 8:-0.613017 9:-0.752091 10:-0.736312 11:-0.774855 12:-0.878858 13:-0.708268 14:-0.811252 15:-0.759405 16:-0.902567 17:-0.867163 18:-0.599422 19:-0.701635 20:-0.792844 
-1.164778221011549 -0.638431893445918 0.9686674408600766 0.2776701443961761 0.9642800674274135 0.423892145296554 0.7777298778950581 1.406345380676007 0.9472115398442627 0.5109440821727042 0.5419077290727342 1:-0.841066 2:-0.835708 3:-0.886251 4:-0.651951 5:-0.790769 6:-0.795814 7:-0.704285 8:-0.44591 9:-0.831179 10:-0.866842 11:-0.697002 12:-0.641235 13:-0.600624 14:-0.660012 15:-0.581979 16:-0.843976 17:-0.689692 18:-0.720897 19:-0.56812 20:-0.632141 
-0.8202493787009545 -0.6859558715267262 0 0 0 0.4901533191852591 1.815712899542632 0 0 0 0 1:-0.904456 2:-0.931266 3:-0.937386 4:-0.808061 5:-0.797949 6:-0.810337 7:-0.878093 8:-0.621812 9:-0.910266 10:-0.871222 11:-0.867438 12:-0.935935 13:-0.726989 14:-0.759226 15:-0.76405 16:-0.924951 17:-0.832094 18:-0.949385 19:-0.764305 20:-0.820465 
-2.808467435800411 -0 0.4749012286985913 0 0 3.001848401034777 4.381985171490868 0.6907696046946405 0 4.816268604396205 0 1:-0.954984 2:-0.957251 3:-0.971302 4:-0.987204 5:-0.950769 6:-0.98035 7:-0.847918 8:-0.975374 9:-0.936122 10:-0.980727 11:-0.934771 12:-0.911474 13:-0.939158 14:-0.962492 15:-0.830934 16:-0.941409 17:-0.862912 18:-0.898771 19:-0.862398 20:-0.822976 
-1.421665609235423 -0.6530114379235056 0.9545684121841349 0.380020425909057 1.268803849792954 0.5462798479283043 1.010829075561042 1.19755660045275 1.276676575256788 0.7077661775555144 0.5750623712241461 1:-0.697749 2:-0.607712 3:-0.779285 4:-0.40627 5:-0.626667 6:-0.686459 7:-0.647556 8:-0.248901 9:-0.525475 10:-0.64608 11:-0.716991 12:-0.435061 13:-0.332293 14:-0.576528 15:-0.547608 16:-0.679394 17:-0.502657 18:-0.781634 19:-0.459128 20:-0.330822 
-0 -0 0 0 0 0 0.2396126802365626 0 0 0 0.4922243634263624 1:-0.909968 2:-0.949707 3:-0.951996 4:-0.868202 5:-0.769231 6:-0.820589 7:-0.916717 8:-0.69569 9:-0.864639 10:-0.817784 11:-0.881115 12:-0.946418 13:-0.808112 14:-0.85239 15:-0.743614 16:-0.924292 17:-0.855473 18:-0.903109 19:-0.833787 20:-0.802888 
-0.5080388135744482 -0 0.3456678790954483 0.2542623881295275 0.2298001977464989 0.06334163545176058 0.3734845551410827 0.3104985808052123 0 0.2266745207229512 0.7556267915962286 1:-0.819936 2:-0.832355 3:-0.901383 4:-0.695457 5:-0.833846 6:-0.682187 7:-0.845504 8:-0.635884 9:-0.627376 10:-0.731932 11:-0.668595 12:-0.827606 13:-0.622465 14:-0.779794 15:-0.71203 16:-0.866359 17:-0.780021 18:-0.626898 19:-0.685286 20:-0.731325 
-0 -0 0 0 0 0.5764915749833548 4.474383593480987 0 0 0 0 1:-0.920992 2:-0.95306 3:-0.966606 4:-0.912988 5:-0.893333 6:-0.922255 7:-0.823778 8:-0.811785 9:-0.893536 10:-0.929041 11:-0.785376 12:-0.928946 13:-0.865835 14:-0.8536 15:-0.808639 16:-0.946017 17:-0.889479 18:-0.771511 19:-0.794278 20:-0.889517 
-0 -16.20028766389663 10.37244276500651 32 14.11524943971994 32 32 8.73969749337054 2.55271784173092 1.657668957054232 32 1:-0.974277 2:-0.967309 3:-0.972867 4:-0.920665 5:-0.954872 6:-0.927381 7:-0.957755 8:-0.917326 9:-0.957414 10:-0.95795 11:-0.955813 12:-0.948748 13:-0.914197 14:-0.946763 15:-0.954482 16:-0.976959 17:-0.94474 18:-0.895879 19:-0.963215 20:-0.93597 
-0 -0 0 0 0 0 32 0 0 0 0 1:-0.966927 2:-0.957251 3:-0.970258 4:-0.920665 5:-0.924103 6:-0.939342 7:-0.968618 8:-0.894459 9:-0.945247 10:-0.954446 11:-0.902157 12:-0.953407 13:-0.884555 14:-0.915306 15:-0.915467 16:-0.954575 17:-0.935175 18:-0.940709 19:-0.837875 20:-0.874451 
-0.3366607829545966 -0 0.4559345672913667 0.1489881436020071 0.4538784632697025 0 0 0.2118320051796128 1.377908114834637 0.2902278421344007 0 1:-0.790537 2:-0.807209 3:-0.929037 4:-0.756878 5:-0.869744 6:-0.836822 7:-0.862402 8:-0.722076 9:-0.528517 10:-0.788874 11:-0.72646 12:-0.811299 13:-0.536661 14:-0.812462 15:-0.854157 16:-0.867018 17:-0.776833 18:-0.713666 19:-0.752044 20:-0.679849 
-0 -2.536605039066339 0 3.208614503566878 0 0.7643210925984326 1.510014131221816 2.756284050419817 7.273948412648066 0.964702755819838 0.6000204524966436 1:-0.900781 2:-0.871752 3:-0.871641 4:-0.836212 5:-0.861538 6:-0.847074 7:-0.816536 8:-0.73263 9:-0.893536 10:-0.854577 11:-0.882167 12:-0.741409 13:-0.775351 14:-0.803993 15:-0.823502 16:-0.868993 17:-0.850159 18:-0.778742 19:-0.833787 20:-0.736347 
-0 -0 0 0 6.053791276017389 0 20.58095406656422 0 0 1.174880129258646 0 1:-0.967846 2:-0.9715 3:-0.975998 4:-0.93858 5:-0.962051 6:-0.947886 7:-0.962583 8:-0.941953 9:-0.972624 10:-0.95795 11:-0.946344 12:-0.965055 13:-0.932917 14:-0.968542 15:-0.966558 16:-0.973667 17:-0.951116 18:-0.924801 19:-0.923706 20:-0.944758 
-23.76261249112325 -32 0 0 12.56257181547511 0 0 0 0 0 0 1:-0.973358 2:-0.986588 3:-0.987999 4:-0.964171 5:-0.977436 6:-0.941905 7:-0.89137 8:-0.920844 9:-0.978707 10:-0.972843 11:-0.967386 12:-0.987187 13:-0.929797 14:-0.963702 15:-0.929401 16:-0.985517 17:-0.965994 18:-0.946493 19:-0.957766 20:-0.954802 
-0 -0 0 0 0 0 0 0.3520210232118736 0.553605119920342 0 0 1:-0.920992 2:-0.884325 3:-0.919123 4:-0.805502 5:-0.877949 6:-0.819735 7:-0.960169 8:-0.82058 9:-0.752091 10:-0.799387 11:-0.932667 12:-0.883518 13:-0.73791 14:-0.84997 15:-0.900604 16:-0.897959 17:-0.844846 18:-0.871294 19:-0.919619 20:-0.809165 
-0 -0 0.2630079191054627 0.8233510199556664 0.04807694589429062 0 16.36594663892247 0 0 1.970167730737841 1.228700393815821 1:-0.976114 2:-0.956412 3:-0.857031 4:-0.724888 5:-0.897436 6:-0.919692 7:-0.954134 8:-0.817062 9:-0.904183 10:-0.881735 11:-0.923198 12:-0.907979 13:-0.887676 14:-0.909256 15:-0.899675 16:-0.916392 17:-0.884166 18:-0.84671 19:-0.918256 20:-0.833019 
-0.3539835188048094 -0.246404683075928 0.1584676607102306 0 0.3081917967211464 0.4376356390531042 0.7773742528163574 0.5963190004758862 0.120616042733 0 0 1:-0.830041 2:-0.871752 3:-0.922254 4:-0.840051 5:-0.854359 6:-0.8129 7:-0.697043 8:-0.664028 9:-0.727757 10:-0.807271 11:-0.715939 12:-0.783343 13:-0.631825 14:-0.779794 15:-0.707385 16:-0.863726 17:-0.776833 18:-0.700651 19:-0.576294 20:-0.703704 
-0 -32 32 27.31406724008224 32 7.350914060519079 32 14.92144325020945 0 32 5.080717947940662 1:-0.987138 2:-0.986588 3:-0.990086 4:-0.994882 5:-0.989744 6:-0.995728 7:-0.917924 8:-0.971856 9:-0.968061 10:-0.997372 11:-0.966334 12:-0.970879 13:-0.976599 14:-0.962492 15:-0.977706 16:-0.984858 17:-0.982997 18:-0.956616 19:-0.952316 20:-0.976146 
-0 -1.402288011368245 0 0 0 0.2282681148421299 0.4156129752022319 0 0 0 0.664344848465557 1:-0.854846 2:-0.926236 3:-0.957735 4:-0.836212 5:-0.886154 6:-0.75566 7:-0.850332 8:-0.764292 9:-0.653232 10:-0.82304 11:-0.860074 12:-0.93477 13:-0.705148 14:-0.877798 15:-0.855086 16:-0.954575 17:-0.890542 18:-0.64859 19:-0.811989 20:-0.881984 
-0.937362971191229 -0.3906324726521918 0.9535280152866922 0.2898171376023463 1.087190075491513 0.5078172535953448 0.5198308350935907 0.7136910106993045 0.7015577239926639 0.5754886356790233 0.4933820330893567 1:-0.912724 2:-0.953898 3:-0.974433 4:-0.928343 5:-0.869744 6:-0.599317 7:-0.808087 8:-0.718558 9:-0.811407 10:-0.839685 11:-0.828511 12:-0.939429 13:-0.797192 14:-0.877798 15:-0.819786 16:-0.958525 17:-0.916047 18:-0.475054 19:-0.817439 20:-0.894539 
-0.8753256782759085 -0.2978644881233679 0.6265639141366461 0.1642679714473214 0.7453519757416676 0.3037581409814433 0.5610807634952661 0.6176749545518428 0.7975390890506907 0.389810398039791 0.2138203142369847 1:-0.875057 2:-0.66052 3:-0.816332 4:-0.700576 5:-0.68 6:-0.788979 7:-0.788775 8:-0.489886 9:-0.70038 10:-0.636443 11:-0.887428 12:-0.497962 13:-0.522621 14:-0.635814 15:-0.767766 16:-0.782093 17:-0.647184 18:-0.852495 19:-0.828338 20:-0.510358 
-3.962910405483033 -0 0 0 0.5841195146101392 0 0 0 0.787621843668979 0 0 1:-0.83096 2:-0.875943 3:-0.927994 4:-0.791427 5:-0.910769 6:-0.94276 7:-0.852746 8:-0.82058 9:-0.727757 10:-0.922032 11:-0.846397 12:-0.864881 13:-0.667707 14:-0.892317 15:-0.853228 16:-0.84661 17:-0.828905 18:-0.916124 19:-0.716621 20:-0.747646 
-0 -0 0 0 0 0 0 0 1.402240173055754 0.4306569487597109 0 1:-0.911805 2:-0.928751 3:-0.964519 4:-0.892514 5:-0.900513 6:-0.892354 7:-0.874472 8:-0.846966 9:-0.812928 10:-0.90714 11:-0.76223 12:-0.90332 13:-0.794072 14:-0.879008 15:-0.900604 16:-0.937459 17:-0.89373 18:-0.75705 19:-0.717984 20:-0.845574 
-0 -0 0 0 0 0 0.9131988968928865 0 0 2.624239631660019 0 1:-0.920073 2:-0.949707 3:-0.970258 4:-0.897633 5:-0.975385 6:-0.964118 7:-0.948099 8:-0.936675 9:-0.660837 10:-0.950066 11:-0.83272 12:-0.9371 13:-0.889236 14:-0.941924 15:-0.961914 16:-0.959842 17:-0.924548 18:-0.901663 19:-0.858311 20:-0.927181 
-0 -0.3534758086852899 0 0 0 1.725217592844651 0 0.5112197472144094 0 0 0 1:-0.87322 2:-0.928751 3:-0.961388 4:-0.850288 5:-0.910769 6:-0.8522 7:-0.945685 8:-0.8927 9:-0.739924 10:-0.892247 11:-0.854813 12:-0.913803 13:-0.794072 14:-0.920145 15:-0.924756 16:-0.94075 17:-0.904357 18:-0.671728 19:-0.728883 20:-0.850596 
-0 -0 0 4.223148876512409 0 0 0 0 0 0 0 1:-0.945797 2:-0.947192 3:-0.97965 4:-0.953935 5:-0.966154 6:-0.959846 7:-0.962583 8:-0.957784 9:-0.850951 10:-0.964082 11:-0.88848 12:-0.917298 13:-0.900156 14:-0.937084 15:-0.966558 16:-0.957867 17:-0.939426 18:-0.882863 19:-0.892371 20:-0.92467 
-0.8990350548575962 -0.4428878194306181 0.5701619676020357 0.2140389445641638 0.8295476674963831 0.3564314438653841 0.4843162397651573 0.8316933583993715 0.6718956271513533 0.5128376959427854 0.392075396732296 1:-0.935691 2:-0.777033 3:-0.736499 4:-0.605886 5:-0.734359 6:-0.702691 7:-0.952927 8:-0.547933 9:-0.826616 10:-0.575996 11:-0.935823 12:-0.644729 13:-0.667707 14:-0.730188 15:-0.850441 16:-0.768927 17:-0.698193 18:-0.920463 19:-0.935967 20:-0.576899 
-0.5417270215477057 -1.624316826027988 0.1157455412064522 0.4696371599956764 0.4174555746356473 0.3932573370320364 0 2.150671332568783 1.327390097492827 0.5501520216641298 1.327199097448145 1:-0.827285 2:-0.833194 3:-0.910775 4:-0.787588 5:-0.753846 6:-0.797522 7:-0.721183 8:-0.572559 9:-0.676046 10:-0.740692 11:-0.854813 12:-0.754222 13:-0.661466 14:-0.732607 15:-0.759405 16:-0.867018 17:-0.821467 18:-0.791757 19:-0.76703 20:-0.717514 
-12.95518956072524 -22.61882802661891 2.648157734492992 5.619324446513717 31.30633396877844 0 21.14702762549212 9.800053550196052 14.60996850885599 0 0.3347902100649504 1:-0.930179 2:-0.954736 3:-0.967649 4:-0.910429 5:-0.877949 6:-0.918838 7:-0.853953 8:-0.817062 9:-0.898099 10:-0.903636 11:-0.917938 12:-0.911474 13:-0.864275 14:-0.869328 15:-0.87738 16:-0.9447 17:-0.929862 18:-0.904555 19:-0.847411 20:-0.888261 
-0 -0 0 0 0 0 1.321682803231947 0 1.579005448962467 0 0 1:-0.837391 2:-0.880972 3:-0.91234 4:-0.741523 5:-0.855385 6:-0.87783 7:-0.775498 8:-0.746702 9:-0.791635 10:-0.848445 11:-0.836928 12:-0.822947 13:-0.672387 14:-0.84271 15:-0.743614 16:-0.839368 17:-0.773645 18:-0.89154 19:-0.742507 20:-0.650973 
-0 -0 4.261717583286575 0 0 0 0 0 0 0 0 1:-0.903537 2:-0.923722 3:-0.967649 4:-0.879718 5:-0.947692 6:-0.953866 7:-0.969825 8:-0.922603 9:-0.805323 10:-0.95357 11:-0.895844 12:-0.940594 13:-0.806552 14:-0.931034 15:-0.962843 16:-0.922976 17:-0.901169 18:-0.875633 19:-0.788828 20:-0.861896 
-32 -32 32 32 32 24.94922088644166 32 32 32 32 32 1:-0.976114 2:-0.980721 3:-0.996348 4:-0.957774 5:-0.986667 6:-0.979496 7:-0.989137 8:-0.980651 9:-0.958935 10:-0.971091 11:-0.988427 12:-0.983692 13:-0.976599 14:-0.985481 15:-0.990711 16:-0.9921 17:-0.991498 18:-0.978308 19:-0.980926 20:-0.978657 
-32 -10.82801185872232 32 27.65907889680512 32 0 32 32 23.96901911002268 32 0 1:-0.991732 2:-0.987427 3:-0.992695 4:-0.975688 5:-0.984615 6:-0.981205 7:-0.980688 8:-0.975374 9:-0.978707 10:-0.977223 11:-0.973698 12:-0.977868 13:-0.973479 14:-0.972172 15:-0.965629 16:-0.982225 17:-0.977683 18:-0.995662 19:-0.961853 20:-0.967357 
-0.02588846143560537 -0 0.1600724345823769 0.09650802063902243 0.05797412313381221 0.1200169329173499 0 0.6650594968843976 0.3852343609286685 0.05939851249609342 0.5075270780368739 1:-0.825448 2:-0.726739 3:-0.827289 4:-0.678823 5:-0.807179 6:-0.818026 7:-0.844297 8:-0.632366 9:-0.618251 10:-0.664477 11:-0.879011 12:-0.579499 13:-0.566303 14:-0.714459 15:-0.79935 16:-0.828176 17:-0.70882 18:-0.774403 19:-0.843324 20:-0.589454 
-1.48228906441898 -0 0 0.08022729468372831 0 0 0 0.5656595822609501 0 0 0 1:-0.842903 2:-0.851635 3:-0.906079 4:-0.769674 5:-0.865641 6:-0.888082 7:-0.709113 8:-0.753738 9:-0.714068 10:-0.849321 11:-0.854813 12:-0.744904 13:-0.630265 14:-0.826981 15:-0.703669 16:-0.861751 17:-0.743889 18:-0.851048 19:-0.803815 20:-0.720025 
-0 -0 0 0 0 0 11.69857289083398 0 3.235163977650718 0 0 1:-0.886082 2:-0.906119 3:-0.91808 4:-0.846449 5:-0.85641 6:-0.869287 7:-0.882921 8:-0.866315 9:-0.808365 10:-0.871222 11:-0.833772 12:-0.904485 13:-0.772231 14:-0.911676 15:-0.874594 16:-0.885451 17:-0.819341 18:-0.814895 19:-0.791553 20:-0.731325 
-1.234720236912329 -0.5563432884463092 0.8347475512990804 0.3277945969927667 1.100638952974931 0.4715415250297433 0.8158938950698068 1.018865156411842 1.086148746996566 0.6087107981500033 0.4725360820709683 1:-0.918236 2:-0.802179 3:-0.7485 4:-0.666027 5:-0.676923 6:-0.515592 7:-0.916717 8:-0.41073 9:-0.711027 10:-0.260622 11:-0.875855 12:-0.709959 13:-0.639626 14:-0.639443 15:-0.808639 16:-0.800527 17:-0.72051 18:-0.767173 19:-0.886921 20:-0.574388 
-1.313050671599421 -0.6531498472823081 0.9423883213271135 0.3332898957194451 1.148071433202928 0.4997522056502775 0.8922345543094874 1.141392440114838 1.361134943362442 0.6347954576306011 0.7594315857625397 1:-0.689481 2:-0.709975 3:-0.842421 4:-0.712092 5:-0.613333 6:-0.842802 7:-0.741702 8:-0.55321 9:-0.385551 10:-0.745072 11:-0.644398 12:-0.50728 13:-0.408736 14:-0.576528 15:-0.783558 16:-0.803818 17:-0.645058 18:-0.774403 19:-0.457766 20:-0.594476 
-0.8644619752960524 -1.053209258047493 0 0.6485462784842115 1.105779044818006 1.056358940090122 0.4580446144690805 0 5.376666779796449 0 3.553445237962293 1:-0.819017 2:-0.919531 3:-0.938429 4:-0.820857 5:-0.772308 6:-0.894917 7:-0.933615 8:-0.87511 9:-0.790114 10:-0.865966 11:-0.902157 12:-0.925451 13:-0.658346 14:-0.911676 15:-0.913609 16:-0.934826 17:-0.843783 18:-0.806218 19:-0.844687 20:-0.827997 
-0 -32 32 25.9509231409116 32 7.146202613427389 32 16.85989642041163 27.29354618382469 32 32 1:-0.988057 2:-0.984074 3:-0.980694 4:-0.950096 5:-0.975385 6:-0.955575 7:-0.980688 8:-0.950748 9:-0.936122 10:-0.968463 11:-0.987375 12:-0.973209 13:-0.953198 14:-0.960073 15:-0.940548 16:-0.983542 17:-0.964931 18:-0.962401 19:-0.96594 20:-0.962335 
-7.743812465583304 -4.034590877939279 2.074442967191785 0.9301269404614765 0.762357421322016 2.715660713339668 8.712351429544315 3.060000325016159 0 0.436744790699208 3.177631606425263 1:-0.918236 2:-0.891869 3:-0.906079 4:-0.742802 5:-0.891282 6:-0.927381 7:-0.803259 8:-0.727353 9:-0.873764 10:-0.929041 11:-0.938979 12:-0.769365 13:-0.784711 14:-0.84271 15:-0.841152 16:-0.903884 17:-0.850159 18:-0.868402 19:-0.818801 20:-0.834275 
-0 -1.588312044134355 0 1.581013493594867 0 0.9639237772690964 0.3495736357362883 0.4264877536180315 3.039502065264792 0.2232621812895202 2.409457332459854 1:-0.870464 2:-0.856664 3:-0.899817 4:-0.722329 5:-0.908718 6:-0.865869 7:-0.873265 8:-0.771328 9:-0.622814 10:-0.819536 11:-0.799053 12:-0.83809 13:-0.672387 14:-0.824561 15:-0.90432 16:-0.895984 17:-0.820404 18:-0.680405 19:-0.743869 20:-0.777778 
-1.233536736259641 -0.5361089313929547 0.8117254391545878 0.2018139717470562 1.102770608214168 0.4858955567361077 0.7589391848700152 0.9360881254822312 1.02928275107924 0.5513611211200625 0.4965218853866715 1:-0.747359 2:-0.782062 3:-0.907644 4:-0.648113 5:-0.900513 6:-0.872704 7:-0.617381 8:-0.778364 9:-0.368821 10:-0.821288 11:-0.773803 12:-0.83343 13:-0.383775 14:-0.828191 15:-0.692522 16:-0.879526 17:-0.753454 18:-0.615329 19:-0.632153 20:-0.69366 
-11.79361372596807 -0 23.93342395850619 32 32 17.34337518684501 18.00550593279613 32 32 32 32 1:-0.977951 2:-0.966471 3:-0.984868 4:-0.971849 5:-0.975385 6:-0.976933 7:-0.958962 8:-0.975374 9:-0.951331 10:-0.959702 11:-0.965281 12:-0.931275 13:-0.937598 14:-0.968542 15:-0.984208 16:-0.98025 17:-0.953241 18:-0.971077 19:-0.941417 20:-0.942247 
-1.13788836647016 -1.154411079981566 0 0.9094559598248325 0.220861195023115 0 1.285618091135749 0.9058844320521956 0.3566354639625255 0.7163297072592105 0 1:-0.88057 2:-0.887678 3:-0.914427 4:-0.8119 5:-0.864615 6:-0.913712 7:-0.693422 8:-0.766051 9:-0.806844 10:-0.886991 11:-0.813782 12:-0.761211 13:-0.790952 14:-0.823351 15:-0.654436 16:-0.868993 17:-0.75983 18:-0.772957 19:-0.73297 20:-0.68236 
-15.94491764251299 -0 32 26.45504052651392 20.56625668659165 0 32 0 32 32 0 1:-0.974277 2:-0.979883 3:-0.98539 4:-0.953935 5:-0.966154 6:-0.958138 7:-0.97586 8:-0.934916 9:-0.965019 10:-0.958826 11:-0.954761 12:-0.965055 13:-0.939158 14:-0.969752 15:-0.954482 16:-0.976959 17:-0.953241 18:-0.95517 19:-0.957766 20:-0.922159 
-0 -0 0 0 18.7848677189905 0 0 0 0 0 0 1:-0.906293 2:-0.94803 3:-0.970258 4:-0.888676 5:-0.939487 6:-0.946177 7:-0.946892 8:-0.922603 9:-0.828137 10:-0.931669 11:-0.896896 12:-0.9371 13:-0.882995 14:-0.906836 15:-0.95634 16:-0.951942 17:-0.92136 18:-0.901663 19:-0.841962 20:-0.903327 
-0 -0 0 0 0 0 0 0 0.7570732679082331 0 0 1:-0.902618 2:-0.921207 3:-0.958257 4:-0.834933 5:-0.921026 6:-0.906023 7:-0.916717 8:-0.873351 9:-0.840304 10:-0.929917 11:-0.81273 12:-0.930111 13:-0.74883 14:-0.866909 15:-0.919183 16:-0.910467 17:-0.903294 18:-0.852495 19:-0.779292 20:-0.84683 
-0 -0 0 0 0 8.219663670698614 0 0 0 0 0 1:-0.976114 2:-0.975692 3:-0.993739 4:-0.987204 5:-0.968205 6:-0.951303 7:-0.974653 8:-0.952507 9:-0.98327 10:-0.969339 11:-0.91899 12:-0.972044 13:-0.948518 14:-0.964912 15:-0.972132 16:-0.973667 17:-0.969182 18:-0.866956 19:-0.854223 20:-0.962335 
-0 -26.83692047110451 30.64314251700058 0 0 32 0 2.726592191075942 0 32 0 1:-0.980707 2:-0.98575 3:-0.997391 4:-0.976967 5:-0.982564 6:-0.979496 7:-0.990344 8:-0.970097 9:-0.975665 10:-0.985107 11:-0.970542 12:-0.987187 13:-0.964119 14:-0.973382 15:-0.973061 16:-0.992758 17:-0.978746 18:-0.968185 19:-0.929155 20:-0.979912 
-1.145921401328944 -0.5242131961374922 0.7690153182653033 0.3045881667299752 1.020177432905501 0.4385521437025567 0.7437387913336192 0.9321318880881527 0.9846625586031418 0.5684382441610706 0.4853031889825412 1:-0.820854 2:-0.749371 3:-0.73389 4:-0.332054 5:-0.770256 6:-0.747117 7:-0.834641 8:-0.363237 9:-0.276046 10:-0.56636 11:-0.867438 12:-0.555038 13:-0.458658 14:-0.635814 15:-0.778913 16:-0.82291 17:-0.687566 18:-0.84671 19:-0.918256 20:-0.617075 
-32 -32 32 32 32 32 32 32 24.76289807549967 32 32 1:-0.983463 2:-0.98575 3:-0.995826 4:-0.984645 5:-0.990769 6:-0.991457 7:-0.969825 8:-0.978892 9:-0.977186 10:-0.986859 11:-0.972646 12:-0.96622 13:-0.971919 14:-0.983061 15:-0.986066 16:-0.98815 17:-0.979809 18:-0.963847 19:-0.96594 20:-0.98619 
-1.199983497624778 -6.832273352771335 0 0 0 0 0 0 0 0 0 1:-0.95039 2:-0.966471 3:-0.974433 4:-0.956494 5:-0.942564 6:-0.957283 7:-0.751358 8:-0.890941 9:-0.893536 10:-0.944809 11:-0.931615 12:-0.9371 13:-0.912637 14:-0.917725 15:-0.704598 16:-0.965109 17:-0.930925 18:-0.927693 19:-0.844687 20:-0.922159 
-1.478747364216885 -0.6753741835175155 0.9979865016450574 0.3956440610928504 1.323745226875683 0.5702048355229569 0.9565906116165667 1.223928577909019 1.270173505374743 0.7375378844256222 0.5649676859218871 1:-0.546164 2:-0.239732 3:-0.328463 4:0.865643 5:-0.398974 6:-0.413071 7:-0.771877 8:0.336851 9:-0.259316 10:-0.220324 11:-0.767491 12:0.0355271 13:0.549142 14:-0.245009 15:-0.541105 16:-0.406847 17:-0.0403826 18:-0.84671 19:-0.559946 20:0.274325 
-1.478707421012705 -0.6753892849868474 0.9985490216580402 0.3954367705713144 1.323610246361254 0.5696003893011345 0.9566650262187282 1.223653891617809 1.270219878024234 0.7374001081078932 0.5652921052252764 1:-0.199816 2:-0.159262 3:-0.444821 4:0.271913 5:-0.278974 6:-0.5566 7:-0.412191 8:0.416007 9:1 10:-0.147613 11:-0.53393 12:0.049505 13:1 14:-0.0901391 15:-0.323734 16:-0.287689 17:0.20085 18:-0.696312 19:-0.407357 20:0.652228 
-1.472411734469385 -0.669254674633151 0.9879837155798439 0.3915923499718542 1.313600442273165 0.5650645652877329 0.9478808375846403 1.212385188419834 1.260172507268557 0.7322645237471416 0.5590374270936234 1:-0.829123 2:-0.891869 3:-0.873206 4:-0.857965 5:-0.705641 6:-0.77531 7:-0.290284 8:-0.44591 9:-0.793156 10:-0.77661 11:-0.578117 12:-0.734421 13:-0.658346 14:-0.68905 15:-0.0478402 16:-0.843318 17:-0.568544 18:-0.612437 19:-0.482289 20:-0.632141 
-0 -0 -0 0 0 0 0 0 0 32 0 1:-0.980707 2:-0.992456 3:-0.982781 4:-0.96929 5:-0.977436 6:-0.985476 7:-0.991551 8:-0.987687 9:-0.969582 10:-0.997372 11:-0.976854 12:-0.993011 13:-0.979719 14:-0.985481 15:-0.969345 16:-0.98815 17:-0.967056 18:-0.988431 19:-0.972752 20:-0.982423 
-0 -0 -0 0 0 8.5808514837874 0 0 0 0 0 1:-0.955903 2:-0.968986 3:-0.981738 4:-0.961612 5:-0.931282 6:-0.962409 7:-0.986723 8:-0.906772 9:-0.945247 10:-0.99562 11:-0.951604 12:-0.984857 13:-0.964119 14:-0.937084 15:-0.969345 16:-0.965767 17:-0.935175 18:-0.933478 19:-0.986376 20:-0.992467 
-0 -32 -0 0 0 0 3.630260268779653 0 0 32 0 1:-0.991732 2:-0.989103 3:-0.988521 4:-0.984645 5:-0.978462 6:-0.988894 7:-0.984309 8:-0.970097 9:-0.96654 10:-0.99562 11:-0.981063 12:-0.99767 13:-0.98908 14:-0.979431 15:-0.958198 16:-0.983542 17:-0.98406 18:-0.982646 19:-0.991826 20:-0.991212 
-0 -0 -0 0 0 4.831473037306505 0 1.069763042815915 0 32 0 1:-0.976114 2:-0.979883 3:-0.99113 4:-0.987204 5:-0.980513 6:-0.971807 7:-0.966204 8:-0.950748 9:-0.984791 10:-0.980727 11:-0.991583 12:-0.988352 13:-0.978159 14:-0.987901 15:-0.983279 16:-0.992758 17:-0.963868 18:-0.971077 19:-0.993188 20:-0.987445 
-0 -0 -0 0 32 0 0 0 0 0 0 1:-0.985301 2:-0.988265 3:-0.991651 4:-0.983365 5:-0.984615 6:-0.992311 7:-0.993965 8:-0.96482 9:-0.981749 10:-0.997372 11:-0.978958 12:-0.993011 13:-0.975039 14:-0.987901 15:-0.975848 16:-0.979592 17:-0.973433 18:-0.965293 19:-0.990463 20:-0.988701 
-0 -0 -0 0 0 0 0 22.0347275339054 0 0 0 1:-0.970602 2:-0.983236 3:-0.98539 4:-0.957774 5:-0.975385 6:-0.969244 7:-0.980688 8:-0.959543 9:-0.965019 10:-0.992116 11:-0.988427 12:-0.980198 13:-0.971919 14:-0.975802 15:-0.966558 16:-0.978934 17:-0.96068 18:-0.966739 19:-0.990463 20:-0.987445 
-0 -0 -32 0 0 9.236586853635822 6.079018108623242 0 0 32 0 1:-0.983463 2:-0.988265 3:-0.995304 4:-0.961612 5:-0.971282 6:-0.981205 7:-0.990344 8:-0.977133 9:-0.96654 10:-0.994744 11:-0.978958 12:-0.988352 13:-0.971919 14:-0.986691 15:-0.969345 16:-0.987492 17:-0.958555 18:-0.992769 19:-0.925068 20:-0.948525 
-0 -0 -0 0 0 0 9.602046712284571 0 6.813881949833128 32 0 1:-0.990813 2:-0.987427 3:-0.988521 4:-0.971849 5:-0.992821 6:-0.982059 7:-0.984309 8:-0.963061 9:-0.98327 10:-0.985983 11:-0.983167 12:-0.986022 13:-0.978159 14:-0.980641 15:-0.983279 16:-0.9921 17:-0.961743 18:-0.972523 19:-0.991826 20:-0.984934 
-0 -0 -0 0 0 0 0 0 0 32 0 1:-0.991732 2:-0.994971 3:-0.99113 4:-0.997441 5:-0.993846 6:-0.996583 7:-0.998793 8:-0.996482 9:-0.996958 10:-0.99562 11:-0.996844 12:-0.996506 13:-0.98908 14:-0.99637 15:-0.986995 16:-0.994075 17:-0.992561 18:-0.989877 19:-0.997275 20:-0.993723 
-0 -0 -0 0 0 0 0 0 0 32 0 1:-0.994488 2:-0.993294 3:-0.993217 4:-0.987204 5:-0.993846 6:-0.993165 7:-0.978274 8:-0.985928 9:-0.990875 10:-0.997372 11:-0.996844 12:-0.989517 13:-0.99064 14:-0.990321 15:-0.995355 16:-0.994075 17:-0.981934 18:-0.994215 19:-0.99455 20:-0.997489 
-0 -0 -0 0 0 0 0 0 0 27.8374532038529 0 1:-0.980707 2:-0.996647 3:-0.983825 4:-0.959053 5:-0.988718 6:-0.993165 7:-0.98793 8:-0.980651 9:-0.975665 10:-0.994744 11:-0.982115 12:-0.993011 13:-0.99844 14:-0.989111 15:-0.978634 16:-0.990125 17:-0.951116 18:-0.995662 19:-0.991826 20:-0.991212 
-0 -0 -0 0 0 0 0 0 0 32 0 1:-0.996325 2:-0.998324 3:-0.99426 4:-0.989763 5:-0.996923 6:-0.992311 7:-0.995172 8:-0.984169 9:-0.996958 10:-0.996496 11:-0.997896 12:-1 13:-1 14:-1 15:-0.992569 16:-0.994075 17:-0.980871 18:-0.994215 19:-0.997275 20:-0.994978 
-12.60913338970969 -32 -32 0.1552394488273698 16.09196361647605 32 2.567003772624018 2.729225306809813 0 32 0 1:-0.982545 2:-0.986588 3:-0.992695 4:-0.994882 5:-0.965128 6:-0.990602 7:-0.998793 8:-0.989446 9:-0.94981 10:-0.997372 11:-0.957917 12:-0.982528 13:-0.940718 14:-0.906836 15:-0.973061 16:-0.977617 17:-0.992561 18:-0.950832 19:-0.918256 20:-0.967357 
-0 -0 -0 0 14.65139890016907 0 32 8.697948759193842 0 32 0 1:-0.966008 2:-0.986588 3:-0.98539 4:-0.973129 5:-0.968205 6:-0.97437 7:-0.977067 8:-0.941953 9:-0.940684 10:-0.99124 11:-0.97475 12:-0.989517 13:-0.984399 14:-0.974592 15:-0.958198 16:-0.974984 17:-0.962806 18:-0.959508 19:-0.978202 20:-0.982423 
-0 -32 -31.4510076953525 11.58354562218505 0 0 0 0 0 32 0 1:-0.98622 2:-0.984074 3:-0.986955 4:-0.973129 5:-0.977436 6:-0.982913 7:-0.979481 8:-0.975374 9:-0.958935 10:-0.993868 11:-0.976854 12:-0.995341 13:-0.981279 14:-0.968542 15:-0.962843 16:-0.982883 17:-0.973433 18:-0.97397 19:-0.983651 20:-0.983679 
-0 -0 -0 13.09889562368977 0 25.26777589349657 0 0 0 0 0 1:-0.990813 2:-0.98575 3:-0.991651 4:-0.966731 5:-0.966154 6:-0.990602 7:-0.969825 8:-0.984169 9:-0.98327 10:-0.986859 11:-0.985271 12:-0.965055 13:-0.942278 14:-0.969752 15:-0.975848 16:-0.983542 17:-0.955367 18:-0.989877 19:-0.978202 20:-0.978657 
-0 -0 -0 0 0 0 32 0 0 0 0 1:-0.988057 2:-0.989941 3:-0.98539 4:-0.966731 5:-0.981538 6:-0.985476 7:-0.978274 8:-0.966579 9:-0.972624 10:-0.99562 11:-0.972646 12:-0.990681 13:-0.970359 14:-0.979431 15:-0.958198 16:-0.979592 17:-0.965994 18:-0.982646 19:-0.986376 20:-0.981168 
-0 -0 -0 0 32 32 0 0 0 0 31.08055314355336 1:-0.994488 2:-0.997485 3:-0.994782 4:-0.970569 5:-0.992821 6:-0.983768 7:-0.990344 8:-0.959543 9:-0.993916 10:-0.989488 11:-0.995792 12:-0.996506 13:-0.99844 14:-0.99879 15:-0.995355 16:-0.996708 17:-0.967056 18:-0.949385 19:-0.995913 20:-0.998745 
-0 -0 -0 0 0 0 0 0 0 32 0 1:-0.989894 2:-0.998324 3:-0.989043 4:-0.979527 5:-0.987692 6:-0.990602 7:-0.995172 8:-0.971856 9:-0.981749 10:-0.996496 11:-0.988427 12:-0.99767 13:-1 14:-0.991531 15:-0.984208 16:-0.987492 17:-0.975558 18:-0.995662 19:-0.997275 20:-0.992467 
-0 -0 -0 0 0 0 0 0 0 32 0 1:-0.991732 2:-0.994971 3:-0.991651 4:-0.975688 5:-0.982564 6:-0.994874 7:-0.992758 8:-0.985928 9:-0.98327 10:-0.996496 11:-0.991583 12:-0.99767 13:-0.9922 14:-0.987901 15:-0.984208 16:-0.984858 17:-0.965994 18:-0.992769 19:-0.979564 20:-0.979912 
-32 -32 -32 30.88628800724159 32 0 32 0 18.52743471067609 0 13.55734560388433 1:-0.963252 2:-0.977368 3:-0.987477 4:-0.944978 5:-0.954872 6:-0.957283 7:-0.978274 8:-0.922603 9:-0.937643 10:-0.985983 11:-0.961073 12:-0.973209 13:-0.932917 14:-0.961283 15:-0.954482 16:-0.970375 17:-0.969182 18:-0.949385 19:-0.964578 20:-0.972379 
-0 -0 -0 0 0 0 0 0 0 32 0 1:-0.990813 2:-0.992456 3:-0.992695 4:-0.992322 5:-0.989744 6:-0.987185 7:-0.996379 8:-0.978892 9:-0.981749 10:-0.999124 11:-0.990531 12:-0.993011 13:-0.981279 14:-0.985481 15:-0.992569 16:-0.989467 17:-0.979809 18:-0.995662 19:-0.97139 20:-0.98619 
-0 -0 -0 0 6.418367143712358 0 0 0 0 22.28928362816011 0 1:-0.977033 2:-0.963118 3:-0.982259 4:-0.961612 5:-0.973333 6:-0.973516 7:-0.91551 8:-0.941953 9:-0.965019 10:-0.971967 11:-0.983167 12:-0.989517 13:-0.981279 14:-0.974592 15:-0.980492 16:-0.982883 17:-0.937301 18:-0.947939 19:-0.990463 20:-0.992467 
-0 -0 -0 0 0 0 0 0 15.77728778258924 0 0 1:-0.97887 2:-0.993294 3:-0.992695 4:-0.970569 5:-0.979487 6:-0.982913 7:-0.98793 8:-0.970097 9:-0.969582 10:-0.993868 11:-0.984219 12:-0.988352 13:-0.936037 14:-0.980641 15:-0.974919 16:-0.985517 17:-0.967056 18:-0.991323 19:-0.974114 20:-0.964846 
-0 -0 -0 0.6922795283786853 0 0 0 0 0 32 0 1:-0.998163 2:-0.999162 3:-0.996869 4:-0.992322 5:-0.992821 6:-0.999146 7:-0.996379 8:-0.998241 9:-0.995437 10:-1 11:-0.99474 12:-0.99767 13:-0.98908 14:-0.99758 15:-0.994426 16:-0.994733 17:-0.997875 18:-0.997108 19:-1 20:-0.992467 
-0 -0 -32 32 32 32 32 32 32 32 32 1:-0.984382 2:-0.98575 3:-0.984868 4:-0.996161 5:-0.978462 6:-0.991457 7:-0.985516 8:-0.975374 9:-0.954373 10:-0.994744 11:-0.956865 12:-0.942924 13:-0.925117 14:-0.979431 15:-0.993497 16:-0.979592 17:-0.985122 18:-0.959508 19:-0.974114 20:-0.971124 
-0 -0 -0 0 12.34308046182086 0 0 0 0 0 0 1:-0.983463 2:-0.989941 3:-0.97652 4:-0.978247 5:-0.952821 6:-0.982059 7:-0.992758 8:-0.96482 9:-0.974144 10:-0.998248 11:-0.97475 12:-0.996506 13:-0.964119 14:-0.938294 15:-0.978634 16:-0.959842 17:-0.965994 18:-0.949385 19:-0.993188 20:-0.996234 
-24.810625990379 -0.5296699545424872 -32 32 32 29.63934811285488 32 32 8.527962716380326 32 0 1:-0.98622 2:-0.981559 3:-0.990608 4:-0.962892 5:-0.978462 6:-0.985476 7:-0.979481 8:-0.966579 9:-0.980228 10:-0.975471 11:-0.990531 12:-0.974374 13:-0.976599 14:-0.972172 15:-0.981421 16:-0.985517 17:-0.967056 18:-0.975416 19:-0.975477 20:-0.964846 
-0 -0 -0 0 0 0 0 0 0 32 0 1:-0.984382 2:-0.988265 3:-0.990086 4:-0.976967 5:-0.975385 6:-0.982059 7:-0.989137 8:-0.975374 9:-0.990875 10:-0.982479 11:-0.985271 12:-0.984857 13:-0.970359 14:-0.990321 15:-0.977706 16:-0.9921 17:-0.959617 18:-0.988431 19:-0.983651 20:-0.973635 
-0 -29.20678209049938 -0 0 32 0 0 0 0 32 0 1:-0.999081 2:-0.999162 3:-0.998435 4:-0.991043 5:-1 6:-1 7:-0.983102 8:-1 9:-1 10:-0.996496 11:-1 12:-0.996506 13:-0.99844 14:-1 15:-0.997213 16:-0.997367 17:-0.991498 18:-0.998554 19:-0.99455 20:-1 
-0 -0 -0 0 0 0 0 24.81885949764733 0 32 0 1:-0.990813 2:-1 3:-0.998956 4:-0.984645 5:-0.995897 6:-0.976933 7:-0.989137 8:-0.933157 9:-0.990875 10:-0.99124 11:-0.996844 12:-0.99767 13:-0.99844 14:-0.99516 15:-0.994426 16:-0.99605 17:-0.974495 18:-0.972523 19:-0.991826 20:-0.997489 
-0 -14.82366224864473 -0 0 32 0 32 0 0 0 0 1:-0.972439 2:-0.988265 3:-0.989564 4:-0.960333 5:-0.978462 6:-0.981205 7:-0.992758 8:-0.943712 9:-0.975665 10:-0.978975 11:-0.983167 12:-0.991846 13:-0.981279 14:-0.983061 15:-0.972132 16:-0.980908 17:-0.967056 18:-0.950832 19:-0.990463 20:-0.989956 
-0 -5.732800014765227 -0 0 32 0 2.804551272890895 9.387951581403103 0 9.506852551950928 0 1:-0.969683 2:-0.989103 3:-0.987477 4:-0.982086 5:-0.975385 6:-0.978642 7:-0.973446 8:-0.966579 9:-0.960456 10:-0.99124 11:-0.977906 12:-0.983692 13:-0.962559 14:-0.972172 15:-0.970274 16:-0.979592 17:-0.962806 18:-0.969631 19:-0.97139 20:-0.972379 
-0 -0 -0 0 2.284161944502362 0 0 13.51232199413565 0 32 0 1:-0.993569 2:-0.992456 3:-0.992695 4:-0.991043 5:-0.996923 6:-0.99402 7:-0.968618 8:-0.978892 9:-0.987833 10:-0.985107 11:-0.99474 12:-0.99767 13:-0.99688 14:-0.990321 15:-0.990711 16:-0.993417 17:-0.977683 18:-0.992769 19:-0.997275 20:-0.993723 
-0 -0 -0 0 0 0 0 0 0 32 0 1:-0.988057 2:-0.994971 3:-0.994782 4:-0.987204 5:-0.997949 6:-0.993165 7:-0.996379 8:-0.98241 9:-0.990875 10:-0.990364 11:-0.997896 12:-0.991846 13:-0.9922 14:-0.99879 15:-0.99164 16:-0.996708 17:-0.981934 18:-0.988431 19:-0.997275 20:-0.996234 
-0 -0 -0 32 32 0 0 0 19.40486291492286 32 0 1:-0.997244 2:-0.996647 3:-0.995826 4:-0.989763 5:-0.995897 6:-0.996583 7:-0.998793 8:-0.989446 9:-0.995437 10:-0.993868 11:-0.996844 12:-0.993011 13:-0.99688 14:-0.99637 15:-0.995355 16:-0.993417 17:-0.995749 18:-0.998554 19:-0.993188 20:-0.981168 
-0 -0 -0 0 0 0 0 0 0 32 0 1:-0.988976 2:-0.992456 3:-0.990608 4:-0.975688 5:-0.986667 6:-0.993165 7:-0.995172 8:-0.984169 9:-0.989354 10:-0.994744 11:-0.989479 12:-0.995341 13:-0.99532 14:-0.990321 15:-0.981421 16:-0.990125 17:-0.979809 18:-0.992769 19:-0.978202 20:-0.984934 
-0 -0 -0 0 0 0 0 0.3931864877702942 0 32 0 1:-0.975195 2:-0.988265 3:-0.983303 4:-0.985925 5:-0.975385 6:-0.985476 7:-0.98793 8:-0.957784 9:-0.975665 10:-0.990364 11:-0.984219 12:-0.994176 13:-0.981279 14:-0.972172 15:-0.965629 16:-0.982225 17:-0.970244 18:-0.988431 19:-0.990463 20:-0.984934 
