svm_type c_svc
kernel_type rbf
gamma 0.5
nr_class 2
total_sv 100
rho 2.8482
label 1 -1
nr_sv 49 51
SV
31.14107118060649 1:-0.847514 2:-0.747811 3:-0.889491 4:-0.880779 5:-0.779018 6:-0.887597 7:-0.76 8:-0.904494 9:-0.872818 10:-0.850075 11:-0.93159 12:-0.876623 13:-0.921681 14:-0.837363 15:-0.909747 16:-0.879859 17:-0.894168 18:-0.883562 19:-0.871329 20:-0.900096 
15.33191783027779 1:-0.807735 2:-0.817863 3:-0.856988 4:-0.856448 5:-0.879464 6:-0.891473 7:-0.813333 8:-0.724719 9:-0.72818 10:-0.856072 11:-0.702213 12:-0.87987 13:-0.91404 14:-0.914286 15:-0.837545 16:-0.787986 17:-0.859611 18:-0.840183 19:-0.944056 20:-0.877041 
2.722985731925704 1:-0.865193 2:-0.583187 3:-0.707476 4:-0.768856 5:-0.618304 6:-0.620155 7:-0.285333 8:-0.561798 9:-0.877805 10:-0.61919 11:-0.686117 12:-0.600649 13:-0.728749 14:-0.646154 15:-0.703971 16:-0.731449 17:-0.693305 18:-0.762557 19:-0.804196 20:-0.659942 
128 1:-0.962431 2:-0.894921 3:-0.939328 4:-0.951338 5:-0.948661 6:-0.945736 7:-0.882667 8:-0.882022 9:-0.957606 10:-0.94003 11:-0.907445 12:-0.944805 13:-0.967526 14:-0.951648 15:-0.98917 16:-0.904594 17:-0.969762 18:-0.949772 19:-0.960839 20:-0.980788 
3.84788396600598 1:0.0850829 2:0.316988 3:1 4:1 5:1 6:1 7:1 8:1 9:0.508728 10:1 11:1 12:1 13:1 14:1 15:1 16:1 17:1 18:1 19:1 20:1 
18.92529848403107 1:-0.827624 2:-0.751313 3:-0.557963 4:-0.484185 5:-0.560268 6:-0.325581 7:-0.44 8:-0.314607 9:-0.900249 10:-0.409295 11:-0.613682 12:-0.37013 13:-0.404011 14:-0.235165 15:-0.588448 16:-0.568905 17:-0.550756 18:-0.495434 19:-0.625175 20:-0.558117 
32.84534922323569 1:-0.60442 2:-0.590193 3:-0.690141 4:-0.562044 5:-0.59375 6:-0.484496 7:-0.413333 8:-0.213483 9:-0.481297 10:-0.64018 11:-0.287726 12:-0.49026 13:-0.715377 14:-0.679121 15:-0.555957 16:-0.487633 17:-0.580994 18:-0.618721 19:-0.546853 20:-0.694524 
128 1:-0.958011 2:-0.873905 3:-0.934995 4:-0.939173 5:-0.959821 6:-0.875969 7:-0.872 8:-0.758427 9:-0.885287 10:-0.904048 11:-0.843058 12:-0.922078 13:-0.942693 14:-0.942857 15:-0.902527 16:-0.946996 17:-0.943844 18:-0.938356 19:-0.946853 20:-0.948127 
15.42891496790059 1:-0.834254 2:-0.912434 3:-0.915493 4:-0.924574 5:-0.899554 6:-0.903101 7:-0.92 8:-0.91573 9:-0.862843 10:-0.94003 11:-0.915493 12:-0.935065 13:-0.942693 14:-0.951648 15:-0.815884 16:-0.883392 17:-0.883369 18:-0.949772 19:-0.823776 20:-0.892411 
83.44231844563691 1:-0.851934 2:-0.45359 3:-0.783315 4:-0.873479 5:-0.765625 6:-0.895349 7:-0.552 8:-0.724719 9:-0.900249 10:-0.895052 11:-0.867203 12:-0.87013 13:-0.927412 14:-0.789011 15:-0.924188 16:-0.787986 17:-0.87689 18:-0.894977 19:-0.896503 20:-0.930836 
128 1:-0.953591 2:-0.954466 3:-0.978332 4:-0.987835 5:-0.973214 6:-0.945736 7:-0.962667 8:-0.949438 9:-0.942643 10:-0.937031 11:-0.911469 12:-0.954545 13:-0.956065 14:-0.925275 15:-0.935018 16:-0.982332 17:-0.971922 18:-0.961187 19:-0.916084 20:-0.940442 
18.3710107532395 1:-0.58895 2:-0.796848 3:-0.869989 4:-0.785888 5:-0.870536 6:-0.744186 7:-0.621333 8:0.00561798 9:-0.698254 10:-0.787106 11:-0.287726 12:-0.733766 13:-0.872015 14:-0.892308 15:-0.689531 16:-0.738516 17:-0.75378 18:-0.794521 19:-0.734266 20:-0.757925 
128 1:-0.854144 2:-0.796848 3:-0.813651 4:-0.6691 5:-0.84375 6:-0.682171 7:-0.861333 8:-0.595506 9:-0.830424 10:-0.805097 11:-0.545272 12:-0.837662 13:-0.744031 14:-0.716484 15:-0.815884 16:-0.784452 17:-0.814255 18:-0.710046 19:-0.840559 20:-0.81172 
128 1:-0.949171 2:-0.730298 3:-0.963164 4:-0.931873 5:-0.863839 6:-0.810078 7:-0.589333 8:-0.741573 9:-0.935162 10:-0.904048 11:-0.734406 12:-0.866883 13:-0.938873 14:-0.920879 15:-0.895307 16:-0.879859 17:-0.935205 18:-0.901826 19:-0.890909 20:-0.957733 
32.4468522143617 1:-0.944751 2:-0.793345 3:-0.865655 4:-0.871046 5:-0.872768 6:-0.887597 7:-0.786667 8:-0.662921 9:-0.945137 10:-0.862069 11:-0.746479 12:-0.886364 13:-0.91213 14:-0.883516 15:-0.794224 16:-0.893993 17:-0.885529 18:-0.878995 19:-0.865734 20:-0.884726 
35.18977518319398 1:-0.772376 2:-0.793345 3:-0.696641 4:-0.571776 5:-0.785714 6:-0.651163 7:-0.712 8:-0.286517 9:-0.695761 10:-0.643178 11:-0.605634 12:-0.636364 13:-0.801337 14:-0.652747 15:-0.501805 16:-0.671378 17:-0.691145 18:-0.589041 19:-0.563636 20:-0.623439 
1.378853555317196 1:-0.697238 2:-0.411559 3:-0.438787 4:-0.233577 5:-0.578125 6:-0.182171 7:-0.386667 8:-0.376404 9:-0.663342 10:-0.22039 11:-0.348089 12:-0.233766 13:-0.547278 14:-0.250549 15:0.234657 16:-0.508834 17:-0.362851 18:-0.141553 19:-0.253147 20:-0.206532 
128 1:-0.949171 2:-0.915937 3:-0.893824 4:-0.917275 5:-0.939732 6:-0.841085 7:-0.904 8:-0.769663 9:-0.935162 10:-0.928036 11:-0.863179 12:-0.938312 13:-0.91595 14:-0.945055 15:-0.956679 16:-0.886926 17:-0.948164 18:-0.938356 19:-0.927273 20:-0.967339 
128 1:-0.856354 2:-0.877408 3:-0.646804 4:-0.778589 5:-0.654018 6:-0.821705 7:-0.845333 8:-0.898876 9:-0.905237 10:-0.769115 11:-0.903421 12:-0.792208 13:-0.541547 14:-0.657143 15:-0.790614 16:-0.80212 17:-0.637149 18:-0.748858 19:-0.697902 20:-0.467819 
128 1:-0.904972 2:-0.85289 3:-0.91766 4:-0.931873 5:-0.901786 6:-0.945736 7:-0.818667 8:-0.898876 9:-0.897756 10:-0.967016 11:-0.818913 12:-0.967532 13:-0.952245 14:-0.918681 15:-0.98556 16:-0.946996 17:-0.950324 18:-0.940639 19:-0.946853 20:-0.944284 
5.593488496796839 1:-0.535912 2:0.0683012 3:-0.709642 4:-0.785888 5:-0.698661 6:-0.713178 7:-0.0613333 8:0.320225 9:-0.513716 10:-0.685157 11:-0.207243 12:-0.532468 13:-0.851003 14:-0.663736 15:-0.490975 16:-0.551237 17:-0.693305 18:-0.776256 19:-0.748252 20:-0.754083 
27.0598121767685 1:-0.962431 2:-0.845884 3:-0.893824 4:-0.849148 5:-0.921875 6:-0.713178 7:-0.712 8:-0.747191 9:-0.972569 10:-0.790105 11:-0.790744 12:-0.840909 13:-0.883477 14:-0.868132 15:-0.873646 16:-0.826855 17:-0.943844 18:-0.853881 19:-0.888112 20:-0.919308 
94.85205454815623 1:-0.927072 2:-0.807356 3:-0.930661 4:-0.953771 5:-0.948661 6:-0.957364 7:-0.909333 8:-0.88764 9:-0.835411 10:-0.970015 11:-0.879276 12:-0.948052 13:-0.950334 14:-0.940659 15:-0.938628 16:-0.90106 17:-0.971922 18:-0.965753 19:-0.958042 20:-0.959654 
128 1:-0.99558 2:-0.971979 3:-0.980498 4:-0.978102 5:-0.973214 6:-0.965116 7:-0.994667 8:-0.994382 9:-0.98005 10:-0.97901 11:-0.975855 12:-0.983766 13:-0.986628 14:-0.96044 15:-0.963899 16:-0.985866 17:-0.989201 18:-0.990868 19:-0.960839 20:-0.975024 
128 1:-0.805525 2:-0.618214 3:-0.742145 4:-0.725061 5:-0.796875 6:-0.751938 7:-0.712 8:-0.5 9:-0.80798 10:-0.778111 11:-0.597586 12:-0.733766 13:-0.849093 14:-0.753846 15:-0.638989 16:-0.639576 17:-0.788337 18:-0.762557 19:-0.734266 20:-0.767531 
2.359941831433157 1:-0.507182 2:-0.436077 3:-0.802817 4:-0.766423 5:-0.790179 6:-0.620155 7:0.125333 8:0.348315 9:-0.476309 10:-0.70015 11:-0.0945674 12:-0.714286 13:-0.860554 14:-0.815385 15:-0.740072 16:-0.621908 17:-0.796976 18:-0.703196 19:-0.762238 20:-0.809798 
4.068716272997922 1:-0.977901 2:-0.91944 3:-0.939328 4:-0.956204 5:-0.979911 6:-0.934109 7:-0.962667 8:-0.983146 9:-0.975062 10:-0.949025 11:-0.967807 12:-0.964286 13:-0.977077 14:-0.940659 15:-0.960289 16:-0.957597 17:-0.939525 18:-0.940639 19:-0.927273 20:-0.940442 
1.868058493812806 1:-0.0607735 2:-0.565674 3:-0.781148 4:-0.742092 5:-0.691964 6:-0.631783 7:-0.322667 8:-0.275281 9:0.124688 10:-0.628186 11:-0.303823 12:-0.626623 13:-0.757402 14:-0.857143 15:-0.299639 16:-0.607774 17:-0.665227 18:-0.726027 19:-0.560839 20:-0.563881 
128 1:-0.916022 2:-0.884413 3:-0.863489 4:-0.822384 5:-0.888393 6:-0.844961 7:-0.888 8:-0.702247 9:-0.890274 10:-0.829085 11:-0.798793 12:-0.821429 13:-0.904489 14:-0.804396 15:-0.768953 16:-0.812721 17:-0.846652 18:-0.835616 19:-0.826573 20:-0.827089 
128 1:-0.929282 2:-0.873905 3:-0.906826 4:-0.934307 5:-0.915179 6:-0.926357 7:-0.797333 8:-0.752809 9:-0.935162 10:-0.886057 11:-0.782696 12:-0.87987 13:-0.952245 14:-0.945055 15:-0.898917 16:-0.936396 17:-0.915767 18:-0.942922 19:-0.904895 20:-0.934678 
75.98895493530959 1:-0.880663 2:-0.835377 3:-0.908992 4:-0.873479 5:-0.810268 6:-0.79845 7:-0.68 8:-0.853933 9:-0.837905 10:-0.877061 11:-0.810865 12:-0.866883 13:-0.91595 14:-0.885714 15:-0.851986 16:-0.777385 17:-0.896328 18:-0.917808 19:-0.893706 20:-0.926993 
128 1:-0.909392 2:-0.614711 3:-0.900325 4:-0.883212 5:-0.854911 6:-0.841085 7:-0.424 8:-0.382022 9:-0.935162 10:-0.829085 11:-0.653924 12:-0.827922 13:-0.917861 14:-0.830769 15:-0.891697 16:-0.819788 17:-0.902808 18:-0.894977 19:-0.913287 20:-0.950048 
128 1:-0.973481 2:-0.940455 3:-0.978332 4:-0.956204 5:-0.975446 6:-0.953488 7:-0.978667 8:-0.882022 9:-0.982544 10:-0.928036 11:-0.899396 12:-0.931818 13:-0.961796 14:-0.925275 15:-0.927798 16:-0.922261 17:-0.969762 18:-0.961187 19:-0.958042 20:-0.96926 
128 1:-0.99116 2:-0.880911 3:-0.967497 4:-0.987835 5:-0.962054 6:-0.98062 7:-0.904 8:-0.938202 9:-0.995012 10:-0.967016 11:-0.919517 12:-0.967532 13:-0.986628 14:-0.975824 15:-0.963899 16:-0.964664 17:-0.976242 18:-0.995434 19:-0.960839 20:-0.976945 
128 1:-0.856354 2:-0.737303 3:-0.895991 4:-0.900243 5:-0.868304 6:-0.841085 7:-0.642667 8:-0.651685 9:-0.86783 10:-0.868066 11:-0.674044 12:-0.847403 13:-0.925501 14:-0.898901 15:-0.909747 16:-0.869258 17:-0.883369 18:-0.90411 19:-0.913287 20:-0.900096 
128 1:-0.774586 2:-0.814361 3:-0.874323 4:-0.861314 5:-0.888393 6:-0.72093 7:-0.728 8:-0.292135 9:-0.690773 10:-0.832084 11:-0.38833 12:-0.805195 13:-0.921681 14:-0.896703 15:-0.743682 16:-0.865724 17:-0.846652 18:-0.858447 19:-0.773427 20:-0.805956 
128 1:-0.960221 2:-0.908932 3:-0.904659 4:-0.924574 5:-0.941964 6:-0.868217 7:-0.904 8:-0.865169 9:-0.932668 10:-0.916042 11:-0.830986 12:-0.918831 13:-0.900669 14:-0.916484 15:-0.888087 16:-0.946996 17:-0.917927 18:-0.890411 19:-0.913287 20:-0.917387 
40.68241569056325 1:-0.896133 2:-0.765324 3:-0.833153 4:-0.77129 5:-0.84375 6:-0.844961 7:-0.866667 8:-0.870787 9:-0.775561 10:-0.925037 11:-0.722334 12:-0.918831 13:-0.889207 14:-0.905495 15:-0.945848 16:-0.787986 17:-0.933045 18:-0.835616 19:-0.946853 20:-0.944284 
27.50027095889561 1:-0.809945 2:-0.635727 3:-0.778982 4:-0.654501 5:-0.767857 6:-0.604651 7:-0.578667 8:-0.235955 9:-0.588529 10:-0.70015 11:-0.348089 12:-0.766234 13:-0.635148 14:-0.797802 15:-0.750903 16:-0.724382 17:-0.738661 18:-0.646119 19:-0.776224 20:-0.633045 
3.943489305605209 1:-0.328177 2:0.534151 3:-0.393283 4:-0.520681 5:0.3125 6:-0.251938 7:0.365333 8:0.011236 9:-0.538653 10:-0.415292 11:-0.207243 12:-0.415584 13:-0.453677 14:-0.320879 15:-0.714801 16:0.0212014 17:-0.557235 18:-0.568493 19:-0.709091 20:-0.654179 
105.3310825389199 1:-0.865193 2:-0.65324 3:-0.770314 4:-0.756691 5:-0.767857 6:-0.682171 7:-0.504 8:-0.370787 9:-0.840399 10:-0.721139 11:-0.509054 12:-0.694805 13:-0.765043 14:-0.712088 15:-0.66065 16:-0.713781 17:-0.775378 18:-0.748858 19:-0.804196 20:-0.773295 
53.40592757844162 1:-0.829834 2:-0.898424 3:-0.781148 4:-0.793187 5:-0.901786 6:-0.864341 7:-0.92 8:-0.651685 9:-0.783042 10:-0.841079 11:-0.843058 12:-0.850649 13:-0.931232 14:-0.769231 15:-0.722022 16:-0.671378 17:-0.805616 18:-0.810502 19:-0.686713 20:-0.807877 
128 1:-0.845304 2:-0.814361 3:-0.880823 4:-0.817518 5:-0.886161 6:-0.717054 7:-0.818667 8:-0.61236 9:-0.763092 10:-0.793103 11:-0.682093 12:-0.821429 13:-0.898758 14:-0.861538 15:-0.826715 16:-0.819788 17:-0.87689 18:-0.833333 19:-0.868531 20:-0.894332 
26.42617263825305 1:-0.61768 2:-0.187391 3:-0.575298 4:-0.644769 5:-0.71875 6:-0.841085 7:-0.456 8:-0.567416 9:-0.613466 10:-0.754123 11:-0.60161 12:-0.730519 13:-0.831901 14:-0.523077 15:-0.617329 16:-0.632509 17:-0.74946 18:-0.707763 19:-0.583217 20:-0.692603 
128 1:-0.975691 2:-0.975482 3:-0.954496 4:-0.973236 5:-0.977679 6:-0.984496 7:-0.973333 8:-0.988764 9:-0.987531 10:-0.976012 11:-1 12:-0.977273 13:-0.980898 14:-0.956044 15:-0.971119 16:-0.964664 17:-0.963283 18:-0.977169 19:-0.983217 20:-0.955812 
128 1:-0.942541 2:-0.936953 3:-0.960997 4:-0.922141 5:-0.944196 6:-0.965116 7:-0.904 8:-0.398876 9:-0.94015 10:-0.907046 11:-0.839034 12:-0.909091 13:-0.961796 14:-0.958242 15:-0.888087 16:-0.932862 17:-0.952484 18:-0.931507 19:-0.927273 20:-0.957733 
128 1:-0.98453 2:-0.971979 3:-0.947996 4:-0.944039 5:-0.970982 6:-0.914729 7:-0.930667 8:-0.921348 9:-0.972569 10:-0.976012 11:-0.939638 12:-0.944805 13:-0.969436 14:-0.953846 15:-0.945848 16:-0.961131 17:-0.978402 18:-0.954338 19:-0.974825 20:-0.967339 
128 1:-0.98011 2:-0.989492 3:-0.969664 4:-0.965937 5:-1 6:-0.965116 7:-0.989333 8:-0.960674 9:-0.94015 10:-0.976012 11:-0.911469 12:-0.974026 13:-0.982808 14:-1 15:-0.949458 16:-0.975265 17:-0.980562 18:-0.961187 19:-0.955245 20:-0.973103 
15.31928834922228 1:-0.332597 2:-0.894921 3:-0.770314 4:-0.819951 5:-0.819196 6:-0.775194 7:-0.578667 8:-0.516854 9:-0.204489 10:-0.64018 11:-0.43662 12:-0.649351 13:-0.847182 14:-0.898901 15:-0.425993 16:-0.674912 17:-0.669546 18:-0.785388 19:-0.54965 20:-0.510086 
-128 1:-0.99116 2:-1 3:-0.997833 4:-0.990268 5:-0.997768 6:-1 7:-1 8:-1 9:-0.997506 10:-0.994003 11:-0.987928 12:-0.993506 13:-1 14:-0.993407 15:-0.98556 16:-1 17:-0.987041 18:-1 19:-0.983217 20:-0.980788 
-128 1:-1 2:-0.954466 3:-0.991333 4:-0.948905 5:-0.993304 6:-0.953488 7:-0.989333 8:-0.882022 9:-0.990025 10:-0.955022 11:-0.891348 12:-0.912338 13:-0.986628 14:-0.991209 15:-0.967509 16:-0.996466 17:-0.941685 18:-0.958904 19:-0.963636 20:-0.973103 
-95.8362455227829 1:-0.856354 2:-0.831874 3:-0.752979 4:-0.751825 5:-0.743304 6:-0.813953 7:-0.909333 8:-0.960674 9:-0.935162 10:-0.850075 11:-0.967807 12:-0.818182 13:-0.795606 14:-0.613187 15:-0.891697 16:-0.777385 17:-0.799136 18:-0.657534 19:-0.846154 20:-0.75024 
-116.4051386725472 1:-0.812155 2:-0.796848 3:-0.742145 4:-0.727494 5:-0.790179 6:-0.670543 7:-0.717333 8:-0.297753 9:-0.758105 10:-0.76012 11:-0.492958 12:-0.75 13:-0.82235 14:-0.778022 15:-0.646209 16:-0.720848 17:-0.799136 18:-0.780822 19:-0.762238 20:-0.792507 
-4.098496352200879 1:-0.770166 2:-0.688266 3:-0.176598 4:-0.272506 5:-0.457589 6:-0.527132 7:-0.722667 8:-0.567416 9:-0.693267 10:-0.364318 11:-0.448692 12:-0.350649 13:-0.369628 14:-0.0461538 15:-0.00722022 16:-0.480565 17:-0.265659 18:-0.30137 19:-0.118881 20:-0.112392 
-18.24904052848241 1:-0.58232 2:-0.415061 3:-0.68364 4:-0.635036 5:-0.654018 6:-0.647287 7:-0.445333 8:-0.550562 9:-0.586035 10:-0.661169 11:-0.444668 12:-0.633117 13:-0.812798 14:-0.635165 15:-0.577617 16:-0.508834 17:-0.62203 18:-0.689498 19:-0.717483 20:-0.673391 
-81.1560373907854 1:-0.765746 2:-0.796848 3:-0.646804 4:-0.49635 5:-0.747768 6:-0.593023 7:-0.685333 8:-0.606742 9:-0.758105 10:-0.664168 11:-0.641851 12:-0.665584 13:-0.713467 14:-0.595604 15:-0.541516 16:-0.678445 17:-0.654428 18:-0.568493 19:-0.591608 20:-0.629203 
-8.209684184853469 1:-0.904972 2:-0.25394 3:-0.826652 4:-0.875912 5:-0.75 6:-0.709302 7:0.530667 8:-0.308989 9:-0.907731 10:-0.7991 11:-0.678068 12:-0.775974 13:-0.904489 14:-0.802198 15:-0.888087 16:-0.70318 17:-0.87905 18:-0.881279 19:-0.93007 20:-0.944284 
-65.06943269254063 1:-0.869613 2:-0.45359 3:-0.908992 4:-0.871046 5:-0.892857 6:-0.810078 7:-0.493333 8:-0.606742 9:-0.930175 10:-0.871064 11:-0.55332 12:-0.827922 13:-0.889207 14:-0.771429 15:-0.920578 16:-0.840989 17:-0.952484 18:-0.878995 19:-0.974825 20:-0.967339 
-4.088924567272722 1:-0.803315 2:-0.492119 3:-0.863489 4:-0.839416 5:-0.866071 6:-0.627907 7:-0.488 8:0.651685 9:-0.80798 10:-0.772114 11:0.0865191 12:-0.756494 13:-0.921681 14:-0.901099 15:-0.779783 16:-0.727915 17:-0.850972 18:-0.824201 19:-0.851748 20:-0.878963 
-128 1:-0.98674 2:-0.922942 3:-0.96533 4:-0.963504 5:-0.964286 6:-0.864341 7:-0.909333 8:-0.88764 9:-0.98005 10:-0.934033 11:-0.871227 12:-0.967532 13:-0.954155 14:-0.953846 15:-0.98556 16:-0.982332 17:-1 18:-0.940639 19:-0.977622 20:-1 
-7.10517854825676 1:-0.60221 2:-0.478109 3:-0.378115 4:-0.686131 5:-0.513393 6:-0.678295 7:-0.173333 8:0.393258 9:-0.563591 10:-0.73913 11:-0.0663984 12:-0.737013 13:-0.816619 14:-0.553846 15:-0.729242 16:-0.144876 17:-0.611231 18:-0.682648 19:-0.639161 20:-0.479347 
-83.92199156358645 1:-0.962431 2:-0.936953 3:-0.976165 4:-0.958637 5:-0.96875 6:-0.96124 7:-0.941333 8:-0.88764 9:-0.967581 10:-0.949025 11:-0.895372 12:-0.964286 13:-0.969436 14:-0.975824 15:-0.974729 16:-0.961131 17:-0.958963 18:-0.968037 19:-0.974825 20:-0.980788 
-5.91614892155278 1:-0.814365 2:-0.10683 3:-0.833153 4:-0.766423 5:-0.854911 6:-0.883721 7:-0.514667 8:-0.539326 9:-0.865337 10:-0.862069 11:-0.460765 12:-0.847403 13:-0.745941 14:-0.815385 15:-0.916968 16:-0.85159 17:-0.937365 18:-0.794521 19:-0.958042 20:-0.925072 
-69.13773377879545 1:-0.916022 2:-0.782837 3:-0.79415 4:-0.746959 5:-0.857143 6:-0.655039 7:-0.696 8:-0.370787 9:-0.905237 10:-0.748126 11:-0.549296 12:-0.74026 13:-0.791786 14:-0.753846 15:-0.768953 16:-0.720848 17:-0.827214 18:-0.778539 19:-0.843357 20:-0.873199 
-0.3007780668929819 1:-0.971271 2:-0.901926 3:-0.954496 4:-0.963504 5:-0.964286 6:-0.906977 7:-0.669333 8:-0.101124 9:-0.957606 10:-0.967016 11:-0.71831 12:-0.954545 13:-0.952245 14:-0.923077 15:-0.99278 16:-0.982332 17:-0.950324 18:-0.958904 19:-0.952448 20:-0.923151 
-16.22155010021593 1:-0.871823 2:-0.922942 3:-0.939328 4:-0.909976 5:-0.955357 6:-0.945736 7:-0.930667 8:-0.353933 9:-0.842893 10:-0.823088 11:-0.557344 12:-0.782468 13:-0.969436 14:-0.958242 15:-0.725632 16:-0.957597 17:-0.866091 18:-0.931507 19:-0.885315 20:-0.898175 
-128 1:-0.931492 2:-0.85289 3:-0.865655 4:-0.902676 5:-0.832589 6:-0.829457 7:-0.898667 8:-0.898876 9:-0.962594 10:-0.892054 11:-0.887324 12:-0.909091 13:-0.919771 14:-0.821978 15:-0.942238 16:-0.823322 17:-0.939525 18:-0.863014 19:-0.904895 20:-0.884726 
-95.44846910919006 1:-0.794475 2:-0.765324 3:-0.668472 4:-0.683698 5:-0.732143 6:-0.678295 7:-0.52 8:-0.52809 9:-0.805486 10:-0.772114 11:-0.605634 12:-0.785714 13:-0.65043 14:-0.685714 15:-0.794224 16:-0.674912 17:-0.75162 18:-0.742009 19:-0.683916 20:-0.667627 
-128 1:-0.871823 2:-0.660245 3:-0.863489 4:-0.89781 5:-0.832589 6:-0.852713 7:-0.712 8:-0.668539 9:-0.860349 10:-0.832084 11:-0.690141 12:-0.827922 13:-0.91213 14:-0.846154 15:-0.812274 16:-0.833922 17:-0.87689 18:-0.90411 19:-0.896503 20:-0.92123 
-1.751454034602985 1:-0.681768 2:-0.422067 3:-0.375948 4:-0.596107 5:0.0758929 6:-0.275194 7:-0.344 8:-0.269663 9:-0.623441 10:-0.493253 11:-0.501006 12:-0.574675 13:-0.262655 14:-0.230769 15:-0.768953 16:-0.176678 17:-0.516199 18:-0.655251 19:-0.686713 20:-0.548511 
-40.07266943907351 1:-0.942541 2:-0.915937 3:-0.921993 4:-0.948905 5:-0.908482 6:-0.949612 7:-0.957333 8:-0.921348 9:-0.945137 10:-0.985007 11:-0.875252 12:-0.980519 13:-0.944604 14:-0.942857 15:-0.974729 16:-0.918728 17:-0.948164 18:-0.931507 19:-0.938462 20:-0.932757 
-61.77461567445597 1:-0.918232 2:-0.835377 3:-0.932828 4:-0.961071 5:-0.814732 6:-0.96124 7:-0.845333 8:-0.808989 9:-0.955112 10:-0.907046 11:-0.93159 12:-0.915584 13:-0.923591 14:-0.92967 15:-0.953069 16:-0.897527 17:-0.969762 18:-0.961187 19:-0.960839 20:-0.96926 
-117.0936827808614 1:-0.756906 2:-0.677758 3:-0.722644 4:-0.912409 5:-0.830357 6:-0.922481 7:-0.776 8:-0.853933 9:-0.785536 10:-0.847076 11:-0.8833 12:-0.782468 13:-0.873926 14:-0.857143 15:-0.927798 16:-0.759717 17:-0.766739 18:-0.93379 19:-0.672727 20:-0.688761 
-5.325902203883595 1:-0.858564 2:-0.660245 3:-0.865655 4:-0.841849 5:-0.848214 6:-0.763566 7:-0.642667 8:-0.460674 9:-0.825436 10:-0.838081 11:-0.637827 12:-0.818182 13:-0.91213 14:-0.841758 15:-0.891697 16:-0.809187 17:-0.840173 18:-0.901826 19:-0.893706 20:-0.894332 
-43.65570690149663 1:-0.962431 2:-0.922942 3:-0.963164 4:-0.96837 5:-0.96875 6:-0.972868 7:-0.898667 8:-0.859551 9:-0.970075 10:-0.961019 11:-0.871227 12:-0.964286 13:-0.980898 14:-0.940659 15:-0.978339 16:-0.978799 17:-0.982721 18:-0.96347 19:-0.972028 20:-0.975024 
-1.086157016031811 1:-0.690608 2:0.0928196 3:-0.297941 4:-0.3382 5:0.145089 6:-0.0736434 7:0.381333 8:-0.0449438 9:-0.705736 10:-0.706147 11:-0.122736 12:-0.587662 13:-0.207259 14:-0.525275 15:-0.898917 16:-0.30742 17:-0.684665 18:-0.410959 19:-0.868531 20:-0.777137 
-128 1:-0.907182 2:-0.954466 3:-0.96533 4:-0.963504 5:-0.948661 6:-0.965116 7:-0.952 8:-0.910112 9:-0.927681 10:-0.982009 11:-0.907445 12:-0.987013 13:-0.975167 14:-0.971429 15:-0.949458 16:-0.915194 17:-0.971922 18:-0.988584 19:-0.966434 20:-0.986551 
-59.56507355342154 1:-0.898343 2:-0.838879 3:-0.681473 4:-0.810219 5:-0.794643 6:-0.852713 7:-0.898667 8:-0.825843 9:-0.902743 10:-0.829085 11:-0.814889 12:-0.853896 13:-0.686724 14:-0.643956 15:-0.873646 16:-0.840989 17:-0.768898 18:-0.83105 19:-0.874126 20:-0.725264 
-41.08638570311963 1:-0.703867 2:-0.639229 3:-0.700975 4:-0.751825 5:-0.727679 6:-0.77907 7:-0.690667 8:-0.258427 9:-0.53616 10:-0.715142 11:-0.327968 12:-0.698052 13:-0.860554 14:-0.683516 15:-0.68231 16:-0.618375 17:-0.710583 18:-0.73516 19:-0.737063 20:-0.731028 
-62.1351450725689 1:-0.854144 2:-0.835377 3:-0.895991 4:-0.768856 5:-0.917411 6:-0.79845 7:-0.893333 8:-0.561798 9:-0.493766 10:-0.892054 11:-0.43662 12:-0.905844 13:-0.91022 14:-0.881319 15:-0.898917 16:-0.837456 17:-0.920086 18:-0.83105 19:-0.946853 20:-0.938521 
-128 1:-0.953591 2:-0.789842 3:-0.956663 4:-0.922141 5:-0.970982 6:-0.945736 7:-0.733333 8:-0.848315 9:-0.905237 10:-0.949025 11:-0.863179 12:-0.944805 13:-0.954155 14:-0.967033 15:-0.967509 16:-0.908127 17:-0.909287 18:-0.945205 19:-0.918881 20:-0.942363 
-128 1:-0.962431 2:-0.905429 3:-0.863489 4:-0.922141 5:-0.890625 6:-0.910853 7:-0.802667 8:-0.758427 9:-0.962594 10:-0.955022 11:-0.847082 12:-0.944805 13:-0.883477 14:-0.832967 15:-0.935018 16:-0.893993 17:-0.909287 18:-0.901826 19:-0.904895 20:-0.878963 
-128 1:-0.949171 2:-0.768827 3:-0.87649 4:-0.922141 5:-0.84375 6:-0.748062 7:-0.573333 8:-0.52809 9:-0.94015 10:-0.805097 11:-0.62173 12:-0.837662 13:-0.891117 14:-0.821978 15:-0.855596 16:-0.830389 17:-0.928726 18:-0.890411 19:-0.902098 20:-0.92123 
-128 1:-0.98895 2:-0.961471 3:-0.971831 4:-0.934307 5:-0.964286 6:-0.94186 7:-0.957333 8:-0.898876 9:-0.982544 10:-0.961019 11:-0.915493 12:-0.99026 13:-0.956065 14:-0.953846 15:-0.963899 16:-0.971731 17:-0.974082 18:-0.968037 19:-0.969231 20:-0.98463 
-76.92576866844674 1:-0.898343 2:-0.821366 3:-0.84182 4:-0.846715 5:-0.868304 6:-0.74031 7:-0.904 8:-0.786517 9:-0.885287 10:-0.7991 11:-0.806841 12:-0.801948 13:-0.799427 14:-0.793407 15:-0.866426 16:-0.826855 17:-0.814255 18:-0.833333 19:-0.862937 20:-0.807877 
-128 1:-0.98011 2:-0.985989 3:-0.984832 4:-0.939173 5:-0.984375 6:-0.926357 7:-0.962667 8:-0.94382 9:-0.987531 10:-0.97901 11:-0.93159 12:-0.964286 13:-0.986628 14:-0.973626 15:-0.963899 16:-0.985866 17:-0.969762 18:-0.954338 19:-0.963636 20:-0.96926 
-28.10857864816864 1:-0.756906 2:-0.611208 3:-0.809317 4:-0.798054 5:-0.754464 6:-0.627907 7:-0.397333 8:-0.0561798 9:-0.750623 10:-0.634183 11:-0.102616 12:-0.564935 13:-0.851003 14:-0.824176 15:-0.588448 16:-0.696113 17:-0.803456 18:-0.799087 19:-0.846154 20:-0.848223 
-120.8384291086511 1:-0.966851 2:-0.901926 3:-0.973998 4:-0.96837 5:-0.944196 6:-0.949612 7:-0.866667 8:-0.904494 9:-0.970075 10:-0.964018 11:-0.903421 12:-0.99026 13:-0.971347 14:-0.98022 15:-0.981949 16:-0.954064 17:-0.974082 18:-0.968037 19:-0.974825 20:-0.980788 
-128 1:-0.99116 2:-0.7338 3:-0.976165 4:-0.990268 5:-0.955357 6:-0.945736 7:-0.562667 8:-0.780899 9:-0.987531 10:-0.964018 11:-0.806841 12:-0.961039 13:-1 14:-0.986813 15:-0.945848 16:-0.939929 17:-0.974082 18:-0.988584 19:-0.977622 20:-0.98463 
-128 1:-0.865193 2:-0.751313 3:-0.930661 4:-0.892944 5:-0.915179 6:-0.806202 7:-0.808 8:-0.595506 9:-0.78803 10:-0.88006 11:-0.678068 12:-0.896104 13:-0.944604 14:-0.942857 15:-0.855596 16:-0.805654 17:-0.946004 18:-0.894977 19:-0.899301 20:-0.928915 
-73.87117489896433 1:-0.902762 2:-0.726795 3:-0.91766 4:-0.902676 5:-0.736607 6:-0.790698 7:-0.493333 8:-0.421348 9:-0.84788 10:-0.847076 11:-0.738431 12:-0.87987 13:-0.929322 14:-0.863736 15:-0.898917 16:-0.724382 17:-0.909287 18:-0.888128 19:-0.904895 20:-0.911623 
-0.494540025291845 1:-0.774586 2:-0.537653 3:-0.144095 4:-0.289538 5:-0.466518 6:-0.232558 7:-0.552 8:-0.634831 9:-0.683292 10:-0.430285 11:-0.730382 12:-0.321429 13:-0.211079 14:0.0703297 15:-0.231047 16:-0.491166 17:-0.0950324 18:-0.280822 19:0.0573427 20:0.179635 
-128 1:-0.891713 2:-0.849387 3:-0.945829 4:-0.924574 5:-0.890625 6:-0.934109 7:-0.856 8:-0.764045 9:-0.780549 10:-0.901049 11:-0.851107 12:-0.915584 13:-0.957975 14:-0.942857 15:-0.819495 16:-0.929329 17:-0.894168 18:-0.952055 19:-0.874126 20:-0.90586 
-4.04161241264861 1:-0.708287 2:-0.85289 3:-0.943662 4:-0.939173 5:-0.821429 6:-0.968992 7:-0.909333 8:0.331461 9:-0.880299 10:-0.805097 11:-0.625755 12:-0.847403 13:-0.956065 14:-0.92967 15:-0.859206 16:-0.85159 17:-0.816415 18:-0.949772 19:-0.924476 20:-0.798271 
-128 1:-0.958011 2:-0.982487 3:-0.976165 4:-0.953771 5:-0.988839 6:-0.976744 7:-0.989333 8:-0.859551 9:-0.927681 10:-0.967016 11:-0.867203 12:-0.951299 13:-1 14:-0.975824 15:-0.945848 16:-0.961131 17:-0.958963 18:-0.981735 19:-0.960839 20:-0.980788 
-43.21728629419152 1:-0.944751 2:-0.940455 3:-0.934995 4:-0.946472 5:-0.919643 6:-0.914729 7:-0.84 8:-0.674157 9:-0.935162 10:-0.868066 11:-0.770624 12:-0.873377 13:-0.948424 14:-0.927473 15:-0.902527 16:-0.918728 17:-0.911447 18:-0.949772 19:-0.932867 20:-0.930836 
-26.29195291744574 1:-0.728177 2:-0.856392 3:-0.828819 4:-0.742092 5:-0.890625 6:-0.655039 7:-0.84 8:-0.55618 9:-0.743142 10:-0.67916 11:-0.62173 12:-0.675325 13:-0.82426 14:-0.821978 15:-0.566787 16:-0.879859 17:-0.717063 18:-0.746575 19:-0.661538 20:-0.661864 
-64.97091999762787 1:-0.540331 2:-0.341506 3:-0.833153 4:-0.683698 5:-0.763393 6:-0.70155 7:-0.482667 8:-0.359551 9:-0.600998 10:-0.64018 11:-0.525151 12:-0.633117 13:-0.780325 14:-0.8 15:-0.646209 16:-0.795053 17:-0.740821 18:-0.710046 19:-0.73986 20:-0.794428 
-128 1:-0.871823 2:-0.915937 3:-0.913326 4:-0.836983 5:-0.928571 6:-0.77907 7:-0.893333 8:-0.640449 9:-0.880299 10:-0.853073 11:-0.758551 12:-0.805195 13:-0.847182 14:-0.876923 15:-0.772563 16:-0.844523 17:-0.88121 18:-0.853881 19:-0.795804 20:-0.896254 
-128 1:-0.900552 2:-0.908932 3:-0.908992 4:-0.836983 5:-0.901786 6:-0.794574 7:-0.946667 8:-0.539326 9:-0.905237 10:-0.841079 11:-0.71831 12:-0.844156 13:-0.927412 14:-0.907692 15:-0.631769 16:-0.897527 17:-0.859611 18:-0.860731 19:-0.787413 20:-0.800192 
