svm_type c_svc
kernel_type rbf
gamma 2
nr_class 2
total_sv 139
rho 0.450895
label 1 -1
nr_sv 71 68
SV
32 1:-0.792521 2:-0.988718 3:-0.978992 4:-0.991266 5:-0.993725 6:-0.994076 7:-0.925532 8:-0.988192 9:-0.991272 10:-0.958184 11:-0.988812 12:-0.991699 13:-0.972502 14:-0.97381 15:-0.922481 16:-0.993737 17:-0.971924 18:-0.995067 19:-0.913669 20:-0.993196 
32 1:-0.705669 2:-0.977436 3:-0.963235 4:-0.980349 5:-0.989161 6:-0.987559 7:-0.874468 8:-0.977122 9:-0.985901 10:-0.9773 11:-0.963855 12:-0.975097 13:-0.972961 14:-0.911905 15:-0.967168 16:-0.953549 17:-0.932287 18:-0.981677 19:-0.861871 20:-0.988943 
32 1:-0.896261 2:-0.934359 3:-0.921218 4:-0.951237 5:-0.966914 6:-0.9609 7:-0.795745 8:-0.961624 9:-0.945619 10:-0.934289 11:-0.925129 12:-0.940786 13:-0.95417 14:-0.904762 15:-0.958048 16:-0.946764 17:-0.905863 18:-0.971106 19:-0.896403 20:-0.948543 
3.404471682139232 1:-0.722557 2:-0.433846 3:-0.406513 4:-0.696507 5:-0.762693 6:-0.706161 7:-0.559574 8:-0.668635 9:-0.622021 10:-0.706093 11:-0.581756 12:-0.614278 13:-0.589368 14:-0.659524 15:-0.492932 16:-0.523486 17:-0.45995 18:-0.629316 19:-0.444604 20:-0.692537 
5.112064283827646 1:-0.585042 2:-0.777436 3:-0.863445 4:-0.904658 5:-0.703936 6:-0.703791 7:-0.446809 8:-0.832472 9:-0.783149 10:-0.553166 11:-0.55852 12:-0.84228 13:-0.663611 14:-0.785714 15:-0.845873 16:-0.709812 17:-0.851363 18:-0.828048 19:-0.697842 20:-0.838826 
32 1:-0.850422 2:-0.994872 3:-0.985294 4:-0.987627 5:-0.993725 6:-0.994076 7:-0.891489 8:-0.990406 9:-0.991272 10:-0.980884 11:-0.998279 12:-0.984505 13:-0.991292 14:-0.92619 15:-0.984496 16:-0.987996 17:-0.966969 18:-0.995772 19:-0.884892 20:-0.990219 
32 1:-0.62123 2:-0.917949 3:-0.867647 4:-0.906841 5:-0.958357 6:-0.929502 7:-0.778723 8:-0.923985 9:-0.91138 10:-0.868578 11:-0.930293 12:-0.893193 13:-0.899633 14:-0.659524 15:-0.877793 16:-0.918058 17:-0.831544 18:-0.941508 19:-0.648921 20:-0.914097 
1.457711147259189 1:-0.87696 2:-0.977436 3:-0.960084 4:-0.984716 5:-0.990873 6:-0.992299 7:-0.825532 8:-0.991144 9:-0.98523 10:-0.973716 11:-0.989673 12:-0.980631 13:-0.991292 14:-0.95 15:-0.979024 16:-0.984342 17:-0.937242 18:-0.988724 19:-0.922302 20:-0.99192 
32 1:-0.763571 2:-0.992821 3:-0.966387 4:-0.989083 5:-0.995151 6:-0.993483 7:-0.880851 8:-0.990406 9:-0.98523 10:-0.942652 11:-0.992255 12:-0.982291 13:-0.985335 14:-0.971429 15:-0.987232 16:-0.990084 17:-0.965318 18:-0.995772 19:-0.905036 20:-0.986817 
5.743030613566939 1:-0.922799 2:-0.966154 3:-0.968487 4:-0.989083 5:-0.988021 6:-0.991706 7:-0.919149 8:-0.988192 9:-0.983216 10:-0.978495 11:-0.957831 12:-0.985612 13:-0.984876 14:-0.964286 15:-0.994528 16:-0.975992 17:-0.970273 18:-0.987315 19:-0.930935 20:-0.98384 
32 1:-0.898673 2:-0.975385 3:-0.961134 4:-0.983261 5:-0.98146 6:-0.989336 7:-0.895745 8:-0.983764 9:-0.984559 10:-0.958184 11:-0.969019 12:-0.977864 13:-0.980752 14:-0.959524 15:-0.9772 16:-0.981733 17:-0.937242 18:-0.990839 19:-0.930935 20:-0.973634 
32 1:-0.971049 2:-0.982564 3:-0.990546 4:-0.994178 5:-0.997718 6:-0.994076 7:-0.976596 8:-0.994834 9:-0.98993 10:-0.996416 11:-0.993976 12:-0.991699 13:-0.987168 14:-0.978571 15:-0.969904 16:-0.996868 17:-0.990091 18:-0.991543 19:-0.965468 20:-0.997023 
32 1:-0.787696 2:-0.971282 3:-0.953782 4:-0.983261 5:-0.979749 6:-0.984597 7:-0.840426 8:-0.987454 9:-0.981202 10:-0.905615 11:-0.96988 12:-0.978971 13:-0.97571 14:-0.885714 15:-0.973552 16:-0.985908 17:-0.928984 18:-0.987315 19:-0.82446 20:-0.979587 
32 1:-0.903498 2:-0.981538 3:-0.985294 4:-0.992722 5:-0.996007 6:-0.992299 7:-0.912766 8:-0.993358 9:-0.991272 10:-0.956989 11:-0.981067 12:-0.985058 13:-0.983043 14:-0.971429 15:-0.966256 16:-0.98382 17:-0.980182 18:-0.995772 19:-0.953957 20:-0.991495 
32 1:-0.922799 2:-0.975385 3:-0.95063 4:-0.982533 5:-0.989732 6:-0.995261 7:-0.917021 8:-0.985978 9:-0.981873 10:-0.959379 11:-0.96988 12:-0.967903 13:-0.985335 14:-0.883333 15:-0.973552 16:-0.978601 17:-0.9455 18:-0.991543 19:-0.890647 20:-0.978737 
32 1:-0.780458 2:-0.911795 3:-0.897059 4:-0.934498 5:-0.977467 6:-0.923578 7:-0.831915 8:-0.938007 9:-0.918765 10:-0.874552 11:-0.932014 12:-0.94798 13:-0.928048 14:-0.792857 15:-0.920657 16:-0.930063 17:-0.846408 18:-0.947146 19:-0.781295 20:-0.952371 
32 1:-0.968637 2:-0.969231 3:-0.983193 4:-0.986172 5:-0.996577 6:-0.986374 7:-0.948936 8:-0.98524 9:-0.991944 10:-0.976105 11:-0.986231 12:-0.994466 13:-0.979377 14:-0.945238 15:-0.96352 16:-0.987996 17:-0.985136 18:-0.990839 19:-0.968345 20:-0.997448 
32 1:-0.966224 2:-0.977436 3:-0.969538 4:-0.97671 5:-0.986309 6:-0.976896 7:-0.938298 8:-0.972694 9:-0.979188 10:-0.897252 11:-0.972461 12:-0.984505 13:-0.967461 14:-0.952381 15:-0.94072 16:-0.977557 17:-0.947151 18:-0.989429 19:-0.922302 20:-0.986392 
32 1:-0.939686 2:-0.975385 3:-0.977941 4:-0.973799 5:-0.987735 6:-0.98519 7:-0.982979 8:-0.975646 9:-0.984559 10:-0.992832 11:-0.981928 12:-0.983398 13:-0.977085 14:-0.952381 15:-0.96352 16:-0.978079 17:-0.965318 18:-0.990839 19:-0.905036 20:-0.987242 
32 1:-0.761158 2:-0.921026 3:-0.907563 4:-0.961426 5:-0.965203 6:-0.936611 7:-0.808511 8:-0.946125 9:-0.935549 10:-0.868578 11:-0.943201 12:-0.933038 13:-0.88451 14:-0.921429 15:-0.821249 16:-0.932672 17:-0.85962 18:-0.940803 19:-0.769784 20:-0.945141 
7.7263455834394 1:-0.843185 2:-0.926154 3:-0.845588 4:-0.843523 5:-0.970622 6:-0.925948 7:-0.793617 8:-0.912177 9:-0.922122 10:-0.913978 11:-0.92685 12:-0.86995 13:-0.908799 14:-0.671429 15:-0.921569 16:-0.806367 17:-0.752271 18:-0.919662 19:-0.726619 20:-0.900489 
32 1:-0.72497 2:-0.967179 3:-0.966387 4:-0.973071 5:-0.976897 6:-0.978673 7:-0.848936 8:-0.984502 9:-0.98053 10:-0.939068 11:-0.962995 12:-0.964582 13:-0.967461 14:-0.914286 15:-0.973552 16:-0.965553 17:-0.950454 18:-0.976039 19:-0.841727 20:-0.972783 
32 1:-0.845597 2:-0.962051 3:-0.939076 4:-0.957787 5:-0.990302 6:-0.98282 7:-0.908511 8:-0.97786 9:-0.987244 10:-0.874552 11:-0.96988 12:-0.959602 13:-0.970211 14:-0.838095 15:-0.975376 16:-0.97547 17:-0.899257 18:-0.980268 19:-0.841727 20:-0.971508 
32 1:-0.917973 2:-0.991795 3:-0.990546 4:-0.996361 5:-0.995436 6:-0.992891 7:-0.878723 8:-0.991882 9:-0.987915 10:-0.966547 11:-0.993976 12:-0.991146 13:-0.980752 14:-0.969048 15:-0.974464 16:-0.996347 17:-0.968621 18:-0.992953 19:-0.96259 20:-0.992771 
32 1:-0.949337 2:-0.998974 3:-0.993697 4:-0.995633 5:-0.997433 6:-0.99763 7:-0.948936 8:-0.994834 9:-0.9953 10:-0.990442 11:-0.996558 12:-0.997233 13:-0.994959 14:-0.97619 15:-0.99544 16:-0.994259 17:-0.990091 18:-0.995067 19:-0.968345 20:-0.996173 
32 1:-0.799759 2:-0.951795 3:-0.955882 4:-0.972344 5:-0.972618 6:-0.947275 7:-0.904255 8:-0.966052 9:-0.967103 10:-0.849462 11:-0.943201 12:-0.952961 13:-0.880843 14:-0.933333 15:-0.906065 16:-0.958768 17:-0.928984 18:-0.985201 19:-0.870504 20:-0.96768 
32 1:-0.901086 2:-0.950769 3:-0.944328 4:-0.961426 5:-0.980319 6:-0.966825 7:-0.83617 8:-0.9631 9:-0.967774 10:-0.925926 11:-0.963855 12:-0.952407 13:-0.958753 14:-0.866667 15:-0.96808 16:-0.962422 17:-0.887696 18:-0.968992 19:-0.853237 20:-0.961727 
32 1:-0.963812 2:-0.998974 3:-0.994748 4:-0.997089 5:-0.999715 6:-0.999408 7:-0.976596 8:-1 9:-0.999329 10:-0.994026 11:-1 12:-0.99668 13:-0.998625 14:-0.992857 15:-0.997264 16:-0.997912 17:-0.985136 18:-1 19:-0.971223 20:-0.998724 
32 1:-0.975875 2:-0.984615 3:-0.987395 4:-0.995633 5:-0.994866 6:-0.995853 7:-0.925532 8:-0.994096 9:-0.9953 10:-0.990442 11:-0.98537 12:-0.990592 13:-0.995417 14:-0.97619 15:-0.996352 16:-0.98643 17:-0.985136 18:-0.993658 19:-0.96259 20:-0.993621 
32 1:-0.720145 2:-0.942564 3:-0.945378 4:-0.973071 5:-0.97433 6:-0.968602 7:-0.842553 8:-0.979336 9:-0.95569 10:-0.897252 11:-0.931153 12:-0.959602 13:-0.961045 14:-0.890476 15:-0.978112 16:-0.950939 17:-0.932287 18:-0.971811 19:-0.778417 20:-0.963002 
18.62641491805569 1:-0.763571 2:-0.897436 3:-0.936975 4:-0.966521 5:-0.97433 6:-0.949052 7:-0.876596 8:-0.960886 9:-0.944277 10:-0.832736 11:-0.891566 12:-0.970116 13:-0.927131 14:-0.945238 15:-0.946192 16:-0.944154 17:-0.932287 18:-0.938689 19:-0.853237 20:-0.969807 
32 1:-0.927624 2:-0.981538 3:-0.971639 4:-0.990539 5:-0.990302 6:-0.986967 7:-0.908511 8:-0.991882 9:-0.983216 10:-0.955795 11:-0.987952 12:-0.978971 13:-0.979377 14:-0.961905 15:-0.989968 16:-0.98904 17:-0.963666 18:-0.98661 19:-0.939568 20:-0.98299 
32 1:-0.944511 2:-0.992821 3:-0.992647 4:-0.989811 5:-0.997433 6:-0.996445 7:-0.931915 8:-0.991144 9:-0.995972 10:-0.989247 11:-0.996558 12:-0.991146 13:-0.977544 14:-0.945238 15:-0.96808 16:-0.991127 17:-0.958712 18:-0.995772 19:-0.933813 20:-0.992771 
8.076992227597565 1:-0.75392 2:-0.885128 3:-0.805672 4:-0.886463 5:-0.910439 6:-0.899882 7:-0.808511 8:-0.870849 9:-0.876469 10:-0.88172 11:-0.929432 12:-0.866076 13:-0.772227 14:-0.740476 15:-0.640675 16:-0.873695 17:-0.745665 18:-0.9253 19:-0.52518 20:-0.879651 
3.084832943890272 1:-0.19421 2:-0.717949 3:-0.659664 4:-0.772198 5:-0.844267 6:-0.784953 7:-0.374468 8:-0.797048 9:-0.78382 10:-0.316607 11:-0.699656 12:-0.666298 13:-0.513749 14:-0.416667 15:-0.567715 16:-0.713466 17:-0.583815 18:-0.861875 19:-0.269065 20:-0.735063 
32 1:-0.917973 2:-0.98359 3:-0.966387 4:-0.980349 5:-0.982886 6:-0.993483 7:-0.887234 8:-0.991144 9:-0.987915 10:-0.942652 11:-0.982788 12:-0.973437 13:-0.974794 14:-0.919048 15:-0.975376 16:-0.990084 17:-0.937242 18:-0.991543 19:-0.907914 20:-0.980438 
32 1:-0.884198 2:-0.973333 3:-0.960084 4:-0.984716 5:-0.983457 6:-0.982227 7:-0.887234 8:-0.983026 9:-0.977174 10:-0.941458 11:-0.980207 12:-0.978417 13:-0.958295 14:-0.954762 15:-0.95896 16:-0.964509 17:-0.943848 18:-0.981677 19:-0.88777 20:-0.982564 
32 1:-0.872135 2:-0.985641 3:-0.971639 4:-0.994178 5:-0.993155 6:-0.986374 7:-0.865957 8:-0.985978 9:-0.982544 10:-0.9773 11:-0.996558 12:-0.988932 13:-0.969753 14:-0.952381 15:-0.960784 16:-0.993215 17:-0.962015 18:-0.993658 19:-0.907914 20:-0.99192 
32 1:-0.942099 2:-0.991795 3:-0.983193 4:-0.992722 5:-0.989732 6:-0.993483 7:-0.968085 8:-0.994096 9:-0.992615 10:-0.982079 11:-0.972461 12:-0.990039 13:-0.987626 14:-0.978571 15:-0.988144 16:-0.98382 17:-0.980182 18:-0.992248 19:-0.994245 20:-0.995322 
32 1:-0.925211 2:-0.987692 3:-0.982143 4:-0.989811 5:-0.994581 6:-0.993483 7:-0.914894 8:-0.98893 9:-0.991272 10:-0.979689 11:-0.991394 12:-0.991146 13:-0.987168 14:-0.933333 15:-0.976288 16:-0.992693 17:-0.971924 18:-0.996476 19:-0.907914 20:-0.991495 
32 1:-0.903498 2:-0.991795 3:-0.988445 4:-0.991266 5:-0.99344 6:-0.998815 7:-0.946809 8:-0.995572 9:-0.997315 10:-0.978495 11:-0.992255 12:-0.993359 13:-1 14:-0.959524 15:-0.993616 16:-0.997912 17:-0.980182 18:-0.994362 19:-0.982734 20:-0.996173 
4.249750388320333 1:-0.835947 2:-0.643077 3:-0.561975 4:-0.604803 5:-0.907302 6:-0.768365 7:-0.638298 8:-0.711439 9:-0.70527 10:-0.718041 11:-0.668675 12:-0.748201 13:-0.788268 14:-0.435714 15:-0.78021 16:-0.649791 17:-0.48142 18:-0.737844 19:-0.522302 20:-0.800128 
32 1:-0.864897 2:-0.995897 3:-0.97584 4:-0.997817 5:-0.996577 6:-0.998815 7:-0.93617 8:-0.99262 9:-0.994629 10:-0.97491 11:-0.995697 12:-0.988379 13:-0.996792 14:-0.933333 15:-0.993616 16:-1 17:-0.97853 18:-0.997886 19:-0.928058 20:-0.994472 
0.3021283760320601 1:-0.780458 2:-0.603077 3:-0.723739 4:-0.876274 5:-0.865944 6:-0.808057 7:-0.606383 8:-0.811808 9:-0.791205 10:-0.860215 11:-0.716007 12:-0.78694 13:-0.81714 14:-0.738095 15:-0.731874 16:-0.686848 17:-0.677952 18:-0.789993 19:-0.654676 20:-0.807357 
1.450431786606116 1:1 2:1 3:1 4:1 5:1 6:1 7:1 8:1 9:1 10:1 11:1 12:1 13:1 14:1 15:1 16:1 17:1 18:1 19:1 20:1 
32 1:-0.580217 2:-0.884103 3:-0.827731 4:-0.91048 5:-0.941529 6:-0.92891 7:-0.387234 8:-0.930627 9:-0.90668 10:-0.832736 11:-0.900172 12:-0.881572 13:-0.895509 14:-0.678571 15:-0.889649 16:-0.881524 17:-0.767135 18:-0.942213 19:-0.553957 20:-0.897512 
32 1:-0.946924 2:-0.978462 3:-0.993697 4:-0.991994 5:-0.991728 6:-0.996445 7:-0.982979 8:-0.994096 9:-0.991272 10:-0.946237 11:-0.990534 12:-0.985612 13:-0.982126 14:-0.97619 15:-0.96808 16:-0.987996 17:-0.985136 18:-0.995067 19:-0.936691 20:-0.988518 
32 1:-0.804584 2:-0.901538 3:-0.866597 4:-0.858079 5:-0.927838 6:-0.903436 7:-0.738298 8:-0.901845 9:-0.891239 10:-0.825568 11:-0.86833 12:-0.862756 13:-0.875344 14:-0.628571 15:-0.906065 16:-0.807411 17:-0.772089 18:-0.914024 19:-0.772662 20:-0.872422 
32 1:-1 2:-1 3:-1 4:-0.994905 5:-1 6:-0.99763 7:-1 8:-0.99631 9:-0.997315 10:-0.984468 11:-0.999139 12:-0.995573 13:-0.995875 14:-0.97381 15:-0.99088 16:-0.996347 17:-1 18:-0.997181 19:-0.979856 20:-1 
20.9907339791601 1:-0.85766 2:-0.956923 3:-0.971639 4:-0.95706 5:-0.989732 6:-0.984005 7:-0.923404 8:-0.978598 9:-0.971803 10:-0.946237 11:-0.968158 12:-0.982291 13:-0.976627 14:-0.92381 15:-0.968992 16:-0.964509 17:-0.952106 18:-0.978858 19:-0.861871 20:-0.978737 
32 1:-0.937274 2:-0.97641 3:-0.972689 4:-0.990539 5:-0.989447 6:-0.986967 7:-0.940426 8:-0.980074 9:-0.985901 10:-0.967742 11:-0.993115 12:-0.983951 13:-0.950504 14:-0.933333 15:-0.929777 16:-0.985386 17:-0.966969 18:-0.991543 19:-0.893525 20:-0.98384 
12.35175370212367 1:-0.517491 2:-0.881026 3:-0.80042 4:-0.91048 5:-0.931261 6:-0.96327 7:-0.706383 8:-0.948339 9:-0.930849 10:-0.887694 11:-0.958692 12:-0.905921 13:-0.946379 14:-0.635714 15:-0.919745 16:-0.961378 17:-0.715937 18:-0.956307 19:-0.651799 20:-0.91027 
32 1:-0.963812 2:-0.955897 3:-0.964286 4:-0.990539 5:-0.988306 6:-0.978673 7:-0.978723 8:-0.977122 9:-0.979859 10:-0.978495 11:-0.965577 12:-0.983398 13:-0.980293 14:-0.947619 15:-0.969904 16:-0.968163 17:-0.953757 18:-0.978154 19:-0.945324 20:-0.979162 
32 1:-0.891435 2:-0.964103 3:-0.957983 4:-0.986172 5:-0.975756 6:-0.968602 7:-0.868085 8:-0.97786 9:-0.960389 10:-0.919952 11:-0.945783 12:-0.97731 13:-0.968836 14:-0.952381 15:-0.97264 16:-0.974426 17:-0.937242 18:-0.977449 19:-0.893525 20:-0.977461 
32 1:-0.987937 2:-0.997949 3:-0.99895 4:-0.996361 5:-0.99943 6:-0.999408 7:-0.987234 8:-0.999262 9:-1 10:-1 11:-1 12:-0.99834 13:-0.998167 14:-0.980952 15:-0.994528 16:-0.998956 17:-0.993394 18:-0.998591 19:-0.988489 20:-0.997448 
32 1:-0.917973 2:-0.955897 3:-0.966387 4:-0.964338 5:-0.976326 6:-0.981635 7:-0.882979 8:-0.973432 9:-0.969117 10:-0.956989 11:-0.972461 12:-0.965689 13:-0.972961 14:-0.907143 15:-0.971728 16:-0.962944 17:-0.938893 18:-0.979563 19:-0.907914 20:-0.971933 
8.34899559759554 1:-0.968637 2:-0.970256 3:-0.971639 4:-0.987627 5:-0.987735 6:-0.979265 7:-0.923404 8:-0.987454 9:-0.974488 10:-0.939068 11:-0.974182 12:-0.967349 13:-0.958753 14:-0.92619 15:-0.968992 16:-0.979645 17:-0.955409 18:-0.991543 19:-0.835971 20:-0.978312 
6.291963099849488 1:-0.958987 2:-0.881026 3:-0.823529 4:-0.827511 5:-0.952367 6:-0.896919 7:-0.885106 8:-0.873801 9:-0.879154 10:-0.913978 11:-0.872633 12:-0.884339 13:-0.915215 14:-0.752381 15:-0.905153 16:-0.836117 17:-0.76218 18:-0.880197 19:-0.82446 20:-0.875824 
32 1:-0.951749 2:-0.94359 3:-0.969538 4:-0.981805 5:-0.984313 6:-0.981635 7:-0.940426 8:-0.979336 9:-0.98053 10:-0.959379 11:-0.94062 12:-0.97731 13:-0.989459 14:-0.978571 15:-0.98176 16:-0.958246 17:-0.968621 18:-0.968288 19:-0.976978 20:-0.980013 
1.180917554696128 1:0.0373945 2:-0.888205 3:-0.868697 4:-0.858079 5:-0.9498 6:-0.929502 7:-0.414894 8:-0.921033 9:-0.926821 10:-0.799283 11:-0.864888 12:-0.91865 13:-0.899633 14:-0.719048 15:-0.889649 16:-0.874739 17:-0.803468 18:-0.94926 19:-0.545324 20:-0.930257 
32 1:-0.59228 2:-0.958974 3:-0.930672 4:-0.951237 5:-0.956646 6:-0.962085 7:-0.710638 8:-0.927675 9:-0.955018 10:-0.940263 11:-0.968158 12:-0.943553 13:-0.902841 14:-0.809524 15:-0.843137 16:-0.943633 17:-0.899257 18:-0.968992 19:-0.620144 20:-0.954922 
26.61377305262874 1:-0.664656 2:-0.848205 3:-0.793067 4:-0.839884 5:-0.865088 6:-0.889218 7:-0.619149 8:-0.891513 9:-0.856328 10:-0.844683 11:-0.833046 12:-0.810736 13:-0.856554 14:-0.680952 15:-0.883265 16:-0.823591 17:-0.737407 18:-0.879493 19:-0.591367 20:-0.817138 
1.500692205059863 1:0.300362 2:-0.832821 3:-0.894958 4:-0.984716 5:-0.87279 6:-0.814573 7:-0.359574 8:-0.927675 9:-0.833501 10:0.0692951 11:-0.540448 12:-0.955174 13:-0.777727 14:-0.8 15:-0.773826 16:-0.969207 17:-0.864575 18:-0.951374 19:-0.646043 20:-0.942165 
1.451159402973202 1:0.539204 2:-0.297436 3:-0.521008 4:-0.708151 5:-0.428979 6:-0.555687 7:0.110638 8:-0.635424 9:-0.468949 10:0.182796 11:0.254733 12:-0.58218 13:-0.508708 14:-0.42381 15:-0.4829 16:-0.474426 17:-0.512799 18:-0.535588 19:-0.217266 20:-0.553902 
17.11271916581291 1:-0.797346 2:-0.803077 3:-0.79937 4:-0.901747 5:-0.916999 6:-0.901659 7:-0.689362 8:-0.903321 9:-0.874455 10:-0.856631 11:-0.783993 12:-0.859989 13:-0.912007 14:-0.842857 15:-0.943456 16:-0.803758 17:-0.853014 18:-0.860465 19:-0.85036 20:-0.871571 
32 1:-0.546441 2:-0.922051 3:-0.939076 4:-0.94687 5:-0.951226 6:-0.944905 7:-0.774468 8:-0.95203 9:-0.942263 10:-0.833931 11:-0.919105 12:-0.928611 13:-0.932172 14:-0.907143 15:-0.939808 16:-0.914405 17:-0.899257 18:-0.950669 19:-0.810072 20:-0.931533 
32 1:-0.806996 2:-0.96 3:-0.909664 4:-0.957787 5:-0.954364 6:-0.954976 7:-0.791489 8:-0.966052 9:-0.943605 10:-0.88172 11:-0.945783 12:-0.934698 13:-0.939505 14:-0.87381 15:-0.94984 16:-0.951983 17:-0.856317 18:-0.971811 19:-0.792806 20:-0.940464 
32 1:-0.698432 2:-0.933333 3:-0.936975 4:-0.978166 5:-0.957216 6:-0.969194 7:-0.829787 8:-0.964576 9:-0.959718 10:-0.862605 11:-0.898451 12:-0.940232 13:-0.943171 14:-0.911905 15:-0.96352 16:-0.94572 17:-0.919075 18:-0.972516 19:-0.876259 20:-0.957049 
32 1:-0.804584 2:-0.940513 3:-0.906513 4:-0.951237 5:-0.977467 6:-0.9609 7:-0.817021 8:-0.937269 9:-0.944277 10:-0.9092 11:-0.95525 12:-0.948533 13:-0.915674 14:-0.788095 15:-0.911537 16:-0.949374 17:-0.879438 18:-0.964059 19:-0.78705 20:-0.953647 
32 1:-0.75392 2:-0.991795 3:-0.978992 4:-0.985444 5:-0.989732 6:-0.992299 7:-0.855319 8:-0.986716 9:-0.988587 10:-0.951016 11:-0.987091 12:-0.982291 13:-0.95967 14:-0.85 15:-0.907889 16:-0.987996 17:-0.963666 18:-0.991543 19:-0.755396 20:-0.986817 
32 1:-0.85766 2:-0.950769 3:-0.95063 4:-0.964338 5:-0.981175 6:-0.969194 7:-0.853191 8:-0.977122 9:-0.964418 10:-0.941458 11:-0.95525 12:-0.960155 13:-0.952796 14:-0.890476 15:-0.958048 16:-0.953027 17:-0.925681 18:-0.978858 19:-0.853237 20:-0.961301 
-0.911905595768097 1:0.45959 2:-0.69641 3:-0.70063 4:-0.863901 5:-0.783229 6:-0.651659 7:-0.557447 8:-0.779336 9:-0.70527 10:-0.206691 11:-0.537005 12:-0.758163 13:-0.461045 14:-0.578571 15:-0.0679435 16:-0.48904 17:-0.537572 18:-0.800564 19:-0.496403 20:-0.76398 
-32 1:-0.937274 2:-0.990769 3:-0.978992 4:-0.985444 5:-0.992869 6:-0.995261 7:-0.959574 8:-0.98893 9:-0.993286 10:-0.983274 11:-0.993976 12:-0.983398 13:-0.986709 14:-0.945238 15:-0.951664 16:-0.987996 17:-0.966969 18:-0.992248 19:-0.907914 20:-0.985116 
-1.143337046515294 1:-0.401689 2:-0.972308 3:-0.976891 4:-0.997817 5:-0.985739 6:-0.996445 7:-0.974468 8:-1 9:-0.986573 10:-0.988053 11:-0.97074 12:-0.992252 13:-1 14:-0.978571 15:-1 16:-0.97286 17:-0.970273 18:-0.988724 19:-0.709353 20:-0.996598 
-32 1:-0.686369 2:-0.942564 3:-0.913866 4:-0.928675 5:-0.964347 6:-0.966232 7:-0.719149 8:-0.946125 9:-0.953004 10:-0.919952 11:-0.950947 12:-0.941339 13:-0.926673 14:-0.809524 15:-0.903329 16:-0.951983 17:-0.897605 18:-0.969697 19:-0.741007 20:-0.944291 
-32 1:-0.932449 2:-0.98359 3:-0.957983 4:-0.984716 5:-0.987165 6:-0.988744 7:-0.953191 8:-0.98155 9:-0.981202 10:-0.951016 11:-0.980207 12:-0.980077 13:-0.960587 14:-0.954762 15:-0.955312 16:-0.986952 17:-0.965318 18:-0.985201 19:-0.916547 20:-0.980863 
-32 1:-0.838359 2:-0.904615 3:-0.848739 4:-0.882824 5:-0.958928 6:-0.933649 7:-0.753191 8:-0.914391 9:-0.930178 10:-0.905615 11:-0.936317 12:-0.905368 13:-0.910174 14:-0.757143 15:-0.915185 16:-0.898747 17:-0.801817 18:-0.947851 19:-0.700719 20:-0.91027 
-32 1:-0.920386 2:-0.980513 3:-0.989496 4:-0.994178 5:-0.990588 6:-0.99763 7:-0.968085 8:-0.997786 9:-0.995972 10:-0.986858 11:-0.978485 12:-0.998893 13:-0.998625 14:-0.985714 15:-0.999088 16:-0.992171 17:-0.985136 18:-0.992953 19:-0.96259 20:-0.999149 
-32 1:-0.852835 2:-0.98359 3:-0.977941 4:-0.973799 5:-0.992014 6:-0.986374 7:-0.970213 8:-0.983764 9:-0.989258 10:-0.962963 11:-0.988812 12:-0.969009 13:-0.95417 14:-0.947619 15:-0.959872 16:-0.956159 17:-0.975227 18:-0.990134 19:-0.92518 20:-0.977036 
-32 1:-0.949337 2:-0.968205 3:-0.964286 4:-0.97671 5:-0.986309 6:-0.988152 7:-0.897872 8:-0.984502 9:-0.979188 10:-0.956989 11:-0.968158 12:-0.969009 13:-0.979835 14:-0.87619 15:-0.971728 16:-0.970772 17:-0.942197 18:-0.978858 19:-0.85036 20:-0.974059 
-32 1:-0.679131 2:-0.965128 3:-0.946429 4:-0.992722 5:-0.973759 6:-0.991706 7:-0.906383 8:-0.990406 9:-0.977174 10:-0.802867 11:-0.938038 12:-0.971776 13:-0.961045 14:-0.92619 15:-0.965344 16:-0.989562 17:-0.943848 18:-0.985201 19:-0.77554 20:-0.970232 
-32 1:-0.860072 2:-0.985641 3:-0.980042 4:-0.991266 5:-0.992584 6:-0.992891 7:-0.931915 8:-0.99262 9:-0.988587 10:-0.951016 11:-0.983649 12:-0.985612 13:-0.98121 14:-0.971429 15:-0.99088 16:-0.992171 17:-0.965318 18:-0.995067 19:-0.928058 20:-0.992771 
-32 1:-0.956574 2:-0.987692 3:-0.980042 4:-0.994178 5:-0.992584 6:-0.999408 7:-0.946809 8:-0.997786 9:-0.993286 10:-0.968937 11:-0.991394 12:-0.992252 13:-0.995875 14:-0.954762 15:-0.989056 16:-0.999478 17:-0.958712 18:-0.998591 19:-0.982734 20:-0.994046 
-30.12514161671576 1:-0.59228 2:-0.973333 3:-0.935924 4:-0.96361 5:-0.98745 6:-0.983412 7:-0.755319 8:-0.971956 9:-0.981202 10:-0.925926 11:-0.98537 12:-0.97233 13:-0.947754 14:-0.845238 15:-0.911537 16:-0.960334 17:-0.899257 18:-0.981677 19:-0.726619 20:-0.972783 
-32 1:-0.881785 2:-0.972308 3:-0.954832 4:-0.975255 5:-0.985168 6:-0.994076 7:-0.902128 8:-0.985978 9:-0.983887 10:-0.948626 11:-0.973322 12:-0.972883 13:-0.979835 14:-0.95 15:-0.966256 16:-0.986952 17:-0.947151 18:-0.990839 19:-0.974101 20:-0.979162 
-32 1:-0.700844 2:-0.937436 3:-0.912815 4:-0.959243 5:-0.965203 6:-0.970379 7:-0.751064 8:-0.962362 9:-0.956361 10:-0.899642 11:-0.944062 12:-0.942999 13:-0.961962 14:-0.821429 15:-0.965344 16:-0.963466 17:-0.88109 18:-0.978154 19:-0.758273 20:-0.950245 
-32 1:-0.942099 2:-0.965128 3:-0.965336 4:-0.985444 5:-0.978323 6:-0.98045 7:-0.944681 8:-0.986716 9:-0.974488 10:-0.983274 11:-0.971601 12:-0.975097 13:-0.985335 14:-0.957143 15:-0.993616 16:-0.987996 17:-0.962015 18:-0.985906 19:-0.853237 20:-0.974484 
-4.198539766739159 1:-0.322075 2:-0.942564 3:-0.911765 4:-0.888646 5:-0.926127 6:-0.909953 7:-0.508511 8:-0.912915 9:-0.910708 10:-0.599761 11:-0.858003 12:-0.854455 13:-0.86572 14:-0.664286 15:-0.869585 16:-0.856472 17:-0.833196 18:-0.933051 19:-0.732374 20:-0.870721 
-32 1:-0.86731 2:-0.911795 3:-0.941176 4:-0.971616 5:-0.958642 6:-0.941943 7:-0.889362 8:-0.97417 9:-0.938234 10:-0.903226 11:-0.895869 12:-0.969563 13:-0.925756 14:-0.971429 15:-0.941632 16:-0.977557 17:-0.948803 18:-0.976744 19:-0.948201 20:-0.96683 
-32 1:-0.775633 2:-0.952821 3:-0.932773 4:-0.928675 5:-0.985454 6:-0.974526 7:-0.842553 8:-0.96679 9:-0.957033 10:-0.934289 11:-0.949225 12:-0.955174 13:-0.946379 14:-0.897619 15:-0.952576 16:-0.901357 17:-0.910818 18:-0.956307 19:-0.841727 20:-0.961301 
-32 1:-0.963812 2:-0.997949 3:-0.989496 4:-0.996361 5:-0.998003 6:-0.992891 7:-0.970213 8:-0.994096 9:-0.993286 10:-0.985663 11:-0.993976 12:-0.995019 13:-0.986709 14:-0.990476 15:-0.983584 16:-0.995303 17:-0.966969 18:-0.997886 19:-0.96259 20:-0.997023 
-7.541505819179347 1:-0.758745 2:-0.992821 3:-0.972689 4:-0.971616 5:-0.99401 6:-0.990521 7:-0.895745 8:-0.990406 9:-0.985901 10:-0.980884 11:-0.986231 12:-0.97399 13:-0.980293 14:-0.9 15:-0.96352 16:-0.983299 17:-0.966969 18:-0.995067 19:-0.959712 20:-0.977461 
-32 1:-0.920386 2:-0.996923 3:-0.987395 4:-0.997089 5:-0.995436 6:-0.994076 7:-0.921277 8:-0.994096 9:-0.993958 10:-0.973716 11:-0.993115 12:-0.994466 13:-0.987626 14:-0.980952 15:-0.983584 16:-0.994781 17:-0.983485 18:-0.995772 19:-0.942446 20:-0.996598 
-19.51039325413039 1:-0.703257 2:-0.997949 3:-0.973739 4:-0.955604 5:-0.994866 6:-0.992299 7:-0.885106 8:-0.98155 9:-0.985901 10:-0.968937 11:-0.996558 12:-0.962369 13:-0.961503 14:-0.804762 15:-0.94072 16:-0.985386 17:-0.9455 18:-0.990839 19:-0.864748 20:-0.96768 
-1.658272413271025 1:-0.792521 2:-0.875897 3:-0.737395 4:-0.800582 5:-0.920422 6:-0.775474 7:-0.517021 8:-0.744649 9:-0.820074 10:-0.738351 11:-0.894148 12:-0.771998 13:-0.38176 14:-0.557143 15:-0.351573 16:-0.744781 17:-0.674649 18:-0.88513 19:-0.410072 20:-0.817989 
-32 1:-0.978287 2:-0.971282 3:-0.95063 4:-0.972344 5:-0.985168 6:-0.973934 7:-0.912766 8:-0.98524 9:-0.975159 10:-0.934289 11:-0.968158 12:-0.978417 13:-0.964711 14:-0.961905 15:-0.985408 16:-0.969207 17:-0.947151 18:-0.978154 19:-0.939568 20:-0.973209 
-32 1:-0.739445 2:-0.964103 3:-0.92542 4:-0.951237 5:-0.981175 6:-0.950829 7:-0.774468 8:-0.943911 9:-0.965089 10:-0.911589 11:-0.978485 12:-0.92031 13:-0.931714 14:-0.842857 15:-0.868673 16:-0.940501 17:-0.890999 18:-0.965469 19:-0.732374 20:-0.925579 
-32 1:-0.698432 2:-0.985641 3:-0.970588 4:-0.986172 5:-0.982886 6:-0.984005 7:-0.840426 8:-0.98893 9:-0.98523 10:-0.922342 11:-0.980207 12:-0.97731 13:-0.97571 14:-0.909524 15:-0.974464 16:-0.989562 17:-0.933939 18:-0.995067 19:-0.841727 20:-0.983415 
-32 1:-0.910736 2:-0.989744 3:-0.984244 4:-0.989083 5:-0.992584 6:-0.981043 7:-0.940426 8:-0.98524 9:-0.974488 10:-0.947431 11:-0.992255 12:-0.977864 13:-0.961962 14:-0.940476 15:-0.979936 16:-0.988518 17:-0.968621 18:-0.991543 19:-0.956835 20:-0.985966 
-32 1:-0.831122 2:-0.925128 3:-0.914916 4:-0.919942 5:-0.971763 6:-0.896327 7:-0.948936 8:-0.942435 9:-0.91138 10:-0.824373 11:-0.929432 12:-0.951854 13:-0.93538 14:-0.907143 15:-0.94528 16:-0.929541 17:-0.933939 18:-0.951374 19:-0.781295 20:-0.960451 
-8.000448071455015 1:-0.505428 2:-0.650256 3:-0.586134 4:-0.640466 5:-0.794067 6:-0.833531 7:-0.561702 8:-0.851661 9:-0.722054 10:-0.756272 11:-0.629088 12:-0.711677 13:-0.850137 14:-0.469048 15:-0.904241 16:-0.737996 17:-0.501239 18:-0.788584 19:-0.56259 20:-0.728259 
-32 1:-0.961399 2:-0.984615 3:-0.988445 4:-0.994905 5:-0.995722 6:-0.99763 7:-0.955319 8:-0.99262 9:-0.992615 10:-0.971326 11:-0.991394 12:-0.995019 13:-0.989918 14:-0.978571 15:-0.985408 16:-0.993215 17:-0.990091 18:-0.997886 19:-0.956835 20:-0.994046 
-0.4755089289666877 1:-0.160434 2:-0.789744 3:-0.757353 4:-0.96361 5:-0.802624 6:-0.875 7:-0.597872 8:-0.969004 9:-0.811346 10:-0.568698 11:-0.920826 12:-0.913116 13:-0.803391 14:-0.888095 15:-0.868673 16:-0.920668 17:-0.810074 18:-0.970402 19:-0.623022 20:-0.895386 
-32 1:-0.655006 2:-0.870769 3:-0.894958 4:-0.944687 5:-0.936965 6:-0.886256 7:-0.761702 8:-0.921771 9:-0.882511 10:-0.795699 11:-0.851979 12:-0.912009 13:-0.899633 14:-0.838095 15:-0.933425 16:-0.897704 17:-0.864575 18:-0.890768 19:-0.761151 20:-0.923028 
-32 1:-0.992762 2:-0.995897 3:-0.991597 4:-0.994905 5:-0.995722 6:-0.988744 7:-0.961702 8:-0.990406 9:-0.993286 10:-0.985663 11:-0.997418 12:-0.993359 13:-0.974794 14:-0.966667 15:-0.970816 16:-0.997912 17:-0.986788 18:-0.995772 19:-0.974101 20:-0.997023 
-32 1:-0.662244 2:-0.984615 3:-0.977941 4:-0.973071 5:-0.99401 6:-0.994076 7:-0.878723 8:-0.990406 9:-0.990601 10:-0.949821 11:-0.992255 12:-0.978417 13:-0.986709 14:-0.928571 15:-0.978112 16:-0.98643 17:-0.93559 18:-0.995067 19:-0.827338 20:-0.984265 
-32 1:-0.927624 2:-0.96 3:-0.962185 4:-0.951237 5:-0.964347 6:-0.938389 7:-0.865957 8:-0.939483 9:-0.962403 10:-0.891278 11:-0.950947 12:-0.960708 13:-0.930339 14:-0.892857 15:-0.951664 16:-0.925365 17:-0.925681 18:-0.948555 19:-0.896403 20:-0.942165 
-32 1:-0.927624 2:-0.939487 3:-0.932773 4:-0.968705 5:-0.961495 6:-0.959123 7:-0.921277 8:-0.964576 9:-0.941591 10:-0.923536 11:-0.924269 12:-0.936912 13:-0.949588 14:-0.961905 15:-0.960784 16:-0.910752 17:-0.943848 18:-0.956307 19:-0.893525 20:-0.957049 
-32 1:-0.727382 2:-0.968205 3:-0.917017 4:-0.981805 5:-0.986309 6:-0.973341 7:-0.874468 8:-0.983764 9:-0.971803 10:-0.930705 11:-0.983649 12:-0.976757 13:-0.956004 14:-0.890476 15:-0.821249 16:-0.986952 17:-0.897605 18:-0.992248 19:-0.792806 20:-0.978737 
-32 1:-0.896261 2:-0.970256 3:-0.95063 4:-0.97016 5:-0.982601 6:-0.961493 7:-0.897872 8:-0.973432 9:-0.965089 10:-0.886499 11:-0.962134 12:-0.959048 13:-0.930797 14:-0.890476 15:-0.898769 16:-0.967119 17:-0.933939 18:-0.981677 19:-0.896403 20:-0.965129 
-32 1:-0.87696 2:-0.973333 3:-0.959034 4:-0.981805 5:-0.978038 6:-0.976896 7:-0.774468 8:-0.97786 9:-0.983216 10:-0.955795 11:-0.987091 12:-0.974543 13:-0.970211 14:-0.85 15:-0.947104 16:-0.984864 17:-0.915772 18:-0.990134 19:-0.853237 20:-0.980013 
-32 1:-0.987937 2:-0.991795 3:-0.991597 4:-0.994178 5:-0.995151 6:-0.992891 7:-0.96383 8:-0.986716 9:-0.992615 10:-0.988053 11:-0.995697 12:-0.990592 13:-0.985793 14:-0.990476 15:-0.968992 16:-0.987474 17:-0.983485 18:-0.997181 19:-0.939568 20:-0.994472 
-18.58998611951736 1:-0.891435 2:-0.927179 3:-0.896008 4:-0.95706 5:-0.969481 6:-0.923578 7:-0.702128 8:-0.932103 9:-0.914065 10:-0.86141 11:-0.94062 12:-0.902048 13:-0.873511 14:-0.757143 15:-0.906977 16:-0.909708 17:-0.836499 18:-0.966173 19:-0.709353 20:-0.928982 
-32 1:-0.657419 2:-0.90359 3:-0.842437 4:-0.929403 5:-0.958928 6:-0.956754 7:-0.685106 8:-0.943911 9:-0.924136 10:-0.839904 11:-0.919105 12:-0.89762 13:-0.897342 14:-0.704762 15:-0.861377 16:-0.924322 17:-0.808423 18:-0.957012 19:-0.614388 20:-0.920902 
-32 1:-0.691194 2:-0.968205 3:-0.969538 4:-0.967249 5:-0.979179 6:-0.984597 7:-0.808511 8:-0.985978 9:-0.966432 10:-0.900836 11:-0.973322 12:-0.958495 13:-0.970211 14:-0.902381 15:-0.971728 16:-0.978079 17:-0.932287 18:-0.980973 19:-0.856115 20:-0.970657 
-32 1:-0.978287 2:-0.988718 3:-0.97479 4:-0.995633 5:-0.992299 6:-0.993483 7:-0.970213 8:-0.99631 9:-0.993286 10:-0.992832 11:-0.993976 12:-0.994466 13:-0.996334 14:-0.97381 15:-0.991792 16:-0.995303 17:-0.983485 18:-0.991543 19:-0.976978 20:-0.995747 
-22.25027948343504 1:-0.898673 2:-0.975385 3:-0.942227 4:-0.95706 5:-0.976897 6:-0.973341 7:-0.874468 8:-0.967528 9:-0.961061 10:-0.922342 11:-0.967298 12:-0.946873 13:-0.953254 14:-0.883333 15:-0.9544 16:-0.946764 17:-0.920727 18:-0.978154 19:-0.919424 20:-0.954497 
-14.1620418539894 1:-0.826297 2:-0.941538 3:-0.904412 4:-0.93377 5:-0.959498 6:-0.964455 7:-0.63617 8:-0.965314 9:-0.953004 10:-0.927121 11:-0.944923 12:-0.925844 13:-0.953254 14:-0.716667 15:-0.938896 16:-0.952505 17:-0.795211 18:-0.965469 19:-0.63741 20:-0.934085 
-32 1:-0.995175 2:-0.989744 3:-0.987395 4:-0.990539 5:-0.998574 6:-0.999408 7:-0.955319 8:-0.994096 9:-0.999329 10:-0.992832 11:-0.992255 12:-0.99668 13:-0.992667 14:-0.995238 15:-0.994528 16:-0.996868 17:-0.970273 18:-0.993658 19:-0.959712 20:-0.994897 
-32 1:-0.763571 2:-0.994872 3:-0.991597 4:-0.998544 5:-0.996292 6:-0.998223 7:-0.987234 8:-0.991882 9:-0.997986 10:-0.970131 11:-0.991394 12:-1 13:-0.993584 14:-0.952381 15:-0.985408 16:-0.998434 17:-0.980182 18:-1 19:-0.942446 20:-0.999149 
-32 1:-0.922799 2:-0.994872 3:-0.988445 4:-0.995633 5:-0.997433 6:-0.993483 7:-0.978723 8:-0.995572 9:-0.9953 10:-0.965352 11:-0.994836 12:-0.993359 13:-0.980752 14:-0.97381 15:-0.9772 16:-0.997912 17:-0.983485 18:-0.998591 19:-0.965468 20:-0.994472 
-1.453947095655424 1:-0.746683 2:-0.94359 3:-0.930672 4:-0.952693 5:-0.979464 6:-0.978673 7:-0.795745 8:-0.982288 9:-0.965089 10:-0.824373 11:-0.944923 12:-0.951854 13:-0.93538 14:-0.821429 15:-0.925217 16:-0.939979 17:-0.900908 18:-0.975335 19:-0.692086 20:-0.95152 
-32 1:-0.951749 2:-0.987692 3:-0.984244 4:-0.978166 5:-0.993155 6:-0.994076 7:-0.9 8:-0.991882 9:-0.993958 10:-0.994026 11:-0.980207 12:-0.983951 13:-0.994959 14:-0.938095 15:-0.997264 16:-0.971294 17:-0.950454 18:-0.989429 19:-0.959712 20:-0.987242 
-5.725832811621181 1:-0.811821 2:-0.780513 3:-0.765756 4:-0.689229 5:-0.874216 6:-0.89218 7:-0.748936 8:-0.862731 9:-0.835515 10:-0.783751 11:-0.76506 12:-0.767017 13:-0.861595 14:-0.745238 15:-0.853169 16:-0.676409 17:-0.770438 18:-0.878083 19:-0.741007 20:-0.806506 
-32 1:-0.971049 2:-0.993846 3:-0.987395 4:-0.989811 5:-0.996007 6:-0.99763 7:-0.953191 8:-0.993358 9:-0.997315 10:-0.995221 11:-0.995697 12:-0.99668 13:-0.989918 14:-0.990476 15:-0.979936 16:-0.990605 17:-0.976879 18:-0.993658 19:-0.956835 20:-0.997023 
-25.47654612482547 1:-0.901086 2:-0.993846 3:-0.973739 4:-0.966521 5:-0.993155 6:-0.991114 7:-0.942553 8:-0.974908 9:-0.988587 10:-0.941458 11:-0.987952 12:-0.975097 13:-0.955087 14:-0.904762 15:-0.921569 16:-0.975992 17:-0.971924 18:-0.995067 19:-0.928058 20:-0.98299 
-32 1:-0.956574 2:-0.994872 3:-0.989496 4:-0.99345 5:-0.996292 6:-0.99763 7:-0.976596 8:-0.994834 9:-0.996643 10:-0.967742 11:-0.992255 12:-0.99668 13:-0.992667 14:-0.980952 15:-0.99088 16:-0.996347 17:-0.986788 18:-0.998591 19:-0.953957 20:-0.997874 
-32 1:-0.811821 2:-0.986667 3:-0.977941 4:-0.982533 5:-0.990873 6:-0.987559 7:-0.902128 8:-0.984502 9:-0.98993 10:-0.978495 11:-0.984509 12:-0.971223 13:-0.980293 14:-0.909524 15:-0.978112 16:-0.982255 17:-0.968621 18:-0.993658 19:-0.956835 20:-0.978312 
-9.977022434504143 1:-0.811821 2:-0.966154 3:-0.92542 4:-0.906841 5:-0.978608 6:-0.972156 7:-0.740426 8:-0.951292 9:-0.957704 10:-0.949821 11:-0.964716 12:-0.915883 13:-0.917507 14:-0.77381 15:-0.900593 16:-0.913883 17:-0.834847 18:-0.971811 19:-0.835971 20:-0.934085 
-32 1:-0.968637 2:-0.988718 3:-0.973739 4:-0.9869 5:-0.991158 6:-0.991114 7:-0.908511 8:-0.994834 9:-0.989258 10:-0.980884 11:-0.991394 12:-0.989485 13:-0.987626 14:-0.952381 15:-0.983584 16:-0.991649 17:-0.968621 18:-0.992248 19:-0.945324 20:-0.99107 
-32 1:-0.864897 2:-0.970256 3:-0.963235 4:-0.980349 5:-0.974044 6:-0.972156 7:-0.848936 8:-0.97786 9:-0.96576 10:-0.874552 11:-0.968158 12:-0.950747 13:-0.935839 14:-0.885714 15:-0.967168 16:-0.962422 17:-0.937242 18:-0.984496 19:-0.861871 20:-0.968531 
-32 1:-0.910736 2:-0.970256 3:-0.986345 4:-0.991266 5:-0.990302 6:-0.978673 7:-0.968085 8:-0.991144 9:-0.986573 10:-0.965352 11:-0.980207 12:-0.991699 13:-0.966544 14:-1 15:-0.978112 16:-0.977557 17:-0.976879 18:-0.983087 19:-0.991367 20:-0.991495 
-32 1:-0.937274 2:-0.932308 3:-0.940126 4:-0.973799 5:-0.956646 6:-0.947867 7:-0.831915 8:-0.965314 9:-0.940248 10:-0.913978 11:-0.907917 12:-0.948533 13:-0.955087 14:-0.919048 15:-0.971728 16:-0.914405 17:-0.920727 18:-0.951374 19:-0.936691 20:-0.946842 
-32 1:-0.889023 2:-0.987692 3:-0.989496 4:-0.996361 5:-0.985739 6:-0.996445 7:-0.951064 8:-0.995572 9:-0.987244 10:-0.927121 11:-0.989673 12:-0.991146 13:-0.993584 14:-0.997619 15:-0.985408 16:-0.998434 17:-0.990091 18:-1 19:-0.96259 20:-0.990644 
-32 1:-0.86731 2:-0.980513 3:-0.941176 4:-0.925764 5:-0.991443 6:-0.987559 7:-0.808511 8:-0.971218 9:-0.981873 10:-0.965352 11:-0.98537 12:-0.962922 13:-0.958295 14:-0.814286 15:-0.960784 16:-0.952505 17:-0.894302 18:-0.990134 19:-0.879137 20:-0.968956 
-32 1:-0.710495 2:-0.869744 3:-0.822479 4:-0.903202 5:-0.912151 6:-0.930687 7:-0.63617 8:-0.940221 9:-0.899295 10:-0.864994 11:-0.816695 12:-0.833979 13:-0.908799 14:-0.716667 15:-0.950752 16:-0.859603 17:-0.788604 18:-0.914024 19:-0.697842 20:-0.857963 
-25.35509497270576 1:-0.546441 2:-0.885128 3:-0.870798 4:-0.927948 5:-0.933828 6:-0.920024 7:-0.574468 8:-0.935055 9:-0.90668 10:-0.805257 11:-0.845955 12:-0.897067 13:-0.861595 14:-0.761905 15:-0.882353 16:-0.884656 17:-0.773741 18:-0.937984 19:-0.490647 20:-0.897087 
-20.18104858492843 1:-0.676719 2:-0.786667 3:-0.728992 4:-0.791849 5:-0.904735 6:-0.824052 7:-0.725532 8:-0.819926 9:-0.820074 10:-0.801673 11:-0.771084 12:-0.789707 13:-0.711732 14:-0.709524 15:-0.699042 16:-0.741649 17:-0.737407 18:-0.829457 19:-0.741007 20:-0.820115 
-2.340029716711144 1:-0.31725 2:-0.714872 3:-0.605042 4:-0.606259 5:-0.847404 6:-0.722156 7:-0.468085 8:-0.670849 9:-0.702585 10:-0.626045 11:-0.747849 12:-0.607084 13:-0.553162 14:-0.271429 15:-0.517556 16:-0.604384 17:-0.441784 18:-0.82382 19:-0.303597 20:-0.672975 
