svm_type c_svc
kernel_type rbf
gamma 2
nr_class 2
total_sv 303
rho 0.0332126
label 1 -1
nr_sv 146 157
SV
3.37770462380908 1:-0.987567 2:-0.899101 3:-0.860511 4:-0.794872 5:-0.929155 6:-0.879323 7:-0.883117 8:-0.780741 9:-0.208401 10:-0.937107 11:-0.963053 12:-0.982263 13:-0.867568 14:-0.907363 15:-0.666087 16:-0.913095 17:-0.944006 18:-0.597403 19:-0.932745 20:-0.947124 
8 1:-0.979574 2:-0.925075 3:-0.86444 4:-0.558974 5:-0.919346 6:-0.919058 7:-0.920996 8:-0.854815 9:-0.928918 10:-0.898113 11:-0.942635 12:-0.965601 13:-0.818919 14:-0.971496 15:-0.676522 16:-0.911905 17:-0.922469 18:-0.902597 19:-0.974779 20:-0.980707 
8 1:-0.968028 2:-0.892108 3:-0.80943 4:-0.688889 5:-0.887738 6:-0.851361 7:-0.880952 8:-0.860741 9:-0.812601 10:-0.872956 11:-0.859018 12:-0.932814 13:-0.783784 14:-0.917656 15:-0.65913 16:-0.871429 17:-0.813352 18:-0.822511 19:-0.941152 20:-0.944266 
4.106354276733764 1:-0.99556 2:-0.959041 3:-0.91945 4:-0.740171 5:-0.934605 6:-0.944077 7:-0.96645 8:-0.86963 9:-0.899838 10:-0.967296 11:-0.971804 12:-0.989788 13:-0.918919 14:-0.992874 15:-0.596522 16:-0.954762 17:-0.964106 18:-0.928571 19:-0.984027 20:-0.988567 
8 1:-0.99778 2:-0.988012 3:-0.950884 4:-0.91453 5:-0.991281 6:-0.967623 7:-0.988095 8:-0.991111 9:-0.964459 10:-0.968553 11:-0.980554 12:-0.993013 13:-0.991892 14:-1 15:-0.916522 16:-0.995238 17:-0.981335 18:-0.969697 19:-0.992434 20:-0.996427 
8 1:-0.972469 2:-0.849151 3:-0.913556 4:-0.548718 5:-0.910627 6:-0.922001 7:-0.873377 8:-0.765926 9:-0.786753 10:-0.933333 11:-0.939718 12:-0.98065 13:-0.778378 14:-0.946952 15:-0.617391 16:-0.92381 17:-0.936827 18:-0.792208 19:-0.929382 20:-0.955698 
8 1:-0.993783 2:-0.948052 3:-0.935167 4:-0.702564 5:-0.943324 6:-0.94702 7:-0.964286 8:-0.765926 9:-0.9063 10:-0.966038 11:-0.984443 12:-0.994625 13:-0.813514 14:-0.961995 15:-0.833043 16:-0.959524 17:-0.979899 18:-0.885281 19:-0.957966 20:-0.987853 
1.550992852549286 1:-0.994671 2:-0.98002 3:-0.946955 4:0.128205 5:-0.978202 6:-0.967623 7:-0.97619 8:-0.908148 9:-0.453958 10:-0.957233 11:-0.990277 12:-0.996238 13:-0.959459 14:-0.970705 15:0.464348 16:-0.985714 17:-0.981335 18:-0.850649 19:-0.96385 20:-0.962844 
8 1:-0.968028 2:-0.824176 3:-0.842829 4:-0.545299 5:-0.843052 6:-0.83223 7:-0.834416 8:-0.774815 9:-0.886914 10:-0.91195 11:-0.843461 12:-0.941414 13:-0.8 14:-0.935075 15:-0.81913 16:-0.833333 17:-0.908112 18:-0.878788 19:-0.955443 20:-0.973562 
8 1:-0.978686 2:-0.934066 3:-0.870334 4:-0.709402 5:-0.937875 6:-0.905813 7:-0.945887 8:-0.845926 9:-0.854604 10:-0.959748 11:-0.907632 12:-0.963451 13:-0.854054 14:-0.967538 15:-0.561739 16:-0.929762 17:-0.96267 18:-0.896104 19:-0.982346 20:-0.984995 
8 1:-0.980906 2:-0.927073 3:-0.870334 4:-0.695726 5:-0.883379 6:-0.899926 7:-0.9329 8:-0.857778 9:-0.9063 10:-0.826415 11:-0.937773 12:-0.959688 13:-0.762162 14:-0.954869 15:-0.843478 16:-0.928571 17:-0.844939 18:-0.9329 19:-0.96301 20:-0.954269 
8 1:-0.980018 2:-0.898102 3:-0.791749 4:-0.74359 5:-0.86703 6:-0.863135 7:-0.924242 8:-0.795556 9:-0.87399 10:-0.94717 11:-0.912494 12:-0.960226 13:-0.854054 14:-0.967538 15:-0.742609 16:-0.877381 17:-0.954056 18:-0.900433 19:-0.978983 20:-0.977135 
8 1:-0.982682 2:-0.951049 3:-0.905697 4:-0.822222 5:-0.947684 6:-0.924945 7:-0.964286 8:-0.887407 9:-0.844911 10:-0.967296 11:-0.959164 12:-0.981188 13:-0.886486 14:-0.960412 15:-0.89913 16:-0.938095 17:-0.959799 18:-0.865801 19:-0.981505 20:-0.989282 
8 1:-0.954263 2:-0.878122 3:-0.831041 4:-0.842735 5:-0.8703 6:-0.826343 7:-0.899351 8:-0.801481 9:-0.970921 10:-0.944654 11:-0.864852 12:-0.952701 13:-0.808108 14:-0.963579 15:-0.888696 16:-0.838095 17:-0.941134 18:-0.948052 19:-0.978983 20:-0.989282 
3.624721432486851 1:-0.858792 2:-0.751249 3:-0.620825 4:-0.6 5:-0.687193 6:-0.749816 7:-0.6829 8:-0.819259 9:-0.932149 10:-0.822642 11:-0.496354 12:-0.700618 13:-0.659459 14:-0.880443 15:-0.76 16:-0.669048 17:-0.730079 18:-0.898268 19:-0.893232 20:-0.848517 
8 1:-0.992895 2:-0.983017 3:-0.874263 4:-0.51453 5:-0.958583 6:-0.936718 7:-0.978355 8:-0.825185 9:-0.757674 10:-0.92327 11:-0.992222 12:-0.992475 13:-0.897297 14:-0.976247 15:-0.502609 16:-0.965476 17:-0.946877 18:-0.876623 19:-0.913409 20:-0.939264 
8 1:-0.99778 2:-0.971029 3:-0.952849 4:-0.887179 5:-0.970572 6:-0.974982 7:-0.97619 8:-0.958519 9:-0.941842 10:-0.940881 11:-0.985416 12:-0.994625 13:-0.962162 14:-0.985748 15:-0.923478 16:-0.975 17:-0.949749 18:-0.915584 19:-0.98739 20:-0.986424 
8 1:-0.984902 2:-0.941059 3:-0.954813 4:-0.900855 5:-0.971662 6:-0.96468 7:-0.935065 8:-0.893333 9:-0.922456 10:-0.984906 11:-0.972776 12:-0.9871 13:-0.937838 14:-0.972288 15:-0.86087 16:-0.977381 17:-0.974156 18:-0.950216 19:-0.981505 20:-0.989282 
8 1:-0.995115 2:-0.977023 3:-0.976424 4:-0.945299 5:-0.989101 6:-0.961737 7:-0.980519 8:-0.946667 9:-0.886914 10:-0.961006 11:-0.989305 12:-0.99355 13:-0.956757 14:-0.992874 15:-0.94087 16:-0.971429 17:-0.959799 18:-0.896104 19:-0.994115 20:-0.988567 
8 1:-0.961368 2:-0.84016 3:-0.791749 4:-0.805128 5:-0.893188 6:-0.873436 7:-0.857143 8:-0.81037 9:-0.961228 10:-0.948428 11:-0.852212 12:-0.897339 13:-0.8 14:-0.92399 15:-0.773913 16:-0.863095 17:-0.900933 18:-0.919913 19:-0.79235 20:-0.80493 
8 1:-0.996004 2:-0.975025 3:-0.948919 4:-0.931624 5:-0.979292 6:-0.961737 7:-0.981602 8:-0.952593 9:-0.899838 10:-0.971069 11:-0.981526 12:-0.9957 13:-0.954054 14:-0.989707 15:-0.954783 16:-0.97619 17:-0.959799 18:-0.941558 19:-0.984868 20:-0.990711 
8 1:-0.999112 2:-0.983017 3:-0.990177 4:-0.938462 5:-0.979292 6:-0.980868 7:-0.970779 8:-0.964444 9:-0.96769 10:-0.963522 11:-0.983471 12:-0.994625 13:-0.975676 14:-0.992082 15:-0.947826 16:-0.982143 17:-0.93252 18:-0.969697 19:-0.984868 20:-0.964273 
8 1:-0.996004 2:-0.96004 3:-0.97053 4:-0.897436 5:-0.973842 6:-0.972038 7:-0.968615 8:-0.964444 9:-0.948304 10:-0.948428 11:-0.966942 12:-0.977963 13:-0.959459 14:-0.985748 15:-0.892174 16:-0.964286 17:-0.93252 18:-0.909091 19:-0.983186 20:-0.972133 
8 1:-0.996448 2:-0.984016 3:-0.972495 4:-0.952137 5:-0.989101 6:-0.974982 7:-0.984848 8:-0.955556 9:-0.945073 10:-0.983648 11:-0.995139 12:-0.994088 13:-0.962162 14:-0.988124 15:-0.909565 16:-0.988095 17:-0.994257 18:-0.911255 19:-0.986549 20:-0.996427 
8 1:-0.985346 2:-0.949051 3:-0.860511 4:-0.849573 5:-0.906267 6:-0.916115 7:-0.963203 8:-0.934815 9:-0.961228 10:-0.952201 11:-0.934857 12:-0.972051 13:-0.932432 14:-0.975455 15:-0.86087 16:-0.944048 17:-0.925341 18:-0.969697 19:-0.982346 20:-0.989996 
2.395967274400897 1:-0.992895 2:-0.961039 3:-0.923379 4:-0.859829 5:-0.979292 6:-0.952907 7:-0.963203 8:-0.896296 9:-0.867528 10:-0.961006 11:-0.982499 12:-0.99785 13:-0.886486 14:-0.954078 15:-0.843478 16:-0.971429 17:-0.949749 18:-0.872294 19:-0.96301 20:-0.984995 
8 1:-0.960924 2:-0.872128 3:-0.907662 4:-0.866667 5:-0.946594 6:-0.852833 7:-0.861472 8:-0.754074 9:-0.680129 10:-0.953459 11:-0.969859 12:-0.990325 13:-0.878378 14:-0.893903 15:-0.881739 16:-0.90119 17:-0.96267 18:-0.690476 19:-0.929382 20:-0.967131 
8 1:-0.99556 2:-0.98002 3:-0.911591 4:-0.924786 5:-0.946594 6:-0.916115 7:-0.970779 8:-0.937778 9:-0.993538 10:-0.950943 11:-0.966942 12:-0.977963 13:-0.92973 14:-0.969913 15:-0.84 16:-0.940476 17:-0.941134 18:-0.971861 19:-0.979823 20:-0.938549 
8 1:-0.968028 2:-0.912088 3:-0.941061 4:-0.647863 5:-0.932425 6:-0.939662 7:-0.911255 8:-0.801481 9:-0.854604 10:-0.791195 11:-0.947496 12:-0.979038 13:-0.832432 14:-0.974663 15:-0.850435 16:-0.970238 17:-0.88514 18:-0.833333 19:-0.980664 20:-0.978564 
8 1:-0.989343 2:-0.952048 3:-0.909627 4:-0.729915 5:-0.949864 6:-0.939662 7:-0.96645 8:-0.878519 9:-0.945073 10:-0.957233 11:-0.972776 12:-0.989788 13:-0.854054 14:-0.974663 15:-0.86087 16:-0.957143 17:-0.974156 18:-0.935065 19:-0.985708 20:-0.987138 
3.963835310846385 1:-0.966252 2:-0.914086 3:-0.825147 4:-0.784615 5:-0.816894 6:-0.761589 7:-0.911255 8:-0.837037 9:-0.864297 10:-0.910692 11:-0.56247 12:-0.85004 13:-0.808108 14:-0.970705 15:-0.885217 16:-0.717857 17:-0.852118 18:-0.859307 19:-0.978142 20:-0.982136 
8 1:-0.996448 2:-0.962038 3:-0.925344 4:-0.497436 5:-0.964033 6:-0.952907 7:-0.978355 8:-0.911111 9:-0.864297 10:-0.958491 11:-0.984443 12:-0.989788 13:-0.948649 14:-0.975455 15:-0.224348 16:-0.971429 17:-0.90524 18:-0.887446 19:-0.962169 20:-0.953555 
8 1:-0.958259 2:-0.85015 3:-0.854617 4:-0.794872 5:-0.899728 6:-0.877851 7:-0.858225 8:-0.688889 9:-0.899838 10:-0.891824 11:-0.839572 12:-0.938189 13:-0.805405 14:-0.937451 15:-0.853913 16:-0.880952 17:-0.867911 18:-0.837662 19:-0.962169 20:-0.970704 
8 1:-0.987567 2:-0.945055 3:-0.842829 4:-0.709402 5:-0.931335 6:-0.922001 7:-0.950216 8:-0.851852 9:-0.925687 10:-0.895597 11:-0.96597 12:-0.987638 13:-0.843243 14:-0.974663 15:-0.777391 16:-0.942857 17:-0.908112 18:-0.945887 19:-0.948718 20:-0.967846 
8 1:-0.940497 2:-0.848152 3:-0.81336 4:-0.890598 5:-0.8703 6:-0.824871 7:-0.899351 8:-0.73037 9:-0.851373 10:-0.924528 11:-0.915411 12:-0.955926 13:-0.751351 14:-0.931908 15:-0.895652 16:-0.842857 17:-0.951184 18:-0.904762 19:-0.974779 20:-0.980707 
8 1:-0.986679 2:-0.92008 3:-0.891945 4:-0.917949 5:-0.931335 6:-0.874908 7:-0.943723 8:-0.875556 9:-0.909532 10:-0.948428 11:-0.949441 12:-0.964526 13:-0.902703 14:-0.967538 15:-0.864348 16:-0.929762 17:-0.913855 18:-0.91342 19:-0.981505 20:-0.975706 
8 1:-0.982238 2:-0.909091 3:-0.913556 4:-0.671795 5:-0.913896 6:-0.952907 7:-0.896104 8:-0.925926 9:-0.93538 10:-0.909434 11:-0.891104 12:-0.925826 13:-0.872973 14:-0.971496 15:-0.746087 16:-0.932143 17:-0.926777 18:-0.904762 19:-0.967213 20:-0.942837 
7.168535836014192 1:-0.996448 2:-0.958042 3:-0.925344 4:-0.805128 5:-0.930245 6:-0.926416 7:-0.948052 8:-0.940741 9:-0.945073 10:-0.875472 11:-0.949441 12:-0.979038 13:-0.937838 14:-0.958828 15:-0.648696 16:-0.961905 17:-0.898062 18:-0.935065 19:-0.894073 20:-0.910682 
8 1:-0.965808 2:-0.902098 3:-0.903733 4:-0.767521 5:-0.950954 6:-0.93819 7:-0.90368 8:-0.837037 9:-0.903069 10:-0.930818 11:-0.97472 12:-0.960226 13:-0.883784 14:-0.954078 15:-0.770435 16:-0.963095 17:-0.948313 18:-0.861472 19:-0.984868 20:-0.964987 
8 1:-0.997336 2:-0.979021 3:-0.978389 4:-0.938462 5:-0.99782 6:-0.979397 7:-0.980519 8:-0.964444 9:-0.961228 10:-0.988679 11:-0.994166 12:-0.997313 13:-0.972973 14:-0.996041 15:-0.951304 16:-0.984524 17:-0.994257 18:-0.991342 19:-0.999159 20:-0.997856 
8 1:-0.994671 2:-0.935065 3:-0.874263 4:-0.825641 5:-0.934605 6:-0.90287 7:-0.950216 8:-0.837037 9:-0.903069 10:-0.938365 11:-0.958192 12:-0.983338 13:-0.883784 14:-0.965162 15:-0.756522 16:-0.934524 17:-0.95262 18:-0.9329 19:-0.981505 20:-0.97642 
8 1:-0.993339 2:-0.976024 3:-0.933202 4:-0.870085 5:-0.969482 6:-0.972038 7:-0.97619 8:-0.931852 9:-0.96769 10:-0.948428 11:-0.96597 12:-0.991938 13:-0.940541 14:-0.993666 15:-0.725217 16:-0.977381 17:-0.892319 18:-0.991342 19:-0.97562 20:-0.982136 
8 1:-0.98357 2:-0.966034 3:-0.827112 4:-0.774359 5:-0.924796 6:-0.944077 7:-0.975108 8:-0.68 9:-0.980614 10:-0.979874 11:-0.947496 12:-0.981188 13:-0.862162 14:-0.995249 15:-0.707826 16:-0.959524 17:-0.946877 18:-0.971861 19:-0.985708 20:-0.99214 
8 1:-0.986234 2:-0.969031 3:-0.950884 4:-0.866667 5:-0.950954 6:-0.944077 7:-0.970779 8:-0.905185 9:-0.941842 10:-0.973585 11:-0.980554 12:-0.990325 13:-0.913514 14:-0.988915 15:-0.92 16:-0.966667 17:-0.979899 18:-0.924242 19:-0.993274 20:-0.994284 
8 1:-0.981794 2:-0.962038 3:-0.954813 4:-0.911111 5:-0.957493 6:-0.963208 7:-0.965368 8:-0.931852 9:-0.93538 10:-0.963522 11:-0.975693 12:-0.993013 13:-0.921622 14:-0.98654 15:-0.947826 16:-0.983333 17:-0.956927 18:-0.9329 19:-0.982346 20:-0.994284 
7.884018413615525 1:-0.956039 2:-0.908092 3:-0.939096 4:-0.719658 5:-0.935695 6:-0.930831 7:-0.930736 8:-0.899259 9:-0.886914 10:-0.992453 11:-0.932912 12:-0.967213 13:-0.916216 14:-0.958036 15:-0.857391 16:-0.921429 17:-0.987078 18:-0.930736 19:-0.985708 20:-0.995713 
8 1:-0.980906 2:-0.88012 3:-0.721022 4:-0.487179 5:-0.824523 6:-0.836645 7:-0.887446 8:-0.706667 9:-0.854604 10:-0.801258 11:-0.877491 12:-0.922064 13:-0.697297 14:-0.939034 15:-0.65913 16:-0.825 17:-0.821967 18:-0.900433 19:-0.950399 20:-0.939264 
1.033288119320764 1:1 2:-0.82018 3:-0.836935 4:-0.350427 5:-0.892098 6:-0.85872 7:-0.808442 8:-0.842963 9:-0.919225 10:-0.87673 11:-0.6772 12:1 13:-0.872973 14:-0.899446 15:-0.558261 16:-0.82619 17:-0.807609 18:-0.813853 19:-0.93947 20:-0.936406 
8 1:-0.988011 2:-0.943057 3:-0.86444 4:-0.818803 5:-0.913896 6:-0.910228 7:-0.942641 8:-0.905185 9:-0.928918 10:-0.915723 11:-0.916383 12:-0.966676 13:-0.859459 14:-0.980206 15:-0.86087 16:-0.921429 17:-0.863604 18:-0.952381 19:-0.978983 20:-0.970704 
8 1:-0.991119 2:-0.951049 3:-0.978389 4:-0.873504 5:-0.980381 6:-0.974982 7:-0.970779 8:-0.952593 9:-0.977383 10:-0.993711 11:-0.996111 12:-0.998925 13:-0.954054 14:-0.992082 15:-0.954783 16:-0.992857 17:-0.998564 18:-0.954545 19:-0.991593 20:-1 
8 1:-0.994227 2:-0.97003 3:-0.962672 4:-0.85641 5:-0.952044 6:-0.977925 7:-0.970779 8:-0.893333 9:-0.980614 10:-0.940881 11:-0.97472 12:-0.986025 13:-0.867568 14:-0.984165 15:-0.906087 16:-0.972619 17:-0.921034 18:-0.984848 19:-0.978983 20:-0.989282 
8 1:-0.993339 2:-0.958042 3:-0.933202 4:-0.900855 5:-0.962943 6:-0.958793 7:-0.955628 8:-0.967407 9:-0.877221 10:-0.836478 11:-0.955275 12:-0.975813 13:-0.940541 14:-0.984956 15:-0.909565 16:-0.965476 17:-0.863604 18:-0.945887 19:-0.973098 20:-0.969989 
8 1:-0.940941 2:-0.806194 3:-0.846758 4:-0.85641 5:-0.888828 6:-0.846946 7:-0.814935 8:-0.754074 9:-0.799677 10:-0.940881 11:-0.774429 12:-0.926901 13:-0.827027 14:-0.837688 15:-0.909565 16:-0.785714 17:-0.890883 18:-0.761905 19:-0.89071 20:-0.915684 
8 1:-0.990231 2:-0.918082 3:-0.793713 4:-0.641026 5:-0.827793 6:-0.855776 7:-0.936147 8:-0.878519 9:-0.886914 10:-0.865409 11:-0.908605 12:-0.957001 13:-0.810811 14:-0.955661 15:-0.794783 16:-0.883333 17:-0.869347 18:-0.891775 19:-0.922657 20:-0.924973 
2.665656896860112 1:-0.98135 2:-0.93007 3:-0.909627 4:-0.921368 5:-0.945504 6:-0.924945 7:-0.935065 8:-0.925926 9:-0.9063 10:-0.901887 11:-0.95333 12:-0.956463 13:-0.948649 14:-0.89707 15:-0.937391 16:-0.920238 17:-0.865039 18:-0.878788 19:-0.64691 20:-0.578421 
8 1:-0.989787 2:-0.872128 3:-0.937132 4:-0.911111 5:-0.966213 6:-0.961737 7:-0.919913 8:-0.881481 9:-0.77706 10:-0.979874 11:-0.976665 12:-0.984413 13:-0.924324 14:-0.954869 15:-0.89913 16:-0.94881 17:-0.959799 18:-0.87013 19:-0.978142 20:-0.983566 
8 1:-0.998224 2:-0.952048 3:-0.895874 4:-0.859829 5:-0.956403 6:-0.942605 7:-0.949134 8:-0.946667 9:-0.912763 10:-0.922013 11:-0.960136 12:-0.9871 13:-0.945946 14:-0.969121 15:-0.86087 16:-0.942857 17:-0.873654 18:-0.885281 19:-0.955443 20:-0.93712 
8 1:-1 2:-0.995005 3:-0.968566 4:-0.952137 5:-0.99346 6:-0.97351 7:-0.993506 8:-0.964444 9:-0.951535 10:-0.994969 11:-0.997083 12:-1 13:-0.948649 14:-0.996833 15:-0.885217 16:-0.991667 17:-0.992821 18:-0.967532 19:-0.996637 20:-0.996427 
3.609343363449541 1:-0.998668 2:-0.991009 3:-0.97053 4:-0.695726 5:-0.973842 6:-0.972038 7:-0.985931 8:-0.922963 9:-0.977383 10:-0.601258 11:-0.963053 12:-0.98495 13:-0.962162 14:-0.979414 15:-0.836522 16:-0.960714 17:-0.619526 18:-0.993506 19:-0.955443 20:-0.972133 
8 1:-0.972025 2:-0.919081 3:-0.88998 4:-0.729915 5:-0.905177 6:-0.891096 7:-0.939394 8:-0.905185 9:-0.964459 10:-0.976101 11:-0.936801 12:-0.957538 13:-0.908108 14:-0.960412 15:-0.829565 16:-0.917857 17:-0.971285 18:-0.961039 19:-0.970576 20:-0.984995 
8 1:-0.972025 2:-0.938062 3:-0.950884 4:-0.976068 5:-0.964033 6:-0.980868 7:-0.935065 8:-0.961481 9:-0.987076 10:-0.988679 11:-0.910549 12:-0.933889 13:-0.954054 14:-0.984956 15:-0.951304 16:-0.960714 17:-0.985642 18:-0.941558 19:-0.991593 20:-0.987138 
8 1:-0.998668 2:-0.982018 3:-0.960707 4:-0.897436 5:-0.977112 6:-0.974982 7:-0.984848 8:-0.937778 9:-0.896607 10:-0.987421 11:-0.995139 12:-0.997313 13:-0.921622 14:-0.989707 15:-0.892174 16:-0.980952 17:-0.987078 18:-0.969697 19:-0.994115 20:-0.992855 
8 1:-0.993339 2:-0.973027 3:-0.935167 4:-0.788034 5:-0.953134 6:-0.944077 7:-0.980519 8:-0.893333 9:-0.945073 10:-0.944654 11:-0.977637 12:-0.98495 13:-0.913514 14:-0.980998 15:-0.843478 16:-0.966667 17:-0.961235 18:-0.969697 19:-0.968054 20:-0.972133 
4.307259304545465 1:-0.976021 2:-0.904096 3:-0.954813 4:-0.613675 5:-0.881199 6:-0.963208 7:-0.899351 8:-0.967407 9:-0.954766 10:-0.966038 11:-0.894993 12:-0.954851 13:-0.864865 14:-0.984956 15:-0.86087 16:-0.94881 17:-0.977028 18:-0.885281 19:-0.976461 20:-0.979993 
8 1:-0.994227 2:-0.963037 3:-0.943026 4:-0.842735 5:-0.952044 6:-0.957322 7:-0.959957 8:-0.908148 9:-0.932149 10:-0.891824 11:-0.967914 12:-0.986025 13:-0.867568 14:-0.984165 15:-0.808696 16:-0.964286 17:-0.923905 18:-0.991342 19:-0.980664 20:-0.987853 
8 1:-0.996004 2:-0.963037 3:-0.884086 4:-0.747009 5:-0.950954 6:-0.948492 7:-0.953463 8:-0.902222 9:-0.903069 10:-0.934591 11:-0.958192 12:-0.983875 13:-0.937838 14:-0.964371 15:-0.833043 16:-0.963095 17:-0.892319 18:-0.952381 19:-0.95124 20:-0.949982 
8 1:-0.993339 2:-0.982018 3:-0.958743 4:-0.870085 5:-0.978202 6:-0.969095 7:-0.99026 8:-0.905185 9:-0.945073 10:-0.959748 11:-0.982499 12:-0.994625 13:-0.935135 14:-0.989707 15:-0.881739 16:-0.983333 17:-0.974156 18:-0.982684 19:-0.992434 20:-0.994284 
8 1:-0.980906 2:-0.904096 3:-0.848723 4:-0.705983 5:-0.931335 6:-0.913171 7:-0.885281 8:-0.834074 9:-0.686591 10:-0.961006 11:-0.968887 12:-0.981188 13:-0.854054 14:-0.924782 15:-0.666087 16:-0.935714 17:-0.935391 18:-0.746753 19:-0.943674 20:-0.953555 
8 1:-0.945382 2:-0.782218 3:-0.831041 4:-0.729915 5:-0.893188 6:-0.817513 7:-0.816017 8:-0.674074 9:-0.741519 10:-0.944654 11:-0.913466 12:-0.960763 13:-0.8 14:-0.912114 15:-0.812174 16:-0.847619 17:-0.93252 18:-0.746753 19:-0.942833 20:-0.951411 
8 1:-0.99778 2:-0.981019 3:-0.929273 4:-0.849573 5:-0.962943 6:-0.951435 7:-0.981602 8:-0.943704 9:-0.948304 10:-0.925786 11:-0.967914 12:-0.987638 13:-0.937838 14:-0.979414 15:-0.833043 16:-0.94881 17:-0.916726 18:-0.941558 19:-0.979823 20:-0.974991 
8 1:-0.999556 2:-0.992008 3:-0.952849 4:-0.938462 5:-0.979292 6:-0.95585 7:-0.99026 8:-0.982222 9:-0.961228 10:-0.96478 11:-0.980554 12:-0.991938 13:-0.975676 14:-0.993666 15:-0.895652 16:-0.967857 17:-0.94257 18:-0.987013 19:-0.978983 20:-0.98428 
8 1:-0.998224 2:-0.993007 3:-0.978389 4:-0.945299 5:-0.986921 6:-0.989698 7:-0.989177 8:-0.976296 9:-0.951535 10:-0.955975 11:-0.984443 12:-0.99355 13:-0.964865 14:-0.988124 15:-0.965217 16:-0.989286 17:-0.985642 18:-0.961039 19:-0.994956 20:-0.994998 
8 1:-0.998668 2:-0.988012 3:-0.998035 4:-0.945299 5:-0.99673 6:-0.989698 7:-0.992424 8:-0.961481 9:-0.951535 10:-1 11:-0.998055 12:-1 13:-0.983784 14:-0.996041 15:-0.913043 16:-0.996429 17:-1 18:-0.971861 19:-0.996637 20:-0.998571 
8 1:-0.980462 2:-0.965035 3:-0.962672 4:-0.859829 5:-0.965123 6:-0.941133 7:-0.967532 8:-0.848889 9:-0.938611 10:-0.972327 11:-0.986388 12:-0.989788 13:-0.854054 14:-0.976247 15:-0.933913 16:-0.971429 17:-0.985642 18:-0.95671 19:-0.974779 20:-0.971418 
8 1:-0.906306 2:-0.866134 3:-0.941061 4:-0.887179 5:-0.956403 6:-0.957322 7:-0.869048 8:-0.922963 9:-0.996769 10:-0.864151 11:-0.902771 12:-0.891427 13:-0.843243 14:-0.950911 15:-0.906087 16:-0.938095 17:-0.836324 18:-0.917749 19:-0.927701 20:-0.912111 
8 1:-0.996892 2:-0.968032 3:-0.966601 4:-0.835897 5:-0.970572 6:-0.963208 7:-0.971861 8:-0.964444 9:-0.980614 10:-0.908176 11:-0.950413 12:-0.980113 13:-0.962162 14:-0.991291 15:-0.916522 16:-0.965476 17:-0.938263 18:-0.945887 19:-0.978983 20:-0.967131 
8 1:-0.986234 2:-0.917083 3:-0.878193 4:-0.757265 5:-0.908447 6:-0.922001 7:-0.908009 8:-0.905185 9:-0.980614 10:-0.803774 11:-0.89791 12:-0.927976 13:-0.856757 14:-0.968329 15:-0.878261 16:-0.939286 17:-0.867911 18:-0.969697 19:-0.959647 20:-0.939979 
8 1:-0.996004 2:-0.981019 3:-0.968566 4:-0.880342 5:-0.974932 6:-0.958793 7:-0.979437 8:-0.940741 9:-0.938611 10:-0.986164 11:-0.992222 12:-0.995163 13:-0.927027 14:-0.984956 15:-0.871304 16:-0.977381 17:-0.985642 18:-0.945887 19:-0.989912 20:-0.988567 
8 1:-0.996892 2:-0.967033 3:-0.950884 4:-0.917949 5:-0.966213 6:-0.958793 7:-0.937229 8:-0.958519 9:-0.954766 10:-0.940881 11:-0.967914 12:-0.983338 13:-0.962162 14:-0.978622 15:-0.895652 16:-0.955952 17:-0.89519 18:-0.939394 19:-0.985708 20:-0.967131 
8 1:-0.998224 2:-0.982018 3:-0.97053 4:-0.952137 5:-0.988011 6:-0.974982 7:-0.984848 8:-0.961481 9:-0.970921 10:-0.997484 11:-0.991249 12:-0.99785 13:-0.975676 14:-0.989707 15:-0.843478 16:-0.978571 17:-0.994257 18:-0.917749 19:-0.994115 20:-0.999285 
8 1:-0.993783 2:-0.924076 3:-0.833006 4:-0.51453 5:-0.900817 6:-0.89404 7:-0.949134 8:-0.834074 9:-0.896607 10:-0.856604 11:-0.950413 12:-0.983338 13:-0.864865 14:-0.975455 15:-0.673043 16:-0.921429 17:-0.850682 18:-0.844156 19:-0.948718 20:-0.959986 
0.5721889344804484 1:-0.998224 2:-0.989011 3:-0.960707 4:-0.894017 5:-0.986921 6:-0.967623 7:-0.987013 8:-0.985185 9:-0.970921 10:-0.973585 11:-0.990277 12:-0.994625 13:-0.972973 14:-0.979414 15:-0.892174 16:-0.97381 17:-0.948313 18:-0.958874 19:-0.98739 20:-0.994284 
3.597931151913778 1:-0.923623 2:-0.865135 3:-0.923379 4:-0.955556 5:-0.937875 6:-0.94702 7:-0.781385 8:-0.940741 9:-0.812601 10:-0.997484 11:-0.946524 12:-0.940339 13:-0.921622 14:-0.931908 15:-0.895652 16:-0.936905 17:-0.997128 18:-0.900433 19:-0.984027 20:-0.954269 
8 1:-0.99556 2:-0.962038 3:-0.923379 4:-0.832479 5:-0.958583 6:-0.933775 7:-0.969697 8:-0.917037 9:-0.938611 10:-0.938365 11:-0.975693 12:-0.9957 13:-0.935135 14:-0.987332 15:-0.81913 16:-0.967857 17:-0.954056 18:-0.95671 19:-0.992434 20:-0.980707 
8 1:-0.956039 2:-0.948052 3:-0.88998 4:-0.74359 5:-0.948774 6:-0.914643 7:-0.945887 8:-0.837037 9:-0.957997 10:-0.932075 11:-0.945552 12:-0.962376 13:-0.935135 14:-0.958828 15:-0.89913 16:-0.935714 17:-0.919598 18:-0.9329 19:-0.950399 20:-0.978564 
8 1:-0.960924 2:-0.869131 3:-0.779961 4:-0.688889 5:-0.770027 6:-0.836645 7:-0.888528 8:-0.81037 9:-0.957997 10:-0.832704 11:-0.795819 12:-0.922064 13:-0.743243 14:-0.958828 15:-0.867826 16:-0.827381 17:-0.87509 18:-0.987013 19:-0.961328 20:-0.958557 
8 1:-0.936501 2:-0.856144 3:-0.821218 4:-0.483761 5:-0.849591 6:-0.84106 7:-0.850649 8:-0.635556 9:-0.767367 10:-0.797484 11:-0.837628 12:-0.918839 13:-0.643243 14:-0.957245 15:0.158261 16:-0.885714 17:-0.842067 18:-0.863636 19:-0.886507 20:-0.919257 
3.965517334185135 1:-0.98357 2:-0.952048 3:-0.933202 4:-0.77094 5:-0.950954 6:-0.951435 7:-0.962121 8:-0.878519 9:-0.925687 10:-0.978616 11:-0.979582 12:-0.975813 13:-0.862162 14:-0.982581 15:-0.773913 16:-0.954762 17:-0.969849 18:-0.935065 19:-0.952921 20:-0.978564 
8 1:-0.982682 2:-0.935065 3:-0.94499 4:-0.82906 5:-0.940054 6:-0.9117 7:-0.927489 8:-0.804444 9:-0.786753 10:-0.948428 11:-0.968887 12:-0.985488 13:-0.854054 14:-0.942201 15:-0.822609 16:-0.944048 17:-0.974156 18:-0.87013 19:-0.962169 20:-0.96856 
8 1:-0.959147 2:-0.981019 3:-0.984283 4:-0.887179 5:-0.990191 6:-0.977925 7:-0.975108 8:-0.973333 9:-0.974152 10:-0.988679 11:-0.980554 12:-0.988713 13:-0.943243 14:-0.987332 15:-0.965217 16:-0.979762 17:-0.987078 18:-0.954545 19:-0.990752 20:-0.999285 
8 1:-0.996892 2:-0.953047 3:-0.968566 4:-0.948718 5:-0.977112 6:-0.970567 7:-0.971861 8:-0.961481 9:-0.951535 10:-0.978616 11:-0.975693 12:-0.9957 13:-0.962162 14:-0.988915 15:-0.965217 16:-0.977381 17:-0.966978 18:-0.906926 19:-0.991593 20:-0.989996 
5.672644553338644 1:-0.998224 2:-0.986014 3:-0.97446 4:-0.634188 5:-0.985831 6:-0.969095 7:-0.987013 8:-0.940741 9:-0.854604 10:-0.920755 11:-0.968887 12:-0.981725 13:-0.962162 14:-0.954869 15:-0.30087 16:-0.975 17:-0.839196 18:-0.811688 19:-0.905002 20:-0.913541 
8 1:-1 2:-0.983017 3:-0.954813 4:-0.866667 5:-0.969482 6:-0.963208 7:-0.979437 8:-0.958519 9:-0.983845 10:-0.945912 11:-0.97861 12:-0.994088 13:-0.954054 14:-0.993666 15:-0.933913 16:-0.965476 17:-0.964106 18:-0.97619 19:-0.995797 20:-0.988567 
8 1:-0.9627 2:-0.871129 3:-0.791749 4:-0.801709 5:-0.845232 6:-0.90287 7:-0.944805 8:-0.795556 9:-0.928918 10:-0.958491 11:-0.932912 12:-0.953776 13:-0.856757 14:-0.975455 15:-0.846957 16:-0.940476 17:-0.987078 18:-0.941558 19:-0.994115 20:-0.992855 
8 1:-0.976021 2:-0.89011 3:-0.795678 4:-0.623932 5:-0.836512 6:-0.786608 7:-0.899351 8:-0.887407 9:-0.925687 10:-0.895597 11:-0.869713 12:-0.916152 13:-0.82973 14:-0.961995 15:-0.725217 16:-0.789286 17:-0.883704 18:-0.917749 19:-0.956284 20:-0.947839 
2.24984123278802 1:-0.94849 2:-0.912088 3:-0.866405 4:-0.415385 5:-0.86594 6:-0.871965 7:-0.942641 8:-0.688889 9:0.114701 10:-0.978616 11:-0.923189 12:-0.905939 13:-0.735135 14:-0.942201 15:-0.026087 16:-0.919048 17:-0.949749 18:-0.662338 19:-0.968054 20:-0.954269 
8 1:-0.998224 2:-0.989011 3:-0.996071 4:-0.979487 5:-1 6:-1 7:-0.99026 8:-0.976296 9:-0.980614 10:-0.997484 11:-0.999028 12:-0.998925 13:-0.989189 14:-0.999208 15:-0.92 16:-0.996429 17:-0.995693 18:-0.984848 19:-0.995797 20:-0.999285 
8 1:-0.984902 2:-0.958042 3:-0.952849 4:-0.859829 5:-0.940054 6:-0.952907 7:-0.949134 8:-0.934815 9:-0.96769 10:-0.98239 11:-0.957219 12:-0.966138 13:-0.92973 14:-0.984165 15:-0.930435 16:-0.957143 17:-0.985642 18:-0.952381 19:-0.989912 20:-0.987853 
1.585228684682967 1:-0.820604 2:-0.851149 3:-0.897839 4:-0.733333 5:-0.535695 6:-0.86755 7:-0.818182 8:-0.703704 9:-0.970921 10:-0.553459 11:-0.148274 12:-0.59957 13:-0.256757 14:-0.916865 15:-0.902609 16:-0.611905 17:-0.527638 18:-0.950216 19:-0.936948 20:-0.969275 
8 1:-0.997336 2:-0.987013 3:-0.992141 4:-0.965812 5:-0.976022 6:-0.977925 7:-0.985931 8:-0.988148 9:-0.961228 10:-0.983648 11:-0.984443 12:-0.995163 13:-0.972973 14:-0.998416 15:-0.961739 16:-0.982143 17:-0.991385 18:-0.995671 19:-0.986549 20:-0.994998 
8 1:-0.994227 2:-0.984016 3:-0.915521 4:-0.890598 5:-0.954223 6:-0.952907 7:-0.978355 8:-0.94963 9:-0.96769 10:-0.981132 11:-0.96597 12:-0.9871 13:-0.927027 14:-0.988915 15:-0.874783 16:-0.965476 17:-0.954056 18:-0.978355 19:-0.989071 20:-0.991426 
8 1:-0.982682 2:-0.88012 3:-0.721022 4:-0.716239 5:-0.895368 6:-0.830758 7:-0.84632 8:-0.745185 9:-0.570275 10:-0.871698 11:-0.961108 12:-0.990863 13:-0.643243 14:-0.886778 15:-0.704348 16:-0.932143 17:-0.919598 18:-0.837662 19:-0.895755 20:-0.894248 
8 1:-0.998224 2:-0.999001 3:-1 4:-0.979487 5:-0.99673 6:-0.994113 7:-1 8:-0.988148 9:-0.987076 10:-0.994969 11:-1 12:-0.999463 13:-0.997297 14:-0.996041 15:-0.975652 16:-0.996429 17:-0.994257 18:-0.989177 19:-0.997478 20:-0.999285 
3.69503991459914 1:-0.991563 2:-0.971029 3:-0.929273 4:-0.94188 5:-0.978202 6:-0.960265 7:-0.961039 8:-0.967407 9:-0.822294 10:-0.950943 11:-0.971804 12:-0.993013 13:-0.964865 14:-0.964371 15:-0.930435 16:-0.954762 17:-0.889447 18:-0.785714 19:-0.946196 20:-0.973562 
8 1:-0.976465 2:-0.94006 3:-0.779961 4:-0.77094 5:-0.894278 6:-0.829286 7:-0.924242 8:-0.842963 9:-0.857835 10:-0.904403 11:-0.857073 12:-0.931201 13:-0.835135 14:-0.945368 15:-0.805217 16:-0.813095 17:-0.908112 18:-0.831169 19:-0.961328 20:-0.96856 
8 1:-0.999556 2:-0.982018 3:-0.982318 4:-0.962393 5:-0.989101 6:-0.974982 7:-0.985931 8:-0.958519 9:-0.977383 10:-0.984906 11:-0.991249 12:-0.996775 13:-0.959459 14:-0.993666 15:-0.975652 16:-0.992857 17:-0.991385 18:-0.993506 19:-0.995797 20:-0.995713 
8 1:-0.99556 2:-0.984016 3:-0.992141 4:-0.94188 5:-0.977112 6:-0.983812 7:-0.989177 8:-0.94963 9:-0.896607 10:-0.993711 11:-0.989305 12:-0.997313 13:-0.956757 14:-0.993666 15:-0.916522 16:-0.989286 17:-0.992821 18:-0.9329 19:-0.998319 20:-0.995713 
8 1:-0.943606 2:-0.898102 3:-0.939096 4:-0.466667 5:-0.954223 6:-0.95585 7:-0.912338 8:-0.780741 9:-0.747981 10:-0.977358 11:-0.958192 12:-0.9871 13:-0.805405 14:-0.970705 15:-0.286957 16:-0.961905 17:-0.956927 18:-0.822511 19:-0.980664 20:-0.994998 
8 1:-0.993339 2:-0.966034 3:-0.952849 4:-0.890598 5:-0.968392 6:-0.970567 7:-0.97619 8:-0.934815 9:-0.948304 10:-0.974843 11:-0.957219 12:-0.963988 13:-0.943243 14:-0.988915 15:-0.846957 16:-0.967857 17:-0.991385 18:-0.963203 19:-0.990752 20:-0.992855 
8 1:-0.995115 2:-0.982018 3:-0.984283 4:-0.924786 5:-0.979292 6:-0.992642 7:-0.988095 8:-0.925926 9:-0.941842 10:-0.966038 11:-0.970831 12:-0.983338 13:-0.945946 14:-0.993666 15:-0.937391 16:-0.989286 17:-0.954056 18:-0.948052 19:-0.991593 20:-0.987138 
8 1:-0.992451 2:-0.96004 3:-0.931238 4:-0.873504 5:-0.948774 6:-0.948492 7:-0.955628 8:-0.893333 9:-0.861066 10:-0.950943 11:-0.95333 12:-0.983338 13:-0.916216 14:-0.964371 15:-0.86087 16:-0.94881 17:-0.949749 18:-0.941558 19:-0.985708 20:-0.980707 
8 1:-0.997336 2:-0.991009 3:-0.946955 4:-0.924786 5:-0.986921 6:-0.988227 7:-0.989177 8:-0.991111 9:-0.993538 10:-0.971069 11:-0.986388 12:-0.99785 13:-0.97027 14:-0.995249 15:-0.954783 16:-0.988095 17:-0.977028 18:-0.991342 19:-0.991593 20:-0.992855 
8 1:-0.922735 2:-0.859141 3:-0.939096 4:-0.822222 5:-0.889918 6:-0.895511 7:-0.837662 8:-0.893333 9:-0.799677 10:-0.918239 11:-0.849295 12:-0.896264 13:-0.894595 14:-0.855107 15:-0.871304 16:-0.869048 17:-0.941134 18:-0.835498 19:-0.887348 20:-0.912111 
8 1:-0.998668 2:-0.989011 3:-0.97446 4:-0.948718 5:-0.985831 6:-0.980868 7:-0.99026 8:-0.973333 9:-0.932149 10:-0.988679 11:-0.995139 12:-0.998925 13:-0.97027 14:-0.993666 15:-0.94087 16:-0.994048 17:-0.984207 18:-0.967532 19:-0.989071 20:-0.994998 
8 1:-0.992007 2:-0.969031 3:-0.946955 4:-0.835897 5:-0.942234 6:-0.958793 7:-0.97619 8:-0.884444 9:-0.96769 10:-0.971069 11:-0.985416 12:-0.990863 13:-0.875676 14:-0.993666 15:-0.76 16:-0.970238 17:-0.978464 18:-0.963203 19:-0.994115 20:-0.990711 
8 1:-0.992895 2:-0.958042 3:-0.933202 4:-0.852991 5:-0.954223 6:-0.935247 7:-0.969697 8:-0.943704 9:-0.964459 10:-0.963522 11:-0.958192 12:-0.981188 13:-0.932432 14:-0.987332 15:-0.958261 16:-0.95 17:-0.959799 18:-0.939394 19:-0.982346 20:-0.984995 
8 1:-0.935613 2:-0.863137 3:-0.70334 4:-0.521368 5:-0.73406 6:-0.826343 7:-0.837662 8:-0.712593 9:-0.831987 10:-0.767296 11:-0.803597 12:-0.897339 13:-0.635135 14:-0.921615 15:-0.798261 16:-0.846429 17:-0.711414 18:-0.885281 19:-0.907524 20:-0.912111 
8 1:-0.99556 2:-0.971029 3:-0.929273 4:-0.890598 5:-0.967302 6:-0.95585 7:-0.968615 8:-0.928889 9:-0.987076 10:-0.973585 11:-0.982499 12:-0.996238 13:-0.956757 14:-0.98654 15:-0.829565 16:-0.969048 17:-0.954056 18:-0.967532 19:-0.978142 20:-0.987853 
8 1:-0.98357 2:-0.98002 3:-0.982318 4:-0.965812 5:-0.983651 6:-0.974982 7:-0.987013 8:-0.946667 9:-0.954766 10:-0.991195 11:-0.992222 12:-0.9914 13:-0.945946 14:-0.982581 15:-0.937391 16:-0.984524 17:-1 18:-0.984848 19:-0.991593 20:-0.991426 
8 1:-0.99556 2:-0.971029 3:-0.929273 4:-0.890598 5:-0.967302 6:-0.95585 7:-0.968615 8:-0.928889 9:-0.987076 10:-0.973585 11:-0.982499 12:-0.996238 13:-0.956757 14:-0.98654 15:-0.829565 16:-0.969048 17:-0.954056 18:-0.967532 19:-0.978142 20:-0.987853 
3.739820273088319 1:-0.998224 2:-0.982018 3:-0.968566 4:-0.986325 5:-0.979292 6:-0.980868 7:-0.991342 8:-1 9:-0.915994 10:-0.96478 11:-0.972776 12:-0.99355 13:-0.997297 14:-0.989707 15:-0.930435 16:-0.984524 17:-0.956927 18:-0.902597 19:-0.989071 20:-0.99214 
8 1:-0.996892 2:-0.991009 3:-0.968566 4:-0.948718 5:-0.992371 6:-0.976453 7:-0.989177 8:-0.979259 9:-0.974152 10:-0.988679 11:-0.990277 12:-0.99355 13:-0.989189 14:-0.996041 15:-0.951304 16:-0.992857 17:-0.984207 18:-0.937229 19:-0.994956 20:-0.992855 
6.687552774043223 1:-0.920959 2:-0.602398 3:-0.500982 4:-0.422222 5:-0.685014 6:-0.643856 7:-0.665584 8:-0.306667 9:-0.799677 10:-0.879245 11:-0.812348 12:-0.89089 13:-0.359459 14:-0.880443 15:-0.377391 16:-0.74881 17:-0.788945 18:-0.785714 19:-0.934426 20:-0.949268 
8 1:-0.989787 2:-0.984016 3:-0.994106 4:-0.928205 5:-0.991281 6:-0.969095 7:-0.97619 8:-0.973333 9:-0.932149 10:-0.989937 11:-0.966942 12:-0.9742 13:-0.983784 14:-0.990499 15:-0.947826 16:-0.97381 17:-0.954056 18:-0.971861 19:-0.989071 20:-0.989282 
8 1:-0.996004 2:-0.98002 3:-0.988212 4:-0.897436 5:-0.985831 6:-0.99117 7:-0.979437 8:-0.961481 9:-0.964459 10:-0.984906 11:-0.983471 12:-0.994088 13:-0.986486 14:-0.98654 15:-0.94087 16:-0.979762 17:-0.988514 18:-0.97619 19:-0.993274 20:-0.997142 
8 1:-0.952487 2:-0.819181 3:-0.75835 4:-0.852991 5:-0.786376 6:-0.780721 7:-0.833333 8:-0.825185 9:-0.915994 10:-0.935849 11:-0.789013 12:-0.917227 13:-0.786486 14:-0.933492 15:-0.822609 16:-0.803571 17:-0.928212 18:-0.919913 19:-0.952081 20:-0.934977 
8 1:-0.993783 2:-0.977023 3:-0.946955 4:-0.870085 5:-0.985831 6:-0.969095 7:-0.962121 8:-0.946667 9:-0.941842 10:-0.988679 11:-0.983471 12:-0.9957 13:-0.913514 14:-0.967538 15:-0.958261 16:-0.967857 17:-0.985642 18:-0.952381 19:-0.971417 20:-0.981422 
1.077653183729977 1:-0.939609 2:-0.737263 3:-0.819253 4:-0.791453 5:-0.803815 6:-0.838116 7:-0.690476 8:-0.831111 9:-0.925687 10:-0.530818 11:-0.755955 12:-0.840365 13:-0.762162 14:-0.904196 15:-0.756522 16:-0.817857 17:-0.53051 18:-0.768398 19:-0.836906 20:-0.620579 
8 1:-0.972469 2:-0.915085 3:-0.856582 4:-0.555556 5:-0.880109 6:-0.923473 7:-0.90368 8:-0.691852 9:-0.851373 10:-0.950943 11:-0.949441 12:-0.915077 13:-0.754054 14:-0.975455 15:-0.575652 16:-0.953571 17:-0.949749 18:-0.883117 19:-0.944515 20:-0.87567 
8 1:-0.999556 2:-0.993007 3:-0.984283 4:-0.938462 5:-0.99673 6:-0.980868 7:-0.997835 8:-0.985185 9:-0.970921 10:-0.993711 11:-0.924161 12:-0.998925 13:-0.994595 14:-0.999208 15:-0.836522 16:-0.966667 17:-0.984207 18:-0.971861 19:-0.995797 20:-0.998571 
8 1:-0.990231 2:-0.962038 3:-0.86444 4:-0.504274 5:-0.914986 6:-0.908756 7:-0.949134 8:-0.928889 9:-0.912763 10:-0.927044 11:-0.918328 12:-0.986025 13:-0.902703 14:-0.979414 15:-0.73913 16:-0.917857 17:-0.890883 18:-0.958874 19:-0.967213 20:-0.979278 
8 1:-0.993339 2:-0.955045 3:-0.827112 4:-0.781197 5:-0.906267 6:-0.886681 7:-0.936147 8:-0.943704 9:-0.919225 10:-0.886792 11:-0.932912 12:-0.972051 13:-0.908108 14:-0.969121 15:-0.467826 16:-0.936905 17:-0.883704 18:-0.878788 19:-0.977301 20:-0.955698 
8 1:-0.990675 2:-0.957043 3:-0.94499 4:-0.815385 5:-0.947684 6:-0.948492 7:-0.948052 8:-0.881481 9:-0.980614 10:-0.934591 11:-0.959164 12:-0.983875 13:-0.921622 14:-0.961995 15:-0.791304 16:-0.957143 17:-0.922469 18:-0.935065 19:-0.936108 20:-0.961415 
0.4644618643657655 1:-0.976909 2:-0.948052 3:-0.992141 4:-0.818803 5:-0.923706 6:-0.967623 7:-0.936147 8:-0.952593 9:-0.922456 10:-0.597484 11:-0.968887 12:-0.988175 13:-0.843243 14:-0.979414 15:-0.81913 16:-0.958333 17:-0.208902 18:-0.900433 19:-0.949559 20:-0.787781 
8 1:-0.998224 2:-0.988012 3:-0.990177 4:-0.97265 5:-0.991281 6:-0.97351 7:-0.987013 8:-0.967407 9:-0.899838 10:-0.989937 11:-0.996111 12:-1 13:-0.989189 14:-0.989707 15:-0.926957 16:-0.990476 17:-0.991385 18:-0.952381 19:-0.990752 20:-0.997142 
8 1:-0.990675 2:-0.981019 3:-0.958743 4:-0.921368 5:-0.972752 6:-0.944077 7:-0.979437 8:-0.97037 9:-0.993538 10:-0.983648 11:-0.950413 12:-0.989788 13:-0.945946 14:-0.989707 15:-0.930435 16:-0.95119 17:-0.998564 18:-0.987013 19:-0.991593 20:-0.992855 
8 1:-0.993783 2:-0.974026 3:-0.964637 4:-0.890598 5:-0.978202 6:-0.985283 7:-0.982684 8:-0.914074 9:-0.903069 10:-0.988679 11:-0.996111 12:-0.997313 13:-0.918919 14:-0.989707 15:-0.871304 16:-0.990476 17:-0.994257 18:-0.930736 19:-0.984027 20:-0.989282 
8 1:-0.996004 2:-0.99001 3:-0.988212 4:-0.976068 5:-0.986921 6:-0.986755 7:-0.991342 8:-0.952593 9:-0.96769 10:-0.994969 11:-0.998055 12:-0.999463 13:-0.967568 14:-0.989707 15:-0.909565 16:-0.994048 17:-0.998564 18:-0.987013 19:-1 20:-0.998571 
8 1:-0.994227 2:-0.985015 3:-0.988212 4:-0.935043 5:-0.989101 6:-0.977925 7:-0.988095 8:-0.946667 9:-0.915994 10:-0.986164 11:-0.984443 12:-0.99785 13:-0.964865 14:-0.985748 15:-0.933913 16:-0.983333 17:-0.964106 18:-0.950216 19:-0.984868 20:-0.989282 
8 1:-0.993783 2:-0.967033 3:-0.939096 4:-0.91453 5:-0.973842 6:-0.970567 7:-0.967532 8:-0.928889 9:-0.922456 10:-0.967296 11:-0.979582 12:-0.9914 13:-0.918919 14:-0.979414 15:-0.885217 16:-0.97619 17:-0.922469 18:-0.948052 19:-0.980664 20:-0.981422 
8 1:-0.999112 2:-0.988012 3:-0.996071 4:-0.982906 5:-0.99455 6:-0.986755 7:-0.991342 8:-0.982222 9:-0.951535 10:-1 11:-0.995139 12:-0.998925 13:-0.986486 14:-0.990499 15:-0.975652 16:-0.989286 17:-1 18:-0.969697 19:-0.994115 20:-0.998571 
8 1:-0.968028 2:-0.79021 3:-0.750491 4:-0.753846 5:-0.73733 6:-0.657101 7:-0.811688 8:-0.792593 9:-0.822294 10:-0.842767 11:-0.801653 12:-0.908089 13:-0.645946 14:-0.921615 15:-0.798261 16:-0.69881 17:-0.836324 18:-0.835498 19:-0.936948 20:-0.947839 
8 1:-0.963588 2:-0.813187 3:-0.874263 4:-0.709402 5:-0.897548 6:-0.879323 7:-0.747835 8:-0.896296 9:-0.938611 10:-0.890566 11:-0.824016 12:-0.911852 13:-0.843243 14:-0.867775 15:-0.909565 16:-0.886905 17:-0.849246 18:-0.58658 19:-0.868012 20:-0.803501 
2.8012227690002 1:-0.87833 2:-0.841159 3:-0.939096 4:-0.757265 5:-0.847411 6:-0.880795 7:-0.876623 8:-0.300741 9:-0.867528 10:-0.987421 11:-0.934857 12:-0.879065 13:-0.483784 14:-0.936659 15:-0.902609 16:-0.916667 17:-0.998564 18:-0.896104 19:-0.973939 20:-0.974277 
8 1:-0.988011 2:-0.93007 3:-0.868369 4:-0.641026 5:-0.894278 6:-0.883738 7:-0.92316 8:-0.706667 9:-0.835218 10:-0.875472 11:-0.929023 12:-0.9742 13:-0.762162 14:-0.961995 15:-0.711304 16:-0.913095 17:-0.872218 18:-0.906926 19:-0.965532 20:-0.959271 
8 1:-0.964476 2:-0.905095 3:-0.931238 4:-0.753846 5:-0.952044 6:-0.924945 7:-0.897186 8:-0.914074 9:-0.903069 10:-0.962264 11:-0.928051 12:-0.970976 13:-0.943243 14:-0.940618 15:-0.909565 16:-0.92619 17:-0.955492 18:-0.837662 19:-0.95124 20:-0.967846 
-0.9335485079994053 1:-0.8246 2:-0.276723 3:-0.563851 4:0.0188034 5:-0.479019 6:-0.543782 7:-0.134199 8:-0.327407 9:-0.137318 10:0.340881 11:0.0325717 12:-0.640957 13:-0.440541 14:-0.558987 15:-0.12 16:-0.429762 17:-0.0308686 18:-0.205628 19:-0.662043 20:-0.601286 
-8 1:-1 2:-0.998002 3:-0.992141 4:-1 5:-0.990191 6:-0.99117 7:-0.997835 8:-1 9:-1 10:-0.996226 11:-0.989305 12:-0.994625 13:-0.989189 14:-1 15:-1 16:-0.994048 17:-0.992821 18:-1 19:-1 20:-0.999285 
-8 1:-0.99556 2:-0.992008 3:-0.97053 4:-0.952137 5:-0.977112 6:-0.939662 7:-0.988095 8:-0.943704 9:-0.990307 10:-0.993711 11:-0.995139 12:-0.99785 13:-0.937838 14:-1 15:-0.902609 16:-0.953571 17:-1 18:-0.978355 19:-1 20:-0.999285 
-8 1:-0.982682 2:-0.956044 3:-0.948919 4:-0.904274 5:-0.950954 6:-0.930831 7:-0.959957 8:-0.958519 9:-0.96769 10:-0.906918 11:-0.962081 12:-0.984413 13:-0.921622 14:-0.977039 15:-0.92 16:-0.942857 17:-0.919598 18:-0.950216 19:-0.977301 20:-0.972133 
-3.475889462771035 1:-0.980018 2:-0.946054 3:-0.8389 4:-0.65812 5:-0.904087 6:-0.904341 7:-0.953463 8:-0.751111 9:-0.970921 10:-0.850314 11:-0.880408 12:-0.958613 13:-0.862162 14:-0.979414 15:-0.676522 16:-0.916667 17:-0.853553 18:-0.969697 19:-0.972257 20:-0.977135 
-8 1:-0.964032 2:-0.932068 3:-0.805501 4:-0.641026 5:-0.942234 6:-0.874908 7:-0.9329 8:-0.783704 9:-0.812601 10:-0.91195 11:-0.922217 12:-0.976888 13:-0.87027 14:-0.939826 15:-0.429565 16:-0.922619 17:-0.903805 18:-0.859307 19:-0.933586 20:-0.964987 
-8 1:-0.989787 2:-0.939061 3:-0.937132 4:-0.887179 5:-0.954223 6:-0.936718 7:-0.943723 8:-0.914074 9:-0.928918 10:-0.924528 11:-0.968887 12:-0.9828 13:-0.894595 14:-0.973872 15:-0.94087 16:-0.959524 17:-0.916726 18:-0.954545 19:-0.979823 20:-0.989996 
-6.714328835315903 1:-0.964032 2:-0.777223 3:-0.760314 4:-0.723077 5:-0.723161 6:-0.774834 7:-0.805195 8:-0.706667 9:-0.867528 10:-0.862893 11:-0.773456 12:-0.909702 13:-0.562162 14:-0.928741 15:-0.871304 16:-0.780952 17:-0.83776 18:-0.917749 19:-0.93947 20:-0.93069 
-8 1:-0.992007 2:-0.975025 3:-0.978389 4:-0.887179 5:-0.978202 6:-0.989698 7:-0.969697 8:-0.94963 9:-0.970921 10:-0.998742 11:-0.982499 12:-0.98495 13:-0.978378 14:-0.987332 15:-0.926957 16:-0.991667 17:-1 18:-0.984848 19:-0.989071 20:-0.997856 
-8 1:-0.989343 2:-0.952048 3:-0.931238 4:-0.729915 5:-0.950954 6:-0.944077 7:-0.963203 8:-0.964444 9:-0.987076 10:-0.944654 11:-0.90666 12:-0.982263 13:-0.937838 14:-0.987332 15:-0.926957 16:-0.925 17:-0.886576 18:-0.952381 19:-0.983186 20:-0.98428 
-7.194121984920097 1:-0.989343 2:-0.921079 3:-0.75835 4:-0.606838 5:-0.86703 6:-0.842531 7:-0.936147 8:-0.878519 9:-0.760905 10:-0.830189 11:-0.883325 12:-0.951088 13:-0.859459 14:-0.971496 15:-0.533913 16:-0.866667 17:-0.748744 18:-0.906926 19:-0.965532 20:-0.959986 
-2.300545179974039 1:-0.957815 2:-0.711289 3:-0.827112 4:-0.692308 5:-0.888828 6:-0.87638 7:-0.748918 8:-0.638519 9:-0.182553 10:-0.833962 11:-0.892076 12:-0.938726 13:-0.764865 14:-0.813935 15:-0.537391 16:-0.891667 17:-0.900933 18:-0.65368 19:-0.812526 20:-0.807074 
-8 1:-0.983126 2:-0.885115 3:-0.927308 4:-0.647863 5:-0.945504 6:-0.904341 7:-0.925325 8:-0.84 9:-0.764136 10:-0.963522 11:-0.984443 12:-0.983338 13:-0.872973 14:-0.953286 15:-0.787826 16:-0.941667 17:-0.951184 18:-0.720779 19:-0.962169 20:-0.965702 
-8 1:-0.992007 2:-0.961039 3:-0.960707 4:-0.890598 5:-0.960763 6:-0.97351 7:-0.969697 8:-0.925926 9:-0.915994 10:-0.984906 11:-0.979582 12:-0.988175 13:-0.948649 14:-0.984956 15:-0.84 16:-0.972619 17:-0.966978 18:-0.917749 19:-0.984868 20:-0.990711 
-8 1:-0.996892 2:-0.966034 3:-0.980354 4:-0.74359 5:-0.971662 6:-0.96468 7:-0.964286 8:-0.922963 9:-0.945073 10:-0.881761 11:-0.988333 12:-0.99355 13:-0.932432 14:-0.987332 15:-0.801739 16:-0.977381 17:-0.931084 18:-0.954545 19:-0.984868 20:-0.989996 
-2.147707178603542 1:-0.97913 2:-0.883117 3:-0.675835 4:-0.247863 5:-0.836512 6:-0.774834 7:-0.914502 8:-0.511111 9:0.0177706 10:-0.874214 11:-0.929995 12:-0.970438 13:-0.548649 14:-0.88361 15:-0.0713043 16:-0.886905 17:-0.843503 18:-0.612554 19:-0.788146 20:-0.85209 
-7.677340156730857 1:-0.993339 2:-0.934066 3:-0.801572 4:-0.316239 5:-0.886649 6:-0.869021 7:-0.922078 8:-0.671111 9:-0.702746 10:-0.88805 11:-0.932912 12:-0.979038 13:-0.797297 14:-0.967538 15:0.053913 16:-0.89881 17:-0.853553 18:-0.725108 19:-0.952081 20:-0.949268 
-5.032792713036712 1:-0.994671 2:-0.971029 3:-0.960707 4:-0.928205 5:-0.979292 6:-0.969095 7:-0.97619 8:-0.884444 9:-0.974152 10:-0.987421 11:-0.996111 12:-0.996775 13:-0.935135 14:-0.988915 15:-0.951304 16:-0.982143 17:-0.992821 18:-0.952381 19:-0.992434 20:-0.994284 
-2.456597313996855 1:-0.988899 2:-0.918082 3:-0.913556 4:-0.969231 5:-0.941144 6:-0.92936 7:-0.935065 8:-0.911111 9:-0.915994 10:-0.925786 11:-0.934857 12:-0.969901 13:-0.916216 14:-0.941409 15:-0.968696 16:-0.932143 17:-0.913855 18:-0.880952 19:-0.936108 20:-0.962844 
-8 1:-0.992451 2:-0.927073 3:-0.846758 4:-0.473504 5:-0.893188 6:-0.907285 7:-0.954545 8:-0.807407 9:-0.922456 10:-0.87044 11:-0.923189 12:-0.973663 13:-0.794595 14:-0.974663 15:-0.558261 16:-0.934524 17:-0.87509 18:-0.922078 19:-0.961328 20:-0.96856 
-8 1:-0.99778 2:-0.982018 3:-0.952849 4:-0.94188 5:-0.977112 6:-0.97351 7:-0.985931 8:-0.958519 9:-0.980614 10:-0.981132 11:-0.98736 12:-0.9957 13:-0.940541 14:-0.990499 15:-0.944348 16:-0.978571 17:-0.969849 18:-0.971861 19:-0.989071 20:-0.992855 
-8 1:-0.98579 2:-0.945055 3:-0.909627 4:-0.562393 5:-0.940054 6:-0.949963 7:-0.945887 8:-0.899259 9:-0.96769 10:-0.948428 11:-0.916383 12:-0.963988 13:-0.905405 14:-0.984165 15:-0.784348 16:-0.939286 17:-0.936827 18:-0.963203 19:-0.977301 20:-0.991426 
-6.973808442235586 1:-0.952487 2:-0.904096 3:-0.899804 4:-0.617094 5:-0.895368 6:-0.922001 7:-0.938312 8:-0.914074 9:-0.789984 10:-0.92327 11:-0.943607 12:-0.947863 13:-0.824324 14:-0.939034 15:-0.78087 16:-0.940476 17:-0.890883 18:-0.497835 19:-0.957125 20:-0.974991 
-8 1:-0.992451 2:-0.931069 3:-0.931238 4:-0.931624 5:-0.946594 6:-0.92936 7:-0.949134 8:-0.84 9:-0.9063 10:-0.953459 11:-0.969859 12:-0.98925 13:-0.883784 14:-0.97308 15:-0.888696 16:-0.944048 17:-0.951184 18:-0.935065 19:-0.984027 20:-0.982851 
-8 1:-0.974245 2:-0.922078 3:-0.948919 4:-0.832479 5:-0.940054 6:-0.933775 7:-0.939394 8:-0.884444 9:-0.993538 10:-0.986164 11:-0.959164 12:-0.9785 13:-0.875676 14:-0.981789 15:-0.906087 16:-0.95 17:-0.985642 18:-0.984848 19:-0.984027 20:-0.989282 
-2.022963117375217 1:-0.91119 2:-0.734266 3:-0.445972 4:-0.432479 5:-0.680654 6:-0.586461 7:-0.754329 8:-0.294815 9:-0.696284 10:-0.85283 11:-0.68595 12:-0.87369 13:-0.464865 14:-0.868567 15:-0.596522 16:-0.65119 17:-0.816224 18:-0.755411 19:-0.887348 20:-0.902822 
-8 1:-0.980018 2:-0.888112 3:-0.862475 4:-0.723077 5:-0.846322 6:-0.916115 7:-0.896104 8:-0.893333 9:-0.96769 10:-0.932075 11:-0.814293 12:-0.920451 13:-0.840541 14:-0.968329 15:-0.697391 16:-0.872619 17:-0.899497 18:-0.930736 19:-0.973098 20:-0.978564 
-8 1:-0.965808 2:-0.911089 3:-0.921415 4:-0.757265 5:-0.907357 6:-0.927888 7:-0.910173 8:-0.84 9:-0.983845 10:-0.968553 11:-0.88527 12:-0.939264 13:-0.897297 14:-0.970705 15:-0.92 16:-0.919048 17:-0.949749 18:-0.974026 19:-0.977301 20:-0.985709 
-8 1:-0.993339 2:-0.961039 3:-0.907662 4:-0.876923 5:-0.942234 6:-0.92053 7:-0.96645 8:-0.896296 9:-0.948304 10:-0.945912 11:-0.963053 12:-0.9871 13:-0.92973 14:-0.985748 15:-0.666087 16:-0.944048 17:-0.965542 18:-0.987013 19:-0.984027 20:-0.987853 
-8 1:-0.981794 2:-0.815185 3:-0.738703 4:-0.747009 5:-0.824523 6:-0.821928 7:-0.824675 8:-0.819259 9:-0.825525 10:-0.810063 11:-0.846378 12:-0.934426 13:-0.759459 14:-0.920032 15:-0.853913 16:-0.822619 17:-0.811917 18:-0.818182 19:-0.922657 20:-0.929975 
-2.493272764739956 1:-1 2:-0.987013 3:-0.927308 4:-0.11453 5:-0.961853 6:-0.945548 7:-0.992424 8:-0.914074 9:-0.909532 10:-0.913208 11:-0.937773 12:-0.994625 13:-0.940541 14:-0.996041 15:-0.165217 16:-0.958333 17:-0.867911 18:-0.97619 19:-0.969735 20:-0.982136 
-0.9272765361107898 1:-0.935613 2:-0.572428 3:-0.440079 4:-0.42906 5:-0.543324 6:-0.582046 7:-0.580087 8:-0.715556 9:-0.896607 10:0.0100629 11:-0.377735 12:-0.797904 13:-0.391892 14:-0.794933 15:-0.815652 16:-0.479762 17:0.392678 18:-0.748918 19:-0.760404 20:-0.738478 
-8 1:-0.957815 2:-0.885115 3:-0.874263 4:-0.675214 5:-0.912807 6:-0.913171 7:-0.895022 8:-0.804444 9:-0.815832 10:-0.942138 11:-0.929023 12:-0.982263 13:-0.843243 14:-0.885194 15:-0.68 16:-0.914286 17:-0.919598 18:-0.787879 19:-0.820092 20:-0.977135 
-8 1:-0.99556 2:-0.982018 3:-0.952849 4:-0.852991 5:-0.981471 6:-0.97351 7:-0.977273 8:-0.952593 9:-0.983845 10:-0.979874 11:-0.977637 12:-0.9914 13:-0.967568 14:-0.98654 15:-0.815652 16:-0.975 17:-0.968413 18:-0.95671 19:-0.98739 20:-0.99214 
-8 1:-0.992007 2:-0.937063 3:-0.917485 4:-0.729915 5:-0.953134 6:-0.949963 7:-0.954545 8:-0.745185 9:-0.896607 10:-0.961006 11:-0.96597 12:-0.992475 13:-0.908108 14:-0.961995 15:-0.683478 16:-0.95119 17:-0.966978 18:-0.902597 19:-0.981505 20:-0.97642 
-8 1:-0.994671 2:-0.963037 3:-0.929273 4:-0.870085 5:-0.962943 6:-0.954378 7:-0.945887 8:-0.946667 9:-0.951535 10:-0.971069 11:-0.966942 12:-0.988713 13:-0.943243 14:-0.973872 15:-0.913043 16:-0.959524 17:-0.926777 18:-0.952381 19:-0.973098 20:-0.971418 
-8 1:-0.974245 2:-0.828172 3:-0.923379 4:-0.733333 5:-0.845232 6:-0.9117 7:-0.796537 8:-0.908148 9:-0.925687 10:-0.919497 11:-0.854157 12:-0.888202 13:-0.840541 14:-0.950911 15:-0.826087 16:-0.877381 17:-0.935391 18:-0.84632 19:-0.925179 20:-0.870668 
-8 1:-0.975133 2:-0.884116 3:-0.844794 4:-0.818803 5:-0.911717 6:-0.908756 7:-0.880952 8:-0.822222 9:-0.928918 10:-0.952201 11:-0.9193 12:-0.966138 13:-0.808108 14:-0.922407 15:-0.853913 16:-0.92381 17:-0.899497 18:-0.891775 19:-0.946196 20:-0.936406 
-8 1:-0.999112 2:-0.993007 3:-0.956778 4:-0.880342 5:-0.981471 6:-0.967623 7:-0.983766 8:-0.896296 9:-0.996769 10:-0.988679 11:-0.980554 12:-0.9957 13:-0.937838 14:-0.997625 15:-0.892174 16:-0.982143 17:-0.974156 18:-0.993506 19:-0.994956 20:-0.993569 
-8 1:-0.98579 2:-0.966034 3:-0.952849 4:-0.94188 5:-0.972752 6:-0.949963 7:-0.963203 8:-0.973333 9:-0.922456 10:-0.974843 11:-0.982499 12:-0.988175 13:-0.954054 14:-0.971496 15:-0.895652 16:-0.964286 17:-0.959799 18:-0.917749 19:-0.944515 20:-0.977849 
-8 1:-0.984458 2:-0.917083 3:-0.833006 4:-0.788034 5:-0.907357 6:-0.90287 7:-0.942641 8:-0.84 9:-0.961228 10:-0.958491 11:-0.890131 12:-0.969901 13:-0.840541 14:-0.961203 15:-0.874783 16:-0.908333 17:-0.958363 18:-0.9329 19:-0.964691 20:-0.989282 
-8 1:-0.990231 2:-0.908092 3:-0.854617 4:-0.788034 5:-0.934605 6:-0.892568 7:-0.917749 8:-0.822222 9:-0.886914 10:-0.898113 11:-0.935829 12:-0.9785 13:-0.864865 14:-0.940618 15:-0.735652 16:-0.907143 17:-0.892319 18:-0.829004 19:-0.965532 20:-0.955698 
-8 1:-0.996448 2:-0.967033 3:-0.964637 4:-0.921368 5:-0.980381 6:-0.97351 7:-0.971861 8:-0.961481 9:-0.964459 10:-0.98239 11:-0.986388 12:-0.99785 13:-0.967568 14:-0.988915 15:-0.933913 16:-0.988095 17:-0.981335 18:-0.965368 19:-0.985708 20:-0.991426 
-8 1:-0.995115 2:-0.956044 3:-0.927308 4:-0.760684 5:-0.947684 6:-0.95585 7:-0.965368 8:-0.851852 9:-0.886914 10:-0.942138 11:-0.979582 12:-0.98925 13:-0.908108 14:-0.977039 15:-0.815652 16:-0.957143 17:-0.945441 18:-0.945887 19:-0.973939 20:-0.977135 
-3.430218097954116 1:-0.919183 2:-0.719281 3:-0.831041 4:-0.606838 5:-0.813624 6:-0.866078 7:-0.685065 8:-0.733333 9:-0.848142 10:-0.908176 11:-0.7579 12:-0.821553 13:-0.732432 14:-0.895487 15:-0.732174 16:-0.816667 17:-0.863604 18:-0.835498 19:-0.92686 20:-0.897106 
-1.359797712011745 1:-0.9254 2:-0.657343 3:-0.664047 4:-0.644444 5:-0.368937 6:-0.673289 7:-0.733766 8:-0.712593 9:-0.948304 10:-0.724528 11:-0.376762 12:-0.669444 13:-0.418919 14:-0.94616 15:-0.822609 16:-0.553571 17:-0.804738 18:-0.971861 19:-0.934426 20:-0.932119 
-8 1:-0.945826 2:-0.875125 3:-0.829077 4:-0.497436 5:-0.921526 6:-0.860191 7:-0.86039 8:-0.854815 9:-0.747981 10:-0.943396 11:-0.9193 12:-0.954313 13:-0.835135 14:-0.859066 15:-0.798261 16:-0.888095 17:-0.916726 18:-0.690476 19:-0.911728 20:-0.932833 
-8 1:-0.934281 2:-0.846154 3:-0.909627 4:-0.852991 5:-0.906267 6:-0.9117 7:-0.857143 8:-0.908148 9:-0.964459 10:-0.944654 11:-0.818182 12:-0.924214 13:-0.872973 14:-0.953286 15:-0.92 16:-0.872619 17:-0.916726 18:-0.9329 19:-0.978983 20:-0.970704 
-8 1:-0.986234 2:-0.926074 3:-0.923379 4:-0.835897 5:-0.932425 6:-0.94702 7:-0.929654 8:-0.887407 9:-0.854604 10:-0.968553 11:-0.946524 12:-0.956463 13:-0.894595 14:-0.984165 15:-0.92 16:-0.94881 17:-0.959799 18:-0.900433 19:-0.985708 20:-0.985709 
-8 1:-0.987123 2:-0.926074 3:-0.911591 4:-0.623932 5:-0.930245 6:-0.935247 7:-0.927489 8:-0.798519 9:-0.951535 10:-0.728302 11:-0.961108 12:-0.9871 13:-0.764865 14:-0.980206 15:-0.693913 16:-0.95 17:-0.909548 18:-0.937229 19:-0.97562 20:-0.96856 
-8 1:-0.986234 2:-0.914086 3:-0.862475 4:-0.852991 5:-0.918256 6:-0.914643 7:-0.909091 8:-0.89037 9:-0.912763 10:-0.864151 11:-0.933884 12:-0.969901 13:-0.881081 14:-0.948535 15:-0.913043 16:-0.914286 17:-0.866475 18:-0.859307 19:-0.952921 20:-0.936406 
-8 1:-0.996004 2:-0.978022 3:-0.964637 4:-0.900855 5:-0.983651 6:-0.979397 7:-0.972944 8:-0.94963 9:-0.993538 10:-0.954717 11:-0.976665 12:-0.993013 13:-0.97027 14:-0.982581 15:-0.968696 16:-0.972619 17:-0.968413 18:-0.987013 19:-0.991593 20:-0.991426 
-8 1:-0.97913 2:-0.939061 3:-0.964637 4:-0.887179 5:-0.942234 6:-0.952907 7:-0.933983 8:-0.931852 9:-0.893376 10:-0.977358 11:-0.908605 12:-0.961838 13:-0.954054 14:-0.973872 15:-0.874783 16:-0.963095 17:-0.968413 18:-0.958874 19:-0.981505 20:-0.975706 
-8 1:-0.974245 2:-0.904096 3:-0.836935 4:-0.634188 5:-0.851771 6:-0.84989 7:-0.911255 8:-0.801481 9:-0.909532 10:-0.889308 11:-0.913466 12:-0.968826 13:-0.764865 14:-0.939826 15:-0.78087 16:-0.889286 17:-0.889447 18:-0.880952 19:-0.955443 20:-0.95284 
-8 1:-0.992895 2:-0.973027 3:-0.968566 4:-0.928205 5:-0.981471 6:-0.986755 7:-0.980519 8:-0.943704 9:-0.980614 10:-0.991195 11:-0.986388 12:-0.98925 13:-0.943243 14:-0.988915 15:-0.958261 16:-0.982143 17:-0.995693 18:-0.984848 19:-0.991593 20:-0.994998 
-8 1:-0.986679 2:-0.92008 3:-0.868369 4:-0.68547 5:-0.910627 6:-0.901398 7:-0.909091 8:-0.872593 9:-0.705977 10:-0.92956 11:-0.962081 12:-0.981188 13:-0.835135 14:-0.931116 15:-0.826087 16:-0.897619 17:-0.913855 18:-0.805195 19:-0.942833 20:-0.967131 
-2.562820474635596 1:-0.959147 2:-0.843157 3:-0.683694 4:-0.617094 5:-0.787466 6:-0.824871 7:-0.878788 8:-0.602963 9:-0.925687 10:-0.899371 11:-0.891104 12:-0.952163 13:-0.686486 14:-0.958036 15:-0.787826 16:-0.842857 17:-0.899497 18:-0.919913 19:-0.96385 20:-0.959271 
-8 1:-0.992007 2:-0.957043 3:-0.956778 4:-0.897436 5:-0.960763 6:-0.951435 7:-0.949134 8:-0.925926 9:-0.954766 10:-0.939623 11:-0.951386 12:-0.985488 13:-0.948649 14:-0.977831 15:-0.888696 16:-0.967857 17:-0.929648 18:-0.950216 19:-0.915931 20:-0.900679 
-8 1:-0.985346 2:-0.944056 3:-0.913556 4:-0.873504 5:-0.957493 6:-0.932303 7:-0.945887 8:-0.884444 9:-0.903069 10:-0.955975 11:-0.964025 12:-0.985488 13:-0.924324 14:-0.972288 15:-0.874783 16:-0.953571 17:-0.984207 18:-0.876623 19:-0.986549 20:-0.965702 
-8 1:-0.998668 2:-0.978022 3:-0.978389 4:-0.969231 5:-0.970572 6:-0.97351 7:-0.988095 8:-0.937778 9:-0.970921 10:-0.989937 11:-0.98736 12:-0.99355 13:-0.945946 14:-0.996041 15:-0.961739 16:-0.985714 17:-0.981335 18:-0.993506 19:-0.994115 20:-0.997142 
-8 1:-0.986679 2:-0.911089 3:-0.927308 4:-0.952137 5:-0.944414 6:-0.936718 7:-0.928571 8:-0.887407 9:-0.896607 10:-0.981132 11:-0.928051 12:-0.971513 13:-0.927027 14:-0.980206 15:-0.909565 16:-0.944048 17:-0.971285 18:-0.965368 19:-0.981505 20:-0.987138 
-0.5464226136358351 1:-0.941385 2:-0.883117 3:-0.801572 4:-0.37094 5:-0.833243 6:-0.829286 7:-0.867965 8:-0.73037 9:-0.628433 10:-0.836478 11:-0.925134 12:-0.918839 13:-0.651351 14:-0.915281 15:-0.551304 16:-0.872619 17:-0.883704 18:-0.798701 19:-0.913409 20:-0.909968 
-8 1:-0.999112 2:-0.988012 3:-0.966601 4:-0.852991 5:-0.978202 6:-0.972038 7:-0.99026 8:-0.905185 9:-0.993538 10:-0.969811 11:-0.981526 12:-0.99785 13:-0.951351 14:-0.996833 15:-0.655652 16:-0.985714 17:-0.965542 18:-0.995671 19:-0.994956 20:-0.99214 
-8 1:-0.996004 2:-0.985015 3:-0.972495 4:-0.928205 5:-0.986921 6:-0.983812 7:-0.981602 8:-0.955556 9:-0.93538 10:-0.974843 11:-0.98736 12:-0.995163 13:-0.978378 14:-0.982581 15:-0.958261 16:-0.982143 17:-0.98995 18:-0.95671 19:-0.981505 20:-0.986424 
-8 1:-0.998668 2:-0.986014 3:-0.960707 4:-0.883761 5:-0.989101 6:-0.977925 7:-0.983766 8:-0.94963 9:-0.728595 10:-0.988679 11:-0.994166 12:-0.995163 13:-0.967568 14:-0.988915 15:-0.871304 16:-0.986905 17:-0.998564 18:-0.848485 19:-0.984868 20:-0.989996 
-8 1:-0.944938 2:-0.836164 3:-0.752456 4:-0.784615 5:-0.844142 6:-0.777778 7:-0.835498 8:-0.748148 9:-0.693053 10:-0.92327 11:-0.811376 12:-0.937114 13:-0.794595 14:-0.885986 15:-0.808696 16:-0.794048 17:-0.89519 18:-0.78355 19:-0.931063 20:-0.957842 
-8 1:-0.997336 2:-0.984016 3:-0.980354 4:-0.935043 5:-0.980381 6:-0.976453 7:-0.987013 8:-0.967407 9:-0.941842 10:-0.966038 11:-0.993194 12:-0.99785 13:-0.962162 14:-0.985748 15:-0.92 16:-0.978571 17:-0.98995 18:-0.954545 19:-0.971417 20:-0.981422 
-8 1:-0.992895 2:-0.961039 3:-0.952849 4:-0.825641 5:-0.958583 6:-0.954378 7:-0.969697 8:-0.925926 9:-0.919225 10:-0.939623 11:-0.949441 12:-0.986563 13:-0.92973 14:-0.974663 15:-0.888696 16:-0.960714 17:-0.926777 18:-0.9329 19:-0.964691 20:-0.963558 
-8 1:-0.991119 2:-0.969031 3:-0.915521 4:-0.904274 5:-0.950954 6:-0.944077 7:-0.97619 8:-0.896296 9:-0.990307 10:-0.994969 11:-0.948469 12:-0.98065 13:-0.940541 14:-0.990499 15:-0.864348 16:-0.966667 17:-0.987078 18:-0.993506 19:-0.994956 20:-0.997142 
-8 1:-0.995115 2:-0.962038 3:-0.923379 4:-0.870085 5:-0.931335 6:-0.932303 7:-0.970779 8:-0.958519 9:-0.93538 10:-0.881761 11:-0.95333 12:-0.9871 13:-0.935135 14:-0.977039 15:-0.874783 16:-0.936905 17:-0.923905 18:-0.917749 19:-0.96301 20:-0.982136 
-8 1:-0.993783 2:-0.975025 3:-0.952849 4:-0.976068 5:-0.972752 6:-0.969095 7:-0.96645 8:-0.955556 9:-0.932149 10:-0.974843 11:-0.985416 12:-0.988713 13:-0.951351 14:-0.981789 15:-0.916522 16:-0.979762 17:-0.972721 18:-0.95671 19:-0.994956 20:-0.978564 
-8 1:-0.996004 2:-0.972028 3:-0.952849 4:-0.606838 5:-0.977112 6:-0.957322 7:-0.965368 8:-0.928889 9:-0.612278 10:-0.776101 11:-0.991249 12:-0.99355 13:-0.959459 14:-0.949327 15:-0.6 16:-0.966667 17:-0.944006 18:-0.941558 19:-0.957125 20:-0.954269 
-8 1:-0.999556 2:-0.996004 3:-0.994106 4:-0.996581 5:-0.99891 6:-0.995585 7:-0.993506 8:-0.985185 9:-0.977383 10:-1 11:-1 12:-0.999463 13:-0.994595 14:-0.998416 15:-0.972174 16:-0.997619 17:-1 18:-0.980519 19:-1 20:-0.998571 
-8 1:-0.996448 2:-0.983017 3:-0.97446 4:-0.921368 5:-0.979292 6:-0.977925 7:-0.982684 8:-0.958519 9:-0.970921 10:-0.984906 11:-0.992222 12:-0.9957 13:-0.967568 14:-0.992874 15:-0.94087 16:-0.988095 17:-0.981335 18:-0.952381 19:-0.995797 20:-0.994284 
-8 1:-1 2:-0.983017 3:-0.94499 4:-0.911111 5:-0.982561 6:-0.969095 7:-0.980519 8:-0.982222 9:-0.993538 10:-0.959748 11:-0.992222 12:-0.995163 13:-0.964865 14:-0.996833 15:-0.923478 16:-0.97381 17:-0.961235 18:-0.991342 19:-1 20:-0.994284 
-2.334409783715765 1:-0.982682 2:-0.894106 3:-0.742633 4:-0.699145 5:-0.815804 6:-0.796909 7:-0.90368 8:-0.70963 9:-0.938611 10:-0.846541 11:-0.827905 12:-0.950013 13:-0.708108 14:-0.969121 15:-0.812174 16:-0.804762 17:-0.803302 18:-0.926407 19:-0.958806 20:-0.980707 
-8 1:-0.993783 2:-0.972028 3:-0.946955 4:-0.890598 5:-0.967302 6:-0.961737 7:-0.968615 8:-0.908148 9:-0.980614 10:-0.974843 11:-0.976665 12:-0.9914 13:-0.916216 14:-0.989707 15:-0.906087 16:-0.972619 17:-0.977028 18:-0.982684 19:-0.986549 20:-0.985709 
-0.9642675179170771 1:-0.68206 2:-0.0529471 3:0.210216 4:0.524786 5:0.227248 6:0.164091 7:-0.0703463 8:0.345185 9:-0.159935 10:-0.0578616 11:0.247448 12:-0.427573 13:0.716216 14:-0.509105 15:-0.151304 16:0.269048 17:-0.190237 18:-0.367965 19:-0.557797 20:-0.621293 
-8 1:-0.982238 2:-0.916084 3:-0.850688 4:-0.846154 5:-0.932425 6:-0.92053 7:-0.893939 8:-0.851852 9:-0.890145 10:-0.955975 11:-0.911522 12:-0.975275 13:-0.881081 14:-0.918448 15:-0.913043 16:-0.896429 17:-0.910983 18:-0.887446 19:-0.941152 20:-0.964273 
-8 1:-0.98579 2:-0.969031 3:-0.986248 4:-0.97265 5:-0.965123 6:-0.972038 7:-0.968615 8:-0.964444 9:-0.84168 10:-0.983648 11:-0.957219 12:-0.974738 13:-0.956757 14:-0.977831 15:-0.961739 16:-0.967857 17:-0.981335 18:-0.984848 19:-0.957966 20:-0.954984 
-8 1:-0.994671 2:-0.985015 3:-0.986248 4:-0.989744 5:-0.985831 6:-0.97351 7:-0.972944 8:-0.955556 9:-0.957997 10:-0.978616 11:-0.985416 12:-0.994625 13:-0.956757 14:-0.992082 15:-0.975652 16:-0.971429 17:-0.978464 18:-0.995671 19:-0.997478 20:-0.99214 
-8 1:-0.982238 2:-0.944056 3:-0.939096 4:-0.880342 5:-0.973842 6:-0.972038 7:-0.949134 8:-0.928889 9:-0.970921 10:-0.969811 11:-0.944579 12:-0.976888 13:-0.910811 14:-0.982581 15:-0.944348 16:-0.964286 17:-0.972721 18:-0.963203 19:-0.984868 20:-0.989996 
-8 1:-0.982238 2:-0.925075 3:-0.862475 4:-0.825641 5:-0.904087 6:-0.89404 7:-0.944805 8:-0.831111 9:-0.951535 10:-0.922013 11:-0.935829 12:-0.959151 13:-0.835135 14:-0.971496 15:-0.86087 16:-0.914286 17:-0.896626 18:-0.952381 19:-0.97562 20:-0.979993 
-8 1:-0.993339 2:-0.977023 3:-0.986248 4:-0.911111 5:-0.99346 6:-0.967623 7:-0.961039 8:-0.908148 9:-0.915994 10:-0.981132 11:-0.994166 12:-0.99785 13:-0.959459 14:-0.973872 15:-0.885217 16:-0.977381 17:-0.994257 18:-0.885281 19:-0.985708 20:-0.991426 
-8 1:-0.990231 2:-0.939061 3:-0.831041 4:-0.781197 5:-0.86049 6:-0.905813 7:-0.954545 8:-0.837037 9:-0.970921 10:-0.928302 11:-0.900826 12:-0.969363 13:-0.802703 14:-0.977831 15:-0.773913 16:-0.919048 17:-0.922469 18:-0.974026 19:-0.969735 20:-0.980707 
-0.8650692486855831 1:-0.866785 2:-0.277722 3:-0.282908 4:-0.0393162 5:-0.104087 6:-0.239146 7:-0.305195 8:-0.28 9:-0.71567 10:-0.179874 11:-0.12105 12:-0.679656 13:-0.0297297 14:-0.649248 15:-0.631304 16:-0.14881 17:-0.214645 18:-0.675325 19:-0.730139 20:-0.7199 
-8 1:-0.994671 2:-0.973027 3:-0.929273 4:-0.74359 5:-0.954223 6:-0.945548 7:-0.962121 8:-0.943704 9:-0.922456 10:-0.908176 11:-0.962081 12:-0.992475 13:-0.913514 14:-0.983373 15:-0.843478 16:-0.963095 17:-0.936827 18:-0.943723 19:-0.97562 20:-0.986424 
-8 1:-0.968472 2:-0.869131 3:-0.882122 4:-0.405128 5:-0.839782 6:-0.882266 7:-0.893939 8:-0.881481 9:-0.880452 10:-0.87673 11:-0.898882 12:-0.915077 13:-0.778378 14:-0.954078 15:-0.586087 16:-0.892857 17:-0.906676 18:-0.902597 19:-0.91425 20:-0.917828 
-8 1:-0.992895 2:-0.943057 3:-0.917485 4:-0.846154 5:-0.943324 6:-0.945548 7:-0.952381 8:-0.834074 9:-0.951535 10:-0.971069 11:-0.969859 12:-0.983338 13:-0.875676 14:-0.973872 15:-0.853913 16:-0.954762 17:-0.961235 18:-0.954545 19:-0.993274 20:-0.985709 
-5.809184201723887 1:-0.929396 2:-0.738262 3:-0.658153 4:-0.77094 5:-0.741689 6:-0.755703 7:-0.807359 8:-0.659259 9:-0.886914 10:-0.915723 11:-0.703452 12:-0.848965 13:-0.621622 14:-0.9327 15:-0.773913 16:-0.770238 17:-0.902369 18:-0.896104 19:-0.949559 20:-0.956413 
-8 1:-0.998668 2:-0.985015 3:-0.962672 4:-0.948718 5:-0.985831 6:-0.969095 7:-0.99026 8:-0.943704 9:-0.954766 10:-0.996226 11:-0.992222 12:-0.998388 13:-0.932432 14:-0.998416 15:-0.947826 16:-0.985714 17:-0.998564 18:-0.969697 19:-0.997478 20:-1 
-8 1:-0.978242 2:-0.87013 3:-0.811395 4:-0.747009 5:-0.858311 6:-0.866078 7:-0.864719 8:-0.703704 9:-0.915994 10:-0.918239 11:-0.909577 12:-0.950551 13:-0.748649 14:-0.950911 15:-0.822609 16:-0.888095 17:-0.89519 18:-0.861472 19:-0.955443 20:-0.922115 
-8 1:-0.996448 2:-0.97003 3:-0.866405 4:-0.808547 5:-0.959673 6:-0.923473 7:-0.969697 8:-0.896296 9:-0.951535 10:-0.977358 11:-0.986388 12:-0.991938 13:-0.927027 14:-0.978622 15:-0.693913 16:-0.954762 17:-0.959799 18:-0.887446 19:-0.952081 20:-0.965702 
-8 1:-0.994671 2:-0.979021 3:-0.94499 4:-0.921368 5:-0.968392 6:-0.963208 7:-0.975108 8:-0.917037 9:-0.977383 10:-0.983648 11:-0.961108 12:-0.991938 13:-0.913514 14:-0.985748 15:-0.951304 16:-0.967857 17:-0.972721 18:-0.971861 19:-0.983186 20:-0.989996 
-8 1:-0.999556 2:-0.991009 3:-0.980354 4:-0.952137 5:-0.99346 6:-0.983812 7:-0.987013 8:-0.952593 9:-0.980614 10:-0.983648 11:-0.997083 12:-0.99785 13:-0.962162 14:-0.996041 15:-0.94087 16:-0.985714 17:-0.984207 18:-0.997835 19:-0.994115 20:-0.994284 
-8 1:-0.994227 2:-0.958042 3:-0.870334 4:-0.411966 5:-0.941144 6:-0.935247 7:-0.961039 8:-0.807407 9:-0.93538 10:-0.928302 11:-0.980554 12:-0.980113 13:-0.891892 14:-0.989707 15:-0.638261 16:-0.965476 17:-0.964106 18:-0.935065 19:-0.980664 20:-0.967846 
-2.956689792908205 1:-0.916075 2:-0.826174 3:-0.709234 4:-0.463248 5:-0.59891 6:-0.701251 7:-0.824675 8:-0.626667 9:-0.919225 10:-0.733333 11:-0.569276 12:-0.739855 13:-0.551351 14:-0.949327 15:-0.603478 16:-0.633333 17:-0.725772 18:-0.922078 19:-0.949559 20:-0.91497 
-8 1:-0.998224 2:-0.987013 3:-0.948919 4:-0.921368 5:-0.984741 6:-0.976453 7:-0.991342 8:-0.94963 9:-0.974152 10:-0.989937 11:-0.995139 12:-0.994625 13:-0.986486 14:-0.994458 15:-0.926957 16:-0.980952 17:-0.992821 18:-0.980519 19:-0.989912 20:-0.992855 
-0.9668163970716115 1:-0.753552 2:-0.0809191 3:0.430255 4:1 5:-0.19455 6:-0.080206 7:-0.121212 8:1 9:1 10:-0.295597 11:-0.171609 12:-0.465198 13:0.305405 14:-0.418052 15:1 16:-0.134524 17:-0.307968 18:-0.106061 19:-0.454393 20:-0.318328 
-8 1:-0.996004 2:-0.99001 3:-0.980354 4:-0.986325 5:-0.986921 6:-0.980868 7:-0.984848 8:-0.973333 9:-0.954766 10:-0.974843 11:-0.986388 12:-0.991938 13:-0.967568 14:-0.990499 15:-0.954783 16:-0.97619 17:-0.978464 18:-0.978355 19:-0.982346 20:-0.99214 
-1.00737679372392 1:-0.691829 2:-0.438561 3:-0.691552 4:-0.521368 5:-0.777657 6:-0.786608 7:-0.324675 8:-0.52 9:-0.760905 10:-0.76478 11:-0.327175 12:-0.633969 13:-0.694595 14:-0.52019 15:-0.516522 16:-0.655952 17:-0.602297 18:-0.632035 19:-0.770492 20:-0.707038 
-1.982255829626585 1:-0.990675 2:-0.938062 3:-0.793713 4:-0.651282 5:-0.883379 6:-0.84989 7:-0.928571 8:-0.677037 9:-0.802908 10:-0.749686 11:-0.921245 12:-0.976888 13:-0.748649 14:-0.97308 15:-0.113043 16:-0.922619 17:-0.844939 18:-0.898268 19:-0.864649 20:-0.850661 
-0.2333256906076862 1:-0.948934 2:-0.853147 3:-0.81336 4:-0.688889 5:-0.895368 6:-0.895511 7:-0.851732 8:-0.718519 9:-0.877221 10:-0.966038 11:-0.831794 12:-0.924751 13:-0.797297 14:-0.928741 15:-0.638261 16:-0.877381 17:-0.913855 18:-0.9329 19:-0.966372 20:-0.959271 
-8 1:-0.99778 2:-0.985015 3:-0.962672 4:-0.883761 5:-0.972752 6:-0.952907 7:-0.984848 8:-0.964444 9:-0.961228 10:-0.983648 11:-0.986388 12:-0.993013 13:-0.948649 14:-0.988124 15:-0.916522 16:-0.966667 17:-0.984207 18:-0.97619 19:-0.994115 20:-0.994284 
-8 1:-0.965808 2:-0.897103 3:-0.852652 4:-0.606838 5:-0.909537 6:-0.910228 7:-0.912338 8:-0.777778 9:-0.864297 10:-0.92327 11:-0.96597 12:-0.970438 13:-0.754054 14:-0.945368 15:-0.686957 16:-0.939286 17:-0.928212 18:-0.833333 19:-0.945355 20:-0.969989 
-8 1:-0.988011 2:-0.92008 3:-0.791749 4:-0.77094 5:-0.86812 6:-0.852833 7:-0.91342 8:-0.765926 9:-0.751212 10:-0.891824 11:-0.910549 12:-0.953776 13:-0.845946 14:-0.970705 15:-0.586087 16:-0.845238 17:-0.90524 18:-0.904762 19:-0.940311 20:-0.945695 
-8 1:-0.995115 2:-0.975025 3:-0.921415 4:-0.699145 5:-0.959673 6:-0.933775 7:-0.969697 8:-0.925926 9:-0.806139 10:-0.796226 11:-0.961108 12:-0.968826 13:-0.948649 14:-0.952494 15:-0.777391 16:-0.927381 17:-0.78033 18:-0.922078 19:-0.861286 20:-0.897821 
-8 1:-0.993783 2:-0.98002 3:-0.933202 4:-0.818803 5:-0.970572 6:-0.960265 7:-0.978355 8:-0.863704 9:-0.919225 10:-0.971069 11:-0.977637 12:-0.994625 13:-0.927027 14:-0.994458 15:-0.829565 16:-0.964286 17:-0.965542 18:-0.978355 19:-0.992434 20:-0.988567 
-8 1:-0.998224 2:-0.977023 3:-0.964637 4:-0.91453 5:-0.990191 6:-0.967623 7:-0.982684 8:-0.914074 9:-0.928918 10:-0.991195 11:-0.996111 12:-0.9957 13:-0.972973 14:-0.991291 15:-0.930435 16:-0.986905 17:-0.984207 18:-0.971861 19:-0.996637 20:-0.992855 
-8 1:-0.992895 2:-0.954046 3:-0.915521 4:-0.85641 5:-0.953134 6:-0.93819 7:-0.964286 8:-0.925926 9:-0.977383 10:-0.934591 11:-0.952358 12:-0.987638 13:-0.921622 14:-0.980206 15:-0.926957 16:-0.954762 17:-0.909548 18:-0.924242 19:-0.954603 20:-0.974991 
-8 1:-0.986679 2:-0.925075 3:-0.860511 4:-0.716239 5:-0.879019 6:-0.880795 7:-0.944805 8:-0.893333 9:-0.896607 10:-0.944654 11:-0.934857 12:-0.973126 13:-0.840541 14:-0.969121 15:-0.84 16:-0.910714 17:-0.961235 18:-0.893939 19:-0.974779 20:-0.979993 
-5.243149280932549 1:-0.986234 2:-0.956044 3:-0.921415 4:-0.928205 5:-0.954223 6:-0.93819 7:-0.959957 8:-0.928889 9:-0.970921 10:-0.96478 11:-0.932912 12:-0.985488 13:-0.935135 14:-0.983373 15:-0.94087 16:-0.946429 17:-0.961235 18:-0.987013 19:-0.98823 20:-0.991426 
-8 1:-0.99556 2:-0.956044 3:-0.909627 4:-0.921368 5:-0.960763 6:-0.951435 7:-0.964286 8:-0.943704 9:-0.912763 10:-0.967296 11:-0.971804 12:-0.989788 13:-0.948649 14:-0.984956 15:-0.94087 16:-0.958333 17:-0.954056 18:-0.952381 19:-0.993274 20:-0.988567 
-8 1:-0.992451 2:-0.958042 3:-0.941061 4:-0.883761 5:-0.956403 6:-0.952907 7:-0.959957 8:-0.881481 9:-0.96769 10:-0.98239 11:-0.964998 12:-0.988713 13:-0.902703 14:-0.980206 15:-0.909565 16:-0.959524 17:-0.972721 18:-0.950216 19:-0.98823 20:-0.979278 
-8 1:-0.996004 2:-0.973027 3:-0.958743 4:-0.931624 5:-0.980381 6:-0.963208 7:-0.97619 8:-0.866667 9:-0.93538 10:-0.979874 11:-0.98736 12:-0.998388 13:-0.937838 14:-0.989707 15:-0.930435 16:-0.988095 17:-0.988514 18:-0.971861 19:-0.990752 20:-0.997856 
-0.9669142802982816 1:-0.505773 2:1 3:1 4:0.350427 5:1 6:1 7:1 8:0.611852 9:0.977383 10:-0.279245 11:1 12:0.129804 13:1 14:-0.0142518 15:-0.04 16:1 17:-0.299354 18:1 19:-0.614124 20:-0.572705 
-8 1:-0.991119 2:-0.935065 3:-0.91945 4:-0.791453 5:-0.954223 6:-0.949963 7:-0.942641 8:-0.922963 9:-0.964459 10:-0.930818 11:-0.955275 12:-0.984413 13:-0.913514 14:-0.962787 15:-0.874783 16:-0.965476 17:-0.921034 18:-0.924242 19:-0.957125 20:-0.96856 
-8 1:-0.9627 2:-0.866134 3:-0.870334 4:-0.702564 5:-0.846322 6:-0.836645 7:-0.864719 8:-0.798519 9:-0.883683 10:-0.763522 11:-0.911522 12:-0.951088 13:-0.756757 14:-0.920823 15:-0.836522 16:-0.866667 17:-0.842067 18:-0.839827 19:-0.889029 20:-0.900679 
-8 1:-0.998224 2:-0.989011 3:-0.994106 4:-1 5:-0.991281 6:-0.994113 7:-0.991342 8:-0.967407 9:-0.987076 10:-0.987421 11:-0.998055 12:-0.996775 13:-0.972973 14:-0.998416 15:-0.993043 16:-0.996429 17:-1 18:-1 19:-0.996637 20:-0.997142 
-2.726992368455866 1:-0.990675 2:-0.909091 3:-0.827112 4:-0.630769 5:-0.882289 6:-0.871965 7:-0.908009 8:-0.816296 9:-0.932149 10:-0.930818 11:-0.929023 12:-0.973663 13:-0.87027 14:-0.969913 15:0.0121739 16:-0.911905 17:-0.903805 18:-0.9329 19:-0.96301 20:-0.967131 
-8 1:-0.948934 2:-0.809191 3:-0.768173 4:-0.822222 5:-0.823433 6:-0.768948 7:-0.811688 8:-0.724444 9:-0.657512 10:-0.893082 11:-0.802625 12:-0.900027 13:-0.756757 14:-0.84323 15:-0.874783 16:-0.795238 17:-0.872218 18:-0.852814 19:-0.860446 20:-0.861379 
-8 1:-0.978242 2:-0.883117 3:-0.878193 4:-0.719658 5:-0.886649 6:-0.896983 7:-0.890693 8:-0.828148 9:-0.948304 10:-0.961006 11:-0.898882 12:-0.942489 13:-0.808108 14:-0.962787 15:-0.826087 16:-0.879762 17:-0.94257 18:-0.924242 19:-0.97562 20:-0.983566 
-8 1:-0.971137 2:-0.922078 3:-0.913556 4:-0.815385 5:-0.930245 6:-0.930831 7:-0.926407 8:-0.872593 9:-0.893376 10:-0.945912 11:-0.884298 12:-0.964526 13:-0.886486 14:-0.951702 15:-0.867826 16:-0.886905 17:-0.899497 18:-0.835498 19:-0.965532 20:-0.974991 
-8 1:-0.998668 2:-0.991009 3:-0.984283 4:-0.962393 5:-0.986921 6:-0.994113 7:-0.994589 8:-0.988148 9:-1 10:-0.993711 11:-0.98736 12:-0.997313 13:-0.983784 14:-0.999208 15:-0.968696 16:-0.992857 17:-0.978464 18:-0.995671 19:-0.993274 20:-0.993569 
-8 1:-0.969361 2:-0.915085 3:-0.901768 4:-0.630769 5:-0.938965 6:-0.92936 7:-0.928571 8:-0.837037 9:-0.903069 10:-0.952201 11:-0.962081 12:-0.969363 13:-0.843243 14:-0.969913 15:-0.405217 16:-0.947619 17:-0.951184 18:-0.833333 19:-0.979823 20:-0.984995 
-8 1:-0.988011 2:-0.935065 3:-0.905697 4:-0.863248 5:-0.941144 6:-0.945548 7:-0.945887 8:-0.875556 9:-0.9063 10:-0.957233 11:-0.949441 12:-0.975275 13:-0.905405 14:-0.973872 15:-0.878261 16:-0.938095 17:-0.949749 18:-0.950216 19:-0.982346 20:-0.988567 
-8 1:-0.99778 2:-0.968032 3:-0.907662 4:-0.818803 5:-0.952044 6:-0.916115 7:-0.969697 8:-0.952593 9:-0.961228 10:-0.879245 11:-0.93194 12:-0.976888 13:-0.932432 14:-0.981789 15:-0.815652 16:-0.922619 17:-0.879397 18:-0.958874 19:-0.981505 20:-0.974277 
-8 1:-0.993339 2:-0.971029 3:-0.937132 4:-0.904274 5:-0.948774 6:-0.95585 7:-0.95671 8:-0.893333 9:-0.945073 10:-0.943396 11:-0.968887 12:-0.985488 13:-0.92973 14:-0.983373 15:-0.864348 16:-0.957143 17:-0.971285 18:-0.950216 19:-0.98739 20:-0.98428 
-0.9667560746804664 1:-0.666963 2:0.2997 3:0.353635 4:-0.100855 5:-0.0408719 6:0.159676 7:0.698052 8:-0.00148148 9:0.0436187 10:1 11:0.313563 12:-0.446385 13:0.332432 14:1 15:-0.68 16:0.375 17:1 18:0.510823 19:1 20:1 
-8 1:-0.995115 2:-0.974026 3:-0.960707 4:-0.811966 5:-0.982561 6:-0.970567 7:-0.968615 8:-0.946667 9:-0.854604 10:-0.930818 11:-0.993194 12:-0.997313 13:-0.978378 14:-0.957245 15:-0.791304 16:-0.980952 17:-0.958363 18:-0.941558 19:-0.927701 20:-0.953555 
-8 1:-0.980906 2:-0.922078 3:-0.886051 4:-0.723077 5:-0.948774 6:-0.922001 7:-0.941558 8:-0.837037 9:-0.909532 10:-0.966038 11:-0.981526 12:-0.987638 13:-0.872973 14:-0.971496 15:-0.70087 16:-0.954762 17:-0.972721 18:-0.919913 19:-0.978142 20:-0.977849 
-0.3818646141826889 1:-0.992007 2:-0.952048 3:-0.923379 4:-0.870085 5:-0.947684 6:-0.963208 7:-0.957792 8:-0.798519 9:-0.941842 10:-0.963522 11:-0.968887 12:-0.985488 13:-0.886486 14:-0.988124 15:-0.84 16:-0.963095 17:-0.972721 18:-0.967532 19:-0.991593 20:-0.992855 
-8 1:-0.977798 2:-0.927073 3:-0.856582 4:-0.719658 5:-0.826703 6:-0.829286 7:-0.920996 8:-0.792593 9:-0.848142 10:-0.83522 11:-0.858046 12:-0.949476 13:-0.754054 14:-0.947743 15:-0.833043 16:-0.853571 17:-0.866475 18:-0.863636 19:-0.962169 20:-0.954984 
-8 1:-0.988899 2:-0.973027 3:-0.935167 4:-0.935043 5:-0.941144 6:-0.952907 7:-0.967532 8:-0.943704 9:-0.96769 10:-0.927044 11:-0.927078 12:-0.960763 13:-0.92973 14:-0.980998 15:-0.961739 16:-0.95 17:-0.88514 18:-0.963203 19:-0.967213 20:-0.972847 
-6.725491469469649 1:-0.924512 2:-0.744256 3:-0.667976 4:-0.582906 5:-0.760218 6:-0.742458 7:-0.753247 8:-0.712593 9:-0.903069 10:-0.916981 11:-0.80457 12:-0.910239 13:-0.654054 14:-0.911322 15:-0.773913 16:-0.807143 17:-0.896626 18:-0.850649 19:-0.948718 20:-0.957128 
-8 1:-0.989343 2:-0.942058 3:-0.946955 4:-0.921368 5:-0.961853 6:-0.93819 7:-0.944805 8:-0.92 9:-0.796446 10:-0.92956 11:-0.962081 12:-0.9828 13:-0.92973 14:-0.920032 15:-0.766957 16:-0.94881 17:-0.933955 18:-0.909091 19:-0.952081 20:-0.946409 
-8 1:-0.998224 2:-0.993007 3:-0.994106 4:-0.965812 5:-0.99455 6:-0.994113 7:-0.993506 8:-0.988148 9:-0.983845 10:-0.988679 11:-1 12:-1 13:-0.989189 14:-0.999208 15:-0.97913 16:-1 17:-0.991385 18:-0.982684 19:-0.995797 20:-0.993569 
-8 1:-0.986679 2:-0.94006 3:-0.897839 4:-0.835897 5:-0.949864 6:-0.92936 7:-0.931818 8:-0.86963 9:-0.925687 10:-0.925786 11:-0.932912 12:-0.970976 13:-0.918919 14:-0.965162 15:-0.822609 16:-0.932143 17:-0.945441 18:-0.928571 19:-0.984868 20:-0.972847 
-8 1:-0.999556 2:-0.974026 3:-0.972495 4:-0.965812 5:-0.99346 6:-0.986755 7:-0.962121 8:-0.973333 9:-0.854604 10:-0.968553 11:-0.997083 12:-0.999463 13:-0.975676 14:-0.967538 15:-0.951304 16:-0.980952 17:-0.918162 18:-0.746753 19:-0.930223 20:-0.958557 
-8 1:-0.977798 2:-0.887113 3:-0.909627 4:-0.767521 5:-0.938965 6:-0.910228 7:-0.87987 8:-0.834074 9:-0.903069 10:-0.930818 11:-0.900826 12:-0.961838 13:-0.872973 14:-0.958828 15:-0.836522 16:-0.914286 17:-0.921034 18:-0.874459 19:-0.972257 20:-0.967131 
-8 1:-0.996892 2:-0.974026 3:-0.946955 4:-0.948718 5:-0.976022 6:-0.966152 7:-0.982684 8:-0.931852 9:-0.938611 10:-0.984906 11:-0.992222 12:-0.996238 13:-0.959459 14:-0.996833 15:-0.923478 16:-0.975 17:-0.982771 18:-0.965368 19:-0.986549 20:-0.994998 
-8 1:-1 2:-0.993007 3:-0.984283 4:-0.965812 5:-0.99346 6:-0.988227 7:-0.998918 8:-0.982222 9:-0.993538 10:-0.992453 11:-0.995139 12:-0.998925 13:-0.981081 14:-0.999208 15:-0.972174 16:-0.99881 17:-0.994257 18:-0.997835 19:-0.999159 20:-0.999285 
-0.6939676466187445 1:-0.914298 2:-0.588412 3:-0.353635 4:-0.182906 5:-0.433243 6:-0.467255 7:-0.689394 8:-0.54963 9:-0.770598 10:-0.767296 11:-0.379679 12:-0.780167 13:-0.416216 14:-0.867775 15:-0.554783 16:-0.417857 17:-0.669777 18:-0.798701 19:-0.910887 20:-0.916399 
-8 1:-0.998668 2:-0.969031 3:-0.954813 4:-0.818803 5:-0.961853 6:-0.948492 7:-0.970779 8:-0.875556 9:-0.864297 10:-0.98239 11:-0.981526 12:-0.9914 13:-0.9 14:-0.984165 15:-0.766957 16:-0.965476 17:-0.966978 18:-0.917749 19:-0.984027 20:-0.987853 
-0.8934454499025974 1:-0.956927 2:-0.734266 3:-0.654224 4:-0.661538 5:-0.695913 6:-0.699779 7:-0.790043 8:-0.28 9:-0.670436 10:-0.881761 11:-0.876519 12:-0.916152 13:-0.445946 14:-0.909739 15:-0.721739 16:-0.807143 17:-0.925341 18:-0.751082 19:-0.934426 20:-0.934977 
-3.923422564355517 1:-0.986234 2:-0.864136 3:-0.776031 4:-0.463248 5:-0.794005 6:-0.857248 7:-0.899351 8:-0.76 9:-0.954766 10:-0.783648 11:-0.892076 12:-0.967213 13:-0.686486 14:-0.980206 15:-0.73913 16:-0.880952 17:-0.774587 18:-0.950216 19:-0.982346 20:-0.977849 
-8 1:-0.99778 2:-0.988012 3:-0.990177 4:-0.993162 5:-0.991281 6:-0.98234 7:-0.989177 8:-0.988148 9:-0.983845 10:-0.994969 11:-0.999028 12:-0.999463 13:-0.989189 14:-0.994458 15:-0.982609 16:-0.992857 17:-0.994257 18:-0.971861 19:-0.986549 20:-0.995713 
-2.075675390369043 1:-0.979574 2:-0.893107 3:-0.699411 4:-0.562393 5:-0.784196 6:-0.782193 7:-0.888528 8:-0.786667 9:-0.780291 10:-0.493082 11:-0.725814 12:-0.938726 13:-0.710811 14:-0.937451 15:-0.798261 16:-0.803571 17:-0.490309 18:-0.833333 19:-0.918453 20:-0.934262 
-8 1:-0.993783 2:-0.959041 3:-0.862475 4:-0.791453 5:-0.942234 6:-0.926416 7:-0.940476 8:-0.896296 9:-0.980614 10:-0.969811 11:-0.947496 12:-0.988713 13:-0.924324 14:-0.983373 15:-0.353043 16:-0.941667 17:-0.906676 18:-0.941558 19:-0.971417 20:-0.974991 
-8 1:-0.994227 2:-0.962038 3:-0.968566 4:-0.948718 5:-0.961853 6:-0.977925 7:-0.954545 8:-0.961481 9:-0.96769 10:-0.973585 11:-0.958192 12:-0.972051 13:-0.932432 14:-0.988124 15:-0.933913 16:-0.971429 17:-0.929648 18:-0.917749 19:-0.978142 20:-0.979278 
-3.548231801205147 1:-0.877886 2:-0.559441 3:-0.746562 4:-0.562393 5:-0.828883 6:-0.810155 7:-0.6829 8:-0.274074 9:-0.644588 10:-0.96478 11:-0.883325 12:-0.883902 13:-0.578378 14:-0.912906 15:-0.481739 16:-0.85 17:-0.955492 18:-0.822511 19:-0.965532 20:-0.957128 
-8 1:-0.988455 2:-0.923077 3:-0.958743 4:-0.839316 5:-0.970572 6:-0.958793 7:-0.912338 8:-0.961481 9:-0.896607 10:-0.904403 11:-0.929023 12:-0.98065 13:-0.948649 14:-0.935075 15:-0.829565 16:-0.960714 17:-0.798995 18:-0.748918 19:-0.894914 20:-0.892819 
-8 1:-0.996448 2:-0.982018 3:-0.992141 4:-0.900855 5:-0.983651 6:-0.979397 7:-0.980519 8:-0.955556 9:-0.977383 10:-0.988679 11:-0.988333 12:-0.996775 13:-0.940541 14:-0.996833 15:-0.965217 16:-0.995238 17:-0.987078 18:-0.943723 19:-0.972257 20:-0.989996 
-8 1:-0.985346 2:-0.902098 3:-0.870334 4:-0.723077 5:-0.919346 6:-0.88521 7:-0.892857 8:-0.857778 9:-0.773829 10:-0.919497 11:-0.920272 12:-0.975813 13:-0.886486 14:-0.909739 15:-0.673043 16:-0.879762 17:-0.872218 18:-0.733766 19:-0.949559 20:-0.941408 
-8 1:-0.98579 2:-0.965035 3:-0.909627 4:-0.911111 5:-0.962943 6:-0.945548 7:-0.964286 8:-0.931852 9:-0.948304 10:-0.971069 11:-0.945552 12:-0.98065 13:-0.945946 14:-0.976247 15:-0.864348 16:-0.94881 17:-0.955492 18:-0.980519 19:-0.978142 20:-0.96856 
-2.282023086349319 1:-0.965808 2:-0.86014 3:-0.844794 4:-0.740171 5:-0.851771 6:-0.874908 7:-0.867965 8:-0.635556 9:-0.670436 10:-0.821384 11:-0.893048 12:-0.924214 13:-0.745946 14:-0.894695 15:-0.829565 16:-0.87381 17:-0.816224 18:-0.709957 19:-0.936948 20:-0.92926 
-8 1:-0.988011 2:-0.926074 3:-0.948919 4:-0.887179 5:-0.960763 6:-0.948492 7:-0.937229 8:-0.908148 9:-0.990307 10:-0.983648 11:-0.947496 12:-0.984413 13:-0.910811 14:-0.98654 15:-0.867826 16:-0.95119 17:-0.966978 18:-0.980519 19:-0.995797 20:-0.990711 
