svm_type c_svc
kernel_type rbf
gamma 0.125
nr_class 2
total_sv 113
rho 5.10165
label 1 -1
nr_sv 55 58
SV
7205.957120565472 1:-0.796296 2:-0.912371 3:-0.958042 4:-0.945368 5:-0.964583 6:-0.957066 7:-0.908999 8:-0.923077 9:-0.889117 10:-0.973518 11:-0.904762 12:-0.939153 13:-0.966057 14:-0.95599 15:-0.884527 16:-0.943169 17:-0.968553 18:-0.956835 19:-0.987471 20:-0.938224 
3153.271719551354 1:-0.218519 2:-0.737113 3:-0.909091 4:-0.750594 5:-0.9 6:-0.810376 7:-0.785642 8:-0.732308 9:-0.351129 10:-0.838588 11:-0.707231 12:-0.828042 13:-0.765013 14:-0.819071 15:-0.616628 16:-0.713661 17:-0.867925 18:-0.834532 19:-0.953015 20:-0.810811 
6518.52854207453 1:-0.540741 2:-0.783505 3:-0.826923 4:-0.836105 5:-0.766667 6:-0.749553 7:-0.902932 8:-0.833846 9:-0.408624 10:-0.923077 11:-0.700176 12:-0.835979 13:-0.869452 14:-0.861451 15:-0.662818 16:-0.873224 17:-0.832285 18:-0.719424 19:-0.866875 20:-0.706564 
8192 1:-0.855556 2:-0.96134 3:-0.973776 4:-0.942993 5:-0.99375 6:-0.985689 7:-0.9818 8:-0.978462 9:-0.819302 10:-0.988651 11:-0.940035 12:-0.968254 13:-0.981723 14:-0.97881 15:-0.91224 16:-0.965027 17:-0.976939 18:-0.960432 19:-0.995301 20:-0.972973 
7603.01106406463 1:-0.548148 2:-0.786082 3:-0.823427 4:-0.845606 5:-0.758333 6:-0.763864 7:-0.830131 8:-0.818462 9:-0.626283 10:-0.891551 11:-0.72134 12:-0.820106 13:-0.851175 14:-0.881011 15:-0.667436 16:-0.809836 17:-0.849057 18:-0.809353 19:-0.935787 20:-0.718147 
8192 1:-0.707407 2:-0.971649 3:-0.963287 4:-0.976247 5:-0.98125 6:-0.985689 7:-0.955511 8:-0.972308 9:-0.667351 10:-0.986129 11:-0.954145 12:-0.941799 13:-0.986945 14:-0.98207 15:-0.935335 16:-0.949727 17:-0.983229 18:-0.985612 19:-0.996868 20:-0.984556 
8192 1:-0.825926 2:-0.917526 3:-0.942308 4:-0.950119 5:-0.93125 6:-0.91771 7:-0.961577 8:-0.941538 9:-0.749487 10:-0.962169 11:-0.968254 12:-0.952381 13:-0.97389 14:-0.96414 15:-0.889145 16:-0.960656 17:-0.920335 18:-0.913669 19:-0.95928 20:-0.861004 
8192 1:-0.711111 2:-0.860825 3:-0.891608 4:-0.864608 5:-0.791667 6:-0.867621 7:-0.915066 8:-0.892308 9:-0.728953 10:-0.882724 11:-0.855379 12:-0.89418 13:-0.906005 14:-0.846781 15:-0.87067 16:-0.818579 17:-0.914046 18:-0.81295 19:-0.920125 20:-0.706564 
8192 1:-0.825926 2:-0.902062 3:-0.91958 4:-0.92399 5:-0.866667 6:-0.896243 7:-0.931244 8:-0.907692 9:-0.7577 10:-0.95082 11:-0.89418 12:-0.920635 13:-0.921671 14:-0.92828 15:-0.875289 16:-0.908197 17:-0.937107 18:-0.866906 19:-0.949883 20:-0.853282 
39.74697087688218 1:-0.444444 2:-0.340206 3:-0.423077 4:-0.375297 5:-0.5 6:-0.381038 7:-0.534884 8:0.0123077 9:-0.404517 10:-0.481715 11:-0.0335097 12:-0.314815 13:-0.075718 14:-0.408313 15:-0.2194 16:-0.471038 17:-0.419287 18:-0.345324 19:-0.622553 20:-0.389961 
8192 1:-0.925926 2:-0.938144 3:-0.966783 4:-0.976247 5:-0.945833 6:-0.9678 7:-0.973711 8:-0.975385 9:-0.86037 10:-0.984868 11:-0.957672 12:-0.962963 13:-0.971279 14:-0.97555 15:-0.953811 16:-0.967213 17:-0.981132 18:-0.956835 19:-0.987471 20:-0.918919 
430.3921603136612 1:-0.414815 2:-0.404639 3:-0.681818 4:-0.510689 5:-0.695833 6:-0.481216 7:-0.747219 8:-0.529231 9:-0.13347 10:-0.532156 11:-0.206349 12:-0.68254 13:-0.506527 14:-0.566422 15:-0.159353 16:-0.663388 17:-0.633124 18:-0.489209 19:-0.693031 20:-0.490347 
8192 1:-0.892593 2:-0.953608 3:-0.97028 4:-0.969121 5:-0.979167 6:-0.974955 7:-0.979778 8:-0.972308 9:-0.880903 10:-0.986129 11:-0.961199 12:-0.965608 13:-0.960836 14:-0.97229 15:-0.889145 16:-0.969399 17:-0.976939 18:-0.967626 19:-0.996868 20:-0.972973 
8192 1:-0.592593 2:-0.845361 3:-0.90035 4:-0.850356 5:-0.772917 6:-0.753131 7:-0.868554 8:-0.883077 9:-0.511294 10:-0.911728 11:-0.802469 12:-0.896825 13:-0.916449 14:-0.90709 15:-0.718245 16:-0.816393 17:-0.886792 18:-0.802158 19:-0.904464 20:-0.72973 
8192 1:-0.7 2:-0.860825 3:-0.914336 4:-0.876485 5:-0.789583 6:-0.864043 7:-0.890799 8:-0.910769 9:-0.650924 10:-0.955864 11:-0.858907 12:-0.912698 13:-0.913838 14:-0.93969 15:-0.787529 16:-0.805464 17:-0.899371 18:-0.856115 19:-0.937353 20:-0.795367 
7079.577775677396 1:-0.562963 2:-0.822165 3:-0.854895 4:-0.881235 5:-0.735417 6:-0.767442 7:-0.870576 8:-0.873846 9:-0.170431 10:-0.931904 11:-0.844797 12:-0.854497 13:-0.874674 14:-0.884271 15:-0.78291 16:-0.816393 17:-0.853249 18:-0.723022 19:-0.92639 20:-0.675676 
8192 1:-0.944444 2:-0.824742 3:-0.743007 4:-0.836105 5:-0.8875 6:-0.842576 7:-0.894843 8:-0.836923 9:-0.868583 10:-0.842371 11:-0.855379 12:-0.812169 13:-0.801567 14:-0.832111 15:-0.921478 16:-0.871038 17:-0.72327 18:-0.773381 19:-0.711825 20:-0.814672 
8192 1:-0.97037 2:-0.969072 3:-0.986014 4:-0.980998 5:-0.985417 6:-0.964222 7:-0.971689 8:-1 9:-0.88501 10:-0.98739 11:-0.985891 12:-0.97619 13:-0.992167 14:-0.98533 15:-0.986143 16:-0.943169 17:-1 18:-1 19:-0.993735 20:-0.984556 
5336.14041899939 1:-0.774074 2:-0.824742 3:-0.916084 4:-0.852732 5:-0.791667 6:-0.785331 7:-0.761375 8:-0.707692 9:-0.806982 10:-0.875158 11:-0.77425 12:-0.793651 13:-0.778068 14:-0.859821 15:-0.833718 16:-0.726776 17:-0.840671 18:-0.723022 19:-0.896633 20:-0.706564 
323.685474252218 1:-0.0814815 2:-0.561856 3:-0.784965 4:-0.577197 5:-0.26875 6:-0.406082 7:-0.18908 8:-0.56 9:-0.0513347 10:-0.815889 11:-0.552028 12:-0.640212 13:-0.684073 14:-0.636512 15:-0.441109 16:0.127869 17:-0.761006 18:-0.489209 19:-0.855912 20:-0.173745 
6067.729989456447 1:-0.696296 2:-0.865979 3:-0.81993 4:-0.947743 5:-0.739583 6:-0.806798 7:-0.939333 8:-0.966154 9:-0.564682 10:-0.98739 11:-0.89418 12:-0.880952 13:-0.890339 14:-0.94295 15:-0.78291 16:-0.943169 17:-0.769392 18:-0.593525 19:-0.763508 20:-0.490347 
8192 1:-0.818519 2:-0.832474 3:-0.931818 4:-0.893112 5:-0.891667 6:-0.921288 7:-0.917088 8:-0.910769 9:-0.63039 10:-0.949559 11:-0.865961 12:-0.912698 13:-0.874674 14:-0.91198 15:-0.82448 16:-0.862295 17:-0.928721 18:-0.870504 19:-0.953015 20:-0.903475 
47.72542413508658 1:-0.722222 2:-0.752577 3:-0.903846 4:-0.638955 5:-0.695833 6:-0.302326 7:-0.518706 8:-0.747692 9:-0.609856 10:-0.872636 11:-0.647266 12:-0.73545 13:-0.822454 14:-0.755501 15:-0.639723 16:-0.436066 17:-0.761006 18:-0.341727 19:-0.862177 20:-0.243243 
2161.767454593357 1:-0.681481 2:-0.876289 3:-0.905594 4:-0.864608 5:-0.883333 6:-0.735242 7:-0.890799 8:-0.895385 9:-0.585216 10:-0.891551 11:-0.890653 12:-0.89418 13:-0.890339 14:-0.895681 15:-0.745958 16:-0.79235 17:-0.867925 18:-0.748201 19:-0.884103 20:-0.749035 
5143.964706390202 1:-0.785185 2:-0.891753 3:-0.933566 4:-0.92399 5:-0.90625 6:-0.871199 7:-0.904954 8:-0.907692 9:-0.782341 10:-0.941992 11:-0.908289 12:-0.939153 13:-0.939948 14:-0.9185 15:-0.893764 16:-0.855738 17:-0.924528 18:-0.892086 19:-0.923258 20:-0.891892 
8192 1:-0.885185 2:-0.940722 3:-0.973776 4:-0.895487 5:-0.758333 6:-0.903399 7:-0.927199 8:-0.938462 9:-0.87269 10:-0.979823 11:-0.94709 12:-0.939153 13:-0.966057 14:-0.93969 15:-0.898383 16:-0.816393 17:-0.958071 18:-0.845324 19:-0.968677 20:-0.818533 
8192 1:-0.77037 2:-0.907216 3:-0.949301 4:-0.964371 5:-0.9375 6:-0.946333 7:-0.945399 8:-0.932308 9:-0.691992 10:-0.978562 11:-0.915344 12:-0.931217 13:-0.966057 14:-0.97229 15:-0.893764 16:-0.934426 17:-0.951782 18:-0.953237 19:-0.974941 20:-0.907336 
3089.527075588041 1:-0.540741 2:-0.907216 3:-0.842657 4:-0.845606 5:-0.820833 6:-0.692308 7:-0.76542 8:-0.710769 9:-0.696099 10:-0.716267 11:-0.873016 12:-0.783069 13:-0.70235 14:-0.812551 15:-0.926097 16:-0.757377 17:-0.750524 18:-0.715827 19:-0.59906 20:-0.671815 
8192 1:-0.833333 2:-0.956186 3:-0.952797 4:-0.966746 5:-0.835417 6:-0.9678 7:-0.975733 8:-0.926154 9:-0.864476 10:-0.997478 11:-0.968254 12:-0.973545 13:-0.976501 14:-0.98044 15:-0.916859 16:-0.97377 17:-0.979036 18:-0.938849 19:-0.974941 20:-0.934363 
442.8292579399881 1:-0.577778 2:-0.474227 3:-0.713287 4:-0.643705 5:-0.70625 6:-0.699463 7:-0.90091 8:-0.664615 9:-0.318275 10:-0.740227 11:-0.379189 12:-0.732804 13:-0.639687 14:-0.722901 15:-0.265589 16:-0.816393 17:-0.595388 18:-0.478417 19:-0.732185 20:-0.598456 
8192 1:-0.792593 2:-0.958763 3:-0.977273 4:-0.969121 5:-0.977083 6:-0.971377 7:-0.971689 8:-0.987692 9:-0.802875 10:-0.994956 11:-0.957672 12:-0.984127 13:-0.979112 14:-0.98533 15:-0.907621 16:-0.975956 17:-0.981132 18:-0.982014 19:-0.992169 20:-0.918919 
570.9998720487247 1:-0.122222 2:-0.737113 3:-0.81993 4:-0.72209 5:-0.685417 6:-0.667263 7:-0.767442 8:-0.716923 9:-0.149897 10:-0.872636 11:-0.724868 12:-0.759259 13:-0.788512 14:-0.815811 15:-0.454965 16:-0.685246 17:-0.769392 18:-0.705036 19:-0.890368 20:-0.698842 
56.74524603318203 1:-0.359259 3:-0.0367133 4:-0.225653 5:-0.35625 6:-0.21288 7:-0.751264 8:-0.172308 9:-0.137577 10:-0.112232 11:-0.100529 12:-0.269841 13:-0.00522193 14:-0.209454 15:-0.0161663 16:-0.523497 17:0.0691824 18:0.276978 19:-0.0164448 20:0.142857 
5842.20273453713 1:-0.618519 2:-0.837629 3:-0.837413 4:-0.904988 5:-0.925 6:-0.892665 7:-0.894843 8:-0.852308 9:-0.700205 10:-0.928121 11:-0.696649 12:-0.880952 13:-0.848564 14:-0.90057 15:-0.676674 16:-0.901639 17:-0.897275 18:-0.884892 19:-0.943618 20:-0.88417 
79.1420567007977 1:-0.555556 2:-0.435567 3:-0.513986 4:-0.524941 5:-0.272917 6:-0.273703 7:-0.36906 8:-0.489231 9:-0.256674 10:-0.754098 11:-0.432099 12:-0.510582 13:-0.556136 14:-0.618582 15:-0.297921 16:-0.32459 17:-0.656184 18:-0.305755 19:-0.77917 20:-0.328185 
312.4081893405432 1:-0.592593 2:-0.476804 3:-0.655594 4:-0.638955 5:-0.4625 6:-0.499106 7:-0.66633 8:-0.643077 9:-0.404517 10:-0.727617 11:-0.488536 12:-0.621693 13:-0.671018 14:-0.696822 15:-0.256351 16:-0.634973 17:-0.490566 18:-0.294964 19:-0.617854 20:-0.274131 
8192 1:-0.918519 2:-0.96134 3:-0.968531 4:-0.971496 5:-0.977083 6:-0.978533 7:-0.967644 8:-0.932308 9:-0.909651 10:-0.992434 11:-0.954145 12:-0.968254 13:-0.958225 14:-0.96577 15:-0.967667 16:-0.965027 17:-0.987421 18:-0.978417 19:-0.989037 20:-0.984556 
8192 1:-0.959259 2:-0.940722 3:-0.965035 4:-0.957245 5:-0.98125 6:-0.957066 7:-0.951466 8:-0.950769 9:-0.954825 10:-0.96343 11:-0.943563 12:-0.960317 13:-0.960836 14:-0.95599 15:-0.949192 16:-0.951913 17:-0.989518 18:-0.971223 19:-0.998434 20:-0.972973 
8192 1:-0.92963 2:-0.974227 3:-0.95979 4:-0.971496 5:-0.95 6:-0.957066 7:-0.955511 8:-0.956923 9:-0.901437 10:-0.979823 11:-0.964727 12:-0.962963 13:-0.979112 14:-0.96414 15:-0.986143 16:-0.934426 17:-0.966457 18:-0.902878 19:-0.954581 20:-0.918919 
350.9285737976429 1:-0.52963 2:-0.438144 3:-0.162587 4:-0.370546 5:-0.466667 6:-0.416816 7:-0.354904 8:-0.32 9:-0.498973 10:-0.622951 11:-0.45679 12:-0.267196 13:-0.321149 14:-0.449063 15:-0.505774 16:-0.440437 17:-0.442348 18:-0.276978 19:-0.586531 20:-0.289575 
2438.855913188544 1:-0.688889 2:-0.786082 3:-0.937063 4:-0.795724 5:-0.8 6:-0.635063 7:-0.745197 8:-0.858462 9:-0.560575 10:-0.912989 11:-0.805996 12:-0.867725 13:-0.903394 14:-0.833741 15:-0.533487 16:-0.630601 17:-0.890985 18:-0.758993 19:-0.913861 20:-0.629344 
515.0859255880695 1:-0.359259 2:-0.572165 3:-0.676573 4:-0.541568 5:-0.416667 6:-0.395349 7:-0.538928 8:-0.523077 9:-0.293634 10:-0.651955 11:-0.534392 12:-0.584656 13:-0.535248 14:-0.590872 15:-0.454965 16:-0.35082 17:-0.662474 18:-0.435252 19:-0.733751 20:-0.378378 
1201.609571651577 1:-0.177778 2:-0.646907 3:-0.671329 4:-0.581948 5:-0.672917 6:-0.724508 7:-0.563195 8:-0.492308 9:-0.281314 10:-0.696091 11:-0.400353 12:-0.526455 13:-0.553525 14:-0.643032 15:-0.339492 16:-0.6 17:-0.660377 18:-0.622302 19:-0.776038 20:-0.637066 
2918.960365056618 1:-0.374074 2:-0.920103 3:-0.973776 4:-0.938242 5:-0.697917 6:-0.796064 7:-0.805865 8:-0.956923 9:-0.383984 10:-0.974779 11:-0.915344 12:-0.955026 13:-0.958225 14:-0.95925 15:-0.875289 16:-0.739891 17:-0.976939 18:-0.798561 19:-0.981206 20:-0.53668 
115.4486273556525 1:-0.251852 2:-0.579897 3:-0.61014 4:-0.691211 5:-0.325 6:-0.456172 7:-0.731041 8:-0.763077 9:-0.149897 10:-0.791929 11:-0.633157 12:-0.706349 13:-0.665796 14:-0.750611 15:-0.43649 16:-0.728962 17:-0.618449 18:-0.0971223 19:-0.600626 20:0.0656371 
8192 1:-0.866667 2:-0.917526 3:-0.935315 4:-0.916865 5:-0.93125 6:-0.881932 7:-0.890799 8:-0.923077 9:-0.88501 10:-0.944515 11:-0.869489 12:-0.941799 13:-0.942559 14:-0.9511 15:-0.939954 16:-0.888525 17:-0.924528 18:-0.888489 19:-0.931088 20:-0.857143 
7398.284247034273 1:-0.748148 2:-0.762887 3:-0.858392 4:-0.833729 5:-0.866667 6:-0.767442 7:-0.862487 8:-0.778462 9:-0.572895 10:-0.882724 11:-0.686067 12:-0.81746 13:-0.804178 14:-0.840261 15:-0.625866 16:-0.857923 17:-0.878407 18:-0.830935 19:-0.948316 20:-0.837838 
870.7867484192475 1:-0.414815 2:-0.685567 3:-0.854895 4:-0.700713 5:-0.795833 6:-0.745975 7:-0.860465 8:-0.778462 9:-0.420945 10:-0.805801 11:-0.587302 12:-0.753968 13:-0.822454 14:-0.778321 15:-0.399538 16:-0.748634 17:-0.765199 18:-0.733813 19:-0.866875 20:-0.718147 
1045.993430385503 1:-0.618519 2:-0.914948 3:-0.937063 4:-0.940618 5:-0.947917 6:-0.878354 7:-0.90091 8:-0.969231 9:-0.540041 10:-0.986129 11:-0.904762 12:-0.933862 13:-0.963446 14:-0.96251 15:-0.829099 16:-0.853552 17:-0.945493 18:-0.902878 19:-0.97964 20:-0.926641 
8192 1:-0.951852 2:-0.963918 3:-0.98951 4:-0.976247 5:-1 6:-0.985689 7:-0.991911 8:-0.990769 9:-0.954825 10:-0.993695 11:-0.968254 12:-0.965608 13:-0.979112 14:-0.98044 15:-0.949192 16:-0.984699 17:-0.983229 18:-0.996403 19:-1 20:-0.980695 
8192 1:-0.877778 2:-0.951031 3:-0.97028 4:-0.964371 5:-0.966667 6:-0.935599 7:-0.965622 8:-0.978462 9:-0.827515 10:-0.978562 11:-0.968254 12:-0.970899 13:-0.971279 14:-0.96903 15:-0.898383 16:-0.923497 17:-0.981132 18:-0.942446 19:-0.987471 20:-0.926641 
6679.882267664671 1:-0.807407 2:-0.904639 3:-0.961538 4:-0.940618 5:-0.925 6:-0.91771 7:-0.949444 8:-0.92 9:-0.819302 10:-0.968474 11:-0.865961 12:-0.957672 13:-0.939948 14:-0.94947 15:-0.778291 16:-0.934426 17:-0.958071 18:-0.830935 19:-0.985904 20:-0.891892 
2572.734306661164 1:-0.240741 2:-0.881443 3:-0.956294 4:-0.914489 5:-0.747917 6:-0.738819 7:-0.813953 8:-0.910769 9:-0.425051 10:-0.977301 11:-0.897707 12:-0.920635 13:-0.950392 14:-0.94458 15:-0.736721 16:-0.794536 17:-0.937107 18:-0.874101 19:-0.984338 20:-0.745174 
8192 1:-0.914815 2:-0.940722 3:-0.97028 4:-0.933492 5:-0.9375 6:-0.932021 7:-0.935288 8:-0.913846 9:-0.901437 10:-0.957125 11:-0.922399 12:-0.920635 13:-0.953003 14:-0.94947 15:-0.903002 16:-0.901639 17:-0.964361 18:-0.931655 19:-0.97964 20:-0.945946 
8.397452762714742 1:-0.496296 2:0.698454 3:1 4:1 5:0.0958333 6:0.9678 7:0.0717897 8:0.781538 9:0.0390144 10:1 11:0.181658 12:1 13:0.997389 14:1 15:0.450346 16:0.829508 17:1 18:1 19:1 20:0.366795 
-12.87815465490911 1:0.381481 2:-0.314433 3:-0.295455 4:-0.182898 5:0.816667 6:1 7:1 8:-0.2 9:0.355236 10:0.10971 11:-0.530864 12:0.460317 13:-0.203655 14:-0.131214 15:0.0254042 16:1 17:-0.215933 18:0.672662 19:0.105717 20:1 
-8192 1:-1 2:-0.994845 3:-0.998252 4:-0.983373 5:-1 6:-0.996422 7:-1 8:-0.984615 9:-1 10:-0.994956 11:-1 12:-0.968254 13:-0.997389 14:-0.99348 15:-0.995381 16:-0.986885 17:-1 18:-1 19:-0.996868 20:-1 
-8192 1:-0.87037 2:-0.938144 3:-0.912587 4:-0.897862 5:-0.908333 6:-0.899821 7:-0.874621 8:-0.898462 9:-0.856263 10:-0.977301 11:-0.943563 12:-0.878307 13:-0.939948 14:-0.9348 15:-0.930716 16:-0.83388 17:-0.928721 18:-0.906475 19:-0.974941 20:-0.899614 
-3266.686210905122 1:-0.485185 2:-0.837629 3:-0.921329 4:-0.890736 5:-0.935417 6:-0.828265 7:-0.787664 8:-0.846154 9:-0.445585 10:-0.85372 11:-0.851852 12:-0.902116 13:-0.903394 14:-0.884271 15:-0.542725 16:-0.761749 17:-0.899371 18:-0.928058 19:-0.949883 20:-0.918919 
-1091.539544989747 1:-0.988889 2:-0.837629 3:-0.833916 4:-0.817102 5:-0.829167 6:-0.774597 7:-0.890799 8:-0.815385 9:-0.897331 10:-0.82976 11:-0.848325 12:-0.81746 13:-0.81201 14:-0.841891 15:-0.884527 16:-0.779235 17:-0.737945 18:-0.780576 19:-0.757244 20:-0.791506 
-8192 1:-0.862963 2:-0.920103 3:-0.907343 4:-0.928741 5:-0.889583 6:-0.939177 7:-0.898888 8:-0.926154 9:-0.848049 10:-0.965952 11:-0.908289 12:-0.896825 13:-0.94517 14:-0.94458 15:-0.930716 16:-0.862295 17:-0.932914 18:-0.884892 19:-0.953015 20:-0.868726 
-4347.784315642523 1:-0.677778 2:-0.943299 3:-0.952797 4:-0.881235 5:-0.9625 6:-0.942755 7:-0.921132 8:-0.935385 9:-0.893224 10:-0.9029 11:-0.880071 12:-0.939153 13:-0.911227 14:-0.885901 15:-0.953811 16:-0.812022 17:-0.960168 18:-0.892086 19:-0.965544 20:-0.880309 
-279.5423353048997 1:-0.551852 2:-0.734536 3:-0.763986 4:-0.807601 5:0.1 6:-0.305903 7:-0.542973 8:-0.846154 9:0.026694 10:-0.896595 11:-0.760141 12:-0.875661 13:-0.822454 14:-0.840261 15:-0.727483 16:-0.663388 17:-0.775681 18:-0.428058 19:-0.635082 20:-0.223938 
-1538.503891460617 1:-0.585185 2:-0.809278 3:-0.88986 4:-0.809976 5:-0.902083 6:-0.871199 7:-0.789687 8:-0.830769 9:-0.548255 10:-0.904161 11:-0.767196 12:-0.838624 13:-0.809399 14:-0.854931 15:-0.662818 16:-0.62623 17:-0.867925 18:-0.816547 19:-0.909162 20:-0.868726 
-8192 1:-0.814815 2:-0.891753 3:-0.893357 4:-0.931116 5:-0.947917 6:-0.949911 7:-0.961577 8:-0.929231 9:-0.827515 10:-0.962169 11:-0.880071 12:-0.902116 13:-0.91906 14:-0.92828 15:-0.861432 16:-0.962842 17:-0.91195 18:-0.866906 19:-0.929522 20:-0.915058 
-45.6613234408862 1:-0.255556 2:-0.298969 3:-0.585664 4:-0.529691 5:-0.485417 6:-0.37746 7:-0.76542 8:-0.624615 9:0.112936 10:-0.596469 11:-0.354497 12:-0.616402 13:-0.532637 14:-0.566422 15:0.0531178 16:-0.628415 17:-0.584906 18:-0.410072 19:-0.801096 20:-0.335907 
-4706.058510087542 1:-0.62963 2:-0.845361 3:-0.903846 4:-0.87886 5:-0.9 6:-0.828265 7:-0.892821 8:-0.744615 9:-0.593429 10:-0.775536 11:-0.72134 12:-0.846561 13:-0.765013 14:-0.845151 15:-0.833718 16:-0.818579 17:-0.84696 18:-0.805755 19:-0.871574 20:-0.779923 
-8192 1:-0.911111 2:-0.981959 3:-0.987762 4:-0.971496 5:-0.977083 6:-0.960644 7:-0.957533 8:-0.975385 9:-0.889117 10:-0.991173 11:-0.978836 12:-0.968254 13:-0.989556 14:-0.97392 15:-0.939954 16:-0.943169 17:-0.974843 18:-0.956835 19:-0.984338 20:-0.945946 
-8192 1:-0.796296 2:-0.863402 3:-0.811189 4:-0.869359 5:-0.90625 6:-0.881932 7:-0.943377 8:-0.889231 9:-0.815195 10:-0.909206 11:-0.805996 12:-0.902116 13:-0.913838 14:-0.881011 15:-0.792148 16:-0.912568 17:-0.834382 18:-0.827338 19:-0.870008 20:-0.88417 
-6359.067509150003 1:-0.551852 2:-0.871134 3:-0.97028 4:-0.847981 5:-0.945833 6:-0.971377 7:-0.880688 8:-0.898462 9:-0.531828 10:-0.953342 11:-0.809524 12:-0.875661 13:-0.911227 14:-0.90709 15:-0.713626 16:-0.844809 17:-0.983229 18:-0.913669 19:-0.987471 20:-0.92278 
-190.2189384752221 1:-0.618519 2:-0.840206 3:-0.798951 4:-0.893112 5:-0.35625 6:-0.867621 7:-0.90091 8:-0.883077 9:-0.50308 10:-0.924338 11:-0.830688 12:-0.902116 13:-0.939948 14:-0.9022 15:-0.792148 16:-0.696175 17:-0.815514 18:-0.744604 19:-0.860611 20:-0.644788 
-8192 1:-0.77037 2:-0.945876 3:-0.986014 4:-0.964371 5:-0.94375 6:-0.939177 7:-0.975733 8:-0.969231 9:-0.7577 10:-0.984868 11:-0.975309 12:-0.97619 13:-0.984334 14:-0.96903 15:-0.944573 16:-0.943169 17:-0.968553 18:-0.960432 19:-0.984338 20:-0.907336 
-8192 1:-0.614815 2:-0.889175 3:-0.926573 4:-0.935867 5:-0.829167 6:-0.881932 7:-0.935288 8:-0.956923 9:-0.556468 10:-0.978562 11:-0.887125 12:-0.955026 13:-0.960836 14:-0.94132 15:-0.810624 16:-0.921311 17:-0.926625 18:-0.863309 19:-0.956147 20:-0.76834 
-8192 1:-0.707407 2:-0.863402 3:-0.931818 4:-0.874109 5:-0.8 6:-0.842576 7:-0.874621 8:-0.910769 9:-0.667351 10:-0.948298 11:-0.816578 12:-0.931217 13:-0.903394 14:-0.898941 15:-0.778291 16:-0.827322 17:-0.916143 18:-0.708633 19:-0.943618 20:-0.687259 
-574.4417991525268 1:-0.537037 2:-0.641753 3:-0.575175 4:-0.570071 5:-0.85625 6:-0.710197 7:-0.815976 8:-0.375385 9:-0.683778 10:-0.568726 11:-0.375661 12:-0.510582 13:-0.365535 14:-0.569682 15:-0.65358 16:-0.742077 17:-0.469602 18:-0.625899 19:-0.536413 20:-0.694981 
-1870.929940993691 1:-0.211111 2:-0.64433 3:-0.557692 4:-0.662708 5:-0.714583 6:-0.534884 7:-0.500506 8:-0.467692 9:-0.511294 10:-0.745271 11:-0.495591 12:-0.624339 13:-0.524804 14:-0.682152 15:-0.602771 16:-0.57377 17:-0.60587 18:-0.690647 19:-0.738449 20:-0.625483 
-188.3623375443399 1:-0.507407 2:0.0386598 3:-0.307692 4:-0.173397 5:-0.39375 6:-0.516995 7:-0.660263 8:-0.16 9:-0.347023 10:-0.201765 11:0.0828924 12:-0.338624 13:-0.0966057 14:-0.297474 15:0.51963 16:-0.451366 17:-0.222222 18:-0.341727 19:-0.450274 20:-0.401544 
-7181.158071602229 1:-0.922222 2:-0.927835 3:-0.933566 4:-0.945368 5:-0.789583 6:-0.88551 7:-0.957533 8:-0.96 9:-0.843943 10:-0.977301 11:-0.932981 12:-0.970899 13:-0.953003 14:-0.97066 15:-0.963048 16:-0.901639 17:-0.968553 18:-0.906475 19:-0.974941 20:-0.830116 
-1936.338879775744 1:-0.511111 2:-0.724227 3:-0.683566 4:-0.684086 5:-0.664583 6:-0.420394 7:-0.781598 8:-0.729231 9:-0.470226 10:-0.790668 11:-0.717813 12:-0.68254 13:-0.618799 14:-0.740831 15:-0.69515 16:-0.650273 17:-0.654088 18:-0.345324 19:-0.581832 20:-0.444015 
-8192 1:-0.896296 2:-0.974227 3:-0.987762 4:-0.971496 5:-0.9375 6:-0.91771 7:-0.929221 8:-0.969231 9:-0.917864 10:-0.998739 11:-0.954145 12:-0.962963 13:-0.966057 14:-0.9837 15:-0.976905 16:-0.897268 17:-0.989518 18:-0.967626 19:-0.992169 20:-0.969112 
-8031.202147486697 1:-0.8 2:-0.904639 3:-0.924825 4:-0.92399 5:-0.872917 6:-0.881932 7:-0.945399 8:-0.867692 9:-0.778234 10:-0.952081 11:-0.858907 12:-0.915344 13:-0.89295 14:-0.92665 15:-0.847575 16:-0.949727 17:-0.93501 18:-0.856115 19:-0.899765 20:-0.814672 
-8192 1:-0.844444 2:-0.963918 3:-0.891608 4:-0.928741 5:-0.8875 6:-0.871199 7:-0.955511 8:-0.898462 9:-0.790554 10:-0.929382 11:-0.940035 12:-0.917989 13:-0.908616 14:-0.94132 15:-0.898383 16:-0.912568 17:-0.920335 18:-0.892086 19:-0.907596 20:-0.868726 
-202.0922802957386 1:-0.274074 2:-0.628866 3:-0.763986 4:-0.68171 5:-0.76875 6:-0.717352 7:-0.690597 8:-0.741538 9:-0.326489 10:-0.827238 11:-0.534392 12:-0.666667 13:-0.772846 14:-0.758761 15:-0.501155 16:-0.639344 17:-0.681342 18:-0.561151 19:-0.771339 20:-0.555985 
-1750.54213293331 1:-0.677778 2:-0.829897 3:-0.898601 4:-0.91924 5:-0.691667 6:-0.838998 7:-0.921132 8:-0.898462 9:-0.560575 10:-0.945776 11:-0.883598 12:-0.933862 13:-0.89295 14:-0.92828 15:-0.769053 16:-0.927869 17:-0.918239 18:-0.791367 19:-0.929522 20:-0.752896 
-8192 1:-0.918519 2:-0.96134 3:-0.966783 4:-0.980998 5:-0.952083 6:-0.978533 7:-0.977755 8:-0.96 9:-0.905544 10:-0.988651 11:-0.943563 12:-0.968254 13:-0.97389 14:-0.98044 15:-0.976905 16:-0.984699 17:-0.974843 18:-0.956835 19:-0.970243 20:-0.965251 
-8192 1:-0.8 2:-0.81701 3:-0.839161 4:-0.826603 5:-0.895833 6:-0.856887 7:-0.890799 8:-0.867692 9:-0.728953 10:-0.89029 11:-0.820106 12:-0.849206 13:-0.86423 14:-0.840261 15:-0.78291 16:-0.84918 17:-0.874214 18:-0.794964 19:-0.923258 20:-0.772201 
-27.68243739199849 1:-0.759259 2:-0.976804 3:-0.751748 4:-0.91924 5:-0.852083 6:-0.552773 7:-0.977755 8:-0.953846 9:-0.843943 10:-0.836066 11:-0.985891 12:-0.97619 13:-0.916449 14:-0.874491 15:-1 16:-0.914754 17:-0.97065 18:-0.97482 19:-0.714957 20:-0.942085 
-3614.260696998956 1:-0.811111 2:-0.917526 3:-0.97028 4:-0.935867 5:-0.852083 6:-0.763864 7:-0.753286 8:-0.953846 9:-0.843943 10:-0.960908 11:-0.929453 12:-0.960317 13:-0.937337 14:-0.96251 15:-0.916859 16:-0.763934 17:-0.937107 18:-0.892086 19:-0.951449 20:-0.903475 
-1012.026377624881 1:-0.1 2:-0.737113 3:-0.856643 4:-0.741093 5:-0.585417 6:-0.706619 7:-0.76542 8:-0.830769 9:-0.117043 10:-0.921816 11:-0.650794 12:-0.865079 13:-0.848564 14:-0.838631 15:-0.441109 16:-0.698361 17:-0.828092 18:-0.719424 19:-0.931088 20:-0.640927 
-4557.69232781453 1:-0.544444 2:-0.796392 3:-0.896853 4:-0.833729 5:-0.745833 6:-0.724508 7:-0.809909 8:-0.870769 9:-0.482546 10:-0.875158 11:-0.724868 12:-0.875661 13:-0.869452 14:-0.876121 15:-0.699769 16:-0.768306 17:-0.832285 18:-0.701439 19:-0.888802 20:-0.625483 
-8192 1:-0.885185 2:-0.914948 3:-0.958042 4:-0.954869 5:-0.966667 6:-0.9678 7:-0.987867 8:-0.916923 9:-0.753593 10:-0.935687 11:-0.918871 12:-0.952381 13:-0.950392 14:-0.96903 15:-0.852194 16:-0.969399 17:-0.943396 18:-0.978417 19:-0.95928 20:-0.980695 
-3873.51476498127 1:-0.877778 2:-0.974227 3:-0.965035 4:-0.983373 5:-0.972917 6:-0.974955 7:-0.959555 8:-0.966154 9:-0.917864 10:-0.982346 11:-0.943563 12:-0.968254 13:-0.976501 14:-0.97229 15:-0.967667 16:-0.965027 17:-0.979036 18:-0.978417 19:-0.97964 20:-0.969112 
-8192 1:-0.818519 2:-0.904639 3:-0.972028 4:-0.912114 5:-0.8875 6:-0.932021 7:-0.822042 8:-0.870769 9:-0.794661 10:-0.948298 11:-0.865961 12:-0.925926 13:-0.911227 14:-0.9348 15:-0.875289 16:-0.846995 17:-0.979036 18:-0.938849 19:-0.985904 20:-0.837838 
-1964.846300268397 1:-0.903704 2:-0.956186 3:-0.95979 4:-0.971496 5:-0.9125 6:-0.91771 7:-0.945399 8:-0.966154 9:-0.897331 10:-0.98739 11:-0.964727 12:-0.965608 13:-0.968668 14:-0.97881 15:-0.986143 16:-0.956284 17:-0.958071 18:-0.917266 19:-0.963978 20:-0.895753 
-1295.098847015909 1:-0.644444 2:-0.832474 3:-0.97028 4:-0.857482 5:-0.875 6:-0.878354 7:-0.896866 8:-0.92 9:-0.026694 10:-0.897856 11:-0.873016 12:-0.941799 13:-0.94517 14:-0.874491 15:-0.806005 16:-0.639344 17:-0.964361 18:-0.895683 19:-0.978074 20:-0.830116 
-8004.398983774781 1:-0.977778 2:-1 3:-1 4:-1 5:-0.983333 6:-0.985689 7:-1 8:-1 9:-0.967146 10:-1 11:-0.996473 12:-1 13:-1 14:-0.99837 15:-0.995381 16:-1 17:-0.997904 18:-0.982014 19:-0.998434 20:-0.980695 
-8192 1:-0.888889 2:-0.971649 3:-0.993007 4:-0.971496 5:-0.989583 6:-0.964222 7:-0.953488 8:-0.956923 9:-0.87269 10:-0.997478 11:-0.964727 12:-0.957672 13:-0.955614 14:-0.97392 15:-0.907621 16:-0.95847 17:-0.987421 18:-0.97482 19:-0.995301 20:-0.957529 
-8192 1:-0.755556 2:-0.899485 3:-0.968531 4:-0.928741 5:-0.902083 6:-0.921288 7:-0.949444 8:-0.923077 9:-0.704312 10:-0.948298 11:-0.922399 12:-0.944444 13:-0.934726 14:-0.9185 15:-0.893764 16:-0.91694 17:-0.958071 18:-0.946043 19:-0.96711 20:-0.930502 
-7035.159197198799 1:-0.388889 2:-0.858247 3:-0.800699 4:-0.88361 5:-0.660417 6:-0.799642 7:-0.874621 8:-0.92 9:-0.437372 10:-0.95082 11:-0.897707 12:-0.806878 13:-0.939948 14:-0.92176 15:-0.861432 16:-0.855738 17:-0.761006 18:-0.690647 19:-0.866875 20:-0.57529 
-299.9139160037843 1:-0.803704 2:-0.804124 3:-0.928322 4:-0.828979 5:-0.71875 6:-0.806798 7:-0.921132 8:-0.92 9:-0.712526 10:-0.924338 11:-0.865961 12:-0.92328 13:-0.913838 14:-0.841891 15:-0.819861 16:-0.822951 17:-0.893082 18:-0.723022 19:-0.935787 20:-0.69112 
-2033.798259718236 1:-0.52963 2:-0.701031 3:-0.818182 4:-0.755344 5:-0.6 6:-0.817531 7:-0.660263 8:-0.772308 9:-0.466119 10:-0.870113 11:-0.717813 12:-0.693122 13:-0.762402 14:-0.817441 15:-0.570439 16:-0.455738 17:-0.802935 18:-0.705036 19:-0.918559 20:-0.30888 
-1618.185350772501 1:-0.840741 2:-0.806701 3:-0.858392 4:-0.805226 5:-0.78125 6:-0.767442 7:-0.913043 8:-0.836923 9:-0.724846 10:-0.799496 11:-0.865961 12:-0.84127 13:-0.848564 14:-0.815811 15:-0.750577 16:-0.84918 17:-0.84696 18:-0.679856 19:-0.755677 20:-0.745174 
-377.5372193507255 1:-0.637037 2:-0.35567 3:-0.52972 4:-0.662708 5:-0.525 6:-0.552773 7:-0.876643 8:-0.627692 9:-0.351129 10:-0.641866 11:-0.537919 12:-0.656085 13:-0.558747 14:-0.612062 15:-0.251732 16:-0.748634 17:-0.587002 18:-0.561151 19:-0.602193 20:-0.521236 
-25.13854649698136 1:0.244444 2:-0.0412371 3:-0.297203 4:0.349169 5:0.0333333 6:0.184258 7:0.358948 8:0.707692 9:0.026694 10:-0.127364 11:0.449735 12:0.140212 13:0.300261 14:0.123064 15:0.464203 16:0.495082 17:-0.0922432 18:0.118705 19:-0.418951 20:0.277992 
-8192 1:-0.818519 2:-0.786082 3:-0.783217 4:-0.831354 5:-0.797917 6:-0.846154 7:-0.868554 8:-0.812308 9:-0.683778 10:-0.894073 11:-0.777778 12:-0.81746 13:-0.832898 14:-0.858191 15:-0.759815 16:-0.836066 17:-0.809224 18:-0.723022 19:-0.821457 20:-0.799228 
-1304.818692707842 1:-0.785185 2:-0.912371 3:-0.93007 4:-0.921615 5:-0.9 6:-0.91771 7:-0.961577 8:-0.923077 9:-0.770021 10:-0.981084 11:-0.890653 12:-0.925926 13:-0.939948 14:-0.94784 15:-0.856813 16:-0.936612 17:-0.899371 18:-0.899281 19:-0.940486 20:-0.888031 
-8192 1:-0.903704 2:-0.951031 3:-0.982517 4:-0.992874 5:-0.972917 6:-1 7:-0.995956 8:-0.981538 9:-0.897331 10:-0.992434 11:-0.957672 12:-0.960317 13:-0.986945 14:-1 15:-0.935335 16:-0.993443 17:-0.983229 18:-0.97482 19:-0.995301 20:-0.918919 
-6482.433673433355 1:-0.52963 2:-0.896907 3:-0.937063 4:-0.966746 5:-0.891667 6:-0.942755 7:-0.925177 8:-0.96 9:-0.474333 10:-0.978562 11:-0.925926 12:-0.960317 13:-0.984334 14:-0.97229 15:-0.879908 16:-0.940984 17:-0.945493 18:-0.94964 19:-0.948316 20:-0.899614 
-2646.191328304392 1:-0.192593 2:-0.631443 3:-0.868881 4:-0.764846 5:-0.604167 6:-0.610018 7:-0.672396 8:-0.621538 9:-0.026694 10:-0.791929 11:-0.52381 12:-0.830688 13:-0.70235 14:-0.778321 15:-0.394919 16:-0.652459 17:-0.87631 18:-0.751799 19:-0.912294 20:-0.571429 
-8192 1:-0.648148 2:-0.768041 3:-0.861888 4:-0.836105 5:-0.8 6:-0.595707 7:-0.848332 8:-0.790769 9:-0.507187 10:-0.924338 11:-0.72134 12:-0.796296 13:-0.804178 14:-0.876121 15:-0.60739 16:-0.805464 17:-0.834382 18:-0.679856 19:-0.913861 20:-0.671815 
-6068.61543895166 1:-0.896296 2:-0.780928 3:-0.944056 4:-0.921615 5:-0.89375 6:-0.906977 7:-0.965622 8:-0.941538 9:-0.811088 10:-0.96343 11:-0.844797 12:-0.899471 13:-0.947781 14:-0.9348 15:-0.764434 16:-0.949727 17:-0.890985 18:-0.881295 19:-0.94675 20:-0.857143 
-8192 1:-0.722222 2:-0.904639 3:-0.975524 4:-0.935867 5:-0.879167 6:-0.828265 7:-0.941355 8:-0.932308 9:-0.511294 10:-0.981084 11:-0.925926 12:-0.968254 13:-0.947781 14:-0.94458 15:-0.769053 16:-0.901639 17:-0.972746 18:-0.877698 19:-0.990603 20:-0.822394 
-8192 1:-0.9 2:-0.914948 3:-0.958042 4:-0.966746 5:-0.9375 6:-0.946333 7:-0.965622 8:-0.956923 9:-0.897331 10:-0.960908 11:-0.929453 12:-0.960317 13:-0.97389 14:-0.96577 15:-0.87067 16:-0.943169 17:-0.964361 18:-0.967626 19:-0.982772 20:-0.930502 
