svm_type c_svc
kernel_type rbf
gamma 0.5
nr_class 2
total_sv 139
rho -3.43985
label 1 -1
nr_sv 68 71
SV
104.141304630384 1:-0.70318 2:-0.808696 3:-0.871212 4:-0.898758 5:-0.813121 6:-0.808696 7:-0.829834 8:-0.828909 9:-0.965418 10:-0.854631 11:-0.922137 12:-0.841235 13:-0.938983 14:-0.884599 15:-0.821074 16:-0.878513 17:-0.975024 18:-0.796807 19:-0.922838 20:-0.745267 
31.49470427016413 1:-0.550059 2:-0.517391 3:-0.785354 4:-0.721108 5:-0.642147 6:-0.637267 7:-0.538122 8:-0.526057 9:-0.667627 10:-0.751465 11:-0.548092 12:-0.541345 13:-0.716949 14:-0.860523 15:-0.779987 16:-0.602901 17:-0.891771 18:-0.709724 19:-0.70504 20:-0.55938 
512 1:-0.856302 2:-0.867391 3:-0.905303 4:-0.883477 5:-0.717694 6:-0.890683 7:-0.854144 8:-0.860374 9:-0.914505 10:-0.878077 11:-0.844275 12:-0.927233 13:-0.9 14:-0.936073 15:-0.953612 16:-0.838622 17:-0.934038 18:-0.764877 19:-0.91537 20:-0.790017 
223.918873780309 1:-0.394582 2:-0.869565 3:-0.907828 4:-0.975167 5:-0.936382 6:-0.918012 7:-0.838674 8:-0.866273 9:-0.956772 10:-0.967175 11:-0.923664 12:-0.953693 13:-0.962712 14:-0.867995 15:-0.935056 16:-0.949229 17:-0.969901 18:-0.91582 19:-0.900436 20:-0.790017 
92.23197544753232 1:-0.81861 2:-0.808696 3:-0.911616 4:-0.91213 5:-0.638171 6:-0.801242 7:-0.820994 8:-0.754179 9:-0.924111 10:-0.810082 11:-0.829008 12:-0.792723 13:-0.9 14:-0.946036 15:-0.904573 16:-0.793291 17:-0.941082 18:-0.741655 19:-0.941506 20:-0.669535 
25.21217457048462 1:-0.634865 2:-0.580435 3:-0.832071 4:-0.753582 5:-0.435388 6:-0.667081 7:-0.633149 8:-0.710914 9:-0.829971 10:-0.491208 11:-0.665649 12:-0.680265 13:-0.727119 14:-0.891241 15:-0.830351 16:-0.648232 17:-0.93724 18:-0.465893 19:-0.88799 20:-0.438898 
512 1:-0.297998 2:-0.852174 3:-0.933081 4:-0.917861 5:-0.781312 6:-0.808696 7:-0.854144 8:-0.705015 9:-0.954851 10:-0.903869 11:-0.917557 12:-0.85226 13:-0.950847 14:-0.944375 15:-0.924453 16:-0.864007 17:-0.978226 18:-0.849057 19:-0.939017 20:-0.679862 
81.80327007790838 1:-0.750294 2:-0.608696 3:-0.837121 4:-0.686724 5:-0.5666 6:-0.709317 7:-0.626519 8:-0.752212 9:-0.898175 10:-0.643611 11:-0.755725 12:-0.711136 13:-0.825424 14:-0.942715 15:-0.87939 16:-0.677244 17:-0.959654 18:-0.593614 19:-0.795893 20:-0.445783 
512 1:-0.672556 2:-0.81087 3:-0.936869 4:-0.919771 5:-0.868787 6:-0.885714 7:-0.838674 8:-0.870206 9:-0.876081 10:-0.89449 11:-0.789313 12:-0.902977 13:-0.874576 14:-0.914487 15:-0.911199 16:-0.827743 17:-0.929555 18:-0.857765 19:-0.911637 20:-0.759036 
512 1:-0.776207 2:-0.804348 3:-0.911616 4:-0.711557 5:-0.66998 6:-0.888199 7:-0.836464 8:-0.771878 9:-0.938521 10:-0.798359 11:-0.880916 12:-0.832415 13:-0.925424 14:-0.970942 15:-0.900596 16:-0.827743 17:-0.965418 18:-0.738752 19:-0.871811 20:-0.710843 
512 1:-0.783274 2:-0.61087 3:-0.828283 4:-0.560649 5:-0.666004 6:-0.731677 7:-0.675138 8:-0.795477 9:-0.915466 10:-0.631887 11:-0.793893 12:-0.656009 13:-0.867797 14:-0.948526 15:-0.868787 16:-0.746147 17:-0.947486 18:-0.666183 19:-0.772246 20:-0.786575 
512 1:-0.780919 2:-0.880435 3:-0.931818 4:-0.929322 5:-0.82505 6:-0.898137 7:-0.889503 8:-0.842675 9:-0.961575 10:-0.852286 11:-0.909924 12:-0.953693 13:-0.937288 14:-0.965131 15:-0.936382 16:-0.887579 17:-0.978866 18:-0.849057 19:-0.940261 20:-0.834768 
401.4065132941308 1:-0.863369 2:-0.913043 3:-0.977273 4:-0.944604 5:-0.856859 6:-0.893168 7:-0.898343 8:-0.917404 9:-0.970221 10:-0.939039 11:-0.920611 12:-0.909592 13:-0.966102 14:-0.957659 15:-0.960239 16:-0.925657 17:-0.975664 18:-0.898403 19:-0.977598 20:-0.759036 
512 1:-0.832744 2:-0.876087 3:-0.914141 4:-0.963706 5:-0.892644 6:-0.88323 7:-0.843094 8:-0.86234 9:-0.95389 10:-0.927315 11:-0.948092 12:-0.889746 13:-0.937288 14:-0.918638 15:-0.884692 16:-0.925657 17:-0.943004 18:-0.869376 19:-0.914126 20:-0.879518 
165.6962235847876 1:-0.844523 2:-0.747826 3:-0.872475 4:-0.661891 5:-0.753479 6:-0.801242 7:-0.790055 8:-0.824975 9:-0.919308 10:-0.781946 11:-0.810687 12:-0.788313 13:-0.832203 14:-0.965961 15:-0.921803 16:-0.802357 17:-0.959654 18:-0.791001 19:-0.813317 20:-0.669535 
117.5047227808174 1:-0.839812 2:-0.763043 3:-0.906566 4:-0.803247 5:-0.693837 6:-0.81118 7:-0.752486 8:-0.846608 9:-0.941402 10:-0.82415 11:-0.914504 12:-0.814774 13:-0.922034 14:-0.954338 15:-0.89397 16:-0.894832 17:-0.96926 18:-0.773585 19:-0.881767 20:-0.63167 
80.94145724241686 1:-0.893993 2:-0.88913 3:-0.890152 4:-0.684814 5:-0.717694 6:-0.940373 7:-0.885083 8:-0.921337 9:-0.962536 10:-0.760844 11:-0.896183 12:-0.891951 13:-0.940678 14:-0.942715 15:-0.89662 16:-0.854941 17:-0.942363 18:-0.808418 19:-0.917859 20:-0.796902 
512 1:-0.853946 2:-0.85 3:-0.909091 4:-0.761223 5:-0.821074 6:-0.828571 7:-0.843094 8:-0.891839 9:-0.932757 10:-0.885111 11:-0.836641 12:-0.830209 13:-0.927119 14:-0.970942 15:-0.943009 16:-0.869447 17:-0.946846 18:-0.811321 19:-0.895457 20:-0.848537 
113.1183225972298 1:-0.856302 2:-0.802174 3:-0.867424 4:-0.808978 5:-0.749503 6:-0.796273 7:-0.805525 8:-0.907571 9:-0.951969 10:-0.772567 11:-0.890076 12:-0.808159 13:-0.925424 14:-0.972603 15:-0.920477 16:-0.893019 17:-0.973743 18:-0.802612 19:-0.84692 20:-0.728055 
512 1:-0.81861 2:-0.893478 3:-0.950758 4:-0.908309 5:-0.860835 6:-0.92795 7:-0.913812 8:-0.93117 9:-0.975985 10:-0.873388 11:-0.931298 12:-0.900772 13:-0.961017 14:-0.974263 15:-0.94831 16:-0.918404 17:-0.993596 18:-0.866473 19:-0.940261 20:-0.810671 
512 1:-0.858657 2:-0.784783 3:-0.90404 4:-0.82808 5:-0.821074 6:-0.719255 7:-0.785635 8:-0.885939 9:-0.940442 10:-0.828839 11:-0.842748 12:-0.746417 13:-0.915254 14:-0.937733 15:-0.854208 16:-0.844062 17:-0.959654 18:-0.753266 19:-0.866833 20:-0.803787 
512 1:-0.759717 2:-0.804348 3:-0.880051 4:-0.902579 5:-0.872763 6:-0.826087 7:-0.767956 8:-0.823009 9:-0.957733 10:-0.908558 11:-0.896183 12:-0.86108 13:-0.944068 14:-0.892071 15:-0.875414 16:-0.907525 17:-0.946206 18:-0.828737 19:-0.855632 20:-0.77969 
512 1:-0.85159 2:-0.943478 3:-0.986111 4:-0.963706 5:-0.864811 6:-0.950311 7:-0.953591 8:-0.919371 9:-0.978866 10:-0.946073 11:-0.940458 12:-0.975744 13:-0.961017 14:-0.988377 15:-0.968191 16:-0.951043 17:-0.996158 18:-0.86357 19:-0.983821 20:-0.820998 
512 1:-0.893993 2:-0.873913 3:-0.939394 4:-0.866285 5:-0.833002 6:-0.858385 7:-0.860773 8:-0.891839 9:-0.972142 10:-0.896835 11:-0.931298 12:-0.878721 13:-0.966102 14:-0.947696 15:-0.923128 16:-0.923844 17:-0.983349 18:-0.843251 19:-0.926571 20:-0.851979 
512 1:-0.70318 2:-0.91087 3:-0.94697 4:-0.938873 5:-0.89662 6:-0.898137 7:-0.909392 8:-0.917404 9:-0.975985 10:-0.920281 11:-0.958779 12:-0.918412 13:-0.983051 14:-0.969282 15:-0.945659 16:-0.965549 17:-0.976305 18:-0.91582 19:-0.931549 20:-0.89673 
512 1:-0.825677 2:-0.936957 3:-0.954545 4:-0.957975 5:-0.904573 6:-0.895652 7:-0.918232 8:-0.913471 9:-0.961575 10:-0.922626 11:-0.916031 12:-0.940463 13:-0.950847 14:-0.958489 15:-0.900596 16:-0.94379 17:-0.976945 18:-0.889695 19:-0.963908 20:-0.803787 
512 1:-0.86808 2:-0.871739 3:-0.926768 4:-0.833811 5:-0.868787 6:-0.88323 7:-0.904972 8:-0.911504 9:-0.964457 10:-0.866354 11:-0.928244 12:-0.900772 13:-0.954237 14:-0.946036 15:-0.903247 16:-0.923844 17:-0.975664 18:-0.857765 19:-0.914126 20:-0.834768 
512 1:-0.915194 2:-0.941304 3:-0.974747 4:-0.994269 5:-0.956262 6:-0.932919 7:-0.949171 8:-0.968535 9:-0.958694 10:-0.950762 11:-0.952672 12:-0.969129 13:-0.976271 14:-0.969282 15:-0.974818 16:-0.952856 17:-0.985271 18:-0.921626 19:-0.983821 20:-0.841652 
52.0851326596084 1:-0.945819 2:-0.813043 3:-0.744949 4:-0.789876 5:-0.833002 6:-0.848447 7:-0.843094 8:-0.897738 9:-0.739673 10:-0.774912 11:-0.845802 12:-0.726571 13:-0.849153 14:-0.261934 15:-0.895295 16:-0.845875 17:-0.654819 18:-0.846154 19:-0.695084 20:-0.907057 
231.7574332053995 1:-0.941107 2:-0.895652 3:-0.941919 4:-0.946514 5:-0.864811 6:-0.932919 7:-0.902762 8:-0.929204 9:-0.970221 10:-0.89449 11:-0.946565 12:-0.962514 13:-0.961017 14:-0.973433 15:-0.941683 16:-0.93291 17:-0.986551 18:-0.872279 19:-0.968886 20:-0.831325 
512 1:-0.575972 2:-0.876087 3:-0.931818 4:-0.954155 5:-0.840954 6:-0.908075 7:-0.867403 8:-0.815143 9:-0.945245 10:-0.946073 11:-0.862595 12:-0.933848 13:-0.955932 14:-0.908676 15:-0.945659 16:-0.885766 17:-0.971182 18:-0.875181 19:-0.950218 20:-0.869191 
278.6417510883737 1:-0.575972 2:-0.71087 3:-0.857323 4:-0.904489 5:-0.650099 6:-0.731677 7:-0.690608 8:-0.555556 9:-0.855908 10:-0.803048 11:-0.79542 12:-0.823594 13:-0.849153 14:-0.863014 15:-0.741551 16:-0.829556 17:-0.898815 18:-0.692308 19:-0.906658 20:-0.380379 
166.7957846681614 1:-0.578327 2:-0.708696 3:-0.808081 4:-0.883477 5:-0.463221 6:-0.771429 7:-0.703867 8:-0.773845 9:-0.926993 10:-0.587339 11:-0.832061 12:-0.816979 13:-0.884746 14:-0.833956 15:-0.766733 16:-0.818676 17:-0.925712 18:-0.529753 19:-0.868077 20:-0.483649 
470.8856685833783 1:-0.879859 2:-0.908696 3:-0.943182 4:-0.931232 5:-0.864811 6:-0.935404 7:-0.922652 8:-0.935103 9:-0.967339 10:-0.920281 11:-0.922137 12:-0.933848 13:-0.961017 14:-0.976754 15:-0.960239 16:-0.911151 17:-0.991034 18:-0.910015 19:-0.960174 20:-0.83821 
416.7045943371518 1:-0.813899 2:-0.928261 3:-0.968434 4:-0.975167 5:-0.872763 6:-0.930435 7:-0.918232 8:-0.876106 9:-0.961575 10:-0.861665 11:-0.917557 12:-0.940463 13:-0.930508 14:-0.970112 15:-0.957588 16:-0.918404 17:-0.982069 18:-0.889695 19:-0.981332 20:-0.724613 
512 1:-0.776207 2:-0.756522 3:-0.892677 4:-0.851003 5:-0.765408 6:-0.853416 7:-0.759116 8:-0.909538 9:-0.965418 10:-0.805393 11:-0.941985 12:-0.836825 13:-0.964407 14:-0.959319 15:-0.892644 16:-0.934723 17:-0.979507 18:-0.782293 19:-0.81705 20:-0.814114 
36.42670187456412 1:-0.957597 2:-0.776087 3:-0.882576 4:-0.799427 5:-0.809145 6:-0.711801 7:-0.763536 8:-0.939036 9:-0.976945 10:-0.786635 11:-0.938931 12:-0.823594 13:-0.954237 14:-0.971773 15:-0.929755 16:-0.900272 17:-0.96862 18:-0.744557 19:-0.830741 20:-0.924269 
512 1:-0.912839 2:-0.980435 3:-0.998737 4:-0.992359 5:-0.940358 6:-0.980124 7:-0.973481 8:-0.972468 9:-0.989433 10:-0.962485 11:-0.981679 12:-0.98677 13:-0.994915 14:-0.995019 15:-0.985421 16:-0.978241 17:-0.998079 18:-0.991292 19:-0.998755 20:-0.851979 
512 1:-0.81861 2:-0.917391 3:-0.97096 4:-0.929322 5:-0.793241 6:-0.935404 7:-0.929282 8:-0.929204 9:-0.967339 10:-0.889801 11:-0.941985 12:-0.940463 13:-0.950847 14:-0.980905 15:-0.969516 16:-0.922031 17:-0.990394 18:-0.904209 19:-0.961419 20:-0.807229 
512 1:-0.893993 2:-1 3:-1 4:-0.984718 5:-0.996024 6:-1 7:-1 8:-0.990167 9:-0.999039 10:-0.981243 11:-1 12:-1 13:-1 14:-1 15:-0.992048 16:-0.996374 17:-0.997438 18:-1 19:-1 20:-0.886403 
361.980657880943 1:-0.981154 2:-0.919565 3:-0.972222 4:-0.82999 5:-0.920477 6:-0.898137 7:-0.927072 8:-0.968535 9:-0.987512 10:-0.962485 11:-0.966412 12:-0.874311 13:-0.979661 14:-0.990868 15:-0.953612 16:-0.914778 17:-0.974384 18:-0.924528 19:-0.92906 20:-0.958692 
512 1:-0.858657 2:-0.782609 3:-0.933081 4:-0.936963 5:-0.753479 6:-0.836025 7:-0.807735 8:-0.838741 9:-0.971182 10:-0.845252 11:-0.920611 12:-0.874311 13:-0.937288 14:-0.959319 15:-0.917826 16:-0.905712 17:-0.980788 18:-0.761974 19:-0.926571 20:-0.73494 
309.1052457816585 1:-0.839812 2:-0.83913 3:-0.94697 4:-0.864374 5:-0.809145 6:-0.868323 7:-0.867403 8:-0.809243 9:-0.979827 10:-0.842907 11:-0.940458 12:-0.865491 13:-0.945763 14:-0.96347 15:-0.928429 16:-0.951043 17:-0.976945 18:-0.869376 19:-0.911637 20:-0.700516 
3.845379118663125 1:-0.766784 2:0.132609 3:-0.334596 4:0.086915 5:-0.304175 6:0.229814 7:-0.0453039 8:-0.691249 9:-0.805956 10:-0.0433763 11:-0.627481 12:0.446527 13:-0.69661 14:-0.809049 15:-0.554672 16:-0.470535 17:-0.81236 18:0.00725689 19:0.0304916 20:-0.425129 
512 1:-0.98351 2:-0.945652 3:-0.950758 4:-0.789876 5:-0.924453 6:-0.950311 7:-0.960221 8:-0.978368 9:-0.985591 10:-0.969519 11:-0.941985 12:-0.907387 13:-0.983051 14:-0.966791 15:-0.939032 16:-0.925657 17:-0.979507 18:-0.918723 19:-0.94524 20:-0.951807 
512 1:-0.877503 2:-0.921739 3:-0.974747 4:-0.929322 5:-0.852883 6:-0.950311 7:-0.927072 8:-0.93117 9:-0.949087 10:-0.885111 11:-0.879389 12:-0.962514 13:-0.925424 14:-0.976754 15:-0.985421 16:-0.873073 17:-0.980788 18:-0.869376 19:-0.976353 20:-0.951807 
512 1:-0.882214 2:-0.936957 3:-0.983586 4:-0.984718 5:-0.94831 6:-0.960248 7:-0.951381 8:-0.929204 9:-0.960615 10:-0.950762 11:-0.955725 12:-0.966924 13:-0.950847 14:-0.974263 15:-0.96554 16:-0.945603 17:-0.978226 18:-0.959361 19:-0.987554 20:-0.862306 
512 1:-0.747939 2:-0.932609 3:-0.968434 4:-0.980898 5:-0.940358 6:-0.970186 7:-0.902762 8:-0.889872 9:-0.964457 10:-0.955451 11:-0.91145 12:-0.958104 13:-0.950847 14:-0.965131 15:-0.946985 16:-0.934723 17:-0.980788 18:-0.898403 19:-0.976353 20:-0.72117 
6.378108716555993 1:-0.790342 2:-0.0869565 3:-0.517677 4:0.142311 5:0.0576541 6:0.157764 7:-0.0872928 8:-0.657817 9:-0.893372 10:-0.132474 11:-0.580153 12:0.23925 13:-0.764407 14:-0.884599 15:-0.626243 16:-0.416138 17:-0.896894 18:0.169811 19:-0.350342 20:-0.318417 
239.651010767291 1:-0.71967 2:-0.730435 3:-0.746212 4:-0.703916 5:-0.666004 6:-0.865839 7:-0.792265 8:-0.744346 9:-0.662824 10:-0.690504 11:-0.632061 12:-0.83462 13:-0.710169 14:-0.775841 15:-0.814447 16:-0.693563 17:-0.802754 18:-0.776488 19:-0.758556 20:-0.652324 
512 1:-0.931684 2:-0.886957 3:-0.953283 4:-0.929322 5:-0.856859 6:-0.922981 7:-0.924862 8:-0.92527 9:-0.958694 10:-0.866354 11:-0.920611 12:-0.949283 13:-0.947458 14:-0.96264 15:-0.945659 16:-0.918404 17:-0.977586 18:-0.880987 19:-0.968886 20:-0.913941 
512 1:-0.936396 2:-0.913043 3:-0.953283 4:-0.921681 5:-0.888668 6:-0.950311 7:-0.909392 8:-0.923304 9:-0.972142 10:-0.950762 11:-0.923664 12:-0.947078 13:-0.964407 14:-0.943545 15:-0.941683 16:-0.925657 17:-0.971182 18:-0.933237 19:-0.957685 20:-0.862306 
512 1:-0.86808 2:-0.96087 3:-0.987374 4:-0.978988 5:-0.932406 6:-0.957764 7:-0.949171 8:-0.911504 9:-0.988473 10:-0.953107 11:-0.969466 12:-0.964719 13:-0.984746 14:-0.995019 15:-0.989397 16:-0.960109 17:-0.994877 18:-0.944848 19:-0.990044 20:-0.920826 
512 1:-0.931684 2:-0.902174 3:-0.967172 4:-0.967526 5:-0.956262 6:-0.930435 7:-0.904972 8:-0.911504 9:-0.987512 10:-0.941383 11:-0.960305 12:-0.933848 13:-0.979661 14:-0.973433 15:-0.957588 16:-0.956482 17:-0.980788 18:-0.950653 19:-0.948973 20:-0.889845 
512 1:-0.891637 2:-0.93913 3:-0.964646 4:-0.936963 5:-0.864811 6:-0.95528 7:-0.960221 8:-0.927237 9:-0.965418 10:-0.960141 11:-0.922137 12:-0.969129 13:-0.954237 14:-0.96347 15:-0.940358 16:-0.923844 17:-0.98399 18:-0.907112 19:-0.968886 20:-0.893287 
4.464115039578518 1:-0.611307 2:0.326087 3:-0.410354 4:-0.598854 5:-0.33996 6:0.540373 7:0.158011 8:-0.59882 9:-0.847262 10:-0.130129 11:-0.789313 12:0.173098 13:-0.727119 14:-0.755915 15:-0.612989 16:-0.679057 17:-0.912904 18:0.0333817 19:-0.186061 20:-0.297762 
512 1:-0.924617 2:-0.919565 3:-0.967172 4:-0.936963 5:-0.916501 6:-0.930435 7:-0.931492 8:-0.941003 9:-0.976945 10:-0.969519 11:-0.964885 12:-0.964719 13:-0.986441 14:-0.986716 15:-0.949636 16:-0.980054 17:-0.991034 18:-0.921626 19:-0.985065 20:-0.889845 
512 1:-0.88457 2:-0.976087 3:-0.992424 4:-0.973257 5:-0.920477 6:-0.972671 7:-0.964641 8:-0.921337 9:-0.979827 10:-0.957796 11:-0.951145 12:-0.975744 13:-0.984746 14:-0.995849 15:-0.993373 16:-0.965549 17:-0.991034 18:-0.944848 19:-0.985065 20:-0.951807 
512 1:-0.898704 2:-0.921739 3:-0.968434 4:-0.887297 5:-0.912525 6:-0.960248 7:-0.960221 8:-0.960669 9:-0.973103 10:-0.878077 11:-0.938931 12:-0.953693 13:-0.964407 14:-0.989207 15:-0.96554 16:-0.925657 17:-0.992315 18:-0.898403 19:-0.962663 20:-0.900172 
512 1:-0.912839 2:-0.776087 3:-0.869949 4:-0.747851 5:-0.729622 6:-0.863354 7:-0.814365 8:-0.891839 9:-0.874159 10:-0.68347 11:-0.798473 12:-0.803749 13:-0.850847 14:-0.92445 15:-0.880716 16:-0.762466 17:-0.948767 18:-0.77939 19:-0.865588 20:-0.920826 
512 1:-0.943463 2:-0.908696 3:-0.972222 4:-0.917861 5:-0.82505 6:-0.92795 7:-0.909392 8:-0.893805 9:-0.93756 10:-0.812427 11:-0.934351 12:-0.953693 13:-0.901695 14:-0.976754 15:-0.956262 16:-0.907525 17:-0.977586 18:-0.901306 19:-0.934039 20:-0.900172 
271.2117803806669 1:-0.926973 2:-0.878261 3:-0.962121 4:-0.969436 5:-0.904573 6:-0.855901 7:-0.874033 8:-0.935103 9:-0.973103 10:-0.941383 11:-0.945038 12:-0.878721 13:-0.959322 14:-0.966791 15:-0.925779 16:-0.954669 17:-0.980147 18:-0.895501 19:-0.966397 20:-0.810671 
505.1099558414419 1:-0.926973 2:-0.878261 3:-0.962121 4:-0.969436 5:-0.904573 6:-0.855901 7:-0.874033 8:-0.935103 9:-0.973103 10:-0.941383 11:-0.945038 12:-0.878721 13:-0.959322 14:-0.966791 15:-0.925779 16:-0.954669 17:-0.980147 18:-0.895501 19:-0.966397 20:-0.810671 
512 1:-0.936396 2:-0.869565 3:-0.948232 4:-0.864374 5:-0.956262 6:-0.875776 7:-0.918232 8:-0.93117 9:-0.982709 10:-0.882767 11:-0.948092 12:-0.878721 13:-0.971186 14:-0.983396 15:-0.932406 16:-0.918404 17:-0.989753 18:-0.86357 19:-0.935283 20:-0.907057 
512 1:-0.870436 2:-0.936957 3:-0.953283 4:-0.894938 5:-0.940358 6:-0.920497 7:-0.924862 8:-0.903638 9:-0.9683 10:-0.917937 11:-0.970992 12:-0.907387 13:-0.967797 14:-0.980075 15:-0.952286 16:-0.972801 17:-0.985271 18:-0.962264 19:-0.902925 20:-0.938038 
0.0579250969070476 1:-0.959953 2:-0.243478 3:-0.393939 4:0.268386 5:-0.248509 6:-0.57764 7:-0.339227 8:-0.783677 9:-0.782901 10:-0.2966 11:-0.361832 12:-0.334068 13:-0.633898 14:-0.749274 15:-0.762757 16:-0.173164 17:-0.727185 18:-0.222061 19:-0.270691 20:-0.831325 
512 1:-0.978799 2:-0.963043 3:-0.986111 4:-0.984718 5:-0.924453 6:-0.937888 7:-0.940331 8:-0.968535 9:-0.991354 10:-0.969519 11:-0.989313 12:-0.971334 13:-0.989831 14:-0.994188 15:-0.988072 16:-0.983681 17:-0.996158 18:-0.953556 19:-0.991288 20:-0.948365 
17.00464415618123 1:-0.957597 2:-0.869565 3:-0.944444 4:-0.833811 5:-0.888668 6:-0.945342 7:-0.878453 8:-0.954769 9:-0.824207 10:-0.831184 11:-0.644275 12:-0.900772 13:-0.828814 14:-0.96098 15:-0.977469 16:-0.720762 17:-0.95261 18:-0.907112 19:-0.924082 20:-0.95525 
-512 1:-0.889282 2:-0.932609 3:-0.97096 4:-0.986628 5:-0.928429 6:-0.937888 7:-0.907182 8:-0.952802 9:-0.987512 10:-0.953107 11:-0.967939 12:-0.984564 13:-0.984746 14:-0.984226 15:-0.917826 16:-0.969175 17:-0.995517 18:-0.907112 19:-0.982576 20:-0.858864 
-91.31563435906375 1:-0.891637 2:-0.928261 3:-0.993687 4:-0.99618 5:-0.944334 6:-0.942857 7:-0.931492 8:-0.984267 9:-0.997118 10:-0.988277 11:-0.983206 12:-0.988975 13:-0.991525 14:-0.99917 15:-0.994698 16:-0.980054 17:-0.998079 18:-0.939042 19:-0.983821 20:-0.996558 
-62.79670892644162 1:-0.550059 2:-0.769565 3:-0.897727 4:-0.873926 5:-0.745527 6:-0.83354 7:-0.730387 8:-0.74238 9:-0.874159 10:-0.774912 11:-0.798473 12:-0.944873 13:-0.876271 14:-0.902034 15:-0.875414 16:-0.802357 17:-0.951969 18:-0.770682 19:-0.925327 20:-0.583477 
-407.9243284672002 1:-0.908127 2:-0.915217 3:-0.949495 4:-0.961796 5:-0.940358 6:-0.937888 7:-0.911602 8:-0.962635 9:-0.96926 10:-0.875733 11:-0.954198 12:-0.922822 13:-0.977966 14:-0.945205 15:-0.904573 16:-0.94379 17:-0.969901 18:-0.910015 19:-0.977598 20:-0.900172 
-512 1:-0.997644 2:-0.765217 3:-0.892677 4:-0.663801 5:-0.697813 6:-0.818634 7:-0.803315 8:-0.941003 9:-0.956772 10:-0.810082 11:-0.871756 12:-0.801544 13:-0.942373 14:-0.912827 15:-0.945659 16:-0.880326 17:-0.946846 18:-0.791001 19:-0.868077 20:-0.938038 
-512 1:-0.623086 2:-0.754348 3:-0.881313 4:-0.82235 5:-0.72167 6:-0.76646 7:-0.796685 8:-0.765978 9:-0.933718 10:-0.770223 11:-0.873282 12:-0.814774 13:-0.90339 14:-0.92279 15:-0.834327 16:-0.853128 17:-0.946846 18:-0.732946 19:-0.905414 20:-0.686747 
-512 1:-0.912839 2:-0.915217 3:-0.958333 4:-0.921681 5:-0.880716 6:-0.945342 7:-0.946961 8:-0.946903 9:-0.961575 10:-0.913247 11:-0.935878 12:-0.949283 13:-0.949153 14:-0.954338 15:-0.928429 16:-0.934723 17:-0.983349 18:-0.88389 19:-0.968886 20:-0.903614 
-32.30370025883964 1:-0.865724 2:-0.619565 3:-0.806818 4:-0.74212 5:-0.554672 6:-0.592547 7:-0.650829 8:-0.791544 9:-0.90586 10:-0.697538 11:-0.8 12:-0.638368 13:-0.898305 14:-0.915318 15:-0.818423 16:-0.80961 17:-0.931476 18:-0.526851 19:-0.799627 20:-0.628227 
-512 1:-0.886926 2:-0.986957 3:-0.988636 4:-0.929322 5:-0.956262 6:-0.97764 7:-0.98674 8:-0.956735 9:-0.98463 10:-0.978898 11:-0.984733 12:-0.975744 13:-0.981356 14:-0.997509 15:-0.998675 16:-0.969175 17:-0.997438 18:-0.96807 19:-0.978843 20:-0.931153 
-143.8714187650028 1:-0.0176678 2:-0.836957 3:-0.929293 4:-0.965616 5:-0.749503 6:-0.823602 7:-0.834254 8:-0.677483 9:-0.898175 10:-0.847597 11:-0.815267 12:-0.891951 13:-0.910169 14:-0.919469 15:-0.878065 16:-0.844062 17:-0.957733 18:-0.79971 19:-0.943995 20:-0.628227 
-512 1:-0.656066 2:-0.934783 3:-0.936869 4:-0.894938 5:-0.833002 6:-0.922981 7:-0.911602 8:-0.885939 9:-0.98463 10:-0.934349 11:-0.960305 12:-0.907387 13:-0.971186 14:-0.969282 15:-0.941683 16:-0.94379 17:-0.990394 18:-0.866473 19:-0.902925 20:-0.786575 
-512 1:-0.893993 2:-0.917391 3:-0.97096 4:-0.923591 5:-0.868787 6:-0.925466 7:-0.920442 8:-0.93707 9:-0.93756 10:-0.892145 11:-0.920611 12:-0.947078 13:-0.945763 14:-0.971773 15:-0.945659 16:-0.925657 17:-0.985271 18:-0.88389 19:-0.980087 20:-0.944923 
-512 1:-0.71967 2:-0.791304 3:-0.92298 4:-0.82617 5:-0.709742 6:-0.845963 7:-0.796685 8:-0.777778 9:-0.912584 10:-0.78898 11:-0.833588 12:-0.878721 13:-0.884746 14:-0.96347 15:-0.933731 16:-0.849501 17:-0.961575 18:-0.756168 19:-0.920348 20:-0.669535 
-512 1:-0.908127 2:-0.893478 3:-0.965909 4:-0.900669 5:-0.868787 6:-0.945342 7:-0.916022 8:-0.948869 9:-0.977906 10:-0.882767 11:-0.943511 12:-0.922822 13:-0.950847 14:-0.994188 15:-0.972167 16:-0.93291 17:-0.988473 18:-0.895501 19:-0.94275 20:-0.817556 
-512 1:-0.941107 2:-0.865217 3:-0.969697 4:-0.91595 5:-0.833002 6:-0.873292 7:-0.880663 8:-0.899705 9:-0.949087 10:-0.880422 11:-0.917557 12:-0.940463 13:-0.959322 14:-0.971773 15:-0.923128 16:-0.920218 17:-0.959654 18:-0.834543 19:-0.95893 20:-0.827883 
-512 1:-0.863369 2:-0.902174 3:-0.92298 4:-0.688634 5:-0.833002 6:-0.900621 7:-0.938122 8:-0.921337 9:-0.926033 10:-0.798359 11:-0.856489 12:-0.880926 13:-0.89322 14:-0.909506 15:-0.907223 16:-0.796917 17:-0.915466 18:-0.869376 19:-0.912881 20:-0.94148 
-512 1:-0.714959 2:-0.819565 3:-0.893939 4:-0.839542 5:-0.785288 6:-0.756522 7:-0.781215 8:-0.86824 9:-0.975024 10:-0.913247 11:-0.883969 12:-0.788313 13:-0.949153 14:-0.944375 15:-0.919152 16:-0.878513 17:-0.96862 18:-0.770682 19:-0.815806 20:-0.79346 
-512 1:-0.922261 2:-0.86087 3:-0.911616 4:-0.780325 5:-0.809145 6:-0.90559 7:-0.854144 8:-0.913471 9:-0.974063 10:-0.812427 11:-0.928244 12:-0.900772 13:-0.940678 14:-0.981735 15:-0.957588 16:-0.900272 17:-0.98463 18:-0.886792 19:-0.900436 20:-0.679862 
-512 1:-0.809187 2:-0.756522 3:-0.848485 4:-0.847182 5:-0.801193 6:-0.71677 7:-0.701657 8:-0.815143 9:-0.884726 10:-0.821805 11:-0.770992 12:-0.737596 13:-0.862712 14:-0.869655 15:-0.79059 16:-0.75884 17:-0.925072 18:-0.680697 19:-0.876789 20:-0.686747 
-512 1:-0.63722 2:-0.834783 3:-0.938131 4:-0.988539 5:-0.928429 6:-0.850932 7:-0.838674 8:-0.893805 9:-0.98367 10:-0.962485 11:-0.963359 12:-0.925028 13:-0.967797 14:-0.951017 15:-0.889993 16:-0.952856 17:-0.993596 18:-0.889695 19:-0.970131 20:-0.731497 
-512 1:-0.955241 2:-0.88913 3:-0.959596 4:-0.900669 5:-0.89662 6:-0.910559 7:-0.924862 8:-0.907571 9:-0.956772 10:-0.920281 11:-0.922137 12:-0.874311 13:-0.957627 14:-0.951017 15:-0.981445 16:-0.903898 17:-0.960295 18:-0.869376 19:-0.948973 20:-0.900172 
-512 1:-0.717314 2:-0.915217 3:-0.972222 4:-0.959885 5:-0.833002 6:-0.942857 7:-0.929282 8:-0.864307 9:-0.938521 10:-0.89449 11:-0.903817 12:-0.969129 13:-0.920339 14:-0.978414 15:-0.953612 16:-0.923844 17:-0.979507 18:-0.927431 19:-0.976353 20:-0.77969 
-512 1:-0.882214 2:-0.943478 3:-0.953283 4:-0.978988 5:-0.932406 6:-0.942857 7:-0.935912 8:-0.93117 9:-0.970221 10:-0.957796 11:-0.931298 12:-0.953693 13:-0.974576 14:-0.947696 15:-0.969516 16:-0.925657 17:-0.970541 18:-0.941945 19:-0.973864 20:-0.920826 
-512 1:-0.837456 2:-0.878261 3:-0.936869 4:-0.927412 5:-0.860835 6:-0.90559 7:-0.867403 8:-0.880039 9:-0.932757 10:-0.908558 11:-0.862595 12:-0.918412 13:-0.933898 14:-0.935243 15:-0.933731 16:-0.853128 17:-0.959014 18:-0.872279 19:-0.94275 20:-0.731497 
-189.0206350290831 1:-0.639576 2:-0.78913 3:-0.877525 4:-0.835721 5:-0.765408 6:-0.836025 7:-0.787845 8:-0.783677 9:-0.881844 10:-0.854631 11:-0.835115 12:-0.825799 13:-0.9 14:-0.892071 15:-0.867462 16:-0.829556 17:-0.93724 18:-0.764877 19:-0.851898 20:-0.728055 
-138.3570167520534 1:-0.750294 2:-0.891304 3:-0.929293 4:-0.944604 5:-0.864811 6:-0.908075 7:-0.858564 8:-0.94297 9:-0.960615 10:-0.89449 11:-0.908397 12:-0.929438 13:-0.959322 14:-0.92279 15:-0.836978 16:-0.902085 17:-0.944925 18:-0.869376 19:-0.930305 20:-0.845095 
-74.70986005381964 1:-0.689046 2:-0.565217 3:-0.699495 4:-0.440306 5:-0.594433 6:-0.756522 7:-0.60221 8:-0.575221 9:-0.744476 10:-0.320047 11:-0.679389 12:-0.589857 13:-0.689831 14:-0.781652 15:-0.803844 16:-0.682684 17:-0.789946 18:-0.677794 19:-0.614188 20:-0.693632 
-512 1:-0.941107 2:-0.973913 3:-0.955808 4:-0.954155 5:-0.964215 6:-0.965217 7:-0.98232 8:-0.980334 9:-0.978866 10:-0.939039 11:-0.954198 12:-0.947078 13:-0.986441 14:-0.970112 15:-0.952286 16:-0.941976 17:-0.98463 18:-0.944848 19:-0.966397 20:-0.913941 
-5.960713933474335 1:-0.780919 2:0.134783 3:-0.513889 4:-0.30277 5:0.0497018 6:-0.0111801 7:0.116022 8:-0.516224 9:-0.795389 10:-0.245018 11:-0.656489 12:-0.144432 13:-0.708475 14:-0.870486 15:-0.737575 16:-0.575703 17:-0.90586 18:0.0362845 19:-0.34163 20:-0.318417 
-512 1:-0.896349 2:-0.954348 3:-0.983586 4:-0.99809 5:-0.940358 6:-0.957764 7:-0.958011 8:-0.915438 9:-0.999039 10:-0.976553 11:-0.984733 12:-0.988975 13:-1 14:-0.990868 15:-0.993373 16:-0.972801 17:-0.994236 18:-0.950653 19:-0.987554 20:-0.920826 
-106.4896423536207 1:-0.957597 2:-0.978261 3:-0.991162 4:-0.956065 5:-0.908549 6:-0.990062 7:-0.971271 8:-0.950836 9:-0.985591 10:-0.903869 11:-0.975573 12:-0.98677 13:-0.979661 14:-0.992528 15:-0.992048 16:-0.970988 17:-0.996158 18:-0.959361 19:-0.995022 20:-0.989673 
-108.2459874923976 1:-0.926973 2:-0.745652 3:-0.890152 4:-0.921681 5:-0.952286 6:-0.915528 7:-0.814365 8:-0.939036 9:-0.942363 10:-0.948417 11:-0.867176 12:-0.629548 13:-0.944068 14:-0.882939 15:-0.891319 16:-0.891206 17:-0.934038 18:-0.924528 19:-0.836963 20:-0.824441 
-7.608326308459731 1:-0.590106 2:-0.665217 3:-0.84596 4:-0.902579 5:-0.745527 6:-0.597516 7:-0.624309 8:-0.826942 9:-0.881844 10:-0.760844 11:-0.842748 12:-0.757442 13:-0.918644 14:-0.73765 15:-0.467197 16:-0.867634 17:-0.92123 18:-0.698113 19:-0.729932 20:-0.57315 
-512 1:-0.813899 2:-0.965217 3:-0.978535 4:-0.965616 5:-0.856859 6:-0.937888 7:-0.951381 8:-0.860374 9:-0.941402 10:-0.903869 11:-0.948092 12:-0.949283 13:-0.957627 14:-0.968452 15:-0.933731 16:-0.956482 17:-0.982069 18:-0.921626 19:-0.98631 20:-0.77969 
-96.50303871485018 1:-0.6702 2:-0.682609 3:-0.819444 4:-0.415473 5:-0.614314 6:-0.806211 7:-0.741436 8:-0.80531 9:-0.889529 10:-0.692849 11:-0.687023 12:-0.633958 13:-0.828814 14:-0.899543 15:-0.883366 16:-0.646419 17:-0.870637 18:-0.71553 19:-0.726198 20:-0.683305 
-7.0125535977979 1:-0.78563 2:-0.334783 3:-0.638889 4:-0.455587 5:-0.371769 6:0.140373 7:-0.343646 8:-0.821042 9:-0.95389 10:-0.531067 11:-0.821374 12:0.047409 13:-0.90339 14:-0.907015 15:-0.593108 16:-0.751587 17:-0.923791 18:-0.175617 19:-0.413815 20:-0.518072 
-264.9209929503183 1:-0.63722 2:-0.928261 3:-0.973485 4:-0.973257 5:-0.789264 6:-0.940373 7:-0.911602 8:-0.905605 9:-0.970221 10:-0.950762 11:-0.941985 12:-0.931643 13:-0.974576 14:-0.984226 15:-0.960239 16:-0.960109 17:-0.987832 18:-0.924528 19:-0.977598 20:-0.783133 
-512 1:-0.903416 2:-0.797826 3:-0.891414 4:-0.717287 5:-0.821074 6:-0.880745 7:-0.823204 8:-0.915438 9:-0.946206 10:-0.793669 11:-0.848855 12:-0.828004 13:-0.927119 14:-0.950187 15:-0.933731 16:-0.842248 17:-0.966058 18:-0.834543 19:-0.792159 20:-0.862306 
-512 1:-0.908127 2:-0.902174 3:-0.973485 4:-0.870105 5:-0.916501 6:-0.888199 7:-0.911602 8:-0.891839 9:-0.951009 10:-0.899179 11:-0.905344 12:-0.883131 13:-0.962712 14:-0.982565 15:-0.958913 16:-0.912965 17:-0.982069 18:-0.898403 19:-0.948973 20:-0.814114 
-512 1:-0.945819 2:-0.965217 3:-0.977273 4:-0.986628 5:-0.964215 6:-0.970186 7:-0.966851 8:-0.968535 9:-0.987512 10:-0.950762 11:-0.967939 12:-0.971334 13:-0.989831 14:-0.984226 15:-0.952286 16:-0.972801 17:-0.989753 18:-0.973875 19:-0.975109 20:-0.924269 
-124.230263329424 1:-0.222615 2:-0.893478 3:-0.92803 4:-0.845272 5:-0.833002 6:-0.925466 7:-0.871823 8:-0.781711 9:-0.955812 10:-0.901524 11:-0.920611 12:-0.898567 13:-0.938983 14:-0.960149 15:-0.936382 16:-0.900272 17:-0.977586 18:-0.895501 19:-0.904169 20:-0.638554 
-137.0731367132795 1:-0.578327 2:-0.734783 3:-0.786616 4:-0.690544 5:-0.654076 6:-0.865839 7:-0.752486 8:-0.590954 9:-0.799232 10:-0.634232 11:-0.789313 12:-0.865491 13:-0.767797 14:-0.838937 15:-0.839629 16:-0.771532 17:-0.816843 18:-0.74746 19:-0.804605 20:-0.628227 
-512 1:-0.698469 2:-0.830435 3:-0.906566 4:-0.879656 5:-0.650099 6:-0.865839 7:-0.854144 8:-0.773845 9:-0.909702 10:-0.805393 11:-0.836641 12:-0.887541 13:-0.866102 14:-0.905355 15:-0.887343 16:-0.856754 17:-0.949408 18:-0.77939 19:-0.919104 20:-0.628227 
-512 1:-0.877503 2:-0.921739 3:-0.958333 4:-0.847182 5:-0.920477 6:-0.908075 7:-0.953591 8:-0.941003 9:-0.960615 10:-0.901524 11:-0.925191 12:-0.916207 13:-0.952542 14:-0.977584 15:-0.968191 16:-0.940163 17:-0.978866 18:-0.939042 19:-0.911637 20:-0.89673 
-163.0749280879386 1:-0.613663 2:-0.626087 3:-0.82702 4:-0.702006 5:-0.538767 6:-0.719255 7:-0.675138 8:-0.746313 9:-0.92123 10:-0.657679 11:-0.767939 12:-0.794928 13:-0.9 14:-0.881279 15:-0.79059 16:-0.767906 17:-0.933397 18:-0.503628 19:-0.855632 20:-0.462995 
-234.184011369623 1:-0.936396 2:-0.984783 3:-0.986111 4:-0.973257 5:-0.944334 6:-0.97764 7:-0.962431 8:-0.966568 9:-0.986551 10:-0.967175 11:-0.983206 12:-0.969129 13:-0.979661 14:-0.994188 15:-0.988072 16:-0.978241 17:-0.991675 18:-0.921626 19:-0.990044 20:-0.965577 
-512 1:-0.879859 2:-0.813043 3:-0.905303 4:-0.91404 5:-0.817097 6:-0.843478 7:-0.820994 8:-0.86824 9:-0.955812 10:-0.828839 11:-0.887023 12:-0.883131 13:-0.937288 14:-0.955998 15:-0.915176 16:-0.869447 17:-0.971182 18:-0.820029 19:-0.873055 20:-0.869191 
-512 1:-0.861013 2:-0.926087 3:-0.967172 4:-0.961796 5:-0.880716 6:-0.935404 7:-0.946961 8:-0.929204 9:-0.948127 10:-0.901524 11:-0.890076 12:-0.920617 13:-0.938983 14:-0.986716 15:-0.958913 16:-0.918404 17:-0.96798 18:-0.921626 19:-0.960174 20:-0.879518 
-512 1:-0.971731 2:-0.967391 3:-0.987374 4:-0.973257 5:-0.924453 6:-0.960248 7:-0.98232 8:-0.960669 9:-0.990394 10:-0.974209 11:-0.981679 12:-0.980154 13:-0.99322 14:-0.990037 15:-0.985421 16:-0.983681 17:-0.99936 18:-0.953556 19:-0.996266 20:-0.948365 
-512 1:-0.936396 2:-0.869565 3:-0.967172 4:-0.866285 5:-0.87674 6:-0.940373 7:-0.893923 8:-0.897738 9:-0.95389 10:-0.903869 11:-0.912977 12:-0.927233 13:-0.966102 14:-0.989207 15:-0.974818 16:-0.918404 17:-0.990394 18:-0.910015 19:-0.937772 20:-0.927711 
-422.8916889646296 1:-0.804476 2:-0.647826 3:-0.859848 4:-0.807068 5:-0.717694 6:-0.781366 7:-0.666298 8:-0.787611 9:-0.814601 10:-0.71864 11:-0.79084 12:-0.783903 13:-0.813559 14:-0.930262 15:-0.899271 16:-0.760653 17:-0.951969 18:-0.756168 19:-0.778469 20:-0.783133 
-235.1541443381388 1:-0.891637 2:-0.93913 3:-0.931818 4:-0.969436 5:-0.928429 6:-0.930435 7:-0.940331 8:-0.93707 9:-0.963497 10:-0.96483 11:-0.948092 12:-0.953693 13:-0.988136 14:-0.931092 15:-0.935056 16:-0.954669 17:-0.959014 18:-0.933237 19:-0.962663 20:-0.827883 
-175.9164895766762 1:-0.73616 2:-0.797826 3:-0.900253 4:-0.862464 5:-0.749503 6:-0.793789 7:-0.838674 8:-0.803343 9:-0.916427 10:-0.878077 11:-0.796947 12:-0.898567 13:-0.916949 14:-0.918638 15:-0.89662 16:-0.840435 17:-0.951969 18:-0.805515 19:-0.890479 20:-0.614458 
-10.88933608092561 1:-0.853946 2:-0.21087 3:-0.623737 4:-0.276027 5:-0.411531 6:-0.122981 7:-0.352486 8:-0.797443 9:-0.810759 10:-0.179367 11:-0.59084 12:-0.124587 13:-0.677966 14:-0.88792 15:-0.642147 16:-0.512239 17:-0.916747 18:-0.317852 19:-0.308027 20:-0.690189 
-512 1:-0.865724 2:-0.921739 3:-0.950758 4:-0.971347 5:-0.952286 6:-0.880745 7:-0.896133 8:-0.941003 9:-0.974063 10:-0.960141 11:-0.938931 12:-0.942668 13:-0.969492 14:-0.941885 15:-0.87674 16:-0.965549 17:-0.975024 18:-0.91582 19:-0.950218 20:-0.827883 
-512 1:-0.806832 2:-0.897826 3:-0.969697 4:-0.956065 5:-0.960239 6:-0.925466 7:-0.891713 8:-0.909538 9:-0.96926 10:-0.960141 11:-0.964885 12:-0.938258 13:-0.959322 14:-0.974263 15:-0.962889 16:-0.961922 17:-0.982709 18:-0.939042 19:-0.946484 20:-0.876076 
-3.645919281686683 1:0.104829 2:1 3:-0.0416667 4:0.457498 5:0.610338 6:1 7:1 8:-0.172075 9:-0.392891 10:1 11:-0.0778626 12:0.764057 13:-0.145763 14:-0.437111 15:0.119947 16:0.0281052 17:-0.588857 18:1 19:0.280647 20:0.679862 
-512 1:-0.931684 2:-0.947826 3:-0.967172 4:-0.893028 5:-0.964215 6:-0.940373 7:-0.940331 8:-0.93707 9:-0.981748 10:-0.913247 11:-0.949618 12:-0.960309 13:-0.974576 14:-0.981735 15:-0.961564 16:-0.94379 17:-0.985911 18:-0.904209 19:-0.937772 20:-0.89673 
-512 1:-0.8351 2:-0.817391 3:-0.933081 4:-0.933142 5:-0.817097 6:-0.88323 7:-0.871823 8:-0.86234 9:-0.964457 10:-0.835873 11:-0.949618 12:-0.830209 13:-0.945763 14:-0.952677 15:-0.899271 16:-0.936537 17:-0.978226 18:-0.79971 19:-0.951462 20:-0.831325 
-512 1:-0.797409 2:-0.843478 3:-0.921717 4:-0.977077 5:-0.813121 6:-0.76646 7:-0.843094 8:-0.852507 9:-0.974063 10:-0.910903 11:-0.952672 12:-0.850055 13:-0.972881 14:-0.954338 15:-0.91385 16:-0.94379 17:-0.980788 18:-0.782293 19:-0.917859 20:-0.73494 
-16.46860788153301 1:-0.76914 2:-0.376087 3:-0.825758 4:-0.501433 5:-0.502982 6:-0.634783 7:-0.436464 8:-0.653884 9:-0.838617 10:-0.453693 11:-0.734351 12:-0.583241 13:-0.8 14:-0.911997 15:-0.903247 16:-0.684497 17:-0.940442 18:-0.474601 19:-0.682638 20:-0.549053 
-4.734650959746074 1:-0.408716 2:0.232609 3:-0.170455 4:-0.12894 5:0.248509 6:0.413665 7:0.104972 8:-0.533923 9:-0.645533 10:-0.19578 11:-0.381679 12:0.23043 13:-0.540678 14:-0.555002 15:-0.0550033 16:-0.267452 17:-0.674031 18:0.236575 19:-0.0416926 20:0.0292599 
-512 1:-0.773852 2:-0.945652 3:-0.972222 4:-0.982808 5:-0.952286 6:-0.930435 7:-0.938122 8:-0.923304 9:-0.973103 10:-0.955451 11:-0.954198 12:-0.964719 13:-0.969492 14:-0.960149 15:-0.904573 16:-0.940163 17:-0.98399 18:-0.921626 19:-0.962663 20:-0.783133 
-512 1:-0.889282 2:-0.780435 3:-0.89899 4:-0.787966 5:-0.725646 6:-0.840994 7:-0.812155 8:-0.840708 9:-0.938521 10:-0.75381 11:-0.867176 12:-0.801544 13:-0.877966 14:-0.950187 15:-0.924453 16:-0.833182 17:-0.966699 18:-0.773585 19:-0.912881 20:-0.872633 
-512 1:-0.825677 2:-0.941304 3:-0.965909 4:-0.923591 5:-0.801193 6:-0.942857 7:-0.922652 8:-0.919371 9:-0.972142 10:-0.906213 11:-0.945038 12:-0.947078 13:-0.964407 14:-0.980075 15:-0.966865 16:-0.934723 17:-0.985271 18:-0.880987 19:-0.968886 20:-0.893287 
-512 1:-0.919906 2:-0.96087 3:-0.983586 4:-0.992359 5:-0.944334 6:-0.967702 7:-0.973481 8:-0.970501 9:-0.98367 10:-0.955451 11:-0.981679 12:-0.984564 13:-0.979661 14:-0.990868 15:-0.968191 16:-0.985494 17:-0.991675 18:-0.965167 19:-0.991288 20:-0.917384 
-512 1:-0.936396 2:-0.865217 3:-0.965909 4:-0.950334 5:-0.809145 6:-0.915528 7:-0.865193 8:-0.919371 9:-0.963497 10:-0.922626 11:-0.929771 12:-0.964719 13:-0.950847 14:-0.982565 15:-0.962889 16:-0.920218 17:-0.987832 18:-0.79971 19:-0.956441 20:-0.869191 
-512 1:-0.710247 2:-0.9 3:-0.982323 4:-0.994269 5:-0.908549 6:-0.947826 7:-0.918232 8:-0.830875 9:-0.963497 10:-0.983587 11:-0.919084 12:-0.949283 13:-0.959322 14:-0.959319 15:-0.984095 16:-0.93291 17:-0.96798 18:-0.924528 19:-0.978843 20:-0.862306 
-4.288037174681926 1:-0.762073 2:0.167391 3:-0.128788 4:1 5:0.447316 6:0.157764 7:-0.0276243 8:-0.610619 9:-0.722382 10:0.749121 11:-0.325191 12:0.466373 13:-0.569492 14:-0.587381 15:-0.0351226 16:-0.0679964 17:-0.722703 18:0.561684 19:0.00808961 20:-0.335628 
-512 1:-0.910483 2:-0.876087 3:-0.929293 4:-0.936963 5:-0.868787 6:-0.937888 7:-0.867403 8:-0.864307 9:-0.974063 10:-0.948417 11:-0.923664 12:-0.889746 13:-0.972881 14:-0.951017 15:-0.958913 16:-0.925657 17:-0.959014 18:-0.878084 19:-0.921593 20:-0.817556 
-3.983659751982742 1:1 2:0.382609 3:-0.236111 4:0.310411 5:0.785288 6:0.197516 7:0.246409 8:1 9:-0.0201729 10:0.849941 11:0.059542 12:0.600882 13:-0.0508475 14:-0.388958 15:-0.25381 16:0.0988214 17:-0.3122 18:0.468795 19:-0.22962 20:0.686747 
